{
  "network": {
    "layers": [
      {
        "weights": [
          [
            10.867828010562013,
            -6.59042043930888,
            4.35837592846533,
            -10.133590745299193,
            6.8648796945106145,
            -13.40570096759628,
            2.1855985765841544,
            -3.5039933619091195,
            5.284687468430467,
            -1.4720966742349901,
            2.4357988356402913,
            0.10440464162811519,
            -12.221076174395913,
            -19.012793468003892,
            -7.449744692885354,
            -9.037737961603646,
            1.8162687039907144,
            9.27860831319642,
            -1.3307746719345,
            10.982107321662532,
            8.59964602680954,
            1.1764609088227607,
            2.189427832622313,
            -0.7757130564698416,
            6.189771219064266,
            16.99522143515525,
            7.791789404360264,
            -8.470709996505573
          ],
          [
            -3.41508430846734,
            9.308096465867875,
            -7.962731108738561,
            -4.480892984197479,
            5.432103262275181,
            6.242131412809263,
            -9.237795932129314,
            9.131207407002712,
            8.917009948911963,
            1.824084803893383,
            1.4773730624904795,
            -1.5824644239576735,
            -17.61786056016306,
            -4.295842534119849,
            7.003297025290015,
            -0.18996854322998302,
            -12.381499092065194,
            -0.2894675715003025,
            -0.25803893122746746,
            -23.541437291139868,
            0.10031696599199191,
            13.668984224236482,
            -15.685544270126138,
            -1.102814446646165,
            -2.089868070061133,
            -11.164353490163576,
            7.698749592788529,
            -1.0710799056652631
          ],
          [
            0.503393187132572,
            16.15655613020477,
            -4.489712335409711,
            3.759904906559031,
            -7.553231914574065,
            8.620047783635433,
            15.22035297427147,
            -9.29626423522685,
            -5.188057436302196,
            10.887713981422454,
            1.3543047817618572,
            7.301062289076942,
            12.961593494705058,
            12.787462881738067,
            0.017307401335070964,
            -2.464842985901481,
            -13.55124101805128,
            -5.663842108032485,
            -3.022905871592012,
            10.644881867510367,
            11.018007484737641,
            8.527811688217719,
            -20.82015949458212,
            -9.16974126258827,
            -0.28697781472965145,
            -8.048528970562877,
            -9.162578214666263,
            -11.870407672625767
          ],
          [
            -4.140875469907101,
            -10.159438989585567,
            -9.668527847418233,
            0.5568545221444134,
            -1.892513837472971,
            -15.736847768690101,
            6.819953883170207,
            -0.4935430747921416,
            2.572702887213477,
            -3.774247806522954,
            5.056169514309526,
            4.787321100741632,
            -0.04556858095555982,
            -1.2077532718989685,
            3.26760197872114,
            7.421736494425775,
            2.1563221667557455,
            -7.645488211817412,
            2.894364517408389,
            17.048003352547113,
            5.838329324880196,
            1.6906567797100274,
            -0.49677765924581024,
            11.960084206487734,
            2.769125122706252,
            3.5254093540086937,
            -11.353959672702473,
            3.8753776354912723
          ],
          [
            24.639293118792754,
            0.013228848086355438,
            2.500482715041656,
            -23.80303057035066,
            2.256312656269636,
            -9.970180961689454,
            6.758295616249596,
            17.15822821651373,
            0.10996069690607779,
            -1.5411691963338625,
            -7.862123517422036,
            -20.252743211064526,
            -1.864612389664301,
            -6.561268483900866,
            -2.5570233615421647,
            7.931155451285962,
            -19.561034732569755,
            3.3857227791610494,
            -23.451629779505996,
            15.128592987230274,
            7.452703001024535,
            -6.317115718244295,
            19.017634749697688,
            -8.50436791009,
            3.0137067134895728,
            2.816939341556433,
            -25.702128154101228,
            -6.202426561411902
          ],
          [
            -1.7698894149874809,
            3.699541705440879,
            9.265469669990647,
            11.360801975639221,
            4.020557721285473,
            -2.2175289315172653,
            -1.433855690808575,
            -1.4722072869888387,
            -10.939995392740073,
            -4.916051357901754,
            -16.66655304813243,
            -2.245339138367133,
            -3.6048743058805144,
            -6.599774789926561,
            0.15337270344874324,
            -3.7175290145046795,
            -16.680940820225732,
            -5.846458099292629,
            9.905785107083192,
            -0.284582732085105,
            7.50843808625107,
            -0.7996024927251946,
            11.050449644023045,
            -2.1230838003261674,
            -3.7755900358819434,
            0.02911255156730691,
            -7.653162288290159,
            -8.953736252666685
          ],
          [
            8.720027304410703,
            -5.987196085937779,
            -5.8443647170193405,
            -1.709436143058587,
            -5.739813800658672,
            1.2414406106993887,
            6.019906507951325,
            -8.106471968583222,
            -0.18673483392868695,
            6.933245578578881,
            0.37553976602028516,
            2.636419219200901,
            3.7432259402257615,
            -7.1340708594692845,
            1.5641416946852187,
            20.708921280551333,
            -4.094953590981946,
            -14.025947596611475,
            9.971947672784577,
            -4.823695114118325,
            6.234707117707244,
            -8.08682328749661,
            -8.863328988016013,
            5.028192989456338,
            0.9211489934464041,
            6.189253031791245,
            0.35035660378015954,
            -9.024070947436915
          ],
          [
            -7.196396632173079,
            -0.2944414262436986,
            11.30246420970136,
            -0.044066303018284986,
            2.133198353739897,
            -12.248129248994289,
            -2.8388398752261588,
            -13.947023753495722,
            1.6447734621702013,
            3.9093697278564807,
            -1.3309607931385266,
            2.7779129413316115,
            0.6716396280182757,
            -4.065063212808893,
            -0.11754670300063363,
            2.3954744872425127,
            1.5016102234669038,
            4.409233174109786,
            8.42434261927639,
            8.253445661503678,
            6.602119716019276,
            -3.7215557977490117,
            -4.881862011857705,
            -0.7906925194909658,
            0.5865226206624053,
            8.791018915536402,
            -0.40315190138559853,
            -0.7622835508211352
          ],
          [
            15.645729133147453,
            2.691671539003352,
            7.322859815644822,
            11.994048823964771,
            4.043157987608912,
            -9.403109149860887,
            7.964940936673401,
            -2.107926568028727,
            4.3981106918224535,
            0.7801212918128866,
            4.952387024311608,
            -11.853391375108409,
            -15.43616487773246,
            -19.547911610088484,
            -3.704023491674034,
            -17.3161098676419,
            2.055180515065988,
            19.695622975887733,
            2.4759703422946027,
            8.210354852389509,
            2.669481861429861,
            12.171717823738588,
            5.190809606838323,
            5.283479449896171,
            8.3133683431346,
            0.19346937605269782,
            -1.3679984659082183,
            12.263598540418263
          ],
          [
            -8.318814387073381,
            0.8067954163286996,
            1.8848920397841988,
            0.4641228088381653,
            0.38317769122560535,
            1.1655160528621737,
            -7.039615978005499,
            -0.4920621787810458,
            -4.479182885044465,
            19.026286373649825,
            -2.659895274185807,
            -7.685243832638326,
            2.608090690872979,
            -8.796665542819811,
            4.083595202589807,
            -5.37432586811907,
            -4.172901179805838,
            8.329123318714892,
            2.3427998821065223,
            -2.5366526783562784,
            2.757840524670308,
            8.440374138738258,
            -12.224872944009169,
            10.56768745496049,
            2.10846147500319,
            1.1424118253583957,
            -1.8856013608940712,
            0.9414089448221998
          ],
          [
            -4.155104415902629,
            23.816341283462066,
            16.109975518903667,
            8.075726174597602,
            -11.086246519194866,
            -3.4535147640049395,
            -3.381944500784516,
            -1.2135036103429893,
            13.314742494286014,
            1.4708930983785633,
            1.3856625022237723,
            -13.131379428011472,
            -15.515406295334039,
            5.5289508066388,
            -1.3314215860413015,
            1.2018352796449068,
            -3.0482140287238386,
            -10.849033559457249,
            14.207998010550138,
            -2.9881962628262926,
            -8.518610420928105,
            9.342133307158617,
            -14.788990337489743,
            -6.031543297461738,
            5.660029458320186,
            -18.93853712930236,
            5.934367858886744,
            10.112720254459683
          ],
          [
            -4.285093776352007,
            6.353737465326248,
            -3.6307810208080284,
            1.0741477729734552,
            -7.4059349422842224,
            4.877431270475688,
            2.611313190553798,
            -12.497958745564041,
            -0.3670883015955911,
            4.017719599500419,
            8.52862206650773,
            5.38733240407915,
            -6.182092552291351,
            34.65924658882996,
            -12.321298307264563,
            8.793592270116903,
            28.59742152175809,
            12.703944497994872,
            -13.509407162440334,
            -0.2982830248667406,
            1.5370366360563452,
            21.197485665073568,
            0.3906867749261296,
            6.73641887756604,
            -7.844988517145699,
            6.015002344201232,
            7.034013718550451,
            6.859875448124397
          ],
          [
            7.524887703109564,
            0.46703548034803166,
            1.0637566182585696,
            8.025146567777918,
            -2.066862796782985,
            -7.153689438275439,
            -13.355349640833623,
            -0.5048322501846629,
            1.428624749642841,
            -4.419187242301016,
            11.943240915327708,
            6.428228939001682,
            7.436924840036815,
            -3.224833264199189,
            -0.6241446290302874,
            3.8179454002446556,
            10.203473377131596,
            -6.673413004711223,
            -0.7412997347198074,
            -19.49136061877873,
            -3.194638930948067,
            14.417671363564509,
            2.046055445001355,
            15.416998127480547,
            -5.242583745827209,
            15.753991548469527,
            -5.814073580763258,
            2.574432246143987
          ],
          [
            -16.6005834702334,
            7.554571907595523,
            5.456430650650161,
            5.656754137107489,
            -0.9153983998812987,
            6.082538798433556,
            1.7434673654080217,
            6.6734721560961745,
            -3.048772171371916,
            -1.5779893206676008,
            7.94491354197792,
            -7.39390114608615,
            -6.860283921245406,
            8.539981290892474,
            -21.35899408361985,
            5.154721790191393,
            10.498402961091653,
            -0.6354239565674276,
            5.320890566551897,
            -6.837192401180942,
            11.42327928751957,
            -11.150460132026236,
            -1.7965247976982217,
            -3.24749250539689,
            -12.254078995318045,
            4.2673343696582,
            9.88459823113007,
            -0.0787589387845429
          ],
          [
            4.621169280177379,
            9.345134900914358,
            22.804131107555186,
            3.654291187566768,
            2.128055902870664,
            6.918867234513492,
            -8.806558574148436,
            11.407576582932151,
            5.875990395296869,
            -10.581808768957593,
            1.032684547297449,
            12.48764889067833,
            -4.690529601363806,
            -0.6049776616653708,
            6.356280620055686,
            -7.485731877057264,
            -6.785530793045553,
            3.9965024847940045,
            -0.9947924544203124,
            4.537739468364034,
            -2.8638626856755174,
            2.365202367603175,
            -12.923278708803764,
            4.56428472500758,
            2.6226741914304,
            -8.266240633024022,
            -13.55612275436893,
            -15.890099417701038
          ],
          [
            6.50793804144828,
            -4.359723586393734,
            0.576900021479966,
            3.1425071490380474,
            4.243012809467638,
            12.370117850533285,
            8.55603789984444,
            -5.495973861646714,
            -22.313160213114582,
            -9.653476627946121,
            8.764267735064626,
            -8.911648205943306,
            9.795146943893414,
            -3.7841956567398465,
            -9.868638803635248,
            -16.65367890152499,
            7.776939838942997,
            -11.68726462340739,
            -7.493798761457565,
            -4.514863746716688,
            -0.819479399941412,
            -3.208503209477047,
            6.8960605100745545,
            3.731700400361724,
            -8.794180405299365,
            -6.329330039092626,
            4.730982478259483,
            -5.754627328596558
          ],
          [
            -11.239884961909153,
            -13.344473899848316,
            4.084777618817873,
            -6.520678537696396,
            -2.0711942338994085,
            0.2688497470564657,
            -15.93386903947394,
            6.470920445496785,
            -3.947464660196313,
            8.400147708934648,
            -5.958437695670737,
            13.819636224215962,
            -1.9837057036968213,
            -6.423037993899092,
            -7.513404703912039,
            -16.29101414013573,
            -3.333013764754685,
            11.45052192367469,
            -13.162056516086954,
            -7.807012713875784,
            7.667263192370119,
            -2.7474670765647864,
            5.390542473664955,
            -5.504164459993891,
            -2.3892164983987807,
            -19.78721931959946,
            6.925597890224272,
            -8.503741955884761
          ],
          [
            -6.377058986557163,
            -0.8648269277586993,
            4.495432584849868,
            -6.839281723117558,
            -1.3618541406056428,
            -0.6143489544376164,
            -17.191878369762232,
            -2.6805170040732844,
            0.9677957844848616,
            -13.593120284644982,
            3.4024465135840263,
            2.939495655379235,
            -5.859372771576122,
            -7.628740854517207,
            -14.916198114390113,
            9.528500982094327,
            11.331372057595695,
            9.050850345878176,
            19.175218327319147,
            -5.152754200846844,
            9.238006336411186,
            -1.6324759045519908,
            -0.22737038165854795,
            -3.8515171963633863,
            -13.976862312670374,
            -12.195932176796157,
            9.507428539828542,
            -0.5203768850145833
          ],
          [
            5.393494832513427,
            -6.682264503642829,
            7.981571057062233,
            7.759552085765889,
            11.287723902623416,
            -12.372309759950587,
            -1.4181205766938108,
            -13.41989571383246,
            -0.5275213252451545,
            -7.752928627255359,
            -10.373142793666151,
            -1.3575642385318805,
            -10.701396435237701,
            8.32286432417158,
            0.8853055657870107,
            4.159095379471049,
            -3.7934778797569297,
            1.9234752673110125,
            -0.5825781741003032,
            0.20513316947881016,
            0.29793995751022917,
            6.586069737003466,
            -4.545234524072535,
            2.188179091833522,
            -3.0978143295697342,
            9.549619056238098,
            9.777794601000837,
            -5.17534338064206
          ],
          [
            -7.76795043104634,
            0.208903481147104,
            6.75859214132377,
            -11.839494952746405,
            -0.08404767297117686,
            -7.047596422267189,
            2.503989525188615,
            -3.601825303363998,
            -7.321091020205687,
            -17.507126600419326,
            2.4498969106088344,
            -10.202698805987815,
            -8.598231898633276,
            0.9461434879952687,
            6.590846228545017,
            -17.907381905545048,
            -7.349817407613753,
            0.7584555045484105,
            9.127347925777723,
            -10.240594121606946,
            -5.546316279292441,
            -6.80376330870652,
            11.614506014344878,
            -9.631645809701054,
            -3.046340474101648,
            0.631317046459901,
            -6.796080960160239,
            -5.773697288010271
          ],
          [
            -4.107569993358692,
            -2.5297330562198224,
            2.673173305958296,
            0.04425258363965856,
            -15.054967577000726,
            -7.321521939754873,
            -5.308330366683203,
            -11.342796208657038,
            -9.443199886082851,
            -4.577982490975266,
            -7.3163097015803364,
            0.4760171669499925,
            -9.827129132614608,
            5.103589720997514,
            -1.2977560563335055,
            -0.8977857803572995,
            -2.6352327106758966,
            9.23104834679134,
            3.631866783313792,
            0.7327408198966201,
            -2.9310938701380365,
            14.554563647618282,
            8.39399182405638,
            2.6349113283588474,
            -19.323435459136363,
            -5.159873879699492,
            9.406182265268981,
            -11.07924062231223
          ],
          [
            3.049458059651111,
            -5.480531174668828,
            -0.6079739618413617,
            -16.213592016267043,
            3.920104942814151,
            -10.062971042728435,
            24.248883292769083,
            -5.932710828573293,
            11.450523540101326,
            0.27586830766356524,
            1.6274365936624096,
            13.787345973431675,
            1.75974993077348,
            -5.163879257066791,
            -8.046785779681697,
            2.2036094918235642,
            -14.980680155893143,
            0.07233753303912915,
            1.500473377969892,
            -6.8910547825553,
            0.15699087338568762,
            -7.057152088042846,
            -4.512101218242699,
            -8.78952573698924,
            -10.192821915155823,
            -1.9339787733137497,
            4.075197453227415,
            -7.273617465739758
          ],
          [
            -3.68614683492066,
            -4.706359544185085,
            -0.2576614976948934,
            -16.616347463112223,
            -2.255273899856888,
            7.7977385215094195,
            -8.63498066647506,
            -11.765122455836757,
            -6.134768812527493,
            5.7847602895336045,
            -3.6078438678238216,
            0.31609386225796277,
            -10.862055737136181,
            -7.469663134641353,
            5.836138456158842,
            1.325555468254155,
            -0.9159763085579904,
            -0.4687218975561321,
            -5.769503876575339,
            -1.855538025874883,
            -15.638195704267448,
            -14.535756686119585,
            11.480171159496596,
            2.385498502031369,
            -7.167322908267852,
            7.870291163756041,
            0.5961718911337859,
            5.44063255594174
          ],
          [
            17.953358221006614,
            4.142462250882794,
            -3.4115736549650935,
            2.3420389487560187,
            9.740816114381335,
            -6.121889847669468,
            -0.6532619572446847,
            5.113714213470338,
            -7.529645281163309,
            15.402397684009003,
            -3.6826476206805,
            20.95231238199492,
            0.13386969722907627,
            -24.58308286261397,
            -6.818146979386131,
            5.462295585814604,
            -2.16942355862275,
            -1.887877903219182,
            -4.4718589527488675,
            1.407019546369594,
            -8.27739917091672,
            -15.35869237849075,
            -3.4065006506141957,
            2.9325191573190614,
            -0.05184320679251464,
            10.705170300376013,
            6.007336726594824,
            -4.017978177809174
          ],
          [
            -1.2934567940520303,
            -3.5915218194481375,
            8.695268041485276,
            -7.471726782216924,
            -8.951763222918675,
            -7.303831257542214,
            -3.1556944795385644,
            14.00817487694635,
            -5.974308170038195,
            5.796973656214524,
            20.601884642456515,
            -0.7327672685240019,
            -7.575579531692199,
            1.2723700348246911,
            7.728002280684548,
            3.0949630480755532,
            -3.0854497703964068,
            -6.127009963213594,
            -1.2524191056166987,
            25.007994184241845,
            7.1201580354050495,
            -2.781955362384782,
            1.9677168088594892,
            -3.1873365862062304,
            -0.18641640341499166,
            7.453228255723917,
            4.680425049035434,
            -2.0308645951347026
          ],
          [
            -13.139612605751681,
            -9.620498035943118,
            -6.593423300250347,
            3.946287407931066,
            -1.251317496252903,
            -8.183620606109201,
            -6.711809961420051,
            -1.1681941867099688,
            -0.9983204742854553,
            2.776713794630137,
            -17.210794749438303,
            -4.494737149426533,
            13.950109335224436,
            -8.95892718284485,
            -0.2598587954438728,
            1.3956733401678385,
            4.2333102942699,
            11.320200438925745,
            -0.6996987991579369,
            5.283330846257923,
            2.2878113047583257,
            -10.591997401502766,
            18.594570982910632,
            -1.9057129538885809,
            -1.453107732670482,
            -4.811079659302726,
            -3.9849450957443713,
            0.5511762087214725
          ],
          [
            0.8335286359272458,
            6.913039496495129,
            -1.9666370200311505,
            2.7531488835190565,
            -9.608555593039254,
            11.326720487872645,
            2.373855847701705,
            8.771536943833453,
            -2.6009679545365243,
            -2.8724500129067425,
            -5.637067240611839,
            2.796197270867389,
            -14.15365289389261,
            14.131807464674367,
            -4.17783673124812,
            -8.15269037136593,
            -3.7188513268336836,
            -7.704306247205922,
            -13.375563726094597,
            -3.386008725154802,
            -0.7040203148478363,
            5.638474664463901,
            -20.847232140460836,
            4.942113010701254,
            2.9612156727868837,
            15.708405156098394,
            -1.0729603517647541,
            -1.3225121354560103
          ],
          [
            -2.802706638770693,
            -11.44904192072747,
            -2.4547347313862775,
            12.483470008040078,
            2.455070682210925,
            0.2203600583793685,
            6.666629548401595,
            -6.7730718734490996,
            -3.609743221062681,
            2.2480254329304845,
            -7.6516285955745404,
            -4.909130271338932,
            0.8754814824726909,
            3.729918330720454,
            6.7213957192983145,
            15.094854631383265,
            -11.87166210947776,
            3.1671133871696364,
            3.5687334496081453,
            -10.154603331248664,
            -2.892256373232775,
            4.346735044182709,
            -1.3673065179005883,
            5.652250379993169,
            -14.004204997164612,
            -6.342960754687855,
            -8.630420300118972,
            4.642756534629236
          ],
          [
            3.3333712215542084,
            -5.873138902529335,
            12.937143344020068,
            6.021123710576193,
            -7.589910707380149,
            3.8609650852962965,
            7.839470449823871,
            -2.698198610939081,
            4.275003785071832,
            -6.904876306162532,
            2.6128633781882376,
            -9.148951653088737,
            -16.64466006986428,
            4.392412289239409,
            4.230972086282839,
            9.676721507720687,
            9.110835283536558,
            -17.360560885473518,
            5.638928294161541,
            2.114826189845824,
            13.195841507962024,
            -10.59655841937246,
            1.4430137486297119,
            8.404127441016058,
            -9.820910689899089,
            -9.076253344444249,
            -8.233534997521595,
            -7.277735946228732
          ],
          [
            2.2281708710798185,
            0.031212932951972694,
            8.390783320263536,
            -1.0717865660727652,
            5.771429393969747,
            6.5057999787825995,
            -0.3151870263644038,
            3.293684134990729,
            -3.9785257577934843,
            11.360276437765629,
            0.19544375180125978,
            12.384796689422986,
            0.4482271392846678,
            -4.272476352300938,
            1.53905223646723,
            13.497798466238217,
            -16.944752698481217,
            -11.248567434213907,
            -7.0616345731064385,
            4.4292583198004225,
            -2.680775828757162,
            1.1731489305881426,
            1.9117260149138429,
            0.8465542984508815,
            -4.029238725343714,
            -5.703495817495931,
            4.11511819784172,
            -13.203282621127533
          ],
          [
            -8.640407164392483,
            -0.5547329309048588,
            -7.08065603396322,
            -0.6765025531850447,
            8.415546422809545,
            4.026980963140171,
            14.124618876631304,
            13.090617670094085,
            -15.391605744403165,
            14.23544555777283,
            -12.691106183825882,
            3.1468410557383915,
            0.6645329870823977,
            11.981267510069475,
            -2.1957348349995742,
            7.748057477676899,
            -13.484377039464722,
            -2.425993427756029,
            3.777543695600335,
            -15.50996736819001,
            8.471416136795227,
            -2.995666905894604,
            -0.07328813911870685,
            0.8923393650307594,
            16.70894191604715,
            1.9334265052825383,
            1.314282782943057,
            -9.056593519022586
          ],
          [
            8.122854800051972,
            4.096724840219469,
            2.0142586925872545,
            9.908415182183601,
            -4.710750963518183,
            4.223131118552027,
            -6.360291976682884,
            -11.461246265378131,
            -5.5666798817782395,
            1.019165049986629,
            5.014608526011409,
            -1.3623129162841199,
            -6.718499370363841,
            -17.26806941400874,
            -1.991982993842684,
            11.116835496356007,
            7.070095892335176,
            1.602570877364444,
            -0.7235889696746296,
            2.350210430747605,
            -1.6252846613872995,
            0.3018156345626143,
            2.9249114142756882,
            -4.412833295300441,
            7.124777869703152,
            -4.902728300857708,
            -6.593863055224629,
            -1.687117980739488
          ],
          [
            13.817876926739412,
            -8.98318600059796,
            8.548959103740595,
            -3.0559155355790284,
            6.19843456927808,
            -5.19724148568367,
            4.146754144458494,
            -2.745913450142643,
            -0.2177274012215487,
            -18.81740175144857,
            -6.195856760348115,
            -5.008610578879435,
            6.004599088702164,
            -2.2127132062358457,
            -6.619143603088113,
            7.343233082884649,
            1.7899226397203198,
            -8.188015493358991,
            1.4325497814369343,
            -0.7046557237559768,
            -1.7184381005850033,
            -2.9690190431465044,
            0.837891819930991,
            -0.3602432062689508,
            1.6709752944908018,
            22.018620859083487,
            3.7648192640630396,
            -0.574395040426315
          ],
          [
            -4.828467696494738,
            4.768945937800021,
            4.016370465408263,
            4.248699701837344,
            9.493307346523435,
            2.4906117004945245,
            -2.157720175228231,
            -21.649753030188457,
            -1.0050606360530159,
            0.07663035033881599,
            0.24773331964658443,
            3.5217723225617164,
            -3.4843182302228017,
            6.905289768899418,
            -0.4112129068640396,
            -6.827135683811452,
            0.21181370891879536,
            2.8662266386845374,
            -5.441188266993525,
            -15.287511928589645,
            0.18141156488880103,
            0.601830113686108,
            -15.890749567410104,
            3.982876514694555,
            -12.280052351054858,
            7.80297372968168,
            4.5235710198606895,
            0.48363993899217517
          ],
          [
            -1.7667387369259582,
            -14.0526180702469,
            -5.281518058954016,
            0.3725698260830045,
            0.09066953897848451,
            -5.836606586863243,
            0.5663166816459169,
            -10.924640036980067,
            2.7584825826910997,
            9.804591195738473,
            -4.702101153688624,
            -0.4814290010078076,
            -11.671891927399878,
            -2.664614993898734,
            11.764908214077671,
            -6.104982277944554,
            -12.547163501811715,
            -3.5494489924053783,
            -3.985687651000901,
            -2.0640778629600183,
            6.293655016657608,
            -5.257067452642394,
            8.360269272272385,
            -6.37440475445156,
            -4.5664539724171656,
            -8.641838844702052,
            7.7351048237463464,
            8.797190051276807
          ],
          [
            0.684913507596504,
            -4.616353084456058,
            2.4133964974184794,
            -2.0922768071030275,
            1.3699961728334227,
            7.724282166564638,
            -18.414119072235444,
            2.728135769133209,
            3.3289234618550267,
            5.502501457335059,
            5.740060161231765,
            2.4324351526226264,
            19.213656452864257,
            -5.207620756725954,
            4.629814075658927,
            9.979654840654934,
            6.869084996590841,
            5.458516718723889,
            8.211416341489084,
            -5.368784040526752,
            3.959951003795857,
            -0.00626472960288027,
            -8.701097753363719,
            -4.054574782176968,
            -3.0966675646943154,
            -5.747971073982611,
            -5.266675964466799,
            5.294514234522604
          ],
          [
            -9.475158049786794,
            8.41624449096975,
            -4.054204138767322,
            -5.019099836711138,
            -1.912185843588551,
            -7.223481771002734,
            9.599484991157365,
            -4.543625863786019,
            -3.8584777971425965,
            -16.429544240396975,
            -1.0290675086863834,
            -3.229929426443858,
            21.76498787884261,
            15.380937581872615,
            1.2451332369784014,
            -6.138434733100823,
            0.9124138045151007,
            10.085449185420105,
            9.366419821027039,
            -13.284726962214608,
            5.982342878533993,
            0.7221477693223055,
            -12.618558473747855,
            -4.652330526177417,
            -11.165800879735448,
            -5.898642931814681,
            -1.5975426863883584,
            -1.4742892928625362
          ],
          [
            12.10125933136737,
            0.021432372056853916,
            -7.2520950945000715,
            14.83866829740926,
            -13.145035671061475,
            14.33624587013217,
            -7.777446287907098,
            12.721001705706163,
            -15.057467675574033,
            -3.44894585443568,
            8.2407630956301,
            2.1027213952127863,
            19.84402850274766,
            -6.772267858921589,
            -2.8427607970540074,
            -13.084709771574651,
            10.587578321948245,
            5.071206703371149,
            5.057108059055131,
            -3.6477923086165824,
            1.4101795088261573,
            -4.710618374314152,
            5.7874154994097555,
            -2.1848156731444,
            15.077453256445514,
            17.234699458213747,
            0.31024346595339425,
            2.3311190558697095
          ],
          [
            6.05485115010604,
            -2.403205402719413,
            5.245896281592604,
            9.030815984835325,
            -8.296571682022794,
            -17.17858799886733,
            22.100972210953223,
            7.155568888361028,
            7.471889227599775,
            4.705785936768967,
            4.476210804703408,
            -24.092488668662295,
            -2.925593703755937,
            10.802401345434317,
            -1.8260507176988565,
            0.6785930927614195,
            14.01848756164263,
            -8.649750755567858,
            -4.2906782335291185,
            -4.776008661200634,
            2.412613893519706,
            21.937928665186742,
            10.067679218613025,
            -1.8341673577907633,
            -3.2745887348221983,
            -1.1490985564860678,
            2.091309814699944,
            -1.9185354639136751
          ],
          [
            5.655395141306073,
            13.159196186828584,
            -3.954561661723608,
            5.70550624549936,
            10.107075218145617,
            -23.320160874109753,
            10.132094520750266,
            -7.31326590000933,
            -3.216058561868514,
            -15.655149466241783,
            11.941486005917119,
            -4.960049444159831,
            -1.8933190778669073,
            -3.0780806427669987,
            7.63357641619555,
            13.621230734333745,
            -0.9550955487851536,
            -15.924480280477809,
            -2.805117004439497,
            -3.2931966215635096,
            -4.917232511403148,
            -6.13893548726114,
            5.673235495093912,
            13.67786421401011,
            2.7523770793304063,
            -5.885510117612516,
            -16.3279269847641,
            11.729745279684405
          ],
          [
            4.189587065767216,
            2.8213315469185805,
            0.9449305133900502,
            8.949931574200914,
            8.613513441379,
            -5.179921501233115,
            -5.3007545628715045,
            11.54072829924487,
            1.64429617063773,
            9.89752218609575,
            -14.915872682971695,
            2.0564970359135013,
            4.2442090109732655,
            15.40162231654148,
            -3.438401129589028,
            0.6798070873540402,
            -14.960228985694915,
            -9.118074691754373,
            -0.33841444994862924,
            -4.063038505033152,
            3.841125061810035,
            -12.126116183760727,
            -11.972152940098894,
            20.417180238511115,
            -6.413738862393059,
            4.174479149433332,
            -8.484165047426657,
            8.38044679411901
          ],
          [
            -8.251989308763553,
            3.35975869823712,
            -9.758135846871564,
            -1.8911678426577467,
            -7.96411632506612,
            2.048891237949465,
            -0.1867364642401011,
            -1.0861224417699247,
            -5.421945474423392,
            2.413869818112696,
            -5.965718305146697,
            -3.7013364495345917,
            -0.2542110670405978,
            -8.96009553263171,
            8.113526938446201,
            -10.33838391800764,
            1.1318981153124887,
            -5.860673470602868,
            0.49355559230003754,
            -1.909422222196139,
            -9.217389832501011,
            -4.3615106330915925,
            10.549278675241453,
            7.17241408437352,
            -4.387704135719582,
            12.293797086537563,
            8.513544539189633,
            8.390034821205925
          ],
          [
            11.583081090585802,
            -1.3604578412464952,
            -10.144007400647505,
            2.954728051646712,
            5.892485479473532,
            6.5690599069646485,
            11.819925782441526,
            -14.758458741099018,
            -12.030575750026252,
            5.61943196452628,
            0.7409789079786123,
            -11.21068789232474,
            -3.282677975540052,
            -1.1118977924207214,
            -0.9502926192207404,
            -6.086772043413115,
            -6.372340160901621,
            1.0865108344558816,
            -3.8809806271231193,
            2.277512286909465,
            9.121143596077294,
            -9.976033438744361,
            0.3444486306419692,
            -4.036064657988117,
            -9.38296716478979,
            -9.522381001502298,
            13.864682968546292,
            -2.609932744408378
          ],
          [
            0.5543544754142534,
            -5.610865450560482,
            -10.592529378193852,
            -1.0564652341180794,
            8.909659163807245,
            -5.130605469170552,
            3.8032798790090405,
            -9.950235246010731,
            -4.7935914779236315,
            3.8618956947031333,
            -9.534009831400336,
            1.8563854911142226,
            12.338076415600503,
            -2.2654926901985126,
            -11.861551404223995,
            -9.027975493668485,
            0.5355879212824773,
            -4.376013732183881,
            -14.411247432750377,
            1.2762242320416228,
            -2.3837146733701164,
            -4.023888550103866,
            10.258250234661292,
            10.664317172534005,
            -10.808980942510207,
            -1.1837796600358226,
            10.659783940331081,
            -3.057183260133167
          ],
          [
            0.8258479005074645,
            -12.40938353920405,
            4.377754284018771,
            1.3455125406315984,
            -1.9390165943350308,
            4.315570408394834,
            -4.442765635914969,
            10.262966449566209,
            -13.68595852413023,
            -1.8523461498398208,
            13.297049438197737,
            2.13743234526149,
            11.855510666078143,
            4.722717684519819,
            -8.698272754691308,
            8.842000235747848,
            3.336411613363076,
            7.990987591039092,
            -5.420082311469663,
            -8.792528361795153,
            -3.9908421309817905,
            -14.421837645015781,
            -2.0102021623778734,
            4.33826394374645,
            5.076633006080359,
            5.483260574611397,
            -2.80440298978848,
            -4.041124826716667
          ],
          [
            -3.1483624827496723,
            -5.1113966370334145,
            -3.7507671688231214,
            -5.588590483936332,
            7.818731657690035,
            12.891522079373614,
            2.9267096251602225,
            -0.6006191128621119,
            11.759930606170851,
            -2.574795957742437,
            -12.983795735945383,
            0.05436837430797303,
            5.267648572604117,
            -7.437021367463001,
            -2.0430213262204617,
            0.2864479962293358,
            8.489470714324858,
            -16.142143723437176,
            6.307321773295637,
            -15.01693818684832,
            -5.93874669188612,
            4.491635913669466,
            0.036886405093576186,
            6.897541763150482,
            10.341098803306869,
            -0.812234187707333,
            13.845620699268052,
            4.116436476569704
          ],
          [
            -6.847420172432365,
            -6.630003463146666,
            -4.311141816131522,
            16.764061420194476,
            -3.3922936062986033,
            15.28258843129472,
            1.2782706975880502,
            -0.15754243531846512,
            17.71515483259759,
            -9.203423441134557,
            6.041645570350821,
            -6.791728788562514,
            1.990116312370668,
            5.810252510857859,
            -12.576183724883414,
            -2.1885408378889513,
            0.48656482073457763,
            -0.175117651746302,
            -2.8312438258493398,
            -2.2214642712431214,
            -8.497871918234457,
            5.090536817254349,
            -10.015442007979031,
            -12.636942203356766,
            -0.8356625312667778,
            -0.9007160241025316,
            12.415050557801909,
            -4.087860839584727
          ],
          [
            -2.8141686589642028,
            -11.904953737561717,
            12.977376216105217,
            -1.4521124309226152,
            2.3239221812080677,
            6.190058860475033,
            5.838988118759856,
            -3.7733548353447386,
            4.595663419189674,
            -15.416961033602655,
            -7.99215240177972,
            1.9753710990399638,
            10.926031551862193,
            -15.061565464357603,
            -6.450422805870958,
            4.735318808830185,
            9.050776022017063,
            0.7895260107101367,
            -0.20444738922189326,
            -10.529060861687562,
            -8.553712559907067,
            -0.09078369326849761,
            -4.059482731355333,
            8.990174458651532,
            -13.325786468805179,
            -2.1266392281215225,
            11.202111310879875,
            -5.895799647177045
          ],
          [
            3.8425430447185582,
            -4.801174588739012,
            -8.92012512332523,
            -17.86811872031738,
            13.094255559514009,
            -7.639528784862605,
            5.1452786926859195,
            0.9709170851008733,
            -3.8913705103958014,
            -3.92086502862922,
            11.011028159269431,
            -6.557721749063738,
            -0.9129890354741299,
            -5.282629367512105,
            1.4043678948303309,
            -22.815846063176547,
            -10.486377284833349,
            -2.764119046883747,
            -8.734467327110172,
            8.023217526597628,
            2.22328730397273,
            3.7099144537667845,
            13.892134709275652,
            -6.084016533952851,
            9.089758320343583,
            4.496390078705348,
            -4.853661288427503,
            6.733864271257843
          ],
          [
            0.46779479116858325,
            8.56662784919715,
            7.425672261552779,
            9.269022701222495,
            -7.197823835396906,
            -7.729023623604502,
            -11.82715947634536,
            5.479885041196307,
            -9.51006103810879,
            -12.463819507374394,
            -1.308154990213093,
            0.8612275103126892,
            7.3480280634067405,
            -11.52162769488465,
            -4.266272229740077,
            -10.138349124562959,
            -0.5961296049067207,
            -0.2517793930748268,
            19.90951226247004,
            6.97824244833257,
            -2.7055427503549065,
            -5.769492291769575,
            -3.5228984632404696,
            4.902697083296745,
            7.825333478075906,
            17.073579272558067,
            1.840571089967015,
            -3.2474215450923847
          ],
          [
            5.511179548918821,
            -2.6718114684190066,
            -4.989628743431708,
            -6.4266667834657,
            -5.860381558578822,
            -1.2562026085757287,
            -2.724355920054095,
            4.365984425762048,
            -2.6229494877969497,
            -2.86318176587473,
            10.4466392310938,
            5.544170842648541,
            1.0210000724480657,
            13.247075251754337,
            -4.457693867622505,
            -2.733416895393526,
            -11.065502648693089,
            -11.83017310577058,
            9.073832291050913,
            -13.998546605082408,
            7.141589190707944,
            -0.2197393288470925,
            8.753340613236531,
            -7.929381923772663,
            -7.868977119649218,
            -8.662161189369531,
            2.8482366545546807,
            4.848598217180408
          ],
          [
            -4.330203313468312,
            0.7977865868481959,
            -1.7735649646519476,
            1.00530400067684,
            3.671398771373277,
            -6.973273368114051,
            6.67064477249454,
            -8.587686306316455,
            9.184372963030109,
            -1.817276712022349,
            3.0497913534998298,
            -6.794971513112975,
            1.326943006494711,
            5.578868483660463,
            11.958921372436759,
            -8.083842972668409,
            -12.706349982248984,
            -2.907231951080214,
            -7.340686726084335,
            -7.564883338106765,
            -5.887171928300033,
            -17.2922733786666,
            3.918940405141309,
            -6.531800955257607,
            -0.9238621217552343,
            -10.186193824892218,
            11.757111094163516,
            -1.6974107906968938
          ],
          [
            -7.924546825722225,
            13.764538360146535,
            2.0723878055021374,
            11.514874349152311,
            8.485349997638759,
            11.688958316144866,
            8.380920136889877,
            11.438174465926389,
            5.71176621789071,
            7.063582330865297,
            -9.258815659068745,
            -2.8171805492136177,
            5.686370821273281,
            4.528890678197758,
            4.070930601690088,
            18.46649802231337,
            -3.0094914598736198,
            -11.204244817454557,
            -17.829651410930936,
            -0.26856200853680967,
            -4.764455195595387,
            -7.593951465684304,
            -4.885251109018686,
            13.061151805687826,
            -2.62201713005965,
            0.20718192606072738,
            -0.014113469263004164,
            -14.227717161442689
          ],
          [
            9.579166773154501,
            19.949207988950942,
            -4.80487210904278,
            -12.829229491576866,
            5.299124771303668,
            0.6437022514993525,
            -3.959697089732386,
            -10.157278738824889,
            2.3039561943270357,
            8.422775337710407,
            14.781391920165865,
            4.510913611072376,
            -2.87613736728591,
            -0.7094027196385493,
            12.283865031485568,
            10.965718583810325,
            16.707473478415533,
            6.977358116818888,
            -2.187559111147328,
            1.8619038216467354,
            1.5683386142991678,
            6.172531106914258,
            -8.181264063354787,
            -23.02473530282037,
            -11.533108710792456,
            15.66056232340522,
            -5.103723180289181,
            -2.1904717678223316
          ],
          [
            -1.3726328584963527,
            -1.394644177586105,
            -10.570998099760175,
            -3.1196201355705173,
            1.131931070534142,
            2.356372920343334,
            -17.743550651298722,
            -3.2503619302189226,
            3.561557394830837,
            -3.722009882236442,
            20.31387319803416,
            1.3472665792765257,
            9.316610527208223,
            -3.7499370186060927,
            -4.478028400231214,
            5.008312929780429,
            -1.4241288665487835,
            -13.505343813898637,
            -8.233646104150493,
            -2.249946004000125,
            0.8284061920583878,
            15.445390309184855,
            10.016239569988162,
            -17.67564651561085,
            6.158584397668947,
            3.912076263277962,
            0.35889628900769477,
            -1.2811033994749152
          ],
          [
            4.001057629405691,
            -8.689043540271225,
            0.1701838520214991,
            -14.45375959411357,
            -0.36987837822141756,
            -6.15243619056573,
            -9.48322024997462,
            4.418803536467273,
            -10.195675845603649,
            3.257416310008993,
            0.868923640366442,
            -0.9004689546244145,
            19.98583543913826,
            3.2185258808107355,
            1.4736632218676962,
            -11.063129172813866,
            -11.129850917046491,
            -6.381934475864796,
            -1.498545550710344,
            14.512292733986264,
            -5.795071852268273,
            5.147877735502131,
            11.697268437310292,
            -1.1301433527680032,
            -8.812827656010967,
            15.131314424729862,
            2.6344923744324285,
            -20.39799319063354
          ],
          [
            -13.43709844094022,
            -2.7876275810582065,
            -3.538065717574267,
            -11.29550688333292,
            -5.527230744571655,
            -5.2816127679033755,
            20.464674734023145,
            7.767314935841552,
            -2.292696317671007,
            15.267793629463958,
            1.4258373125839419,
            -9.044026807077177,
            -6.57888337349401,
            -4.665075787953564,
            10.173262023428984,
            -10.633946842608774,
            0.9853660970886211,
            2.8893382428570726,
            6.266488250768346,
            -0.38024020744071585,
            7.336810389140472,
            1.046842816992803,
            -8.976415293703004,
            2.3395744551502826,
            -0.025857789539418752,
            -7.676861061070512,
            -9.026823385527114,
            14.270277436828867
          ],
          [
            -13.86130199985397,
            -9.398151950177875,
            -1.1419111693409667,
            8.711232127792607,
            0.5412584562301049,
            19.794135730168218,
            -13.117248333053151,
            2.1310077724874805,
            7.882173986400749,
            2.7763033182023023,
            -3.0981849526879124,
            -1.8963142439633014,
            2.477531819728373,
            -10.790519365547244,
            -6.977075655845107,
            -2.8298872282576713,
            -1.2966796935299554,
            7.181304505102911,
            -5.806885069627007,
            -0.33849443429862947,
            -4.5964892524343846,
            5.533905377192859,
            -5.083880077284893,
            -3.130186347466912,
            3.6038372375243397,
            8.458041358665911,
            -4.95043574210089,
            1.825642998837102
          ],
          [
            6.67592427742018,
            0.34295444211527715,
            -5.3009446310420785,
            19.728632800844633,
            6.484126452824973,
            7.934016275856292,
            -5.437098068949902,
            6.3469388878288875,
            -4.157294347669835,
            -17.68557359117591,
            -5.2276974515782255,
            -6.825506411795237,
            -14.33763368922556,
            -7.255660105535757,
            -7.7060712282922745,
            2.808521892635485,
            1.5639902971402635,
            -0.5693547915324064,
            -21.5799602399331,
            -10.488770633283103,
            -6.654625938770074,
            7.530116216083137,
            -5.301882043094951,
            -1.4009046126074656,
            7.089299396456515,
            0.6797240058565563,
            20.058706413752937,
            -2.290488530577501
          ],
          [
            5.236851379968334,
            13.08208417400866,
            3.9268288295992857,
            -0.7496879891195171,
            0.5656944754518038,
            -1.5931684110705344,
            1.3516856057126103,
            0.928726340283749,
            11.415426408809745,
            -7.644408891544106,
            24.456477276964105,
            -5.384112910378132,
            10.109429348665795,
            7.716527151506964,
            16.466627851522368,
            -3.34676595464411,
            -14.211651686236241,
            -15.312976725397798,
            -5.771868295611027,
            5.2475098038091845,
            2.441018673900726,
            9.970318647229222,
            5.879309276031001,
            -11.13571381547551,
            2.134999976028595,
            8.125528446655009,
            5.793655427882113,
            -7.368574762200755
          ],
          [
            -0.21385568838141086,
            3.0035841852644625,
            7.676590120292947,
            3.595466405358384,
            -0.45661515263812413,
            -6.763019565596694,
            3.851448076237996,
            -1.6072711603603889,
            2.6378614918897556,
            -17.006388642705204,
            -2.228392238515995,
            6.471733572462952,
            -3.843845042402401,
            -5.500559636823937,
            3.395568932641445,
            10.162588451483984,
            6.6275355219273395,
            5.793198539862843,
            -7.886876444719124,
            8.30732233572813,
            -2.700849728456466,
            -1.2554404643639816,
            -2.8671487486433436,
            13.375686019018266,
            -1.9497936398231535,
            -3.594143313055041,
            1.4883565564560612,
            -10.121077122172714
          ],
          [
            -12.697712644768762,
            10.509459846823107,
            1.7304111628819339,
            -13.80247119546584,
            -0.7929675778681007,
            6.427090763472044,
            9.294071260834093,
            -7.800372618723482,
            -2.769292662628319,
            2.019860240641023,
            1.4732582442550124,
            -9.238080582645866,
            -12.799922397257362,
            9.20612572894159,
            -9.10519187627186,
            -11.78103042450063,
            4.568394485058937,
            11.780822703855756,
            7.456376717271728,
            11.50866886453069,
            -1.7773617305567733,
            -4.311969009002819,
            6.842843579843757,
            8.490452451727199,
            -11.347067342369092,
            2.7737931231321844,
            5.841954384906003,
            -9.156532115977113
          ],
          [
            0.7698874671245916,
            0.26892972018661937,
            14.153258441152829,
            6.324043090106205,
            17.130179357454814,
            4.443128411399489,
            -2.5514505316833818,
            1.1277306920600807,
            7.8939518281405725,
            -1.8428815409798283,
            -0.6213981124201198,
            -5.77379326510226,
            0.9744894826789696,
            9.574208174173958,
            -2.973697052602776,
            2.460154533055796,
            -2.675600007668988,
            -4.631784361935937,
            2.594443616699209,
            -0.8998909690237126,
            -7.911178984731304,
            -5.637978565519434,
            -3.8028147861570467,
            -2.9142116444626693,
            18.63009996300013,
            -0.7675001441019517,
            0.10562973686329469,
            -9.265652666925208
          ],
          [
            -0.2019753213596452,
            -0.6429743808108676,
            0.023839410989057265,
            -0.3782267287711395,
            -0.37795921977143304,
            0.3355649084343406,
            -1.2202029992526748,
            -0.509894534914859,
            -0.3555399323903797,
            0.15454606183774428,
            -0.37336464340504205,
            -0.3088268696383163,
            -1.9205576818984071,
            0.26723511679918865,
            -0.36109384823977136,
            0.07871386999664831,
            -0.883084910099362,
            0.41460593139086144,
            0.2234550573460431,
            -0.36608155035279244,
            0.0015670325095490996,
            0.5711179155080933,
            -0.06230178131268188,
            0.736893092393683,
            -0.1912573640885389,
            0.6572818287101799,
            -0.24512554989724777,
            -0.11123587200875296
          ]
        ],
        "biases": [
          4.27395263309213,
          0.5157956078773978,
          -5.861429741241725,
          6.285332370140314,
          -14.436135802551401,
          -27.794528297801396,
          -18.061255913696368,
          2.965359276368808,
          3.399574182128861,
          -9.131869733379487,
          -3.0406333868782145,
          -14.761888792697906,
          -8.366290884564496,
          -1.0439961559025674,
          -13.596726442009713,
          3.9389775556970403,
          -12.713424603605766,
          1.842391828577504,
          7.523691147064676,
          2.237912898888592,
          -0.7077579728832043,
          -12.827052326089252,
          -0.3258379036780774,
          -0.33799874728864876,
          -16.70437658081525,
          5.997037254018503,
          13.073803655751652,
          -7.798082581058829,
          -15.550183673613857,
          -3.3849618498209613,
          -7.182301208615423,
          -7.971115861789188,
          -0.11960331041611538,
          14.218997583869141,
          -7.1249224032474,
          1.3239315496176176,
          8.427542577077846,
          -14.286850151807444,
          -7.047854835495809,
          1.4255059980988474,
          -3.4838114397568454,
          -5.744719420602016,
          4.6014663853730235,
          -3.716889915175507,
          -7.803216518637841,
          7.816966322701065,
          2.7488091596035447,
          0.236216955895737,
          -2.297133960344824,
          5.37837659409746,
          -9.902009092337137,
          3.3371956551723967,
          -13.219362044652646,
          3.1905880543601564,
          7.744215303186581,
          8.006425136120896,
          -7.551061526059857,
          -1.9955831957614563,
          10.111718325820279,
          -12.03432024501715,
          -3.591265568402437,
          -3.6741867553907586,
          0.48573898758340167,
          0.6871898095099287
        ]
      },
      {
        "weights": [
          [
            -6.630306815590569,
            11.842191381271645,
            4.611048029912716,
            -3.919625597100907,
            -7.748192090942089,
            -12.31357858321307,
            -6.372174393194024,
            -6.011431503994592,
            6.414356122563266,
            -0.46891484949216106,
            3.4864796681150843,
            -0.02923334189692943,
            4.315839484620396,
            -17.15624976748002,
            -6.321700879102202,
            4.24244880538572,
            -13.101785588443024,
            13.831612873915292,
            -3.072132446625722,
            -5.174020736014157,
            15.320958702757315,
            9.725482601873326,
            -1.5549681333676793,
            -4.227388373111261,
            -1.1539516307598423,
            -3.5054719609921037,
            -11.245921977347782,
            0.8501388608648595,
            -10.930638786677786,
            -0.7052282734140869,
            18.302265012165034,
            7.212974974032101,
            3.5467235742048038,
            -8.900036108720807,
            5.394139231011483,
            2.367672222850217,
            -8.624970482391518,
            -0.7326648261070264,
            -15.374028886205593,
            -7.52523648903021,
            7.172587027631033,
            7.649691086386174,
            -6.044021034750871,
            8.726023680905858,
            -11.412719627036859,
            -3.370003277115102,
            -12.430975654303634,
            -2.6813219392408265,
            -9.278635626450843,
            7.078438727500174,
            -1.6328180732797595,
            -6.420968134692063,
            -7.83018613845662,
            1.4053805484611526,
            2.416520048143793,
            -0.7122238089325789,
            6.397828632202702,
            -4.889368841867896,
            -10.634970437365649,
            -4.742068944769339,
            1.6748455972247909,
            -4.048212950213464,
            15.527196250214674,
            0.026481673964045882
          ],
          [
            -5.949827330562955,
            -7.494412898402429,
            -9.602582885739517,
            -10.373002748093846,
            13.337505725887844,
            -0.14215932545486154,
            1.366383802980029,
            9.167738491625688,
            4.266059658790779,
            -6.413632757084931,
            -8.4086670449977,
            21.933628900328472,
            6.0790705797723765,
            -10.112661340011172,
            8.548904173478489,
            -5.811948760147405,
            -5.175120314352422,
            7.957274983719894,
            19.58678507418175,
            -3.5704032583542613,
            -0.5902872664450851,
            -15.769287762886158,
            -10.03978692216643,
            -1.7137126360543165,
            -2.3511898272969196,
            12.513166421314464,
            19.42083526365088,
            13.383466712656578,
            -3.7313242849423305,
            -9.36133699545859,
            -2.421799877734403,
            -5.126148409414012,
            6.407450165809788,
            12.006561338330274,
            1.7337562994686353,
            -19.298681224469075,
            -11.112425436525733,
            -19.348440754613634,
            10.906780101564237,
            -3.178042360237884,
            2.828141866202843,
            5.3774356863726895,
            2.8835792311610966,
            -6.59180983423629,
            -17.587919618059562,
            -8.64239480004454,
            -2.918266008891089,
            -4.879749489762963,
            -6.004376229396412,
            -10.556442151944982,
            -0.3383874773213421,
            -9.779543808732425,
            -4.660020236498704,
            -5.824336013521194,
            9.67257049247833,
            -1.7895834814407177,
            -7.221045246283862,
            11.217457478250427,
            -10.227368321731257,
            -2.028976300686919,
            -0.09475308270954097,
            0.09019186305516236,
            -4.234900085822423,
            1.1752050749598513
          ],
          [
            -18.112820536996956,
            -14.44057854061692,
            0.5242325256525203,
            -6.473050897261271,
            -0.6300619022673734,
            -2.4547975403532423,
            -5.5670231773258525,
            4.266614733604765,
            -21.16894299413713,
            6.432132098986418,
            0.71062280965199,
            -10.73157196754933,
            -3.267272103437691,
            0.6582316423220532,
            7.397351486407434,
            15.218778312758282,
            19.803023074809328,
            -18.63663083489005,
            8.555172523960751,
            -7.713048412457902,
            13.836946774759367,
            -3.107686715800201,
            10.078748650598584,
            6.468500743191177,
            -8.017805487565974,
            10.251371690835677,
            3.889123489542303,
            2.77727420011348,
            2.3609365783442002,
            10.670468233827046,
            8.384912639963305,
            2.327940333325034,
            -1.6965194666454948,
            -10.159304958001478,
            3.509744640203797,
            -10.302421457343995,
            -2.0532994670002234,
            -7.776127971674264,
            -10.81133974681207,
            -1.4052604316958839,
            0.7803164690381219,
            7.133654801731205,
            -7.578243799116489,
            0.8758899132703667,
            -9.63935852095579,
            12.748884218786559,
            1.212966393634166,
            -6.910397495736687,
            8.37267289246092,
            7.8578584969074186,
            7.760168971257052,
            12.163522310732061,
            15.181340509048356,
            -3.499086814915764,
            -0.9135715242406794,
            -0.5346076791232798,
            1.3529450113457502,
            7.426727244543146,
            -10.031107576792284,
            -2.087886166887929,
            -9.163162731810546,
            5.791295524823845,
            -10.488560537670233,
            -0.05580713511317814
          ],
          [
            9.693372363591616,
            3.7415721653466925,
            -25.917925719222634,
            0.9313316752142565,
            12.720883692154962,
            5.445163369215182,
            3.676810526955546,
            -6.0289408980704495,
            5.930861145631332,
            -4.394035078346066,
            -8.650732668213445,
            -9.308364422845903,
            16.316100093144104,
            -5.052954480283022,
            10.928944630797933,
            -8.93033852635732,
            10.194177944587619,
            -1.4481806477067067,
            0.7926753969441698,
            0.6060394501565227,
            -4.9302688485109005,
            -7.160233082163447,
            1.8916048166836568,
            5.889848044169277,
            17.779877480208636,
            -5.680978074178884,
            14.984870379780276,
            14.684126277255757,
            -2.198710414262307,
            0.24903950419322918,
            -3.4710150839471137,
            7.418438610173121,
            4.1218889319248495,
            4.103958090086368,
            -0.35152828243865186,
            -10.256708543878162,
            4.012882643432805,
            1.050338195511741,
            -0.7353654312674965,
            -4.928144181479167,
            5.36586823536864,
            4.857339386680707,
            -0.8461916149221858,
            -13.913446217068955,
            -1.3579726907160465,
            -19.92209725330236,
            -10.462065475949775,
            5.827192660211972,
            -6.215577239840558,
            -0.9098222072375142,
            -14.687668030236862,
            6.809161425013121,
            -10.216403439611945,
            5.259402299489453,
            3.1539668822392293,
            -4.234294171017851,
            -2.5063115888793868,
            -3.939277379681366,
            15.52862606425451,
            5.255573718433283,
            12.744834185560155,
            -0.5852329655965882,
            3.8240990954763334,
            -1.3865174461789647
          ]
        ],
        "biases": [
          15.057167647840858,
          -4.599035019955936,
          -6.148864154926494,
          11.228732357348738
        ]
      }
    ],
    "activation": "ReLU"
  },
  "fitness": 37563.9,
  "generation": 1500,
  "best_score": 43,
  "best_score_seed": 1779605024,
  "record_network": {
    "layers": [
      {
        "weights": [
          [
            12.631715409002888,
            -7.503861736182935,
            3.532772290631266,
            -10.605717602014016,
            6.870796856484367,
            -13.978232307758232,
            2.4071580935080474,
            -2.3014137288644245,
            6.677454670428972,
            -1.3171757519230909,
            5.4451462876096475,
            2.117291523049156,
            -12.084353647769916,
            -18.518881666282873,
            -5.308192242699834,
            -8.981501877987485,
            1.1022550097680475,
            8.835264571611928,
            -3.3393323146127014,
            8.958384647590979,
            8.36201097726722,
            1.0753581103216088,
            1.7996137521525746,
            -2.055084781756798,
            5.157673408621011,
            17.488233501102727,
            6.6112119646633625,
            -8.46254190082303
          ],
          [
            -3.163660414287821,
            12.33451282215365,
            -6.847239216743628,
            -2.0099713852750987,
            5.624494913315758,
            7.618980036939758,
            -10.579510954476916,
            11.278621688130732,
            8.390904103261338,
            2.4435509079308897,
            1.847322323525162,
            0.21790207017475016,
            -17.563534568771793,
            -4.295842534119849,
            5.316745718416826,
            -3.0113046348538854,
            -10.97382573893866,
            1.1422474602251955,
            2.320675124178906,
            -25.13560824780612,
            -0.873488192069816,
            12.38557420772314,
            -15.221676440366194,
            -0.30903421993493274,
            -0.8465560736818313,
            -7.878405859089587,
            6.69607583695407,
            0.12196415845612141
          ],
          [
            3.0574598112637,
            16.403151412938524,
            -3.9780934271816184,
            5.9462051632264,
            -7.192088023849598,
            10.266251279870556,
            15.643643465899244,
            -6.6528993401760985,
            -4.505004701056678,
            12.30913714103567,
            0.026532352652193045,
            7.141623343060037,
            12.82243801063499,
            11.993753398356315,
            -0.24733711791964041,
            -0.9696734761338385,
            -13.571990559372507,
            -3.9540093273001133,
            -4.4541806205706065,
            13.229324315789682,
            8.326993737629914,
            7.429625599147025,
            -19.920516774690984,
            -9.107584032293476,
            -0.4478939238355787,
            -8.29138824697934,
            -9.94124940365475,
            -11.763924152477122
          ],
          [
            -6.525843456092676,
            -11.668397232476886,
            -8.363854346213113,
            2.0885085843366378,
            -1.3624943921098223,
            -16.30971307631323,
            4.265861756253799,
            -0.9744193253694644,
            6.19677994932409,
            -2.2754614118506233,
            3.13363002698158,
            3.9154883176809934,
            -0.6440156640633643,
            -1.0881288800225337,
            2.2235742975405337,
            5.8879341277888395,
            1.2182005860976453,
            -8.35009775707054,
            3.35561366874757,
            16.204693284165167,
            5.399360805787852,
            -2.12517919405309,
            1.3117765567428976,
            11.424986087686136,
            3.607519813669275,
            5.489397696056418,
            -10.27020059969259,
            3.6510406307368317
          ],
          [
            22.73650767730163,
            -0.2598742564299775,
            2.997674522733636,
            -24.298162072601247,
            1.7787296246866782,
            -10.229517525380054,
            6.118983968448643,
            16.098904526437895,
            2.3624939307603494,
            -2.8821790531115816,
            -6.328488752595266,
            -20.817169553667096,
            -0.4169486223127967,
            -7.996636125282609,
            -3.080508780792036,
            8.924228784024614,
            -19.675984188343154,
            6.199821796334263,
            -23.069810059686322,
            11.411020610085577,
            7.805764165077988,
            -4.703650151450777,
            17.06174061585647,
            -8.175385205887274,
            3.767195480870747,
            5.399867348918146,
            -23.960231604215007,
            -6.00629531650194
          ],
          [
            -4.478663068556734,
            3.6457192879297255,
            6.7637956549212435,
            10.063180618899048,
            8.276321265306244,
            -1.5974902579681847,
            0.7497727360688731,
            -2.9760521496053287,
            -10.330455372765867,
            -4.856892182716159,
            -16.649656915584945,
            -3.501603870414454,
            -1.7882651396199276,
            -5.3929079774202,
            1.4867219426581444,
            -2.4934930992970274,
            -16.44421725193049,
            -5.582946060711228,
            9.762978915043163,
            0.475161515578221,
            5.855688524023282,
            0.27228530044674315,
            11.23631861945884,
            -1.51179061348058,
            -2.921021100245902,
            1.2489633814983558,
            -6.474428538524498,
            -11.594386361648855
          ],
          [
            7.472471510099732,
            -6.840184653134169,
            -8.09157978078179,
            -0.3624430560756136,
            -4.959148272953429,
            2.4574991645321775,
            6.065778315978083,
            -8.813769769212296,
            1.235478229802778,
            6.302456429334758,
            -1.9321553409996994,
            0.29912123893629533,
            3.718965869162699,
            -4.514796072956904,
            2.4671730319020746,
            18.803528026384736,
            -7.500663534107183,
            -14.794030431229247,
            9.885572406940025,
            -3.336437043210509,
            7.521475353362308,
            -8.211480125387748,
            -9.342763618709455,
            5.178481135437487,
            1.3195283800324145,
            7.16540757657532,
            2.6544609094372387,
            -10.192705263523427
          ],
          [
            -7.387325718277781,
            -0.6455802113740208,
            11.378571568625791,
            -0.9342548574866973,
            2.7863248279136603,
            -11.2384282146903,
            -3.1619524634757656,
            -10.795376685406524,
            2.9848004650698647,
            3.046077247700527,
            -1.1677072188610813,
            1.3570501106511492,
            0.9250781954837459,
            -3.7411271505329204,
            -1.1870478627692236,
            2.1687173513971336,
            0.6558576974790533,
            4.070834224508996,
            8.182998920547735,
            7.834345872140103,
            6.822000335277292,
            -3.765514533843983,
            -5.33478164283247,
            -2.2486479306656184,
            2.6828441268307026,
            8.03303839668687,
            0.1340077623653299,
            0.8732184457916827
          ],
          [
            17.645574784896905,
            1.261913069703375,
            3.840786535928448,
            15.406892913946376,
            4.871642467344397,
            -7.350394212502996,
            7.056382925167476,
            -1.4960167044434216,
            4.3575663937886215,
            -0.712610462009971,
            5.930902135798419,
            -13.602273334877845,
            -15.212525732006775,
            -19.61508888972895,
            -2.702263438550273,
            -15.063433967839511,
            1.4484705713232797,
            18.622951843496423,
            1.4912868515110849,
            5.8374724073535,
            3.5249978795822794,
            12.522855624525377,
            4.149544860634479,
            6.847371233716767,
            7.028757861182982,
            1.1448781599141058,
            -2.5471463431383596,
            14.522028977882197
          ],
          [
            -9.51051581249272,
            -0.666739952864404,
            2.8658495270973283,
            -1.5973211158180114,
            -0.2154642188741811,
            2.229162274135795,
            -5.061559542158506,
            1.3746350425539924,
            -5.526894493915674,
            18.101921220764982,
            -2.9726789298186507,
            -8.050533591124891,
            4.209856746166497,
            -7.113724250887935,
            3.770334542871337,
            -4.157294097024568,
            -3.7039676773503514,
            8.956751987526673,
            2.4896064474713984,
            -4.166385250663524,
            3.590001797016367,
            6.7681759794382295,
            -12.293518445314607,
            11.151645006918013,
            1.8577017166014242,
            1.4223218785871823,
            -0.36636428075778077,
            0.4433761096007307
          ],
          [
            -5.410640721800722,
            24.249526626872594,
            15.77331579712272,
            8.805688565868806,
            -11.07339309457767,
            -5.158077084042293,
            -3.924835052746193,
            -1.887559860628766,
            12.158235839572148,
            0.2965272223308926,
            -0.5421401320736297,
            -13.450469542423972,
            -15.471212446909922,
            5.072485418116165,
            -2.8623940074882515,
            -0.46377816931207805,
            -4.665276994572803,
            -12.260795305836833,
            13.702215736205499,
            -0.7763519401375167,
            -9.821945691869333,
            12.230225972034011,
            -15.415410918912078,
            -6.656947600858157,
            6.553260254943917,
            -18.7080465066416,
            5.612375736865654,
            8.676656155891278
          ],
          [
            -4.826556507430449,
            6.692007079539486,
            -4.449021561867561,
            2.8959934529075064,
            -8.253748142088583,
            4.4973914954695235,
            4.0325739934837745,
            -12.340233968481417,
            -1.231653945874037,
            3.3481353338099136,
            7.552030270378916,
            0.40684120094463894,
            -5.904563330863351,
            34.29931498127158,
            -12.735549368577876,
            7.733035136404672,
            28.70328682551576,
            13.098067877183105,
            -11.742168195364336,
            -0.4825590860438861,
            1.9841415284098656,
            23.304702746335106,
            -0.5830354065020458,
            7.854296365213837,
            -8.383874926366289,
            6.5386143148745095,
            6.091816280867276,
            4.099272392375151
          ],
          [
            9.12410577553823,
            -1.0987289817574208,
            0.19029756834380007,
            8.68521022738296,
            -3.447696589471259,
            -7.866846682799279,
            -14.11146664177145,
            -2.0256433688970166,
            0.5487508928653226,
            -4.857164138883167,
            13.147858235664629,
            10.261305095059829,
            8.07503454115281,
            -2.9396650263228254,
            -1.2333130259013838,
            4.548612913659333,
            10.493276629065518,
            -9.224925533708806,
            2.162003495927118,
            -20.039477951860704,
            -2.5622508374796507,
            14.292481757852519,
            3.3589684998649263,
            15.687078633358672,
            -5.415758491723618,
            16.345209635646043,
            -3.9541898596540324,
            3.1013454752976672
          ],
          [
            -15.849262155821043,
            5.516279969480733,
            3.463329272023339,
            4.865391432953146,
            -0.16039233836227496,
            4.8673704347749895,
            1.7523979889958954,
            7.599035908005737,
            -2.5959034071281284,
            0.7892717896317826,
            6.003782745269966,
            -8.341964863040843,
            -7.126322621373358,
            8.829421763581431,
            -20.318238266140412,
            4.359824010337077,
            9.56215964311729,
            0.9520460768023746,
            4.222332527991126,
            -6.138090875654113,
            9.985745661551825,
            -10.571965176679996,
            -2.2016243725437263,
            -5.744975134926235,
            -13.164364593437034,
            5.918826206867923,
            6.854614045211373,
            -0.6142030306755811
          ],
          [
            4.877040454955955,
            10.219087090087314,
            22.308726601766733,
            4.448596427099034,
            2.3631033669676667,
            8.556951953789286,
            -10.826542204599813,
            11.197521794281505,
            6.280715584723439,
            -11.35296646166877,
            1.3512190689156804,
            13.496888433444223,
            -3.6024513284820308,
            -0.6991494764964405,
            5.301024508870477,
            -6.983197938354011,
            -6.301722184562144,
            4.170908416171511,
            0.9288382247379126,
            5.325870231275471,
            -1.9760471815599576,
            3.402483986744864,
            -12.619846431701038,
            5.002335623853827,
            2.497166899123042,
            -8.24666577400495,
            -13.636001685257533,
            -16.402035428535896
          ],
          [
            6.18672489007117,
            -6.750232409688403,
            1.2386936566169173,
            4.42544629962569,
            3.273545694946367,
            10.257599020398597,
            8.170436273851422,
            -5.975839676722508,
            -22.50885843002623,
            -13.58958305630491,
            6.725950031652539,
            -7.624860077734774,
            10.896923972952571,
            -4.014554800744473,
            -8.883454587420392,
            -16.879560021243137,
            8.129714003005859,
            -9.940377025855156,
            -3.9977209809180456,
            -5.271687097192372,
            -1.220788861299262,
            -1.9383619604909725,
            7.8755672184258785,
            3.640983267219095,
            -7.87532541898494,
            -7.439599428835363,
            5.703616824707037,
            -5.985176932367303
          ],
          [
            -11.47185236957343,
            -13.103866891762486,
            4.310683604893812,
            -8.233674812374389,
            -2.8590810877907566,
            -2.6159421870867243,
            -17.02019316883336,
            4.010231817890646,
            -4.73686071697489,
            8.113909579388306,
            -6.574571925190729,
            13.425199603203964,
            -2.1442874553779077,
            -7.4917013011608224,
            -7.363659353132582,
            -16.524924514618586,
            -1.8460903364012562,
            10.977236653860063,
            -9.893236632450511,
            -6.986871532730227,
            10.10358105850763,
            -3.7467115446923547,
            5.478813010391627,
            -5.527859623318967,
            -4.2645510222581855,
            -17.43174013270458,
            7.6742291048220235,
            -12.691923070262026
          ],
          [
            -6.7479891161825964,
            -2.234865952513245,
            3.533284878618874,
            -5.7186883095073195,
            -0.2114735214189713,
            0.43135650176096696,
            -19.525796220697494,
            -1.2233467069575243,
            2.3440683906784994,
            -13.452075489855075,
            6.753964708372719,
            1.7881502226748447,
            -5.923759747593418,
            -7.908004263117921,
            -11.755180644631963,
            7.730763155807382,
            11.886457773765516,
            7.905000853418651,
            20.13005947866748,
            -4.857703845768704,
            9.40725414289848,
            -2.5024273094846134,
            -1.9373095918094145,
            -2.0685011181306145,
            -10.917702469148704,
            -13.034621736235449,
            10.71928452309442,
            0.2487969902516428
          ],
          [
            4.543458348956152,
            -7.856884445930068,
            7.330917959934617,
            9.486999666017482,
            10.672661815569697,
            -13.42373149126494,
            -0.2091414120719891,
            -13.059398395204731,
            -1.2143193766574767,
            -8.715738627656531,
            -10.965135200599072,
            -0.6624919497554373,
            -8.13117179392724,
            9.01205954724023,
            1.2689705450907796,
            3.177631047008569,
            -5.486065109496564,
            4.039514215994602,
            -2.3046719825519175,
            0.4663005701859784,
            -3.389075443311911,
            5.9807694545194865,
            -2.796518741880413,
            4.280112483954482,
            -3.8655560043206627,
            8.702963733083012,
            11.135232220827977,
            -4.6943956516937035
          ],
          [
            -8.66088278084652,
            0.20937204879646765,
            6.6533013297062835,
            -11.557831447583,
            -0.5407633866163044,
            -6.895946932333587,
            2.4195296069324606,
            -6.061926002819423,
            -8.167126195652889,
            -19.764727060526194,
            3.8183649555815005,
            -10.814957499194279,
            -7.130820067370853,
            -1.842380645472193,
            6.949465575198661,
            -16.931192994897973,
            -7.8546142522912925,
            0.3294976632466964,
            7.499932365522461,
            -12.740346393789451,
            -5.843136619186273,
            -8.611556803334773,
            11.484907253371235,
            -10.747711409802276,
            -0.9562385438229841,
            -0.2368845981454081,
            -8.464726979198957,
            -7.338275608466439
          ],
          [
            -2.5748914897802804,
            -2.5267738285064483,
            1.891014333298231,
            1.8362455189266476,
            -15.486003776634384,
            -10.659092506653192,
            -5.877476881280019,
            -13.016518183321327,
            -8.914128518438755,
            -6.400858843705007,
            -11.405451529687406,
            -0.8439018433402548,
            -9.272136636175976,
            4.819920729818528,
            -1.7323251781938145,
            0.7248750630589134,
            -3.380854626133554,
            8.800864815496587,
            2.696209736255893,
            1.0820733327969663,
            -3.746897473207714,
            14.726270537717173,
            7.4309691145213375,
            2.8659289662719676,
            -20.214496506238483,
            -4.010920484190301,
            9.012525545651053,
            -11.467796676693938
          ],
          [
            1.9035775493883438,
            -3.9082208707535675,
            1.124359321350104,
            -17.120176565029457,
            3.610939092263238,
            -12.954082403298266,
            20.784680240445844,
            -8.234031962089396,
            11.666721261066238,
            0.34999059836761415,
            0.8920113508339305,
            14.688291393223231,
            3.9208686636474948,
            -4.869999002914223,
            -6.952307682709853,
            5.415090121183281,
            -14.580053180532346,
            0.3075837641550773,
            1.3058509493284705,
            -5.920374817562907,
            0.4859246979805272,
            -5.475916268294738,
            -3.663433153091675,
            -8.090769281239863,
            -11.450114843271939,
            -0.5951073607230924,
            3.6345987891181317,
            -8.510766334042762
          ],
          [
            -3.1605329343946167,
            -6.16402870701759,
            -0.8729937015181302,
            -15.230964984598158,
            -2.8045421106515454,
            7.433786880658181,
            -10.934183991244906,
            -11.8732300763212,
            -6.053149895507318,
            6.672796649646394,
            -3.639747394636472,
            -0.18402398724898467,
            -11.423263804957426,
            -8.796477811559852,
            5.42468020391998,
            0.30727819073847534,
            -3.224732911268445,
            2.2933960622118157,
            -4.514004050533635,
            -3.1524849816459994,
            -10.620962361950681,
            -14.204831430963491,
            8.910734906398766,
            3.6628070780784414,
            -7.570053498849801,
            11.442510615565416,
            -1.4985221886575681,
            9.41510775025937
          ],
          [
            19.945377377555374,
            2.8261736533789477,
            -5.323192935601093,
            0.9953753861791031,
            10.162645076026713,
            -5.396286706438438,
            -1.3253182449920775,
            5.223612060123382,
            -7.7534890727425445,
            15.422893078964162,
            -4.097229212778434,
            17.70108433760067,
            -0.39281494531453937,
            -21.582076914641103,
            -5.4839582781264795,
            6.019405663705096,
            -2.9603760707480755,
            -1.919916995468948,
            -3.763412880996581,
            1.3810913055190017,
            -7.3615680082164765,
            -15.396585867204294,
            -2.4821318649464486,
            3.3410850642250502,
            3.062982289562278,
            11.287544867983415,
            8.03939097563591,
            -6.234503194448375
          ],
          [
            -1.7692833913411519,
            -4.220148279623284,
            9.267892003300158,
            -8.563511092610218,
            -9.105185772903498,
            -6.133551533750256,
            -3.9126840768974662,
            13.310084428232049,
            -8.968179515919045,
            8.576258541605826,
            21.475247957170737,
            -0.055255489245494116,
            -6.5898545381739,
            2.025567166583225,
            5.711761855601875,
            3.4089883831605174,
            -4.259340436617103,
            -7.006117355939601,
            -3.5414953168495367,
            24.030180024350695,
            7.736757838481343,
            -1.014776223820925,
            -0.44276388711802017,
            -4.438812097132692,
            -1.7139181411370799,
            7.369649879475704,
            3.8449156898492185,
            -0.9268749465599028
          ],
          [
            -13.185475718523497,
            -9.738475555731132,
            -9.068934943609442,
            5.036425216408443,
            1.3288855272505669,
            -6.672314208965485,
            -6.97733993405949,
            -1.7071833362931115,
            -0.5837871063521543,
            3.885620755602065,
            -16.43975229440139,
            -2.3968008448477973,
            13.496519164514483,
            -7.862353636407258,
            -1.3807670171379527,
            -0.5379087613912736,
            5.344603297794745,
            10.996731180753756,
            -1.3634660695444762,
            3.432163007627714,
            -0.7385801588314966,
            -11.437060630196124,
            18.20494420583042,
            -2.92087427642459,
            0.016321644619200576,
            -4.033490627632299,
            -3.1033987113284667,
            0.8255204205993398
          ],
          [
            0.1540630493060956,
            8.15072624728509,
            -3.686932347575001,
            1.5771510155400192,
            -11.579293902412099,
            11.504831938023667,
            0.28734524892584834,
            9.2012870876847,
            -0.15583489220195054,
            -2.77460622221324,
            -4.42212410107636,
            3.5387950708144613,
            -14.342825926904228,
            14.391188814776775,
            -3.172892039828996,
            -5.941557464216203,
            -4.8372159400476145,
            -9.026504906818667,
            -12.5157720951175,
            -1.2638766563465995,
            -1.4633300650319758,
            8.169666986461579,
            -19.50015004275501,
            4.950319931777319,
            3.9509648170646776,
            12.996854451680107,
            -0.90696088734371,
            -0.7981805436353977
          ],
          [
            -2.2372821302768156,
            -12.862680521857598,
            -2.653760616574713,
            11.331147774706016,
            3.4841858944352877,
            -2.3571800674916923,
            5.9780359666990135,
            -4.345687865101009,
            -2.892712039684422,
            2.194120362300193,
            -5.7901567377761625,
            -6.402386198087317,
            1.520913608864149,
            4.619817711993325,
            4.556586866901729,
            14.791608624551582,
            -13.110306390446148,
            4.321220397998781,
            2.966443696633187,
            -9.827602729022392,
            -6.638578694173262,
            4.974923399600701,
            -2.330501480661471,
            4.0924188285928444,
            -12.741517453515748,
            -3.669372093889908,
            -12.967025356526149,
            2.9422820381211823
          ],
          [
            4.05309541627699,
            -6.118729987901048,
            13.497338000123891,
            2.532628115720101,
            -6.202335333566544,
            2.816207071373749,
            8.712248333896937,
            -2.5173923116372188,
            4.7458907629473295,
            -6.059918541338683,
            4.14226972410604,
            -8.240284844699437,
            -15.773046774845803,
            5.1319560478475985,
            3.314763335297169,
            8.841893196725788,
            9.980435466257514,
            -15.516327691839537,
            7.99926175429958,
            5.176881095875674,
            12.821003641807707,
            -9.152271409717358,
            0.4924599469396225,
            9.683112950142744,
            -10.82395828841513,
            -10.630169328078887,
            -8.545923387505455,
            -6.639173980430947
          ],
          [
            3.4057092692114384,
            0.31744219582742356,
            8.54126668886315,
            -2.9422269935586405,
            7.151819967353255,
            6.422673420829551,
            -0.8094985305398575,
            2.4771324915972266,
            -2.8643454155453916,
            9.489876785241352,
            -0.1371915076837783,
            13.617918585606414,
            1.6607668181860464,
            -4.44478368198078,
            1.5889126086023784,
            13.792181808982896,
            -16.910247342146455,
            -13.808858058257359,
            -7.929528627918011,
            6.373860552112862,
            -4.607565910503632,
            1.5541587757027686,
            2.165974558763741,
            1.3784391296326919,
            -3.0893289363490193,
            -7.612646919415185,
            2.4754067459727147,
            -11.11835047586612
          ],
          [
            -11.026860539938122,
            1.278450233202546,
            -7.47788527098772,
            -0.4976690556696627,
            6.477776089459239,
            4.078421630064486,
            16.47173677261275,
            12.010064368066274,
            -13.136124083785438,
            13.641521324986002,
            -15.111403168275766,
            5.542533625521748,
            -3.1336793449190563,
            11.04400652408493,
            0.08775479394473806,
            9.24065534930204,
            -14.249602312261796,
            -2.8955953490073005,
            5.002412579378185,
            -16.14183259255019,
            8.113263942197547,
            -1.0615735999916827,
            -1.1736690815610675,
            -3.8874848495979455,
            17.962848032658414,
            -0.03336777856901241,
            1.5119027302423174,
            -9.280700062758358
          ],
          [
            5.230326123716601,
            2.4580451974007587,
            4.300356626768664,
            10.759704453294892,
            -4.066959373321057,
            3.119195622021874,
            -5.248777776100675,
            -12.340295063206362,
            -6.785127032089895,
            0.5670141831942828,
            3.6127119470830613,
            -0.43661371245837016,
            -7.135095121549687,
            -16.08728205343822,
            -2.2137349624356677,
            11.047112675432713,
            5.4190763190042786,
            2.2670998265308557,
            -1.5168990322829763,
            5.597809091115557,
            0.5518831033529101,
            0.11599529364866318,
            3.4933322240154174,
            -2.617764886441036,
            8.247629045808107,
            -4.701692575333666,
            -5.609423877648572,
            -1.8800061571980957
          ],
          [
            13.817876926739412,
            -8.522974370269559,
            9.138445900386984,
            -1.9063438914569468,
            7.295360304463562,
            -6.885158549028294,
            5.022519371963488,
            -2.177090406715341,
            0.49041173353486467,
            -17.435818791208906,
            -5.979734665696968,
            -3.9974221960538223,
            7.108503882562721,
            -2.7341168856427944,
            -9.499426132046054,
            6.766054149654542,
            2.1996118638654765,
            -5.105186790061026,
            -1.2466966599926532,
            1.50181788250751,
            -2.478862386408865,
            -2.6564113669548868,
            -1.530610214850003,
            1.1661213185722628,
            1.805111200925397,
            21.231923075935796,
            6.40030903240433,
            -0.03603435676520468
          ],
          [
            -6.6310509734836485,
            5.146419657646135,
