{
  "network": {
    "layers": [
      {
        "weights": [
          [
            0.7174137363282767,
            0.31969538643274464,
            0.9902940124607151,
            2.1984743614021505,
            -0.8331116413348851,
            1.4873150844991432,
            3.447368293055942,
            2.3801549577511865,
            3.5217660542956195,
            -2.9050523029273165,
            -3.6474912812484,
            2.179379309005785,
            2.5094814963811456,
            -0.4181938846955957,
            0.36041836271199224,
            -1.1423410185881389,
            -3.344662479561552,
            0.2956952073291702,
            4.8352437086586795,
            -0.318457200581815,
            1.2399414732967513,
            -2.854834370149139,
            0.3458832520021107,
            -0.5775338989044544,
            0.7866137627508161,
            -0.8931496992569413,
            1.6297366769446038,
            2.3583083313840922,
            2.631378989960631,
            0.46305392421238273,
            1.7274931071920614,
            1.1582832844342215,
            -0.9289205284479943,
            -0.8935892308043484,
            2.383059438234891,
            1.1682253804134692,
            0.23673112259647178,
            2.334278823386834,
            -4.226215758904915,
            -3.2970135131530056,
            -0.40867184277447,
            1.2386041982084237,
            4.409325950253533,
            -3.6041199325475812,
            0.39982592607761785,
            -1.1713433452417072,
            0.6999711937138736,
            -5.665468081738962,
            -0.18603538293436694,
            2.140461952474865,
            -2.6643051966304188,
            0.7088237098614261,
            2.098753205873182,
            3.6849635170516284,
            1.0902888285342962,
            1.9258294348217668,
            -0.3725663238199605,
            -0.26359215560892246,
            2.3832486805697197,
            0.8349124849187717,
            0.1631436703262762,
            -3.0283706611313086,
            4.414709691765647,
            -4.134456477328004,
            -1.8283771631349914,
            0.3705841851234179,
            1.3996373828663584,
            3.956165957003082
          ],
          [
            -2.8346786547395606,
            1.078159586068623,
            1.5580628659354072,
            -2.57365229486774,
            -0.38755363811055793,
            1.3464464840774721,
            -1.3158517550914366,
            3.4247159521833463,
            4.349658418093195,
            3.361008880931049e-6,
            -3.8215181814789867,
            1.3050870464915916,
            -0.8136109909825565,
            0.9108007722776262,
            1.7793809974994301,
            2.833604783202687,
            -0.6348994194082414,
            0.9523884328378086,
            -2.631656224004135,
            1.1388738045675229,
            -1.526088940671905,
            1.565432571892659,
            -0.3317494347249014,
            0.10430961243840213,
            -2.5550817270079156,
            -2.3683364429525398,
            -1.1592303223093139,
            -0.9257166551685347,
            -1.7378165911614407,
            -3.0661558552277364,
            4.081446397907611,
            0.04826549148859599,
            0.49022724585151556,
            1.1250995871464442,
            -3.6406900249386,
            -3.2005425092138355,
            -1.822105961562897,
            2.319433781692852,
            2.9195391122021057,
            1.1086467809096698,
            -0.9860527772027147,
            -0.4796953901188878,
            -1.8375383417229596,
            -2.818796570516516,
            -2.6265199121963203,
            3.664270873667083,
            0.6967676788421147,
            -2.3890392737732102,
            0.6989056116094208,
            -1.9098688969683373,
            -0.7852516078349031,
            -0.08827377718623369,
            -0.9027897266652791,
            -1.1726940407595332,
            0.7590309065861423,
            1.6340545272148461,
            2.7681384516136722,
            -0.13132379679452483,
            -1.7425777172626302,
            1.0074968363715873,
            0.030181836984141897,
            -0.47878267895827475,
            -6.285953074673228,
            0.8775930480743686,
            -3.4493342184223366,
            3.5809338707310037,
            1.3118993722817422,
            2.4161451057790484
          ],
          [
            0.3129904193410618,
            1.257082896450306,
            -1.3901820956125919,
            -2.2056449110858574,
            -1.0546037784166737,
            -2.648110117353367,
            4.725537201437963,
            -1.635581399198695,
            1.13041003463893,
            1.5077025708147207,
            1.5183034832626068,
            0.10767405087842463,
            -0.5642903307646847,
            1.3550003072891457,
            -7.319308957873364,
            -0.7337682089620988,
            2.8930261306294742,
            0.2719573555231812,
            -0.2934871156344717,
            -0.9792354804100082,
            -2.1360007125659735,
            -2.1489794678664333,
            1.5728658416027548,
            0.3097535622460585,
            0.9569508825508368,
            -0.7568932522688153,
            5.115982463111873,
            -1.9630904972392316,
            -0.09537515932042616,
            -1.678870649020939,
            -2.734337886160514,
            -0.5568998754738065,
            0.453971841004437,
            0.27869616082768867,
            -0.2296228473781769,
            0.18560292635939005,
            -1.511164698098318,
            0.9821405958198421,
            -2.1239957561780445,
            2.1258250101050993,
            1.267929052425615,
            0.06512077715768555,
            -2.2380611884378774,
            -1.9202292622343118,
            -0.5989392704398843,
            -1.4509131759904184,
            0.7651419528541021,
            -2.145127395894874,
            -2.42301340297814,
            -2.829089895203198,
            0.17119921081991143,
            -0.8627204772724214,
            0.8229783239042052,
            2.810112172498838,
            2.0062213963817013,
            1.2852037350612118,
            -1.2745540832542528,
            -2.227695977302295,
            0.10590956652136807,
            3.5516385225499505,
            -2.337935560257557,
            2.8748604989051616,
            0.792404393142754,
            1.5884302060726418,
            -5.570506585658324,
            -2.6547682150510745,
            4.089795013877677,
            -3.1458112951752133
          ],
          [
            1.104730326064468,
            -1.4211665155764241,
            -2.781920202452252,
            -0.8559534670269986,
            1.5984528307959482,
            0.01826146935298085,
            -0.08748794689441022,
            -1.4106708706263524,
            -0.4254956338291835,
            4.1789529462447135,
            -4.031921602707097,
            1.1147830787382889,
            0.5918987783643168,
            -2.7607680571672546,
            0.6130373416466408,
            -0.39434746508096474,
            0.7025275882151671,
            2.464588160356308,
            1.9579258564886366,
            1.1557636198786503,
            3.9946454927077246,
            -0.595785878320846,
            0.7054974903422178,
            0.43678761129522237,
            1.8377021143377952,
            -0.7620117036984965,
            -2.807311215061538,
            -0.13036542058303877,
            -2.4667465017478873,
            0.6897814882971876,
            3.025337841857699,
            2.4854795550234137,
            0.4518714039298283,
            0.6337262768534683,
            1.396354092928437,
            -1.9520200337342393,
            3.4726122989647843,
            1.3962156158267909,
            -0.6416881861831274,
            -0.16005714081783876,
            1.2878722666423545,
            -0.5038734523963192,
            0.7543126038409899,
            1.8879559508627115,
            1.4812944055557895,
            -1.6174921636458754,
            -2.8632391092973406,
            0.20028198394380714,
            -1.641894046921479,
            -0.8054191612034921,
            0.5039799386864222,
            -1.5157383897913577,
            0.10395487086475597,
            -4.306967629585802,
            0.9231975402407601,
            0.9380859828195756,
            0.8749155805234934,
            -2.147377302522338,
            -1.8236941100413344,
            3.108472772412127,
            2.8224635906927023,
            -0.005792401015012771,
            -2.807629133839691,
            2.140650501966236,
            3.8667268120671214,
            0.023127163377359677,
            0.2686820453491784,
            2.771493026211562
          ],
          [
            0.11452797375628837,
            1.3937797543241184,
            -1.6701374117001735,
            2.56788523730259,
            -0.22022967434915136,
            -1.7754304926877895,
            4.092748448292458,
            -0.2544817708254764,
            1.2118038516132335,
            1.111286908187376,
            1.83095224572506,
            -1.0005068779271202,
            1.0048687145716393,
            -2.559597638186257,
            1.9336284301346285,
            -0.9567095169821693,
            1.4795072676391836,
            2.1795880436494164,
            -0.8854095492915696,
            0.04067445230105404,
            2.1433287772960856,
            0.6805381697793357,
            -1.1369064512114744,
            1.3990868017080218,
            -0.110399187019205,
            -0.39133222597163686,
            1.7491540247264454,
            -0.039374909607049535,
            1.454746332294576,
            1.5994373243479552,
            -4.591947114766943,
            -0.8608122349296234,
            -4.3894615204574015,
            1.6833810643706486,
            -1.4998295903215653,
            -0.09291640564127002,
            3.91539484684318,
            1.928544034761158,
            -0.7160972219952931,
            1.8980907437431576,
            -1.6800916265112738,
            -2.6360756505496177,
            0.19397733178714832,
            2.216720183267774,
            1.2964138808262988,
            2.764956271765952,
            -0.20112703631843945,
            0.7533676157146371,
            -2.2660382962446075,
            3.381500966521859,
            -0.32066708470848476,
            1.1324906342857723,
            0.5559330350563938,
            2.117121371255494,
            -0.9412150560792125,
            -3.397531261436501,
            2.828292251096557,
            -0.43548940681745485,
            -2.612664150431586,
            0.2654612604486155,
            4.0987369573990025,
            -0.0945614157641835,
            -0.8523155492815827,
            -3.303560254227624,
            0.4878703630975826,
            -2.8898680873285985,
            -1.7573290750404076,
            -2.211159025306608
          ],
          [
            0.6966697169930932,
            -0.09068844356123562,
            -1.4157428001119126,
            0.6063715204886954,
            1.1380215507773144,
            1.956637359006142,
            -0.13857924910105346,
            0.7277060978240291,
            -0.3474549075225257,
            1.1634513336467904,
            0.9363822364566796,
            2.4477784556412243,
            -0.2016961472709199,
            -4.948611495997885,
            2.892254350668421,
            -1.7648151769080251,
            2.2077728275274398,
            -0.398373718639798,
            0.0008848582586542947,
            1.6041632875088103,
            -1.5027815868496859,
            1.2369345860028218,
            -0.8788903460758002,
            2.4592074814881566,
            -2.2684585216628563,
            -3.5922096456434094,
            -2.2382135623128363,
            -0.7636866600493915,
            0.1091242469440579,
            3.8275385709616057,
            0.8232019731077372,
            -2.3733914766231985,
            0.19457307310069538,
            4.337595863038529,
            0.2359389989986191,
            -0.8406147128349042,
            -3.1706318105864826,
            0.6226158247956116,
            1.3865497958914297,
            3.1663048350270517,
            0.00805276545189415,
            3.0132287236149575,
            0.8369158127370161,
            -0.11917824490357828,
            -4.30108883919526,
            -0.5796913896158469,
            1.0270513220686661,
            1.6447629187023596,
            -0.21490761370866657,
            1.1468040509073867,
            -1.2238496260349365,
            2.610892557705706,
            4.56682410857429,
            3.0683619573411125,
            2.114453377443651,
            -1.4461757138444926,
            -0.9490761846318285,
            -0.046408157755224666,
            1.8216223354370487,
            0.6464688962627416,
            0.10373879598509064,
            -2.4594169592698094,
            -3.8747095669205796,
            0.9527071197354723,
            0.17336742262207266,
            -3.184176014965884,
            0.871960905763992,
            -0.14337436992393882
          ],
          [
            -5.661810814108951,
            -1.5235968425856623,
            1.882921378869014,
            -2.9708655220144995,
            -2.12989118061929,
            3.4305977340814193,
            2.106411753933495,
            -0.3123876177824326,
            3.179707446861771,
            -3.6965490925467486,
            -2.3567560101716385,
            -2.210564678381855,
            -0.7115310899278606,
            -0.15224918399857368,
            0.6002815305306839,
            -1.5429595151441524,
            0.5699893152010336,
            2.9327728503583232,
            -1.8572938695564511,
            1.96606825349085,
            -2.763241955484285,
            -1.3014645404970695,
            1.2522132602130565,
            -1.2702811012883881,
            -1.4641370290072993,
            -2.4897448295635107,
            2.154375304582326,
            -2.516008357842338,
            1.9049654645825194,
            0.295348950529035,
            1.1615837068775927,
            1.4618539758841755,
            -2.4723783862172346,
            2.4956407420295026,
            0.5015400602018845,
            -0.7247879398915513,
            1.1781134805820381,
            3.1613363934856453,
            2.1275896783542496,
            -1.3066998376571493,
            -0.06487121952142105,
            0.9622871867772922,
            -2.697185089417454,
            -2.052680291652754,
            -4.638097932337321,
            -3.0503917086526617,
            1.0066921887800713,
            -0.9454698232730021,
            3.141978571706869,
            3.0102839093020473,
            0.30605423293237427,
            0.9739525278588776,
            -2.1435496130089375,
            -3.520148698500291,
            -3.8302269884467095,
            -1.9473030911222813,
            -1.800391986209531,
            0.8834421282775,
            -1.9221080318397572,
            -2.0014395857176046,
            0.6746577930509297,
            4.259349093237793,
            -1.0997329489128516,
            3.6021377938902592,
            1.2780965569294254,
            1.3351954567097883,
            -2.5689675891384525,
            1.0417173469971308
          ],
          [
            -0.2805295412777348,
            0.46428039474929905,
            0.2561836100875413,
            0.7027873405882346,
            -0.6486223425331636,
            1.7580079334845073,
            -4.026334491432789,
            0.3235243286405584,
            -4.06866690586525,
            4.188380142206212,
            -0.21613404619308502,
            -0.4718825740227165,
            -0.8913664026463204,
            -1.4639866548090348,
            0.5391947741286786,
            0.4423414861213086,
            0.7691774736539343,
            2.5174505289526588,
            1.816543031415979,
            -1.6448678207232839,
            0.062236310140284024,
            -1.097800209300303,
            3.9950377446290837,
            -2.8128457411584784,
            2.7736744425507034,
            -1.9601723403048847,
            -0.42929055116351217,
            -1.3324544887926613,
            -2.828379803610557,
            -0.018210144951585572,
            0.7730405805660996,
            -2.13903996238159,
            -0.4905890477611825,
            1.9545851904016074,
            1.9535893800537218,
            -3.1400519956402864,
            -1.0118832998178218,
            -1.1991878180109228,
            0.3528675219036722,
            2.2251582316815743,
            -1.5786765290031985,
            3.927783113208703,
            -2.4801565311337783,
            -1.4491927908183884,
            -1.207076759345847,
            -0.28186104703133164,
            3.973359511258121,
            -4.250711041796924,
            1.415522582579525,
            2.1943695442278455,
            -2.572695297679728,
            -1.7058665202487076,
            0.2880893123100359,
            0.8561430288779728,
            0.6547651529099593,
            0.8429008120392298,
            -0.3631625032719922,
            -2.365230079583669,
            2.082959894392489,
            -0.6372419871914519,
            -0.9039190059334344,
            1.5259798726021692,
            -2.9067040707760587,
            0.8002822948902838,
            -1.0492546826372025,
            2.149342431717001,
            0.2708193141524426,
            -0.7954630347213147
          ],
          [
            0.6462631128325927,
            5.841567009537756,
            -3.0382766510379597,
            2.917271522054439,
            -2.01993199475977,
            -1.8879442732223837,
            -1.4663913686548637,
            -3.3621438546549958,
            1.3517847667657361,
            0.6617486710100318,
            -2.5833701909211535,
            4.17916128266651,
            1.9497279021700962,
            -3.708601672015912,
            -0.3164005972272056,
            -0.05071235067170987,
            -2.8920179036647524,
            -0.7136081277814215,
            2.283101532710976,
            1.8078087605711646,
            -0.2370481839193972,
            2.2244293116683314,
            -0.4342024446312951,
            -0.6260308590543969,
            2.297821054183798,
            0.2770813525840237,
            -0.7164835694128772,
            2.0090569783458045,
            -0.66384275683662,
            1.240753256402421,
            -2.237451133157131,
            -2.3862185266983285,
            1.4960082118850495,
            3.225641513327457,
            4.459587534266727,
            -2.4194198819045414,
            2.487429146373867,
            2.0509346210015695,
            -1.3424485695269703,
            -0.7441430400144718,
            -1.1470863356008394,
            -0.43374998411373655,
            0.6696679294603679,
            -0.25753167028766866,
            -1.3506691968953344,
            2.4016154618302057,
            -1.485425892840493,
            -0.9260952885578841,
            0.13121266356499806,
            1.8687902450295273,
            -1.4400532697723842,
            -1.0135475228383237,
            0.7792244361946824,
            1.1230849884820568,
            3.0362037857281323,
            -0.7798306918536204,
            1.248432799309788,
            0.8922082490020287,
            -1.1687351759945483,
            1.9002069637308503,
            5.395198475951446,
            1.3093515506418592,
            2.563083400938414,
            1.551886312862276,
            -0.9795527374076001,
            0.5779136542136294,
            -4.830955469101442,
            -3.7207719641123345
          ],
          [
            -2.137532402665359,
            2.6648566496268216,
            0.16104335637616585,
            -3.646131997444392,
            0.34465569015836633,
            -0.503772427588092,
            0.9511807035700652,
            1.7435782762365932,
            0.45463352872943,
            0.9921626034363666,
            -0.42861490904428406,
            2.8302811144703295,
            2.34357746629108,
            2.54794897930915,
            -2.186900695836085,
            0.4651847986162949,
            0.16194266137462893,
            -0.6761185619364187,
            -2.5074402611171953,
            2.783169090608839,
            -3.249067729991246,
            0.17627678842058364,
            -0.9407133442331587,
            2.492905902550331,
            -2.679131680576625,
            0.28492252788863,
            1.6209814074715865,
            0.6063671734389297,
            2.3890432356896403,
            0.3876104526984213,
            1.937608236203531,
            2.2600933270456736,
            1.4799320365997972,
            0.3839107432745602,
            -2.066790054742064,
            -5.43621462060338,
            -2.5127299518352313,
            -1.4735865640059915,
            -1.8995207484096148,
            1.2566182459874948,
            2.330926865543915,
            1.327836178114574,
            -2.4378852662573185,
            -3.1310486239307855,
            1.8517508915716054,
            -0.26990293312276775,
            0.18045702324709278,
            0.5334656754247261,
            1.3572604304403904,
            0.3511600162552776,
            -1.0646494578423662,
            -4.024931919789852,
            1.571909293741137,
            1.767486620900428,
            -0.9136325272288517,
            -0.8561711619364363,
            -0.4390956820504369,
            -1.4259734921310825,
            2.2827151855578234,
            -3.6479441786883395,
            -2.0909837003769796,
            0.18188211085530898,
            -4.604581181282461,
            0.9202248946571087,
            -4.159364880952753,
            0.01543946517334524,
            -0.49352246114776344,
            1.2643285307603938
          ],
          [
            1.5146483223899727,
            3.4529943991430843,
            0.2916029891379883,
            0.944123764562149,
            -1.2882608565685894,
            0.4108265630062127,
            -3.6267212668181497,
            0.6893247521518393,
            0.42927115864719495,
            -2.0715645580373976,
            3.433343321765459,
            1.2912052550982878,
            0.9634892815041711,
            1.2452778853408268,
            -1.773917581324908,
            1.2667341001209385,
            1.236516497153404,
            1.6416106872748533,
            -1.352176624363884,
            -0.6748373567831663,
            0.5864070378585191,
            -0.10788328149117206,
            2.1866969776006036,
            2.0578765806486,
            -3.342588420428623,
            0.19738333868995267,
            -2.9343234901530977,
            -0.8505628869564681,
            2.9414047830609307,
            1.6769123292580554,
            1.0473385377800908,
            -0.6932283217360957,
            0.5023970164985017,
            -1.2583070458665586,
            -0.7452732064470463,
            0.7807728337736954,
            2.8804025458579026,
            0.6196451257890077,
            -1.912697572579924,
            0.18126447204338716,
            -2.0540488595365742,
            -0.744185661677522,
            0.803392366234281,
            1.4628145889356348,
            -2.7866947110551603,
            -1.0541691768974126,
            -0.08588683532223204,
            0.25395568004338664,
            -3.095880909458706,
            6.792296528670477,
            -0.6011838436029036,
            0.873955325690986,
            0.9046848100362067,
            -3.6520838002948013,
            0.02382198011470349,
            -2.391642384066908,
            -0.8028598618853902,
            1.3839931228365643,
            1.0463646724992506,
            1.9712015903195272,
            3.4217709486681556,
            3.0246158760382214,
            -0.6066121700725751,
            -0.22521492078714972,
            -1.8169647371780726,
            1.140333521577762,
            1.4850347361411083,
            -1.7912810734483093
          ],
          [
            -1.8875850906489513,
            1.2356848952206096,
            4.366693987144412,
            0.19212677533982883,
            2.3947558721051188,
            2.225329245627487,
            -0.21291989101384742,
            -1.2128721481236096,
            -1.5405857881719287,
            1.1219893663656901,
            -1.4102927677113315,
            0.5839388227626001,
            -0.9127421929060671,
            0.9390596180007243,
            -1.3850505733748695,
            -0.691900119352617,
            -0.6325256828102779,
            -0.07284014572738862,
            -1.1309498452920093,
            0.9627179039951779,
            1.8365492219638901,
            0.3805834158384407,
            1.0830879564327232,
            -3.302829337674406,
            -3.05123078353631,
            2.459742721570324,
            2.6323231147515833,
            -2.585215730725023,
            -1.3513281828317016,
            3.3677083107128185,
            -1.0153125241440104,
            -1.0548686014932613,
            0.5686220121485193,
            -0.35343366025325035,
            -1.3372016634803687,
            -2.395200635260759,
            -1.3754418149852892,
            3.1656263420772364,
            -1.7192649821648944,
            0.604854361383563,
            2.349598406301355,
            0.36659235881178925,
            0.3266878391028629,
            1.745550118208141,
            1.1035038822108305,
            -0.7335031047116648,
            -0.5512270943313752,
            0.8014224124636709,
            0.11936336813567097,
            -4.156595139025837,
            -3.096988258630687,
            0.05184031266960437,
            -0.22899898455189024,
            3.8915433905570933,
            1.773386402866875,
            -1.1242102778724128,
            1.559187164500222,
            -0.8198188072641545,
            0.6263546599612873,
            0.7434160948056862,
            -0.749249422494842,
            2.226465350001995,
            -1.059118357395879,
            -0.14603552629727867,
            -0.7403561030133691,
            3.7405735225915047,
            -1.31061911100589,
            -0.1881427485386548
          ],
          [
            -0.8897062524473363,
            -0.5479231771314574,
            -1.0636438299278375,
            -0.022315305538597507,
            0.7024441828686419,
            -0.4015531054287892,
            0.23270551456525626,
            0.01835188320308892,
            -1.9785720260424369,
            1.6858615795241485,
            -2.240327350360356,
            1.7315245559684465,
            0.9597961186455594,
            -2.2036022992308326,
            -0.09284237688217184,
            -0.3643973025638271,
            1.4160359751862701,
            3.08080237044602,
            -4.258940004252959,
            2.390463076798868,
            4.240837441541079,
            0.8818918064928447,
            -2.2672663298001057,
            0.3307925449149677,
            1.5359597269407752,
            3.1608046736958975,
            4.570279533882172,
            -1.2103129729559363,
            -2.3978511405761753,
            0.6861557047244233,
            1.5484391553326318,
            -2.6461395313338882,
            5.16742136460894,
            2.089052110291467,
            -0.9435103047502058,
            4.776431779818154,
            -3.023816453125693,
            -1.572991016891119,
            -3.143805818498689,
            6.5162854281426945,
            0.2098488640053418,
            1.4174640417208049,
            0.7397276213076319,
            0.5436387753135653,
            3.1042237712087335,
            -1.1553521873101271,
            0.4072749262022943,
            0.3775211359173847,
            -0.20185076315217848,
            -1.269552938762038,
            0.31547573986820365,
            1.2928800690199107,
            -4.320208665383726,
            4.631676852371416,
            -0.16988102540711886,
            4.354075164183365,
            -0.9936978734659385,
            -2.6449834735391913,
            -1.272535328225052,
            2.3928325048713104,
            -3.879489120411116,
            -1.1255233189879168,
            1.4545710197452997,
            1.2777325569624467,
            -0.37278243321913546,
            2.7521510971341407,
            0.5042944029915957,
            1.2887191602385584
          ],
          [
            -0.11450732276135778,
            -1.6380765078501394,
            1.410761491425653,
            -0.7056685926615369,
            2.959847671304302,
            1.0229692603603644,
            2.7624023734074834,
            3.4511346449428983,
            0.30454646797823703,
            2.2754156414204254,
            -2.431513493430799,
            -5.068872278104926,
            0.342400209880031,
            -2.4938346627029437,
            -0.8746500288801923,
            -0.4815157288989231,
            1.6124582029202363,
            -2.924560408483633,
            -2.5387336591758327,
            -1.4192419415815152,
            0.8404165990056072,
            -1.7060678341819895,
            0.13785427154137786,
            0.5894310455303029,
            -0.685277888550136,
            -1.3594043432903469,
            2.4673818189492045,
            -3.3325730251356274,
            0.5250866066092968,
            -1.1348915100007317,
            0.7070836980270848,
            0.9773394644809625,
            -2.2642759418546374,
            3.113816624991005,
            0.9255957579825085,
            -1.9249776889130858,
            3.2200462375990044,
            2.1239262662904883,
            -0.6087688556091717,
            -3.918873859448501,
            3.3477613208391213,
            0.10809663391602728,
            0.6744180823964402,
            -2.5481983986564503,
            1.2555727846565268,
            -3.4612244727786465,
            2.0607801529529994,
            -6.766269821513288,
            0.04607295536581102,
            0.9301556111377283,
            0.5820732305752456,
            1.0848362996723102,
            2.6760249980527826,
            2.2876718839407526,
            0.15173816876593513,
            -0.31035954286673223,
            5.220590786805605,
            0.7668338508187726,
            1.8498292780035714,
            -4.656922607926993,
            -1.6242508649818412,
            0.027538532610280664,
            -1.3550550204791547,
            -0.4916680795417229,
            3.017699122956225,
            -2.4254097828672365,
            -0.34251181132797587,
            2.478525122169389
          ],
          [
            -2.151547159533692,
            -3.861805303834476,
            -0.03924811099270464,
            -5.094401956693844,
            0.07525225021361279,
            1.7216134732172135,
            -1.3985848138444534,
            1.2789551626821987,
            0.414406995676199,
            -0.5282315304740469,
            2.2211633197514624,
            0.25421755494651566,
            -2.875698771121842,
            0.7010602020967192,
            0.3484712742297935,
            3.9526828258420634,
            -0.8958591658218205,
            -2.44909629737924,
            -0.3345827754801612,
            -4.245381923819771,
            -0.6398059310479319,
            2.996790813161182,
            0.9191463898932885,
            1.0833581096152838,
            0.9533327351114931,
            1.2241153683466508,
            -1.0764986630816502,
            -0.8814017642971335,
            3.104776854217132,
            -0.20426927695516714,
            3.1745541901606567,
            0.6719238425682117,
            -0.015740619942221534,
            1.0389473031305014,
            3.5691922624408106,
            3.260636419470556,
            -2.573910421363616,
            -0.6012076827247405,
            -2.1025055813987303,
            0.45156484531531815,
            -0.44347250622462153,
            -3.327427804853924,
            0.4221471598587937,
            -1.956250727334824,
            1.554449621800549,
            -1.5248666159432336,
            -1.5596717494959005,
            -0.9839079220092108,
            -1.2342422052306756,
            2.250691654140206,
            -1.7702624096162922,
            2.714556325340375,
            -4.260699171472093,
            1.2944609087388608,
            1.256414508899108,
            1.8690435469584648,
            0.1675123783220237,
            0.2912608621040378,
            -1.1219244158080708,
            0.6281800485692763,
            0.17287290281371936,
            2.48563882671184,
            -0.5535718875197018,
            -1.4125249328682263,
            -2.888028365614941,
            0.2548547111639292,
            3.730591937327579,
            2.927152151898719
          ],
          [
            -0.5977353154082528,
            -3.2329094139577834,
            2.720039366000312,
            0.19649980514919663,
            -0.11014115891543777,
            -5.220759319523229,
            3.0345049037177856,
            1.910873242783342,
            1.0514551143295872,
            -1.0367605200697105,
            0.7814032729069313,
            1.2815072983917615,
            -1.4437059460396253,
            -4.7846274239440625,
            -0.15346688765124,
            -0.10291720286838607,
            3.558632217376222,
            3.647765948342286,
            0.6984238778389517,
            -2.1900088160736146,
            -1.63649310511804,
            5.510611114247335,
            -0.5624630101121665,
            -2.206867920893186,
            -3.7179249092038704,
            0.09111358317259127,
            -1.366663582648325,
            1.3255416852619486,
            -3.161740892230431,
            -3.362417630097179,
            -0.024797903183295833,
            1.6218994628112557,
            -3.358202947252528,
            -2.6644009176639707,
            -1.4689065369165202,
            -2.4503637166734578,
            5.022870229427229,
            -3.099517517370536,
            0.21314851203221774,
            -0.6360159940680814,
            -2.0866208018763017,
            2.54563787057233,
            1.5728364505431958,
            2.4347062589789448,
            0.30606263789531296,
            0.40806586139270346,
            1.500247102835902,
            1.247985488576427,
            -1.4245667129574076,
            -5.2670577994883,
            1.944274785647548,
            0.9573862751300353,
            3.9169794575019656,
            0.9640834360900753,
            -0.23762317189211304,
            -5.623415723580952,
            2.713906502203134,
            -0.7757691143512301,
            2.3673160983073025,
            2.018441271214934,
            -0.20267134954788996,
            -4.3206742893954,
            0.03188371721756306,
            2.7223143614960548,
            -1.4160475636275662,
            -0.5185911591099659,
            -3.9031820764299474,
            -1.8334294434622236
          ],
          [
            -1.1897098542106188,
            1.7840973534302744,
            -1.9114892201583316,
            0.7141364978089983,
            -1.6296569145123319,
            -0.25014316226654953,
            0.5950032944344152,
            1.9237712924292056,
            1.3302492322445145,
            0.6244346131835818,
            -1.1560046990492063,
            -0.05461246730519953,
            -1.9206277314258908,
            1.180579649081951,
            1.790183115467403,
            -2.263414006262973,
            -4.177022379336827,
            2.4003994922699246,
            1.479015411964763,
            -1.6033294028725618,
            2.075733890652524,
            1.5122261167280406,
            1.028634323446564,
            -1.1163117650425824,
            -0.31883012550789763,
            -2.9130505760519676,
            -0.6178908959378477,
            -2.230658292951242,
            0.32850348082469566,
            1.907922976750533,
            -0.3373128396270108,
            -0.7803726199172534,
            2.296237173498014,
            0.13880722433368314,
            0.6981501057398305,
            -2.238514702073022,
            -4.469908650571441,
            3.4212570098412556,
            2.8687917794955973,
            -1.815396047903522,
            0.12725158379600526,
            -2.3127740816448656,
            -2.4566337488419396,
            0.10572064742227362,
            3.4981591341431906,
            2.523156456964092,
            2.5167398193552386,
            3.3105015522000065,
            -0.5489951659172407,
            1.0635559773321281,
            -2.341567243545723,
            1.0429409910616734,
            -1.4773175614321687,
            -1.2530766616570672,
            1.3499414817506028,
            -0.6176640273559596,
            0.6983587120159305,
            0.1800905227866415,
            -0.37071523683661967,
            2.036892899452283,
            0.14296275018248045,
            -0.4680342886525741,
            3.3219790355799974,
            0.6670957317647843,
            1.0828197835060407,
            -1.1213763651363875,
            0.8730411119066781,
            0.6047079786503747
          ],
          [
            2.5577072317934517,
            -2.39278816051879,
            -1.337613386375259,
            0.6768138927206986,
            1.3030348562736886,
            0.33154430319534905,
            0.223609096209206,
            -0.6813654943947359,
            -4.559036491764158,
            2.7373283768756456,
            0.5630088491670868,
            -0.8603530887590499,
            2.116166661375627,
            -1.9722030167415137,
            4.201514325568378,
            -0.22827747810364357,
            7.505468467729678,
            1.191733824507374,
            2.5092840069644446,
            4.667598536806501,
            2.2864932678580434,
            -0.4459188617946182,
            -1.1367504599502214,
            -1.8366413449808543,
            1.5233295973344092,
            -1.2032312074449605,
            -2.3057373711724036,
            1.9624163502249825,
            0.3901502429801486,
            0.4416439005827646,
            0.7186187466384567,
            -4.313467781290616,
            -1.152146272422116,
            -0.47459647550844236,
            3.981525445927727,
            4.949210966892759,
            -1.7633494988198577,
            -2.0594087521750795,
            -2.467744091060506,
            -0.4367458386176336,
            -0.25814780974485796,
            0.3241980355749883,
            -1.0796894835083137,
            -1.042391946679842,
            -2.2396379181454416,
            1.7146276468876787,
            -4.206891487503539,
            4.258392545673767,
            -0.4321830676395043,
            -0.6289256359738813,
            -1.529661564269068,
            2.000364340907677,
            4.4897294174420495,
            -0.12341840823763749,
            -0.2095849967297992,
            -2.4474074732342084,
            -2.6112812324357897,
            -0.9968055503362558,
            0.8353472436776834,
            -0.662665574760332,
            0.3390454965655,
            2.4202826487174027,
            0.654220803878628,
            1.9969349480058203,
            -0.6575936855130929,
            -0.025494485781783996,
            -0.5238962384017031,
            1.2258610545784379
          ],
          [
            0.9343574401134926,
            -0.5280621264453201,
            -1.3847473402529291,
            -0.7071193552770055,
            -2.61086508928597,
            -0.6136842720585558,
            1.4352022036477932,
            -0.39606424804363305,
            1.8879737917166448,
            -2.365222298884241,
            -4.649493531604267,
            -1.8356317384335952,
            3.084344418497478,
            -1.8599935593124484,
            0.8041413847009917,
            -0.12953337536298587,
            1.3996509334927956,
            -2.046733006794588,
            -1.364238305425134,
            -4.979122542501558,
            0.5314342722254809,
            -0.46488430573243694,
            -1.7068931228770636,
            -0.9090386567680415,
            -2.9512027110172707,
            -1.0408301431928713,
            3.138179432281514,
            2.7305524287659613,
            1.8541111272933786,
            -1.0103426669641324,
            -4.458329362272907,
            -2.8599122627039035,
            -0.8019867584586644,
            0.666004223872533,
            -2.2390952127488863,
            -1.8693408390815285,
            -2.2442256811851093,
            1.377139194553913,
            -3.0587270659400754,
            4.100292267507931,
            0.47218467598024383,
            -1.2517923602254608,
            1.595924757798735,
            1.6026735894325732,
            3.0439161321078734,
            -1.6345701429938295,
            4.1078631342462195,
            2.518882500636362,
            0.4121251826226177,
            0.2958120557171512,
            -0.32851243669812924,
            -0.4244715991351712,
            0.47546041232699,
            -2.6273942104349137,
            1.6224104412282103,
            1.2553699994619494,
            0.11464131325539384,
            1.122239015374027,
            2.596303847926656,
            0.969066399053075,
            -1.819628924817121,
            0.5503081613405707,
            -1.083780442796317,
            -4.3701111873256595,
            1.2170449796854583,
            1.6734219181316803,
            -1.77231146392629,
            1.0199393344961323
          ],
          [
            -2.3117258508971754,
            2.2039546300507786,
            -0.1104528105635871,
            -2.0734942610640696,
            0.35227265026426247,
            0.5292540508259929,
            -1.015931582886632,
            -3.1952642076892337,
            4.300221033163029,
            1.0592623264866,
            1.0580093410509919,
            2.3397777299745917,
            -0.42063070569751326,
            -1.0325870720300978,
            -2.694499132624835,
            -3.0202866480643484,
            -1.33038186170828,
            -0.016448127695779153,
            -5.715357887594446,
            -0.5741947155846195,
            -1.4054180511849776,
            0.5716471872392529,
            0.967230392149631,
            -1.4369085554112422,
            -1.0413329313699349,
            -0.5687709177806437,
            -0.3853628890391142,
            -0.25904842409509904,
            2.306746222939419,
            0.9276637418729226,
            0.5513489184759114,
            2.9669565798311037,
            0.7251732924844057,
            1.2766119137745084,
            1.4163639677907012,
            1.3816579805571458,
            -0.4415396625523169,
            -0.7267284610836808,
            -6.823285038034568,
            0.07610521416118601,
            -0.9666106845039381,
            -0.17832051620842793,
            -0.9813343380552337,
            -3.283111380748015,
            -3.7797590986416045,
            1.486523377228363,
            -0.052622608931535725,
            0.7933233598061593,
            -1.0215836759814994,
            -1.9241271014302281,
            -2.6851433178571793,
            -0.3634165530330944,
            0.3616283253527894,
            -2.4005784742836487,
            2.841109495992674,
            2.311180550599466,
            0.4928020313360417,
            -0.49778185649222106,
            1.1056188928210036,
            -0.8703169392716645,
            1.7373805848165613,
            1.161876370964535,
            0.7856971351267672,
            1.3191818572793363,
            -4.221279045336912,
            2.815967562210766,
            0.7369264360778408,
            -1.1762383362890092
          ],
          [
            -1.6344068195005084,
            -0.8395075217764697,
            1.1823601237681465,
            -1.7641288548576823,
            4.96191284691974,
            -1.5089002961212046,
            -2.0346869827566527,
            -0.8122020664692344,
            0.11723530108206057,
            2.7967672565699857,
            -0.7255045528688189,
            -0.016759675957277863,
            -0.8290880690042713,
            -2.0235864599446027,
            2.9884289603157885,
            0.4965683544818021,
            -1.0768350959325743,
            -0.8619739358303184,
            3.7346188270437817,
            1.0264899240690237,
            2.6268555296849487,
            1.5797054332547151,
            -0.8888325499918723,
            -0.25745240232696986,
            -2.4158597933586012,
            -0.002323870144247453,
            -1.7598577046028798,
            1.1950595932773291,
            0.508623244781774,
            -1.5603968978914908,
            1.7399545925818183,
            0.14875886108305975,
            1.708285416230418,
            0.88785289752784,
            -3.034920918115876,
            -0.9742126982771903,
            0.3190071638404361,
            -2.1416795983049184,
            -2.353146269160824,
            1.1477766739894024,
            -2.84410196543172,
            -6.9270556378051396,
            -0.8228725947597813,
            -1.0659115394336702,
            -1.8125118984615096,
            2.2674547178945166,
            2.1128881574693374,
            -3.244206744633808,
            -2.8800874251372797,
            0.8587428401357097,
            -1.395825084401845,
            -2.1785927807270697,
            0.36844166402760087,
            1.4932694513156939,
            0.5504093955909348,
            1.5969661965592532,
            1.5196860191144166,
            1.5290208996714099,
            -1.0933801708026625,
            3.9293655641556837,
            0.5927101298932747,
            3.4185022204602595,
            1.7759458300553284,
            1.474017279448678,
            0.7739837593195336,
            1.7657837063674335,
            0.15845492626300486,
            1.6889119164512125
          ],
          [
            0.6440913250699822,
            -1.5238306659945162,
            2.6242422078386913,
            0.5825532612842084,
            5.069614658326825,
            -2.1510096530462017,
            -0.47825500074721566,
            -4.641243843644824,
            1.1109496180045275,
            -2.8446818033734393,
            -0.48105027201514555,
            -1.3708796557636063,
            -2.6053052195989266,
            -2.1452661795114976,
            2.5583202343107168,
            -1.268210036728421,
            0.4037935758494362,
            -1.1015122572370668,
            0.14698855441528336,
            -0.2895672188375982,
            1.6810241016149512,
            0.9382333995505743,
            0.7422547548668039,
            1.127374114204618,
            0.38810884640952775,
            -4.941608494340374,
            -1.7111418311074769,
            -3.69857344706082,
            3.3930583648881947,
            1.6933147517679155,
            4.246867495749791,
            1.44253213075974,
            3.0461608333506973,
            0.1021779383147712,
            -2.452272837030813,
            2.821062876076571,
            0.41739521882495867,
            1.087830317821243,
            -1.8843597277731157,
            0.5042432512500515,
            0.8893683935975265,
            0.840787228004661,
            0.19538136767372133,
            0.65059117009839,
            -1.4772356397655748,
            1.506543869011702,
            -0.23807764166795872,
            -0.6290288752699622,
            -2.258812364515513,
            -1.7046330638723388,
            -2.4602000735322633,
            -2.80805101302941,
            1.152419612145709,
            -0.6932831216334183,
            0.46255383072757367,
            0.08452578097796776,
            -0.8298676608771263,
            5.6651556349019865,
            0.09754593107344889,
            1.0090470004369088,
            -3.7613700471757645,
            -0.4310318076416114,
            -1.243180896211714,
            1.0262420904450724,
            0.04426396993376425,
            -0.7270517778552147,
            3.0679996622044396,
            0.0664006352084352
          ],
          [
            1.192382047915887,
            3.9608972742857373,
            -2.0680873215828743,
            -1.5933553597734182,
            -0.10330563427547995,
            -0.009239000229566807,
            2.285910480114145,
            1.8431914987986302,
            2.0863408707288436,
            -1.5318478647302676,
            0.44745602129423345,
            -1.0476029270873184,
            -2.7069651463815405,
            0.19885600908560233,
            -1.7347881347016467,
            0.26118337337291775,
            -0.7178409052995984,
            2.707818948670535,
            0.10596746054995654,
            -3.497755178303884,
            -0.910141881110172,
            -2.1015511611635347,
            -2.2389855868723276,
            1.133503900112251,
            -1.4595586226583674,
            -4.669208082969877,
            2.9623361527072887,
            -1.8907427893804156,
            2.109251007846574,
            -0.7163106292542858,
            -3.862021747686546,
            0.5392525009319474,
            0.530022189342433,
            1.894533929369489,
            -2.0130964794665966,
            1.2162386206880316,
            -0.27739914475322996,
            -2.4950241527110166,
            -1.5380416759664577,
            1.3613392340405508,
            -3.6258964077091576,
            -0.17341727052980607,
            -1.6973777563005266,
            -0.9365356364978934,
            0.7008134991545418,
            -2.3278032787721106,
            2.5421670262524008,
            0.585318838862443,
            -1.1063901729869463,
            5.037930409681598,
            0.5963922850734622,
            -4.177353304805313,
            -3.396817538037714,
            -0.8417078158790965,
            3.0870296861811406,
            1.6199397762388843,
            -0.8462585969485901,
            0.8046862053458119,
            -0.7868873581310782,
            -1.4362681177960617,
            -1.5900060199747426,
            0.7867665041739316,
            -3.592393595482906,
            1.6474163869645633,
            -0.3506231666210804,
            -1.7803499725737442,
            -0.6448866510151096,
            -2.736674651614565
          ],
          [
            1.486463111149842,
            4.140472765325509,
            0.37951372013822715,
            -1.9055695446227272,
            -1.4664065622367963,
            3.0680049582957247,
            0.7237579063529602,
            -3.786684798856621,
            5.063143444362902,
            -1.6130172241876968,
            1.4129937530233085,
            1.7961243034550138,
            1.1371801616061135,
            0.8934095505192364,
            2.17340707992997,
            0.28827238087545554,
            -2.3019547670931706,
            1.893621837639436,
            0.5144823785683089,
            -1.369859388110542,
            1.5564659296971852,
            2.042674558574656,
            3.939828044482556,
            0.4473239172645485,
            -0.3023994458142644,
            -0.13076210823603665,
            3.454739487578805,
            1.4071574545324972,
            0.009882308129516126,
            1.9832404975222975,
            1.6260176145565504,
            1.4362417953695255,
            -2.45479822527657,
            1.4365344508679914,
            -1.4959913945808745,
            2.683206513840327,
            -2.2338772461913923,
            -2.5791797725077688,
            -0.7987307612476624,
            1.043693235535727,
            2.486332737028271,
            -1.511137399495148,
            1.519611487651128,
            -0.18644669541498943,
            1.1955353489589835,
            6.8943568586227535,
            -2.2513025825018023,
            -2.5459308315307845,
            2.7115238737600507,
            0.47816992403459346,
            0.02525757801396073,
            1.0603830234612084,
            -0.20272331006969718,
            0.09030928464181917,
            2.0223336871721864,
            1.0715996554452831,
            2.418932071173473,
            -0.07892609574075873,
            -1.366526296653381,
            1.8116288750309095,
            -0.9020743184266695,
            3.2440046436199474,
            -0.6579325545916059,
            1.1993694443890799,
            -2.78065724454736,
            0.3605806035443553,
            0.6627070380859973,
            -0.22520857007805045
          ],
          [
            1.7404986933888535,
            0.9943532766373687,
            3.369718941539951,
            0.5214704956604189,
            -2.510777527913879,
            3.6910280100210096,
            2.4483154820089275,
            4.410829557506078,
            -0.18795894849767972,
            -0.7858900693951463,
            -3.8409482767514707,
            0.5041205994786678,
            -2.3015734928621967,
            -1.3518376855614385,
            1.2988760742899275,
            0.6284143038102781,
            0.2775939496243479,
            -1.0707913054578104,
            2.4116479877915915,
            -0.806569815049127,
            -2.0764644765032365,
            -1.439623247150829,
            -3.287679732090067,
            2.0151512990641076,
            -2.181224547617517,
            5.224824007200635,
            -3.243020330627293,
            3.0194939534621423,
            0.6910227513775029,
            -2.1678246462857387,
            0.160326812787176,
            0.08557738215309668,
            -2.177431837925259,
            3.0784324614845047,
            2.4285050371933465,
            -0.9925186797033316,
            0.41282080809375143,
            1.1608976467003336,
            1.7126314437372778,
            -0.9087688901700743,
            -0.8286217560970706,
            1.888902961531645,
            1.6354806573159406,
            0.16090851763119723,
            -0.9508941675728001,
            -2.6149907747178713,
            -0.16616622557598842,
            -1.0782081009262166,
            0.39645346367930206,
            -0.8142824787290469,
            -0.5603739189925703,
            3.178663743606703,
            3.994180590925134,
            -4.774469499790943,
            -0.4398567711341566,
            -1.5852174770559628,
            3.581409639895435,
            2.693653692239004,
            1.290849568234497,
            0.16242765276171037,
            0.9045067079848181,
            1.0311658705749727,
            -1.7605336301080217,
            -1.149844334297331,
            0.8633285508783778,
            1.695696412835838,
            -6.647880685816003,
            0.7605866476194245
          ],
          [
            -1.1209340599780453,
            1.8612662325410216,
            -2.7447517114339237,
            -0.17900905274905152,
            -0.3788990502988886,
            2.1675321257829836,
            -0.6297952954425163,
            -0.3421093410798863,
            0.8243157685682092,
            -0.21563066109864484,
            -0.5347188286180354,
            -1.8194331333655225,
            1.7042022319842456,
            -6.872392679716601,
            -0.30255775876455526,
            1.5897269932531375,
            1.0834377325282478,
            3.051631108915369,
            2.1752342118503263,
            -0.42299117696312694,
            -3.0596687211775473,
            -1.935699145243844,
            2.594163393141901,
            0.9813806138254433,
            2.47565217487768,
            2.197489372043729,
            0.11165802574158623,
            -2.201827203671443,
            0.8465217193896779,
            0.09782480566977814,
            -1.7027119769957588,
            -1.2100186665161234,
            -0.6901944418436743,
            5.449799536913384,
            -0.0390625939650637,
            3.40305350955837,
            -1.467182634371291,
            -5.004811353176732,
            0.8457912906563984,
            1.0535314305300827,
            1.2054036468478577,
            -4.128385918482908,
            0.40785939820563233,
            -1.6990567671679129,
            -2.125074774796626,
            1.6310159524151593,
            -1.107848858426408,
            2.7988210597403818,
            -1.339748765439668,
            -0.7688695157896007,
            0.738469748783103,
            3.4027487850529745,
            0.5528419065975743,
            -0.021330945032067006,
            1.5581816410373075,
            3.3495734597827598,
            -0.14059648680421233,
            -2.2976401625026073,
            -0.9486901264743478,
            -2.913273426234488,
            -0.49133598329234285,
            -1.167674532047905,
            2.1574713537497807,
            -2.2211380291502225,
            -3.4481850086242147,
            -2.972708719216732,
            0.1922873387044143,
            0.21461112260241988
          ],
          [
            -0.9311413081072519,
            2.415875338923454,
            -2.8989336067392273,
            -2.2815867057712045,
            2.824448683550365,
            -1.565115564382927,
            -3.7059026329933715,
            -2.999331126275403,
            4.590014553566135,
            1.9214467828068966,
            2.760546342188,
            1.231685656135519,
            4.507597620113591,
            1.1748058373321482,
            0.427178078906693,
            -2.7809850033712435,
            -2.9295273732352096,
            0.03301188342575795,
            0.03212004486639991,
            -0.6073452038811202,
            -3.6368346337658837,
            5.464067751731643,
            -4.194670639273799,
            -1.586667784793217,
            -1.9168281224267225,
            5.872560576796987,
            1.5737834504525743,
            -1.3318877177397832,
            2.8706236388356854,
            -1.9343321074201103,
            2.8617989991508246,
            -0.6931591369648561,
            -0.32495619490723276,
            2.5021727913299565,
            2.6993430231584274,
            -2.3156977545098374,
            1.890883836209961,
            -1.9528229607113288,
            -1.946262421875837,
            -1.6096531601837036,
            2.552013845810343,
            1.744779927335557,
            4.417181392728472,
            -3.3593996188148574,
            -1.8707667436965763,
            1.3264265377916713,
            -0.3142469884341351,
            -2.2026368324973222,
            -3.8033740858346614,
            -0.6659635921659499,
            0.014592595233149763,
            3.1923388350428494,
            0.6503454292463473,
            -3.399339145594131,
            1.5891999578112033,
            2.413332139578107,
            1.1702399785320254,
            -0.7877324461936578,
            -0.5331141911049517,
            0.7683110359710809,
            1.8053371133432754,
            -3.9286795487311266,
            -0.9794518413788889,
            0.16677664482825658,
            -1.5498392267494705,
            2.3368171091857377,
            -3.6137717523918873,
            -0.5348897033352568
          ],
          [
            0.33601767482175227,
            -0.766769434894824,
            -0.01820462557748856,
            1.4512378743851633,
            2.2083203531797735,
            2.1238341515640875,
            0.23480915205937425,
            -0.6806323930651552,
            -0.23701155396804713,
            0.09440155490180757,
            -1.1190588810919606,
            0.9879938390670912,
            -0.15291608317406685,
            2.163811025319354,
            0.47804446291997577,
            -0.6221841174789339,
            -0.6354074088323264,
            0.44934332398701327,
            -0.1489742205752429,
            0.666436563853798,
            -1.2219102554387167,
            2.66649728187922,
            -1.0199287849731862,
            3.6423785388813648,
            -0.5932337705496221,
            -1.9930172983803989,
            -2.997882710321951,
            -1.6976340849945182,
            2.106571547842255,
            -0.21861286180778716,
            0.22176408764597744,
            -1.4311506686648225,
            -2.312338235816933,
            0.5877405102695639,
            0.6424033233521599,
            1.5048064567135366,
            1.4014599686379523,
            1.5488780243073557,
            1.7653530425197692,
            3.839477549988146,
            -3.414525916505274,
            -0.7463817717022172,
            -3.6315729909365393,
            -0.6249110060822295,
            -0.6122972908102021,
            1.882386986312421,
            3.8971362551592423,
            1.0143660751005643,
            0.6753300227654468,
            2.569894835317123,
            0.9152530609130995,
            -0.27060959909210114,
            0.3068519207439946,
            2.026541090341811,
            0.6732797824115306,
            0.5141712089623705,
            -2.7759824897278707,
            -0.4853854564950934,
            -1.510038513293508,
            -1.6363311316707256,
            -1.158411338526818,
            -0.3200977241623519,
            -1.8271435902362567,
            1.338164272202501,
            1.7066804061990277,
            0.5139597028283036,
            0.9450358103996112,
            -5.071011996468295
          ],
          [
            1.5150087196742588,
            0.43845340599396104,
            -0.5820563115844309,
            3.258731829642153,
            -0.12434264419245011,
            4.083626832010494,
            1.9203034647483992,
            -0.6620576887658132,
            -1.3517012517867557,
            -3.351889754891898,
            -0.22755718497473998,
            -1.7605645133700492,
            -0.3749156114509521,
            0.3384564439659036,
            -0.24323320248731867,
            2.5152080515585937,
            -3.5165907194372226,
            -2.818925719117533,
            -2.6543394928990507,
            1.8732402328260054,
            0.8914205881744581,
            -1.210247306874357,
            -1.038529305189804,
            -2.063069789295656,
            -0.8180937496154326,
            2.00818461243595,
            -0.7656014516192478,
            1.8113181741244664,
            0.3058115621130982,
            2.572665286374297,
            -2.9793769575058784,
            2.5867475795947854,
            -0.5628196445386165,
            -1.571732016956446,
            -0.49098646851440025,
            4.04873738556837,
            -0.3626960488798535,
            -1.5815741077388408,
            -2.5721763221656357,
            3.002791725192144,
            2.8430258667604265,
            1.1121133289367875,
            2.59355162532544,
            -1.5048176849163926,
            4.444394769233785,
            -2.173828793344184,
            1.0062102030903228,
            3.9639089687595757,
            -0.40972560894195836,
            2.669206107710214,
            1.5361081002085086,
            0.11981985606243475,
            1.2031719575036668,
            1.6154723225475929,
            0.3308101312267791,
            1.4478614195842419,
            -0.9877956533452572,
            2.054774861642248,
            0.987681734816458,
            -1.6471370213136791,
            3.793708631536489,
            2.028838420693349,
            0.6091340724113133,
            0.5361016642291458,
            -0.4773767170164539,
            -0.10488904715829306,
            -0.3056633051536153,
            -1.6829416584556682
          ],
          [
            -1.4139153943499227,
            2.053188097226546,
            2.026282377202512,
            -1.7968809272853474,
            2.3134356044761804,
            -3.048061772008552,
            3.387487505980708,
            -1.3175014391336055,
            0.7831329876462984,
            1.5912404428337852,
            2.6548056055386104,
            3.3626441510387295,
            1.4838536058612513,
            -0.5587432295261092,
            -1.1207727646768872,
            -0.876643857413641,
            -0.4325777639735085,
            0.15371837544457448,
            0.4492707554803086,
            -0.8855542722345584,
            -0.5291670727735778,
            3.754585780264594,
            -1.4441975379044865,
            0.2220183328964102,
            2.0463627127166513,
            0.2600265414393038,
            2.0457092336836316,
            -3.1282782422723163,
            1.4999842127537546,
            -2.245028753905898,
            0.6208991273750292,
            0.6225537227902274,
            0.4310795675583811,
            0.09246432428955398,
            2.501844096999286,
            -0.39343693107297395,
            1.5950401947650923,
            -1.6346921660497338,
            1.87446142940977,
            4.496102494616494,
            1.3565325961160313,
            -0.31230846580151994,
            4.554463701347768,
            1.274625624379899,
            -1.2885331858244877,
            0.7799525679965309,
            -1.7906492678288117,
            -5.089923843515758,
            1.4823375043663394,
            3.6678733493282127,
            0.5965637715091878,
            -4.28368244461317,
            -4.15049554466311,
            -2.786965050842853,
            4.2074502578799065,
            1.7076245852387197,
            -2.280844668520013,
            -2.5858700896887705,
            0.8304643776566193,
            2.2718423047237026,
            -2.024331217298027,
            0.5860394334951846,
            -1.939401177704156,
            -1.2079095226585836,
            3.8930203198750943,
            0.7407410746623907,
            0.2855261410479565,
            2.7556697835029675
          ],
          [
            1.7674456119875708,
            -1.0929730551235775,
            1.5410758989055475,
            1.183222670236935,
            2.4262365805851727,
            -0.6858321177934035,
            -0.09750810249640407,
            -1.4685164203581391,
            -1.1519994911486628,
            -0.9339941007497505,
            0.6777028010732791,
            -1.5603797274883375,
            -0.5512494230379741,
            -2.006833825757741,
            -1.0015176334876876,
            -0.5038899341474156,
            -1.1069021635891563,
            4.0742891555649345,
            -0.8496383732635141,
            -0.6707330177043762,
            -0.04265151913692161,
            0.49391868114806387,
            0.6113357979809351,
            1.8515253727109702,
            -1.514250438740281,
            -3.553732509064413,
            -3.0066796870617325,
            0.34309525370716343,
            -0.4480963199442758,
            -2.415257872944933,
            1.2835403890987789,
            -0.5157391423153556,
            1.2496917787361261,
            0.5013733429738687,
            -1.5403125992649398,
            -1.6548101155910246,
            -0.8565771699065836,
            0.7041641808241768,
            -0.3208004217604749,
            0.3793613097486676,
            -1.944183303457558,
            4.492252148016842,
            -0.6567860158700034,
            0.32308649308632076,
            -1.5871886978415304,
            1.8222534511706736,
            -0.0536001869782181,
            -0.061653059125873266,
            -0.9908773741718838,
            -1.9941915831469805,
            1.1018888704895973,
            0.6473602838738179,
            2.329459661051811,
            -0.27733242484050563,
            1.7489875337049843,
            1.770650258489626,
            0.6173920443515126,
            -0.34809951556285335,
            1.1806412287367074,
            4.739044097375739,
            1.7556459083425697,
            -0.0539746401338185,
            1.4019274346800623,
            -0.8754970348867979,
            -2.3174619276961343,
            1.7376024563897319,
            -0.9810169666184883,
            -2.034710758924413
          ],
          [
            0.9261948758125482,
            -1.9538458597202013,
            6.291243097409401,
            1.1857314883195378,
            2.382114222512593,
            0.3092231370556098,
            1.7604005815360715,
            -0.7347840886429428,
            -1.2295691829561401,
            -2.4416243357144336,
            5.104293512540798,
            -3.862000700202801,
            -3.75108175959345,
            0.42888096992220504,
            1.6082772339189986,
            -0.20426798101248145,
            2.752373256496335,
            1.121806855934294,
            1.4554700067776234,
            -0.7546460293827921,
            4.8887148915294265,
            -2.536997104850449,
            -1.6633147374906412,
            1.0135143980052912,
            -2.1030733597865647,
            1.063232829349063,
            -0.05164302158175624,
            -3.4043102023418164,
            -1.3114390808002792,
            0.9290721962277964,
            -1.6735277096124785,
            0.6882835294466947,
            -1.7878314733449847,
            -0.06707564847391886,
            -0.025813379825924687,
            0.05756408028504301,
            3.6759338632112697,
            -0.5769987798238015,
            -2.023077719679674,
            -0.31133314766665526,
            -0.03732475848206315,
            0.7400476174594005,
            2.1761701960686644,
            1.7505925489201777,
            -3.5535683537648333,
            0.6727253638866518,
            1.928053885998387,
            -0.4552064798379597,
            -2.3431617586329643,
            0.1682188486513677,
            1.9178404126718689,
            -0.7504151214389063,
            3.5436182285355393,
            -2.2591917385096765,
            -3.3935793609007563,
            1.0035791316925997,
            -0.6596429186982594,
            5.819762829839881,
            3.921583247087032,
            -0.9690614298597002,
            4.057191764857795,
            1.2729806037972957,
            0.8698762825474486,
            -3.230752228163422,
            0.5368717298748058,
            3.2433353736920765,
            2.0750892752405363,
            0.09691077803694652
          ],
          [
            -0.7494930223804458,
            -3.167262184098668,
            1.2584888986373042,
            0.6178239818967676,
            2.467312909834217,
            1.983697529905517,
            -0.3426668847663615,
            -1.1840917745433988,
            1.292234947539556,
            0.22193143186252962,
            3.3294131386070975,
            0.2877932242974051,
            -0.4168288303372152,
            -3.145506780346558,
            -3.7653185312736075,
            0.17020358900115967,
            2.089507741354183,
            -0.8114006394251388,
            0.5494631361087432,
            3.588519009907028,
            0.02428710310772536,
            0.4687408679797729,
            3.0543632106371486,
            0.39834966339540406,
            -1.724943115259109,
            0.5471444721713126,
            -1.091029939122095,
            2.585027290185672,
            -0.15967295337992204,
            3.6408884338960994,
            -0.33741152419243736,
            2.0371965010887285,
            -1.5818215733254237,
            1.1135538595006185,
            0.5559888513035252,
            2.4549147624819105,
            -0.754961731566886,
            -1.8870602159755498,
            -5.342887949463505,
            5.616070114000554,
            -4.36440921928955,
            -0.410359026845492,
            0.46878981286546223,
            1.4020843110948182,
            -3.665419784154671,
            -4.0899662967736825,
            1.2148487952063847,
            2.447595912471921,
            1.9846248603706038,
            1.1985247248446724,
            2.8989735363805953,
            -0.6041740637515778,
            2.549630051803769,
            -1.2521055768745897,
            0.5218729624448976,
            1.2246063770667264,
            -2.956868094179078,
            1.1334052855206642,
            1.2205268156911646,
            -2.5812333488980794,
            1.7297538275630893,
            0.8404227789759808,
            3.5489725231283584,
            1.4563657250899449,
            -2.2258178980480263,
            -0.7654086388364831,
            3.690772301447263,
            2.2900046036467097
          ],
          [
            0.8622674511768851,
            -3.9658191481919354,
            -1.8960073876333525,
            0.013409685435387508,
            -0.9988347674263053,
            0.2738083241749008,
            -0.9828765844543959,
            -0.22980242596518982,
            -0.4213290398643128,
            -1.9688430911773591,
            2.478368659136697,
            2.575732047638587,
            -2.565346002100154,
            0.12029619767728711,
            0.42572863209830547,
            1.673094592047669,
            -1.0642705182856529,
            -1.3282045545504348,
            -2.343596367914595,
            -1.8263348837851296,
            -0.3111415106149952,
            0.5683506270608273,
            0.012172264103893687,
            0.8580968680524635,
            -1.0872585865942699,
            1.842493334200655,
            -0.9624692321820031,
            -0.13052960472857134,
            0.3674431432138623,
            1.1934391995173608,
            -1.973516810310621,
            2.976529152346285,
            0.1918279145990065,
            1.7814118360336313,
            0.31128821462177486,
            -1.1044070259501932,
            2.1870439701504836,
            1.5216255736258189,
            2.7122792719393787,
            -0.5374755893188725,
            2.8749772623663383,
            -2.948718368247466,
            -0.09838358365395597,
            -3.562231773637895,
            -1.1720095105971469,
            -2.1277919760519945,
            0.6922230708937899,
            2.8970869712336436,
            -0.2751613415924196,
            2.6183856041776474,
            1.2540408914604873,
            3.430316268067082,
            1.3467728049368595,
            -0.19039480114540522,
            -1.76424614821965,
            0.1982792297900813,
            1.805036249845978,
            -3.6041200976466303,
            5.882448892207882,
            3.2354509128863813,
            2.3823439750306385,
            0.5810643015400777,
            -2.8184739183434644,
            -2.6570284852695676,
            2.7932871369159606,
            -1.046544668916953,
            0.07186919022819427,
            -1.154225887611485
          ],
          [
            -2.2237492612601626,
            0.7180389201946424,
            -2.3450987673138917,
            0.19370465606436313,
            -1.1938836523339056,
            -1.7335367182862411,
            0.6566077153019841,
            -1.8021189469932062,
            -1.4809275544517468,
            -2.451773808022081,
            2.269996935201075,
            -1.2957428521359347,
            3.1284582656016258,
            -3.0718922557862385,
            -2.426935885259246,
            0.5606665055186839,
            3.2056842662626472,
            0.5442177731932001,
            -4.924887166138915,
            0.8468992645668829,
            -1.4937279412742666,
            -3.5059931131206987,
            0.5546587533732016,
            -2.205561184947922,
            2.451232256955733,
            -3.736352168389469,
            3.548134269560567,
            -2.408302295469578,
            0.39306458775258724,
            1.1370543254016066,
            -0.9344317753661824,
            -0.01059781442376262,
            -0.9079556964789395,
            -1.8781651320829973,
            1.275249438330857,
            4.006700781455989,
            -1.896532183355726,
            -0.3743583418851801,
            0.5754497176661932,
            -2.5122760755250493,
            2.5261351924826325,
            2.0841117404915463,
            -1.7264536221864675,
            0.45467924303278645,
            2.361291366132901,
            4.4626893565876875,
            0.7937491882872807,
            1.1537286096195754,
            -3.237267152051792,
            2.7075237778871215,
            2.0400300374346707,
            2.7702370301363612,
            -0.11623220749744434,
            0.693970131404554,
            -0.8917860225643229,
            -0.6577265614844885,
            -0.4878235158383345,
            1.7737119900970142,
            0.031208706748997506,
            1.7206500337677366,
            -3.9829505423561935,
            2.0403135388172506,
            1.6730382791142748,
            1.6945332864958425,
            -2.583138854394836,
            3.110909572668605,
            3.326924594032157,
            1.8348170881925718
          ],
          [
            0.205872018152861,
            0.5003067341190132,
            -0.2793337826583687,
            -1.3972008989211555,
            -1.6193633358916726,
            0.20639212666238896,
            -0.7187338459767803,
            2.0049316544852616,
            3.918321473228444,
            1.7979895679700353,
            -2.553248786117048,
            -1.0024592269171082,
            -3.118568142508688,
            5.305794474409944,
            5.375543706653755,
            -1.3248592562726034,
            -0.7953453432731425,
            1.0156572382267712,
            -0.3608477406739275,
            -3.1524310594843863,
            0.09044908515848461,
            0.9772366051942689,
            2.0226445404227427,
            0.15274620419016105,
            0.17720894663038878,
            1.4435669875080583,
            -2.282828087813277,
            -0.2678478810916126,
            -1.129466815921928,
            3.2940836142637524,
            0.971504672722388,
            -2.1457500632787445,
            0.804465439460164,
            1.4428348450649704,
            3.387450923161167,
            -0.2862591196385312,
            0.2612769464288316,
            0.18990792789639557,
            1.9790339076992745,
            0.2867663521719129,
            1.4202300432741473,
            -0.5933791941238586,
            -0.3148454105958959,
            0.9668548303210218,
            0.676166841008478,
            -1.2692482460610186,
            -4.4344423556487635,
            1.738512897370725,
            -0.8671426735779264,
            -1.196724035380855,
            1.6510124969690054,
            -3.7284009761037273,
            -3.465640749856269,
            1.1795326905533192,
            1.0174605291500791,
            1.9260222644254887,
            -0.7371944000231251,
            2.247208237985718,
            1.1065572852018688,
            1.5755861695019737,
            0.3561053775193771,
            1.2730956817014984,
            -2.924271463427453,
            1.8418000480526802,
            2.0433977333472564,
            2.328729540197665,
            -2.166623311243491,
            0.789894315216477
          ],
          [
            -2.806476087628581,
            -1.5904006276612943,
            2.250076633842261,
            2.4051044969760254,
            0.60361681159445,
            -0.7577680332998135,
            -3.0158773499720293,
            1.726089122886199,
            0.06384802639837445,
            3.587222406650088,
            -1.1823857081203606,
            -1.7127864527586916,
            -1.593977111324912,
            -3.7242229739467123,
            1.1370014524685192,
            -2.9897902445147686,
            0.6209953369731442,
            0.9827976429289799,
            -4.628745969200511,
            -1.8361193633462158,
            -2.741206919615629,
            -2.445897117361146,
            0.22870878833067998,
            -0.9308810977225132,
            3.0851708897504855,
            -0.7447604369757471,
            -0.26641183276935115,
            2.1589526521780247,
            -1.8774642662497618,
            0.44327236477157145,
            3.4385441186476644,
            0.13633190713415977,
            -0.4071642276521771,
            1.3484177623601425,
            -1.1593614359060045,
            -1.0756569446201976,
            0.05022418944937336,
            -4.240468096610719,
            -1.4440379447336789,
            3.08834751469631,
            -4.026236826445159,
            0.6534650791658918,
            -1.152499935851838,
            2.527249106251483,
            -1.8348715782534057,
            0.2392048536165808,
            2.906600946047787,
            1.7428485140601282,
            -1.0496829321342946,
            0.9925228063289725,
            -2.817320357905938,
            3.3204783851988102,
            -0.11122103267120095,
            1.839410050145245,
            4.0803810162302305,
            -0.29004553295952884,
            -1.5351171143592919,
            2.06535388310383,
            0.19678083883522887,
            -1.285977664227238,
            -0.8613712270989107,
            0.680184707720917,
            4.325930028568168,
            0.03100832797140951,
            -0.39876491389511115,
            -0.47733870338274365,
            -1.9765363463161474,
            -1.1136193288429836
          ],
          [
            1.4140094408815327,
            -0.007701056838004261,
            0.2931232601886954,
            -0.38672052017370706,
            0.29273394740182446,
            -2.277118789861537,
            -1.0177457509722596,
            -2.7260898209700164,
            -0.012412260352463178,
            2.3535369795888026,
            2.8686850048639854,
            1.1072596000765056,
            -0.37102396370413426,
            0.9195289214787111,
            -2.6916791798516666,
            -2.7352198299756276,
            -0.675162991608073,
            -0.8254497806696278,
            -2.378642017272008,
            0.6557101075252367,
            -2.4298217098315384,
            -2.7244374784072427,
            -0.12829207820519667,
            -1.4103459262622047,
            -2.9099087541747997,
            -2.141987941154743,
            0.44199032028427615,
            1.95811238154647,
            -0.047431649775321105,
            2.2142586297904048,
            -0.8973993485284614,
            -0.9357570852042323,
            -2.532856403699832,
            2.476104886578168,
            1.4212274492217298,
            0.02042665863166923,
            1.1041557652660123,
            0.0918183367150956,
            0.5626599629194964,
            1.5261789608130578,
            0.2359737967098508,
            -1.0389080736501175,
            1.6859678665376152,
            -1.1084968962606123,
            -0.9579609151274324,
            1.540441661024675,
            -2.9834159316613014,
            2.854067762530146,
            1.0083171986153607,
            -0.5502971815719655,
            1.0921819617169533,
            -1.1130830971411168,
            2.4486303755697683,
            0.9816289674940786,
            -0.08217998157370088,
            -0.36188566112711723,
            0.5168174111086152,
            3.831592261482481,
            2.665264903968693,
            4.868834185553724,
            4.598846051598773,
            -1.5547156987153976,
            -0.206895873656317,
            0.692808155115074,
            4.789935947007325,
            1.0359116108705262,
            -2.3148163205397667,
            4.450083245256586
          ],
          [
            -2.1631134913556336,
            -2.1461165135479194,
            -1.2241932206118162,
            -3.8974581109517032,
            -3.962916584880595,
            -1.5813272831834815,
            0.7039679622186855,
            -0.4261588057002332,
            0.9290031611963402,
            -0.7078607440265129,
            0.6166038628378175,
            1.0424494004634668,
            2.3285019349955567,
            0.5211568780666722,
            0.23659431259781122,
            -1.3862502637474758,
            -2.205740001580553,
            -0.9263716653357726,
            2.5535090991235525,
            0.6538591411998151,
            2.403324406951446,
            0.059035475211948074,
            -4.638457049323512,
            -1.4408928073723046,
            -3.321927578937135,
            1.2508823691294473,
            -1.9241811515621177,
            -0.27919948374580306,
            0.6649163961603374,
            2.2019657344999173,
            -1.5514271199888972,
            -4.130814793781871,
            0.10023080307344756,
            1.0525747303419284,
            2.8493899031140555,
            -0.13970357897498026,
            1.7168199735380942,
            -0.26923297787292816,
            0.03028870501010761,
            0.7855264941193316,
            -1.1646411584016487,
            1.7394468399142786,
            1.8094797813545573,
            -0.6025937034740605,
            -1.9310023598525587,
            -1.0977032294379394,
            0.32950121214475464,
            -2.201270061640481,
            2.246096963722909,
            -0.8908787780987966,
            3.9093480965331366,
            -0.2205501580834569,
            0.5836331159729233,
            -1.8265212208672226,
            1.382441076025205,
            -0.1618476145548235,
            3.617708682600599,
            -1.4216734303496128,
            1.7792952991997601,
            -0.2892454235864932,
            -1.4369101927912495,
            1.9239646907792496,
            -1.7603299119718567,
            -1.1478422299767015,
            0.863343571910537,
            -1.7276174064474246,
            -0.36072111284466546,
            -0.2715729401718965
          ],
          [
            -0.157123153953456,
            4.735706293777056,
            0.17912103492710785,
            5.316509427119227,
            -0.46956538722283103,
            1.2344119977103822,
            -1.1119710072508118,
            2.6680070251832455,
            -3.061634330885383,
            -0.5115443809656836,
            -1.021298964131749,
            -1.6093124199480184,
            -1.728584426750918,
            -0.20813771147211102,
            -2.2645921180666675,
            4.281578038301318,
            -0.9794273347522015,
            -1.2936426446507834,
            3.2206708513565827,
            -2.445765692815571,
            0.15340169913222274,
            -2.661138655355038,
            -1.254549060726239,
            1.8816063738713815,
            1.519878820704469,
            -4.9068112596395785,
            -0.8342763726173824,
            -1.483756716392758,
            1.3608130135590517,
            1.933115983410915,
            -1.2510931589182492,
            -1.3856268041146673,
            4.398354654913976,
            0.5115198160321157,
            1.9587153827017512,
            0.5802363909538808,
            -2.651365414372967,
            -0.3592857336821065,
            1.1918750833527094,
            -1.2226120735440018,
            -0.49229940208891165,
            1.1925860815472205,
            2.0586194263863438,
            -2.9153636896015827,
            -0.1849286105795421,
            0.45433436795180543,
            3.1925423401668533,
            0.6115204919595176,
            3.3688238669353536,
            -1.8347905647524474,
            -0.8536826888207631,
            -0.6638012846821368,
            1.7656002564839344,
            -0.23173203846412588,
            -0.3440404619299931,
            -4.361781566770568,
            -0.925225701958359,
            4.65935657589102,
            0.9289531177246046,
            -2.222031325977086,
            1.2989508938788228,
            -0.3110155732918133,
            -0.22368449308111427,
            0.6079716691596053,
            0.5395846695176969,
            -0.10972925265218086,
            2.8039088367338136,
            -0.3383033055907611
          ],
          [
            -1.9727113787733488,
            2.2618224772271605,
            0.433954981325119,
            -0.7216111009999435,
            -2.519776736969715,
            0.1403513567863115,
            -1.0331785402533122,
            0.11102300618359395,
            -0.7440478801629299,
            -2.6088682615614807,
            0.8392095380404565,
            1.6862716031605751,
            1.170939514613646,
            1.9071380192904062,
            1.8194286656651333,
            -1.7580715052045086,
            -0.10022487858628104,
            1.810582649249092,
            -0.5496494535577361,
            -1.1613724476560678,
            -0.6157650757423137,
            -2.191768453013653,
            1.246259371057931,
            0.7075791345772529,
            0.2849263962948695,
            2.8298283132272952,
            2.8307826488703562,
            1.3166002770540273,
            0.8312065513902029,
            1.1669727339813059,
            -3.26267085465036,
            -0.719320936377521,
            -3.2479494262885527,
            0.3095924290118653,
            0.810096025242772,
            0.9283766617271454,
            -0.39594707114926014,
            2.581412665238264,
            -0.2370598855614799,
            2.03156556385565,
            -0.5972069464525938,
            -5.452184020312115,
            -0.30728865289601337,
            1.5482859374784708,
            -0.5043842115788915,
            2.1280621669508504,
            -3.191097528759121,
            -3.9349355152134646,
            -4.098741452155275,
            -1.796210526838435,
            -2.6658009205023867,
            -3.1334392290668838,
            -1.83024429430447,
            -0.027012111576119435,
            -2.206096431080153,
            -2.753070042073886,
            -1.842062823646038,
            1.0837518895897844,
            -0.09511544455974984,
            -1.101017770439095,
            2.979446903847269,
            1.853554674419216,
            -4.04688827012053,
            2.275750925993434,
            3.749112551971361,
            -3.244097200235203,
            -1.1431334839774805,
            -0.5072719407498217
          ],
          [
            3.5116274990957264,
            0.33022328307818505,
            -0.44440638157734963,
            1.1479848538175443,
            -0.32246312843782576,
            3.82040581634643,
            0.13997021834517964,
            3.7396856229002378,
            2.3440128511562257,
            0.578662146057807,
            -0.28975588947876113,
            -0.409540859158084,
            2.923248729311222,
            -2.542119207002968,
            1.3390970468475998,
            -0.371529965755342,
            -2.4204117795914994,
            -3.3866225058883392,
            2.512252496707111,
            -2.4809269505397573,
            1.5515656802171611,
            -1.502356836885001,
            -3.447474446338294,
            -3.3402702026900433,
            -0.7598336635528432,
            -2.7389210054464006,
            0.00672422918974197,
            2.2653840589006826,
            -2.1254975959156663,
            1.2585070255703124,
            1.5391175910455634,
            3.5020031379119905,
            3.2967905676940643,
            -2.6732021937199155,
            -1.5845044924528129,
            1.6408522720342944,
            0.32403128413713933,
            2.97698268059448,
            1.8281212168911047,
            -4.8280523743348605,
            -3.7594915415241252,
            0.8003270988803572,
            -0.17101923925160484,
            0.10191452971147552,
            -0.3969550396767588,
            0.553967875597281,
            3.7721793474992613,
            0.5542943886222367,
            -3.386996333750493,
            1.0604459049730999,
            1.5350529489323785,
            1.3741097510032283,
            0.39696058437351367,
            1.6076410944278339,
            -0.06737788963032151,
            0.5641345466703571,
            -2.214593524867112,
            3.8705366996250588,
            -0.4133771090750261,
            -2.9433842719833145,
            2.4658269555502854,
            -4.673432093507091,
            -3.625512334639617,
            1.1345746421933152,
            0.8634405296113987,
            0.666850942275081,
            -4.364491122759858,
            1.9852192827936552
          ],
          [
            4.658302443418239,
            3.380927814520676,
            1.8073399182647458,
            -1.370981487709151,
            -1.3723849910002912,
            -1.849408261957639,
            0.8160462854513435,
            -2.556326570375267,
            1.9991363464099723,
            -0.8665026661219906,
            0.13061192130544885,
            -0.042122009103870095,
            -3.652274627717003,
            2.117651468575964,
            4.013729083425131,
            2.3735270343359205,
            -1.8960422899182872,
            -0.021788632653175252,
            -3.038676569236364,
            -4.958906365896422,
            0.30343981252676433,
            1.9366390362044672,
            0.3292478204687901,
            -3.6924247969034796,
            1.1575141757082315,
            3.279151827257964,
            2.9758385678980837,
            1.8034453025874249,
            3.1212682809261056,
            -0.2519467153000359,
            -0.23161841130743466,
            -0.980462085617902,
            1.0018824824606922,
            1.0125827358759834,
            0.6144995951505422,
            1.3443825863359662,
            -0.08109216056064877,
            0.3794488790709732,
            2.650152951225365,
            -3.001594079342573,
            1.7950411794389076,
            0.8595098380496464,
            0.38184745246946605,
            1.7096627002003786,
            1.790737393435178,
            1.0579621116597508,
            -0.8664725791456772,
            -2.3701002551786825,
            0.0026853578039702924,
            0.04885870635841483,
            -0.8704082987353674,
            0.37791131680274753,
            -2.4366743018391097,
            1.5392106097706588,
            -1.796602911033629,
            0.2645314879785873,
            2.179380981097696,
            1.0815949829100497,
            1.521489950155857,
            2.482959631646948,
            1.9375343281492619,
            0.29759647527325445,
            -0.30347703345476246,
            0.6444536747515146,
            -1.5314392790431037,
            -1.6832839886004523,
            2.2255117572047145,
            -4.328302283160857
          ],
          [
            -0.37064918003117686,
            3.403412110069088,
            -1.6679988653975428,
            1.2463102051934216,
            1.6938632362520694,
            -1.0936280850672422,
            -0.04292432728207499,
            2.337681332773266,
            0.40473255585831275,
            -1.046390529508956,
            2.232304136759657,
            -1.4764311040698872,
            2.2255191767553475,
            -2.8960886835233692,
            1.3248990376518108,
            -0.025989738860353884,
            -1.1513750246396592,
            2.353296081967154,
            -2.561159853535624,
            5.049349410279026,
            0.40807256814873566,
            -4.212204929666719,
            -1.6656134223521826,
            -2.6409272433949553,
            -4.226641268798687,
            3.439332408043767,
            2.3880410967486987,
            0.22603894202830202,
            -2.369237757897963,
            0.6222788090339318,
            -1.5990103538199127,
            1.7066593187133905,
            -2.256370238326169,
            4.966545944873693,
            0.9866674855003622,
            0.1932492492284107,
            0.2705524586495187,
            -4.062266458369185,
            2.233144587431518,
            -0.2060287665145922,
            1.355513440846942,
            1.217204611658969,
            -0.10616416331476422,
            -1.4172674031323305,
            2.237662757854626,
            -4.330415423529244,
            4.820523985913807,
            0.05440869496178946,
            1.6648767516794585,
            0.40532651559127586,
            0.5796744230926709,
            -0.8234753971367218,
            -2.0367597737260468,
            -1.5385896650650441,
            0.615224719041941,
            -1.8117633902504398,
            3.553948911397241,
            2.784356032455257,
            -0.968889760664862,
            3.162513823136684,
            -0.4017130776010086,
            -1.5687258186661768,
            1.2750205913894828,
            4.1391144719562805,
            0.7525107390159523,
            0.11011232032311297,
            3.188356862808569,
            0.38720071052910365
          ],
          [
            -0.9366021552115333,
            -2.6485263162698995,
            1.442136011159747,
            5.413490668157529,
            0.43678883820624215,
            2.0014034687699085,
            -0.7954894997562726,
            2.9457763134216686,
            0.5948684102668018,
            0.43909846838076655,
            2.9760580212733463,
            1.7571301549761014,
            -1.2414429708057135,
            3.192615882773855,
            -1.2147874512529333,
            -1.831640483996066,
            1.511852065042091,
            0.8528674900601632,
            -2.4752991812668825,
            5.836806566167795,
            -0.32536903083992835,
            0.9992450212995752,
            1.0270107054291204,
            5.317918029679209,
            -1.2123017147866286,
            -2.1319729395940645,
            -5.169622827014835,
            -0.4800572252235763,
            -0.5415421107757699,
            -0.10303823093692194,
            1.6516620769485786,
            1.7689502260800707,
            -1.7115673585027504,
            2.204704310710734,
            -1.9159085689433635,
            0.16418595737825192,
            0.4699228393174869,
            2.6604156376463997,
            -2.9146914242863122,
            0.46048455051235915,
            1.516312467111675,
            -0.8382965509748366,
            -0.22203198708879301,
            -2.4256489373430696,
            -0.8159915315096344,
            -5.600521523410785,
            4.968770493981032,
            -1.955683577262401,
            -2.3142134586095526,
            -4.018281571380251,
            -0.5949626080272363,
            2.921778404510163,
            1.8260708131436303,
            -0.20590110912126186,
            -2.087888098621354,
            -3.767483873964796,
            -0.725225689793237,
            1.8603392903166756,
            -0.2508743767269357,
            1.4922511137228613,
            4.538879482446488,
            -2.167728910859314,
            -1.1965406442718838,
            -0.677790554473315,
            -0.6316467491247953,
            2.673714473646431,
            -1.1038262438493687,
