{
  "network": {
    "layers": [
      {
        "weights": [
          [
            0.698607923925914,
            -0.9621429577473081,
            2.4555161828887986,
            -2.9146433935536704,
            0.9847441175174925,
            -1.4533622079682018,
            1.6248094829610207,
            0.5750388225456318,
            -0.6599673279925544,
            2.5072127148296692,
            3.7233202331129442,
            -1.6669349227300276,
            3.386746323939182,
            -0.2518708589047475,
            1.144548308791931,
            -2.8981307435131045,
            -1.1608727246328532,
            0.9336656744481329,
            0.33501701899260594,
            0.5686689844570747,
            0.2672300069027859,
            -4.162603884277265,
            -1.2543721839228794,
            -0.24630602193461454,
            -1.2767152397534571,
            -3.1114675472799633,
            0.9215939269268019,
            1.8518523877296205,
            -1.2400903584329555,
            -6.322455843523777,
            0.22592542980335223,
            0.038223955579704705,
            1.2186260963830233,
            2.309268792321865,
            -1.500544093308332,
            -0.3550221821958631,
            3.415418859131263,
            0.5977901070864838,
            -2.557063320378615,
            2.7139210682385135,
            4.096853317116812,
            -0.47740239498764925,
            0.19291952672117585,
            -2.9115106924364635,
            0.659600681267106,
            3.448186879012171,
            -1.390742959494098,
            -0.3759032131888019,
            -0.1568187231699264,
            1.7708342142668523,
            0.3795813278506097,
            -0.49911589396716316,
            -1.047080523707653,
            -2.3579994934309303,
            1.1713833577314712,
            1.3617006863395378,
            -1.0001321288143141,
            -0.4844870042175624,
            1.9994694615708846,
            -4.36258002037191,
            -2.857226039973493,
            -3.0979150754467843,
            0.6960298219507848,
            -0.7729030351525342,
            -3.539972348959298,
            -2.033873573407554,
            -2.880594293815118,
            -2.433954977351488
          ],
          [
            -0.505002139465126,
            -1.4982539515995583,
            3.9216749598072536,
            2.2538787764781443,
            3.31430155358166,
            4.694564325187614,
            -3.325700419810014,
            -0.40756444679692405,
            1.3646513839730143,
            -1.282513707752817,
            0.08879863000848981,
            -0.5287205702358669,
            0.5270458412631673,
            1.653628626887461,
            2.2406211503270628,
            -0.8774673797745101,
            -0.04100775956141983,
            2.556299599432144,
            3.310686641050136,
            1.9828353273015535,
            1.751268245997127,
            -0.5262164981109557,
            -3.8660639889009634,
            0.41330665631080954,
            -4.162870336539691,
            0.8346470860566273,
            -0.9896280874069167,
            3.0396980637003486,
            1.540312530649559,
            2.119082175989742,
            -0.15783349472647068,
            1.9112275575665645,
            2.207725525891359,
            -1.4979969103821447,
            2.848898179868581,
            -1.7256862468840761,
            0.12698639808908857,
            0.2649344797552884,
            0.2023379185918947,
            -2.25964904415629,
            0.2762626018270039,
            -0.7915491832615372,
            1.8721016575948952,
            -0.7501830657648199,
            -0.15834858417979447,
            -2.7030416011209466,
            1.4914444814121965,
            0.028308712899117995,
            2.024052328559959,
            -2.59626753101001,
            0.5908047477787216,
            -0.021516550424918623,
            -0.1295101059191227,
            1.3784392924579971,
            1.1330670858269172,
            -1.0841729397347895,
            -1.753423791303903,
            -1.77455197244526,
            -0.48427099954310254,
            0.21498388121329798,
            2.344820332812572,
            -1.3871974539717757,
            -0.48849660979549736,
            -1.2892236769731422,
            -2.3160442802931214,
            1.2737682344493702,
            -2.870835026600297,
            -1.2242975097016167
          ],
          [
            -0.9990963427315519,
            -2.2301779455989936,
            -0.4397084196619412,
            2.8781021480902353,
            -1.8454867126553864,
            2.0572729542676833,
            1.998854985577858,
            1.7423625836772447,
            -2.0997786385646484,
            0.6486212759377149,
            -1.0920750029861106,
            -1.3997171948573586,
            1.5054635676518786,
            -2.0840614266231534,
            1.113543092262009,
            1.215236545481031,
            -1.5420396857316367,
            -3.904148989755238,
            0.025865459275338287,
            0.24821303452579155,
            -1.3660680952015254,
            -1.9392830495889395,
            -0.890593974931536,
            1.265324955922094,
            2.205116123160962,
            0.651731654388454,
            -3.133626401218644,
            -1.0647696121095152,
            -2.365172211769714,
            -0.4359631918356869,
            2.839682395781055,
            -0.1938072671122359,
            -2.2268371642599063,
            -0.13377159536711125,
            -1.3701829241123422,
            0.9768092332746376,
            -0.4308075958656452,
            0.9013137876924577,
            2.994749290926122,
            -0.0833851098206776,
            0.344436196703324,
            -3.5391167877651575,
            -1.0135067080049538,
            -1.9370313214292503,
            0.5740787136090089,
            1.5408772040264191,
            2.7845051312967373,
            -1.0905751875398335,
            -2.9058517399381527,
            2.6884549151597015,
            0.8240533518958341,
            -0.7880407916624791,
            2.20354405235234,
            -1.7845792820425728,
            -0.20940011024063843,
            -2.4153889954365315,
            -1.6301725055671439,
            -0.5697125726114116,
            -5.405442003729845,
            -1.1512822070256745,
            3.8269763674159867,
            -0.2326964927732103,
            -2.0517245635369337,
            1.2405582465406766,
            -0.33509052614756085,
            0.20425976463179413,
            1.0671005047180582,
            -1.0385511547753934
          ],
          [
            1.4110763013777068,
            1.203932243609495,
            2.1922266231122984,
            -2.266939256200428,
            -0.8319954806945227,
            1.5938095006982824,
            -0.5752050839705349,
            2.2465502721711648,
            3.6646594617953676,
            2.355577695701974,
            -0.413707648160479,
            -2.6506986333138873,
            2.1370941855428387,
            -4.272706128696958,
            0.49276403599188223,
            -0.7200910906565661,
            -0.6153126551178993,
            0.6513609359799136,
            -0.26991460320428373,
            4.144094598346965,
            -3.340330545132808,
            -1.871131527855371,
            0.8883717039089627,
            -3.4622429933539625,
            -3.8202662231523936,
            -2.7238073435009773,
            1.104298552854655,
            3.498595229280346,
            -0.9945337624161905,
            2.058017100509911,
            4.556485231080857,
            -0.24809522614498103,
            -1.7195897535912006,
            1.9911991726744944,
            -0.6531161942972213,
            1.0770001791505144,
            1.2620488911743053,
            -1.2174427482161474,
            -1.0291839017722197,
            0.06139003218846656,
            2.483624830250123,
            -1.3114944550914478,
            1.4409081104670094,
            0.4737885380796525,
            -0.6846197935465304,
            -0.3228006281035106,
            2.351139434193705,
            -2.90309964026676,
            -0.18803420285374678,
            2.5752659023113535,
            0.5817625004688493,
            -0.9384494444766159,
            2.880117821838947,
            -1.315529656822136,
            -2.205500881173621,
            -1.7999041525355797,
            -3.8138242527868385,
            1.9739160092612291,
            1.299248258352418,
            3.076738846719313,
            2.7342926393686,
            -1.210169559934103,
            2.0360267579562086,
            -1.376740674818031,
            -0.8053549246950328,
            -1.458734974763893,
            -1.2072138598446902,
            -0.7058173593326698
          ],
          [
            3.010970514994544,
            -1.4464011770276637,
            0.596495042906003,
            0.06845976885029759,
            0.2585835093862098,
            0.4177503081855165,
            -0.9024312954330993,
            -0.13927192237678981,
            -1.5046524963172874,
            -1.4682037367119598,
            0.21610146012337117,
            -0.3001348107880189,
            -2.333618156056404,
            -2.851191940907223,
            -0.08826816520483,
            -0.037433139884698596,
            -0.9804125067604709,
            0.024701495967633214,
            0.37081783647358046,
            -4.757154897433272,
            3.9900803047741373,
            0.4887330931515456,
            -1.086411091514554,
            4.1723430493477185,
            1.9073619901012626,
            0.8019707857883995,
            1.9159252583314297,
            3.8122894898745288,
            3.3607126109100753,
            -2.3126819931565277,
            1.7444903473765097,
            -1.5387364181746377,
            -0.8660365372935103,
            0.07881010529436694,
            2.782174576488736,
            1.3620531229032733,
            2.035043501368648,
            0.744734058725516,
            2.0818332589338584,
            0.9302866969332722,
            -1.156470188541524,
            2.7964376965050692,
            -1.1076700108997957,
            0.16394975915098203,
            1.0270759755631838,
            8.055633022779531,
            0.7662311975381536,
            4.4700027864492355,
            -0.8182309492538176,
            1.8703259649038169,
            0.2461458398180335,
            -1.569386663445619,
            -0.9806325849869861,
            1.5092941310035841,
            -1.5101488721923333,
            -1.8745116469035648,
            1.0675779273611836,
            -1.0494604893364023,
            0.37684296512278737,
            0.28498977462098424,
            3.111821946381824,
            2.3759287613640403,
            0.2631501855051154,
            -0.4450392566908792,
            0.2666212392924199,
            -1.4664498209585461,
            -0.5340060289439764,
            4.012793591894447
          ],
          [
            -1.133660002858291,
            -2.8191515455655356,
            -0.5960017096021826,
            -1.3799851641983965,
            0.1872525188809199,
            2.3256473000569198,
            0.2654070982932875,
            0.1810160177861114,
            1.1123421329687904,
            2.862358202025185,
            -4.032176423890229,
            -2.461649076086415,
            1.9981329945407038,
            3.6690446094019067,
            2.6210656894348205,
            0.38318093070183123,
            -2.8389849163184637,
            1.1808372030763628,
            -3.0732858072746314,
            -0.6652448896188248,
            -0.16903677153843488,
            -0.9505051983118418,
            1.1391702084218478,
            4.536711969643684,
            -3.225843712848331,
            0.8339057935645857,
            1.9629864234133179,
            -0.09621065342400661,
            4.628729444721822,
            -1.0351394816090167,
            1.2161859711596887,
            -0.587893154720633,
            -0.8609552971087854,
            -1.1343430367513225,
            2.4756295025018713,
            -1.5631028878668147,
            1.88674554661153,
            1.7923123891216421,
            1.416240812477458,
            -1.315667521653632,
            0.6776268327731857,
            -1.182585600776868,
            0.11083772737979514,
            -2.345110042217911,
            3.3053896873332578,
            -0.6501613588163386,
            -2.5774762302294842,
            -1.8376803936602477,
            0.5874869281374085,
            0.7421220922514616,
            2.4283030735048374,
            2.0369594004239295,
            2.5363552928244766,
            -2.243146661933191,
            -0.27749237876077604,
            0.20812669810740592,
            -1.7890697426690185,
            -1.2496388017782385,
            -1.2195870373693634,
            -1.0912356292641046,
            3.129726002815039,
            1.65604471495147,
            4.827280074981191,
            -0.028659144652799125,
            0.82723115337037,
            1.2568178886821806,
            -0.5618119962215823,
            -3.709202758279746
          ],
          [
            -0.357725555702592,
            2.0497362955061313,
            0.5359771071240589,
            2.104720695204436,
            -0.3514117549628046,
            2.6038186552543965,
            1.9541740117625126,
            1.5690937932110913,
            0.9617993888019503,
            -1.1153218082374665,
            3.1799852572226768,
            -1.4417063420990521,
            -2.9446357450425875,
            1.7469588954867892,
            2.2543889477331063,
            0.08374289710317254,
            2.1532332204408626,
            1.10893879422273,
            0.36846834634476544,
            -2.3712920635962504,
            -1.7363246717586063,
            0.36674302306797973,
            1.352376258948793,
            -0.7283248188297824,
            0.513385858886449,
            0.8144251138059594,
            1.7378495785379153,
            -0.4507054170056177,
            1.827120568259749,
            2.2137483891097265,
            1.0495573765841022,
            1.0459819321615667,
            -3.0907713017765546,
            -0.6462073231144917,
            0.06871909415244465,
            1.2918952678265567,
            0.0036164157564685384,
            0.32937410597147604,
            -4.369671378947108,
            -0.5856540097821008,
            -2.3134845477012282,
            -3.0012888916842577,
            -2.1582365402229895,
            1.8154057985058798,
            0.31746910148014074,
            0.3886679974405775,
            0.8552283043210385,
            -2.26075129183952,
            0.32619403896282034,
            -1.23433724450478,
            1.8617751729609782,
            -2.1103034867664308,
            -0.6084986377314321,
            0.2504060013101521,
            -1.1688885654328274,
            1.3121274271762917,
            -0.526477135943725,
            0.6245370582420007,
            -2.243859488143655,
            -2.181374434189014,
            0.4766123747614467,
            0.28930635644024116,
            1.4330148925293131,
            -0.23707595229544565,
            -1.039305442123335,
            -0.46431777941490293,
            0.15743962021644753,
            -3.3986166721374502
          ],
          [
            -0.62285761676472,
            1.7193746831976546,
            0.19837371412822388,
            -1.2419771440130878,
            0.10969279684337493,
            0.8760056562692377,
            -1.2337508430273345,
            -1.0231493940286727,
            -0.5147838198814619,
            2.203629089125495,
            -2.5616437903030045,
            -1.4664176004421305,
            -0.6032136241296249,
            -2.6999555481927664,
            -3.2124870601588214,
            -0.7312064498844286,
            -2.9843625569460084,
            -4.270037978399617,
            1.2557432543726703,
            2.162608557581708,
            0.6307451881958708,
            3.4459793213760417,
            -2.2082622406433527,
            -1.2717614290699644,
            -3.6280886464570425,
            -0.7515966727987371,
            -2.6460280246188654,
            0.027212555506374136,
            -0.9986098674699035,
            2.2162978886109976,
            -2.114418307506502,
            0.29476982253865525,
            -0.5500761035204254,
            2.0138433141684997,
            -2.574575518837413,
            -0.23389376422349178,
            0.7280330577817792,
            -0.2592675108733171,
            0.9868806761259612,
            1.3453177789664064,
            -3.3445971127288363,
            0.06504075371989682,
            -0.4938566984610116,
            -1.0785243659725818,
            0.4842721540801733,
            1.3599446910706479,
            2.581741302960988,
            -2.4492142543384285,
            -1.4954729241604403,
            2.4116845017911617,
            0.48572979607396005,
            -1.9268870181666367,
            1.283964865730729,
            -2.933879887891656,
            2.018912673592231,
            1.4809291302087848,
            -0.2775074976454247,
            3.410930884315691,
            -2.286545107481416,
            -2.1683934135914718,
            0.97671237899003,
            -0.2905659994155585,
            -2.2996689132235133,
            0.41515536910408346,
            0.4862525910023862,
            -2.667375841507392,
            0.15289070390351403,
            -0.49634935046874096
          ],
          [
            0.5808973336215733,
            -3.519858417781991,
            -0.7968337862649075,
            -0.9659191105641676,
            2.746304756862452,
            1.760362958311683,
            -1.559511074590534,
            2.116640370984444,
            -0.05275272769193101,
            -0.5219126995892314,
            -2.0200000246348138,
            1.9622872839506629,
            0.8196602034839663,
            -2.7131980902102653,
            1.3724527188603404,
            1.2528497558003793,
            1.7844120205487095,
            -4.64088457789323,
            -0.6747615074036681,
            1.8198085781797442,
            -0.3966208196880583,
            -2.528031207217266,
            -1.9407591433933986,
            2.151372827270326,
            -2.4260180783717114,
            2.052411061404205,
            -0.4795724696405539,
            -1.7356997753288845,
            2.3149296742798153,
            -1.5257129957074114,
            -0.43009593885253916,
            -2.126324580786159,
            0.007219248777233234,
            -0.8020043322025203,
            -1.524510185880584,
            -2.4231501742699972,
            -0.2684108018822371,
            -3.668494127423613,
            -0.32789665840581533,
            0.08464395396046559,
            -1.497971963779784,
            -0.5148781994530321,
            -0.9241212294222939,
            0.5132595457453525,
            0.6706734292341956,
            -2.4784794737519507,
            -2.329700642657822,
            1.6259825567387747,
            -1.136528459912427,
            -1.1672218005361787,
            2.6375631265995603,
            0.671561341778274,
            -2.2745499363529205,
            0.21056619881144997,
            0.6766417160327461,
            0.75911212415408,
            -2.6734633089007156,
            -1.7943297130312723,
            1.362132765390076,
            1.2622043298691634,
            0.5377181572023757,
            -0.7464559572802075,
            -3.2727797060207546,
            4.3071065943197615,
            -0.5344480150757517,
            -0.1578275229030045,
            4.234206298337118,
            -5.986142385667968
          ],
          [
            0.5754155049564393,
            1.7717538574945213,
            0.26523937708148093,
            -0.28446105929783666,
            1.793659516727203,
            1.7221400867308072,
            0.09385575070544205,
            -0.3830820704085639,
            -2.384319408865874,
            -0.35446923637279193,
            -1.0265749162428823,
            -1.2780778758874156,
            -0.21773288876534203,
            2.2541760842385155,
            0.7835573337575056,
            0.2663786614760282,
            -0.10611232578149601,
            3.406921913323611,
            -1.6592272390393539,
            -1.7069597043250258,
            -1.9764387446556915,
            -3.5313688183335077,
            0.8301620261731117,
            1.2637075858516846,
            -1.630497043519784,
            -0.7748291370277577,
            -0.9085789633622012,
            0.40836707076155954,
            1.0717758336339447,
            -0.9157726767891228,
            -3.2410170073950213,
            -4.807828835211504,
            -3.5008168501685133,
            0.025287177379987147,
            -2.4958825741465853,
            -2.493402735079847,
            0.9332106678806933,
            3.0016135972900635,
            3.1942810165332167,
            -1.6927315822694007,
            0.4017003342341885,
            0.514758719382526,
            -3.201066127987813,
            1.024787354261038,
            -1.4471547968126794,
            -2.0585486602373506,
            -5.712243701080151,
            0.017085779778223426,
            2.9023422709327362,
            -1.7150893139223036,
            2.0070826621301228,
            1.2414829401231002,
            1.9079226102319644,
            0.4709324977223326,
            2.4252501433717204,
            0.9345864523568383,
            1.6906850889911724,
            1.4697967115150954,
            -1.0382913285986282,
            0.0799302298622539,
            0.026591442889652372,
            -1.457547749934432,
            -3.39155860431992,
            -5.272801082998754,
            -0.9929992903710295,
            -0.44675865662608233,
            1.3503015201865503,
            -0.37404841086547863
          ],
          [
            -2.8842197344371208,
            -1.3053363472641484,
            -1.8681343161115238,
            1.393173298071361,
            2.4628170789411836,
            1.9860913148676873,
            -1.5704683133106234,
            1.2622361591598537,
            3.467373530575462,
            -1.8807737832503229,
            -1.108029361686059,
            3.8089319971575666,
            -2.412483653601285,
            1.3779480955358054,
            -0.6195927424699311,
            3.477902861145724,
            1.045312237817996,
            2.558578603325905,
            3.486160281579133,
            -1.093751265976131,
            3.989007702169524,
            -2.110972690955837,
            -0.8651065839073537,
            -0.6783530733111076,
            -0.17348944561158108,
            0.15942270755728222,
            1.1903067913005796,
            3.2304593890899125,
            -0.3263187271009902,
            0.27265096480807716,
            2.9556927591728215,
            -0.047952558247492616,
            0.7055423800187148,
            1.3213806386633666,
            1.0512047890648686,
            0.6401764698014347,
            1.0940733053337204,
            -3.1339017918089715,
            -4.147489267369662,
            3.9484119859880673,
            -1.4202378085358716,
            1.7714884282573635,
            0.617599347459214,
            -1.2941687301612117,
            -3.0476382550100736,
            1.742146748215156,
            -1.8411938714111498,
            -0.16598003924601173,
            2.325847612736508,
            2.4624694481234,
            2.1941751565465872,
            4.422248919621335,
            -1.1422655265503723,
            0.9488848417795601,
            -2.6285518782244672,
            -2.2818547738715123,
            -1.3213470488191494,
            -0.8839938663663348,
            0.8090607978393651,
            2.17503876540734,
            -1.0852887283782602,
            2.1804158985813578,
            -3.0979840840782313,
            1.0205887884683,
            -0.6216801438967583,
            -3.2878639417744226,
            0.8049040384958341,
            1.7090463925426205
          ],
          [
            -2.969677194533891,
            1.3315402668775347,
            0.6332574626810843,
            -0.27783871875876076,
            3.493692777615807,
            1.9202405533384672,
            2.9214682645420575,
            -4.015230007835771,
            3.72094614250208,
            2.8996765690192188,
            -0.6121866880594261,
            -2.4142065570615823,
            -2.8419417811434458,
            1.1301367329932304,
            3.2369424248244942,
            -0.005432826892880882,
            -0.20991961576942314,
            -0.7016778965709078,
            4.850496085272258,
            -0.3293904488125261,
            -0.9364945561060214,
            -0.9515459126002351,
            0.6115193010458252,
            -0.992903145973884,
            0.4437563897057941,
            2.596560261868945,
            -0.2114856370158507,
            -0.7889577168792115,
            -0.6721982672793366,
            0.30083395982122446,
            0.5150391934795904,
            -1.2352227214407367,
            -0.43379288812097827,
            -1.3513808820036743,
            3.7241322404119352,
            -2.276309239104926,
            -1.599786294184263,
            3.383755515162613,
            1.026525842140637,
            -1.6541763392986562,
            2.1915238498236738,
            -1.4897605603955153,
            -3.4492339527840783,
            1.2158979324195107,
            -2.909302896072634,
            -1.5780161146175113,
            2.243467965834406,
            -2.011948016542728,
            2.4568377555001626,
            0.054224220155701,
            -0.5159464134785183,
            1.224892501926413,
            -0.6149464548400906,
            0.6101081484230115,
            -4.211077979244015,
            0.6937853829708991,
            1.349024713970108,
            1.8789781328960071,
            1.8960010950416435,
            -3.0572638004907526,
            -0.0720953429512957,
            -0.5671243259937648,
            0.4489623282468562,
            2.9252193142882508,
            -1.0011458665476796,
            -1.1841309935622846,
            -1.6883826259560364,
            -3.2803426837242435
          ],
          [
            -1.7987876006503676,
            0.7937043784903635,
            3.8629932716572064,
            2.1715734543295797,
            -2.29649753657988,
            0.9646377597079695,
            0.7558954357593999,
            -0.011342585292734075,
            -1.4255502707169756,
            4.549433182765353,
            3.7819678125862803,
            -0.9933020691471302,
            0.14422676769163645,
            1.9442442330621676,
            1.9843734326285973,
            1.9413268053101311,
            1.6402079887252992,
            -4.383284730068623,
            0.2655230676010516,
            2.963154028903253,
            -0.3242455685246805,
            -6.087272983266816,
            -2.1426974328145243,
            0.09178549683169146,
            -3.875917685049709,
            1.3063970362844468,
            -0.17406388834724343,
            -0.17472335274811615,
            3.28950662929386,
            -1.558547788777381,
            2.050515254203055,
            -2.346726026629476,
            2.720468878519027,
            0.6161746209051273,
            -0.4309493136702385,
            4.135870591431761,
            0.9778559055936049,
            -1.2032171591968075,
            -2.733117444962106,
            0.2455485491471993,
            4.115949463752951,
            1.2520011462542757,
            1.2016604336322092,
            -1.0697053860877637,
            -1.2898507206857706,
            -3.056487196204523,
            -1.1627262866275028,
            -2.498096585280158,
            0.681155453107345,
            -1.1930294586162788,
            -1.2142871394946706,
            0.5932353909554167,
            4.149597684638827,
            -1.3131819319517115,
            -1.7618607240613613,
            1.093615333397023,
            -0.8225627822491428,
            -1.6439962358164517,
            -0.04680955079770607,
            -1.691782967442165,
            -1.4993044248195666,
            -0.6129100289083207,
            -1.2540913089965406,
            -3.6934842255812277,
            -1.3366323718893307,
            2.2350017988320343,
            -2.367446088590596,
            3.2104937330440615
          ],
          [
            0.6698173626488793,
            2.136526104661386,
            1.4652958890130945,
            -0.8214873981526587,
            -2.1298818818353222,
            1.7236599620622357,
            2.6320740692104723,
            1.4973502544847292,
            -1.601057868035844,
            -1.7443965202398377,
            -3.0441124480205337,
            2.199420659245489,
            1.0519382667962016,
            3.088894703670086,
            -0.563677848462199,
            1.0691209834349227,
            -2.8434931571016047,
            -2.128324040674913,
            0.9282439211774549,
            1.8331317301973462,
            2.4098898174635286,
            3.0574299973259307,
            1.4013844164523863,
            -0.9370990742332477,
            -0.3427452128711846,
            -0.12153456533988272,
            0.8488841351943891,
            -1.765521291265551,
            0.9430311417086154,
            -0.10339055331806649,
            -1.089744715991174,
            3.6912926393268997,
            -1.4437859921304064,
            1.5436185549220487,
            1.1372001063676083,
            -3.1748967250743583,
            0.826323440136348,
            0.4007842941280342,
            -2.69973925842358,
            0.6197798487261674,
            -2.7134676084699194,
            -1.3779906576567098,
            0.17221982927069707,
            -1.115420248902074,
            -3.1383247297292014,
            0.36906495937443295,
            3.153968784438317,
            0.7765567634134032,
            -1.4308263586451007,
            2.8576546883875604,
            -3.495820773130938,
            0.8479852474320165,
            -0.6773726440618659,
            3.035263269458175,
            -0.621135323513401,
            0.4837669486548546,
            2.2239388052023874,
            -0.09853526623578693,
            0.4735864952986846,
            -0.156909990529588,
            0.9618067807842797,
            -1.3171026248009916,
            -1.6681795260746692,
            0.11614185746719446,
            -3.7956608541577848,
            -1.251477346862269,
            2.0564086950410845,
            -1.8359247345765177
          ],
          [
            0.5713692017680022,
            -1.5991084672455766,
            -0.9176127490810784,
            2.166866652113443,
            0.5965886360591586,
            -0.5216054409361057,
            -0.9525386599442502,
            1.5810090648822506,
            1.2709617750013478,
            -0.07107990842703338,
            -2.8480481716131076,
            0.2813055802198438,
            1.1797998647740302,
            -3.748579709971853,
            0.8281541535767442,
            -2.544105898165998,
            -1.2690292050090424,
            -0.1547024795795064,
            -2.739804094897244,
            -1.465101911203643,
            -2.3330120595222215,
            4.275526856089659,
            -0.8509051909369469,
            -0.7605514220337398,
            0.8255010198949507,
            2.995972161926817,
            -1.4194938910784878,
            0.4931970738120094,
            1.97685161290303,
            -3.315019407444457,
            3.3200453368793856,
            5.611501085878697,
            -0.7507812758351045,
            0.014634964114552021,
            -1.0633539236820186,
            -0.7153179227961353,
            2.8697131637413498,
            2.5327418510555626,
            1.587894527333201,
            -1.2060818717131305,
            1.4821458398990934,
            -1.9545045233809297,
            2.139861701605933,
            -2.117157690119027,
            -1.5202635232349728,
            -2.316374722621843,
            4.026389635556712,
            2.110314765570305,
            0.2504562200094199,
            0.21619315303103953,
            1.9973856236833838,
            -1.0892763447435967,
            -1.4565082414936104,
            -1.029624927369614,
            -1.580489059242573,
            -0.11031444808204921,
            -4.8671643350811005,
            0.17872408316830335,
            2.3462860811806374,
            -1.0220845346847436,
            3.949583496095626,
            -3.471436051885602,
            -2.3108209756264793,
            1.22180483325102,
            2.4359325787343,
            5.165355697116389,
            -0.6427636882741633,
            -0.10603852773475667
          ],
          [
            -2.1866344798868638,
            -2.411227518792083,
            2.5866314116503877,
            0.7443064374772247,
            1.0781516353570644,
            -0.37741071424941985,
            -0.3192739559158487,
            -0.9964330528015386,
            -2.4285222343091464,
            -1.5390889139781874,
            1.1195844788600686,
            -3.655105408771079,
            -4.539023067881798,
            2.473533512262157,
            0.3424514879522663,
            -1.9521270572122655,
            -2.2331093589101587,
            1.719219324573647,
            2.1133249318260896,
            -0.10789382642532167,
            -1.7427499272348372,
            -0.3349079711322749,
            0.4930401583051869,
            -0.2692958052984094,
            -3.6584858149644086,
            2.812996533734037,
            -2.15963573964633,
            1.66406114054751,
            -0.36503621331936065,
            -1.83303704532715,
            1.2362883430630438,
            -0.6932657604041533,
            -2.347311006318761,
            -0.2121745128093775,
            1.841067337669425,
            -1.9002994452500193,
            -0.9150654825187116,
            -2.571098656036437,
            -3.359830712620263,
            -2.235147906679807,
            0.9561098652167556,
            1.1961058831772473,
            -3.6701132749122696,
            -0.549171236656888,
            -0.8863692786116715,
            -0.32781192558451744,
            -0.7036218997761485,
            1.1549387713377866,
            -0.7561001855846694,
            -1.7959401606999723,
            -3.5340665869184944,
            -2.4555394399336508,
            0.37827621842949377,
            -0.5057839704347015,
            -3.7553038448614746,
            -4.262689188510369,
            1.6726355820048353,
            3.413013989624998,
            1.3648972635789889,
            -3.6652237718335017,
            -2.020060766075936,
            -1.9810313034091804,
            0.2155598500570058,
            -0.7644363308805838,
            -0.4692490377886941,
            1.2998990213470636,
            -0.24241739252899808,
            1.0971601199592442
          ],
          [
            -0.5526370260372195,
            -1.3743492323799953,
            -1.6928619480171836,
            -1.874627934837029,
            0.0661574630795279,
            -0.0746384992354786,
            -0.2074977481999007,
            3.5434658516332314,
            -2.3907500224232043,
            -1.4673384808089305,
            -1.3063600666175383,
            -0.2809578212052116,
            -1.6965121625964152,
            0.9208204451873777,
            -4.68614866720033,
            2.875152158385957,
            -5.606345024611724,
            -0.9106299566651882,
            3.1701097222115133,
            -0.12521877567108486,
            -1.7555914850290106,
            0.2072665788357685,
            -1.123039760104663,
            2.37420946274101,
            -0.8715948193164941,
            -1.7384846352137733,
            -0.21044069127321513,
            -1.425289531903675,
            -1.2168239313114,
            0.13908075123876407,
            0.8291357756715985,
            1.1126700299312828,
            -1.9429472685783746,
            2.807290764275681,
            -3.2448778997318173,
            -0.5570816560945333,
            5.69188535643419,
            1.624066231730865,
            -0.2059330517030113,
            -0.004464686169959875,
            -1.7168604309380986,
            -0.722204984516805,
            3.538814261061926,
            1.0478813682884156,
            -4.2060235409698965,
            -1.689359964762372,
            -0.827912356991465,
            0.0317169188858043,
            4.2702922350489,
            -0.7527497620197068,
            2.8090189658168607,
            -0.6980970307410528,
            1.8502162637125728,
            3.490544677732106,
            -1.7246990678130651,
            2.474159601187302,
            2.548168836471141,
            2.5776302859961366,
            -0.6774491927053248,
            1.4591622480332174,
            -3.75278444567854,
            -1.5687081347801604,
            2.036564766815358,
            -3.390636364894782,
            2.118423489886624,
            2.357834571299357,
            -2.112430007604574,
            -2.757719185002966
          ],
          [
            -0.21067754018121648,
            -1.7221591220143582,
            2.2270356075693414,
            -3.2214659823123,
            -0.056499265772067396,
            2.886951979476236,
            -0.4683629433367006,
            -2.6911168124770612,
            3.3502512421576487,
            -0.15795624773374348,
            -0.9586994538262775,
            -2.540580572072556,
            -0.643818603138315,
            1.9553975473392555,
            -0.21641236962203594,
            -4.595568668606211,
            0.20949495879617228,
            1.6883385608005899,
            -4.365379133885581,
            -1.0415825028223447,
            -0.2497250689960091,
            0.723674040651064,
            -1.4359730962402233,
            -1.1902675914549532,
            -1.2984416501858658,
            -3.246951158458267,
            -1.8441507711136924,
            1.5341748847452643,
            -2.9423449712924516,
            2.218615906259497,
            3.1419214679156298,
            2.591025808226874,
            -0.2017176746908276,
            -3.7798540129820553,
            0.45606114359280553,
            -0.7258431278744557,
            -0.37542634285723686,
            -2.1563009180307136,
            0.01384500559960676,
            3.5202625635621634,
            1.2201171082226994,
            -0.7366887159544317,
            -0.08610656738432254,
            -1.7231625682973015,
            -0.08756352882821808,
            -2.2418727610997524,
            -1.5977684424288998,
            -1.8734016366496757,
            1.3580662976888649,
            1.723369525905077,
            0.14241944509439525,
            -0.2747894362683122,
            1.2818886144607327,
            0.6433605006060048,
            0.035875715100233345,
            2.8664710168236054,
            -3.560005202231597,
            -2.0749956409884067,
            -1.0449090585675853,
            3.244177817251387,
            1.7878898868129365,
            -2.8349965803954253,
            -2.742150766954511,
            2.2761408738213484,
            -0.9906345801947658,
            0.5692469184947619,
            0.7660628239497357,
            -2.4307752810364383
          ],
          [
            2.6958577172932032,
            0.1630757600399444,
            1.0825301454389928,
            0.5653712921852456,
            0.12892665240589746,
            1.4609431113314477,
            0.3291685462988236,
            -3.570467223189221,
            0.7395204677067282,
            -2.2954594748014023,
            0.16829936072271728,
            0.14515636294733325,
            -0.2494406042454317,
            -2.416504738594912,
            3.0265927778707993,
            7.532136655523115,
            4.566822419517268,
            1.6614824000958766,
            -0.647768974278496,
            0.13982415980668106,
            0.026591430106235187,
            1.4634697842055027,
            -1.0484912782208191,
            1.0081176716726024,
            4.567278073158774,
            -3.408549786793832,
            -1.3181360195397727,
            1.0214985088163098,
            3.7342522054935032,
            -1.7484928678046492,
            0.8649708264713771,
            1.4891010360133183,
            -0.06064879957775875,
            -0.7221279851848434,
            -0.30227856650286966,
            1.9979780597947852,
            1.9888369524879548,
            -1.7974292944749486,
            -3.0231291652405377,
            -0.7431777837333368,
            -3.559793613600872,
            -0.4863550009330169,
            -4.372281364435359,
            3.428732888939702,
            0.5733703718008426,
            -0.2645125020215785,
            1.6240468759232471,
            3.6881001064629957,
            -2.2960454133972337,
            0.13296012100133536,
            -0.3199528736920288,
            1.3754794352417945,
            2.3589922058511137,
            0.8012337701568402,
            -2.2338784337422326,
            0.8172980927071648,
            -2.8240279500737167,
            0.34592942303053503,
            0.8267904314126838,
            -1.0669954319934427,
            1.0276721516960259,
            2.6036659825503663,
            -1.5322259551440847,
            1.825498650129624,
            -1.0863496831047625,
            0.9888812364038703,
            0.25969804242617334,
            -0.0022702590641869302
          ],
          [
            -0.5741260741723603,
            1.2252286982076737,
            0.08318015599733367,
            -1.530002789639123,
            1.6539775940329178,
            -0.8618981832292357,
            1.5864545805073604,
            0.05850744765081929,
            -3.3117803466950284,
            1.796936982447745,
            2.815968704116292,
            0.005408899602173611,
            -0.4313804185640181,
            0.5854609511916815,
            0.10168029603148579,
            0.054745617876135626,
            -1.7774422132373222,
            -3.489989332188238,
            2.794267221655479,
            1.575897675135736,
            0.9653442781226869,
            -0.8632231157646806,
            -2.938605524789356,
            2.507356359865317,
            -5.725771658633288,
            -0.4965276533356035,
            -0.49381438616264556,
            -1.0837395279603266,
            -0.5853858341323918,
            4.074011637188252,
            2.281119114116876,
            -1.7267253963178875,
            3.1277703626612636,
            3.2529434554165464,
            1.2106884563175364,
            2.2930569486931636,
            -0.8579360676214256,
            1.2176119622366306,
            2.8379410791096653,
            0.30307788303123245,
            4.164680530966451,
            -0.4831532553911491,
            2.523053708565539,
            3.0723094059013905,
            2.0070767603868633,
            -0.6870428915152162,
            0.6870888034232822,
            0.686951321813976,
            2.1798425989924484,
            3.530690740721025,
            1.9552958465047183,
            3.0602103921730235,
            -2.691693519179412,
            0.9077593078152426,
            1.6954618463275977,
            -2.4337895646965815,
            -2.443842466152396,
            1.5930194726294926,
            -1.6032735818446684,
            4.0129640314765105,
            0.14092764532808044,
            0.3307782378257955,
            -2.925527531529434,
            -1.4905719572812461,
            -1.2636237317652517,
            5.771108295481156,
            -1.5216893182086684,
            -4.268179696098036
          ],
          [
            -1.954857421084943,
            3.9083130935707793,
            -1.0220944863196129,
            -2.588227193422248,
            -0.9300629984032722,
            -3.7021581427459234,
            0.24607005497001117,
            1.0171658845516802,
            -0.5159808938516699,
            1.2536149034265391,
            -1.0917920059519457,
            0.8394464178620455,
            -4.223247523029821,
            2.8560216470823208,
            -1.4592174228123234,
            1.6271154643199757,
            0.4054924868558173,
            3.053879263083591,
            -0.04528082960968344,
            1.0839323608310145,
            0.7089234925088895,
            1.5682928564702803,
            -0.8449003099438572,
            -4.753223702862962,
            -3.078913188363623,
            1.0256301101821728,
            -0.5874864617070752,
            -3.055209627305009,
            -0.39990838439871906,
            1.681489484759248,
            2.0005028422333186,
            0.6256719408213725,
            -1.0054861433209041,
            2.6286647901620186,
            0.07277826470498366,
            -3.715925084147053,
            2.217082928564604,
            0.04675448698984547,
            3.5597399719824843,
            -1.7354703800899802,
            -3.3421175374018253,
            -2.16890345673705,
            -1.5125468747370479,
            -1.2878566193968466,
            -4.139732524244176,
            -2.7180853058602903,
            4.386412259596585,
            0.8269215415636966,
            1.5069663121760601,
            -1.0211068202896885,
            3.4746701976664824,
            1.1547434629571767,
            -0.8685264534236895,
            -1.3200050336696272,
            -3.747694491516626,
            -1.4278045983324346,
            -0.8785252221172125,
            1.4664360984955809,
            -3.8471496125254343,
            -0.22578225355831708,
            1.5108130696080972,
            0.9973771891241088,
            -4.4977806744813975,
            -0.9095014043681279,
            -0.3121361969299828,
            -0.4670920772468574,
            -0.7065805144943863,
            -0.7874284615574825
          ],
          [
            -2.1710778613269435,
            -0.7766915986470011,
            0.7795589345782274,
            -2.196818730495209,
            1.7014584778794994,
            -2.284840289107308,
            -0.4424549903610697,
            -2.0300252862911186,
            0.6225963589453946,
            2.5432026897735325,
            0.7977284807533283,
            -3.3180133582169535,
            3.4480265330913693,
            0.9025188481394616,
            -0.7615251265942037,
            1.6241175280205267,
            2.052961954628361,
            1.4116561482058747,
            3.0378325932597647,
            1.0593589973254347,
            -1.4944950005173128,
            -1.9464692907621943,
            0.0999490331406662,
            0.6309536783184074,
            -0.5981658008172824,
            -1.8267877658426306,
            -3.750062553933656,
            -0.4361883761028304,
            -0.5500210174292618,
            -0.9549082797237467,
            1.590198719227792,
            1.6611397410291346,
            -2.5046221175889904,
            0.16989340698927943,
            1.6444168860691963,
            -0.9275680631318871,
            3.141486321194816,
            -3.1843945664972813,
            -4.369745091898787,
            0.49646466961477786,
            -2.056036365944067,
            0.016807149929482776,
            -1.6808254719098983,
            2.561350081031469,
            -1.7311110423241627,
            -1.2627222793389752,
            -2.5861976336266297,
            -0.6637435899011176,
            -2.457929630456351,
            0.566209781541355,
            -4.024579753491224,
            2.9636044945715576,
            -2.1486814595578103,
            0.4292187477200289,
            -0.019547797070635947,
            -1.7186831163396967,
            1.3524636670486214,
            2.6238215266504894,
            0.0041501013247097485,
            1.3910281189997755,
            -0.7660781765083114,
            -1.5146797388282818,
            0.6580591513409926,
            -1.7846724350792682,
            -2.2786162922387385,
            -0.4009401281619225,
            0.6133313402610793,
            -0.3592916208901523
          ],
          [
            -1.8141890314225928,
            2.047222409445743,
            1.3631344907221363,
            -2.5152193909635225,
            -3.0090537200711216,
            -1.037239959289608,
            2.410266609527272,
            -1.836323234788937,
            -1.7365662956611192,
            1.5367065413653862,
            -2.945848777640039,
            -1.3603476363353089,
            1.7129176740067822,
            -2.2630066526490418,
            2.9282882312240934,
            2.653451300644088,
            2.200249319568681,
            -0.3960905127897635,
            0.34954008132346764,
            -0.16246537938199568,
            -0.7009793511322966,
            -1.0083701243903715,
            1.1247236259556583,
            -0.6197180440993386,
            -1.553459075902698,
            -2.6457533847814156,
            -2.084684459969955,
            1.5634877453663834,
            0.546081804367379,
            0.706253978733451,
            0.9507188401726827,
            -0.958947284968115,
            -1.977313617504853,
            1.377477688665082,
            -0.06494426271287207,
            -2.8126141225332986,
            4.1297055444221975,
            -1.0182723980017672,
            -2.0962757255362443,
            -2.3089329401727046,
            -0.6288020919004742,
            6.0770024684369295,
            -0.943711068732606,
            -1.0847473788905653,
            3.3472888927868243,
            2.0493995027654535,
            -3.5832304125612064,
            0.24264752152769756,
            -2.323490873391158,
            0.4946713147494807,
            2.56080687226842,
            2.8526565692656902,
            4.913764113756833,
            -0.9238201643142765,
            -2.0061405429062993,
            1.2331590975387559,
            -3.4768725245078995,
            0.45626467134983134,
            -0.1847879950176883,
            0.9130860358233835,
            2.613464238754531,
            0.17111529435635675,
            1.6283103718722456,
            -1.0134003282325288,
            1.1044488350594575,
            0.42887175140746553,
            1.1471281205774715,
            -1.1027734313734183
          ],
          [
            -0.6387971750877427,
            -0.700358374121309,
            1.1662266877661451,
            -0.942604454665312,
            0.5271458461166288,
            0.2844050511636009,
            2.6100185083817884,
            -2.663516937253171,
            -0.5380537836393585,
            -2.061631323296682,
            1.7015814654504053,
            -0.1171371639013804,
            -0.5116981564130308,
            0.28205392665313933,
            0.6324603998147583,
            0.5781605798522005,
            3.2476820287481747,
            -1.8666682255922658,
            0.7825095056023559,
            -0.8293456850672218,
            -0.43729653868478746,
            -2.145598171496371,
            1.005358972818855,
            1.4406098125569198,
            -2.2150936473695166,
            0.21605624778321145,
            -1.629209228126665,
            1.798696038266511,
            -1.6991650736730106,
            -1.0207231208194008,
            -1.3797325549209696,
            1.045262651068013,
            0.29351604477255994,
            -3.5546837249714662,
            -3.087856313076708,
            -1.4352074670438415,
            -1.974113878518464,
            -3.3737640986716895,
            0.011487579102105128,
            1.4150095325852248,
            -2.223253104718063,
            0.9259398724072315,
            -0.24849138025809545,
            -1.071722341397744,
            -1.3306783006380165,
            4.603344639806647,
            -0.238784744089313,
            0.6559224902086114,
            -0.13452891588133575,
            -2.5454878727881534,
            1.465324614915946,
            0.5809022108475632,
            0.28284186517825505,
            1.874725934557973,
            -0.13026612764841755,
            0.670889771709645,
            -0.439277744983136,
            -0.273186381946705,
            4.668276185304633,
            0.040540025094902066,
            -7.323027786933695,
            -1.5837894733134055,
            -1.3502613621496735,
            -2.0554664112735312,
            1.3672873416175202,
            -1.4085928626685233,
            1.5256385893305555,
            -0.8572385186972558
          ],
          [
            -0.7555750929371938,
            -1.2515102249303531,
            -0.7803548472302291,
            6.0550556723714095,
            -0.4823775451743881,
            0.46113330489830173,
            -0.994833596467247,
            -3.128191890493933,
            -0.8486921744650533,
            -0.34798400505712046,
            -2.258585209713243,
            -0.31455976042790645,
            -1.9884150664367588,
            -2.6449623449814377,
            -0.2504402026459435,
            -1.4369793031466296,
            -1.7144368610598926,
            0.6997440084450479,
            0.8237834942839002,
            0.05644026792785867,
            -0.47319678000457766,
            2.0171689435500495,
            0.6483478260606359,
            0.6530251612537407,
            2.851045707088914,
            0.7953551242678403,
            -1.2668318312668898,
            1.5296449308482465,
            -0.11597484512243673,
            -1.3609680689565948,
            2.0737446969915463,
            2.0236348637455417,
            1.196636330224591,
            1.8865418076757938,
            4.583515588805233,
            -0.5402087219469381,
            -0.3219353755658143,
            1.3489940917440932,
            1.2979598025843897,
            -0.6488903169729792,
            -2.492949961568973,
            -1.2941901750850708,
            1.8706786482280122,
            0.5035852063266582,
            -3.739366479724636,
            1.596679433969042,
            2.743606951666189,
            0.6530365545729899,
            0.25684385732344683,
            -3.0105749706095986,
            1.4740342245034435,
            -1.1336518505239943,
            2.1825439187198254,
            -2.664895964513866,
            0.9293702269022796,
            -0.30614029706187174,
            1.4139363808794598,
            0.3348625118348572,
            -1.3498106428807628,
            -3.2042061445367986,
            -1.6362540891404493,
            -1.9338529759880971,
            -1.6952974730273516,
            -4.78760314435822,
            -3.1000336646220563,
            1.1247818892412202,
            0.05929241737305144,
            1.583220549599805
          ],
          [
            -0.20575291198291673,
            1.7883790034984153,
            -3.2165154416852095,
            2.1294516336140186,
            -1.7478585958983903,
            -8.266087194034698,
            1.3463006206320614,
            -2.683092244575046,
            -1.3186067416918799,
            2.007176094621023,
            -0.04259183731433111,
            -0.25579271282444377,
            0.1849068139811738,
            1.6375561560213991,
            5.101226739954488,
            1.9851734785180741,
            2.6370971993469308,
            2.5324470934954597,
            -1.0136000191659993,
            1.4021303370780964,
            -0.7016624122169716,
            0.5295984802985376,
            -1.1471245625960662,
            1.2038951021692572,
            -2.5037577789193604,
            1.7939079492925651,
            1.3300223316242141,
            1.9927746235570984,
            -0.9541770476062986,
            -2.6176921020683257,
            5.364500852593519,
            -1.4554135533031414,
            2.8081065227111406,
            -0.8840417313387519,
            -1.2631021362437442,
            -0.1616714931694932,
            -2.831649075086422,
            2.7213131445391285,
            3.9197526725050937,
            -4.517185568379903,
            0.24577087831270045,
            -2.1979280109439547,
            -4.235379878635691,
            -1.4618089078070962,
            -2.3915998483193635,
            2.6194256766337696,
            -1.6741683752226721,
            -2.529785754800874,
            -1.5107064775015802,
            0.3519957634145291,
            1.9764166345632344,
            -4.067975808092998,
            -0.6385996763497132,
            -2.156977741225356,
            0.08630860150768793,
            -0.7484027914606564,
            -2.424460679460029,
            -1.312737897623321,
            0.4566641840538872,
            1.719443290894935,
            0.8378433892240411,
            0.014501293190779169,
            1.0485029150577343,
            0.2141426606271512,
            1.2369409729960914,
            1.7328949368790356,
            -3.295522527847253,
            2.6268871568471743
          ],
          [
            -0.2195193545757631,
            -0.8314435293066262,
            5.5499101736325205,
            2.698218950130107,
            -1.757502605085683,
            -2.630512709825329,
            -4.17952007937951,
            -2.378355500939413,
            2.948942603270113,
            1.3765035781526562,
            0.16421571532078438,
            -4.117664159550257,
            -3.2226865350350598,
            1.1222419518476254,
            -0.9429447724777,
            0.9308020014172802,
            -1.913576271187461,
            3.2791148404146546,
            0.8839913634152151,
            1.450040337019779,
            -1.4572432257049939,
            1.8249611777059007,
            -2.8322938122920394,
            2.3565449383458796,
            0.5917931316962368,
            1.3522038610922091,
            3.0423847086895224,
            -0.9882940908949585,
            -0.9188437448816555,
            1.372398632968617,
            1.5158959972097379,
            -1.0696541024341648,
            0.05344704846021425,
            -4.233161215962932,
            3.3261838195061673,
            -0.9473755461170444,
            2.884845345022022,
            -2.307877874777206,
            0.09641813295607682,
            3.290817165355477,
            2.9323544756345012,
            -5.288390123077517,
            0.5877931550637692,
            -0.6241677658959641,
            -2.134835056592921,
            -1.7302912625270965,
            -1.339087091246403,
            1.8199574642388474,
            1.3255342384894033,
            -1.1793198190477114,
            -0.2266253732561821,
            -1.6540567910334867,
            -0.070208500203259,
            -2.074857072746105,
            0.6701200228939945,
            0.8323883170327474,
            -2.5667943679252776,
            -0.3613581082424203,
            1.117282521878133,
            -0.33353631987834487,
            -0.5234469408204065,
            -1.1258827914402798,
            -0.057059054156797434,
            -4.067200401427982,
            -4.579346363333304,
            0.6498398616420327,
            -2.5034428633713963,
            -1.9333657192110267
          ],
          [
            -1.875931327961808,
            -0.17905559329433798,
            1.7109609666458414,
            -0.42133200109016805,
            -0.98083329698108,
            0.5691256585387544,
            1.6414804152056228,
            3.156447832232205,
            3.7737503438004047,
            -0.415374280180215,
            0.1775004098729766,
            -2.955338203400847,
            0.07650968515050627,
            -1.7073962120041706,
            -2.8283018036520997,
            -1.4781811297699652,
            1.8518798577719313,
            -0.11245921766582057,
            2.3215074565081237,
            0.40428819663366306,
            0.459159930846884,
            1.9471444241632727,
            2.857886579059083,
            4.563725994521984,
            2.0972047319960123,
            -0.469043929835558,
            -0.2865934211595462,
            1.3144754868181485,
            -0.9137680306510272,
            -0.20238891571785655,
            -0.7147615748450078,
            -0.5566738019415645,
            4.503356762647604,
            -0.15767443622144545,
            3.298330490845703,
            1.3285451263415153,
            3.539860611690647,
            -0.8934747207593383,
            -0.1058720642684209,
            2.0488837769968886,
            -1.2278852757746996,
            2.7576670888088652,
            0.9918142246111874,
            -2.3795006581391767,
            -0.9326414941671235,
            0.5651714620306207,
            -0.9242525437005689,
            -0.641122983146694,
            2.934411540149689,
            -0.298334374078755,
            -1.0432642213310521,
            1.2052807745476608,
            3.2736572084232733,
            -2.188243348670652,
            -0.031859466190678934,
            0.4312820288244235,
            -0.11519171829229846,
            -3.1914204483124675,
            -0.17643655174794426,
            -1.6501312035304563,
            1.9979914109333297,
            -0.012905990653693161,
            -0.3115244071654585,
            1.930942356084275,
            0.5641015638887629,
            -2.472789311104672,
            1.5815480109278002,
            -0.6778416643647871
          ],
          [
            -1.1748947845174293,
            2.2657828211503075,
            -1.971894459920044,
            -1.657066624135524,
            -0.8615667206857659,
            2.255498255775738,
            -0.7806194419674503,
            -0.5849093867141234,
            1.3918756940750008,
            0.004302831049759481,
            -0.4110147812173299,
            2.3574961169922117,
            -1.89217911276663,
            1.5059597628989394,
            2.647416344076081,
            -1.14739360419574,
            1.056231417456189,
            3.63499010500862,
            -3.441203272374113,
            3.300471670108675,
            -0.6104664413078827,
            0.5918939031578008,
            1.2797624270302292,
            -2.121423138156327,
            1.856853312410653,
            0.4377996333319991,
            -3.494036642089819,
            3.24359521410502,
            2.0963751266520876,
            6.225587701292991,
            -1.7707538017292648,
            4.390466842739692,
            -1.1547604783271204,
            0.6703095458006233,
            -1.4178617235178603,
            0.22297540661073237,
            3.9763763065175,
            -2.3104797028858823,
            2.346414291850854,
            0.34272718586368073,
            -2.7892856537628843,
            0.1799237279498927,
            -5.026543492300044,
            2.140523267924392,
            2.676080647380304,
            -0.5355049045017167,
            -0.9000441464164526,
            1.903517507097686,
            -0.06997077586624538,
            -3.4721796635997517,
            0.2022938661980009,
            4.882107236088356,
            0.9125131649014384,
            -2.5310446180099535,
            -1.900143136592174,
            -1.593053341399581,
            2.9857975423851477,
            1.6548800667441497,
            -1.339772271608922,
            0.012909087050127055,
            -0.7392619278703588,
            0.8800312654486918,
            1.3460490282999507,
            0.46911692152500856,
            5.0643860326796,
            1.832488024374012,
            -4.766790760979802,
            -2.590333616705124
          ],
          [
            -1.5339304999582033,
            3.865262687968376,
            -0.8935525842776234,
            0.5086380620307367,
            -2.780459544890822,
            1.2699089652067475,
            -0.7457877471838035,
            2.137863907887616,
            1.2396937562608792,
            1.332148809032067,
            -2.3987862078161064,
            2.7416551140363272,
            -1.0073546798085782,
            1.2843294128473972,
            -6.770488645322131,
            -4.34856714029569,
            4.5535152771562375,
            1.5162580345273367,
            1.606504765893865,
            -0.35327372978021526,
            1.021893958011366,
            0.2702815651003225,
            -2.789453136319837,
            0.9266070319349459,
            -0.17789414096156309,
            0.2902064034641072,
            -2.060825312116352,
            2.2366414659639067,
            2.2580945812686015,
            1.548858664757287,
            1.0988758980858957,
            -0.611944028774264,
            3.84906703238273,
            2.6195753066578384,
            1.6421699130649974,
            2.104234776966337,
            3.4963349378199613,
            2.706087491231167,
            4.1588726981215185,
            -0.5529624637907046,
            -0.7962448653941279,
            -1.9522928219376852,
            0.8506196653373477,
            -4.686073664739302,
            2.266542107265975,
            -1.3711425987043955,
            -1.8565446752831107,
            -4.3394638125812985,
            -0.7824034983124335,
            -5.333534113393581,
            -0.22800549947942494,
            -0.7677077048951138,
            -3.6012668711875335,
            -1.7817566193286778,
            -0.5174104822104576,
            -0.5196562046659818,
            3.1111892984052125,
            -1.0545289658844799,
            -2.5250763789464687,
            3.587071547862912,
            2.5389242450960428,
            -1.3776519914262118,
            1.778925750737249,
            -1.0198383633063839,
            4.6253577717831575,
            0.1970511032884189,
            -2.839881006570588,
            -1.2732018697881178
          ],
          [
            -0.22651936676481496,
            -0.16608810004697494,
            0.29646149102403396,
            -1.170283644585517,
            0.10919359651420218,
            -0.6750748356928189,
            1.2423496376690024,
            -0.00037615580404426474,
            -0.6624482627455371,
            0.3272049284073357,
            0.5954655184258334,
            -0.288284873539454,
            4.4540652732213895,
            -3.022705436707273,
            2.574050589441007,
            -6.499824925883843,
            -0.9522417177792817,
            -4.118718043542429,
            -1.0604606415624782,
            -2.2918550486481393,
            -0.8449332168755881,
            -1.7040078694943235,
            2.414836829008611,
            4.313674961699189,
            -3.7558330135986653,
            0.2539392890496812,
            -0.6484841626032862,
            2.294827611229543,
            1.1450416833794808,
            2.8042597035445533,
            0.9440061326650164,
            -5.1283322495633055,
            -1.8423013943151203,
            -0.9264025871914565,
            -2.4455576417012255,
            2.8118543953446804,
            0.795141323834551,
            1.0195971213372959,
            -3.795936989062728,
            -0.1415450137364087,
            -0.04123980277218822,
            1.5990509955242207,
            -2.5754663990035964,
            -0.1324002993313461,
            -3.023458972235614,
            0.3208077581922565,
            -2.232524066323988,
            -1.3285023745392828,
            1.411468551446172,
            3.9922298547079014,
            3.6381270843482603,
            -3.591903614483341,
            -2.8429730403355356,
            -1.5423593208786406,
            5.4130624699832905,
            -6.144594636060796,
            0.5606725814298447,
            3.7423722202033893,
            -1.9020023849221914,
            -1.525147950227823,
            1.0439753567591101,
            -0.9262242456249501,
            -1.1311934034732767,
            3.9293898790587765,
            -0.3990981948331397,
            -4.385807193482963,
            -0.1856644312158477,
            -1.7869633733864465
          ],
          [
            -1.3638018853842806,
            -1.629950266299116,
            -2.4658560198285118,
            0.04281831883599285,
            -0.6539338152162901,
            1.3820371616942784,
            -3.3932076695993936,
            -2.33170258138922,
            -0.4716715785155128,
            1.3978598283487351,
            -0.05893207345948859,
            -4.139729787460059,
            2.2111598465277122,
            -3.544415110893459,
            -1.904872264721504,
            6.313029443361584,
            3.4402079828668093,
            0.3115963248321393,
            -3.384049858354498,
            0.8913642486552134,
            0.5445638710991678,
            -2.496945240146102,
            3.7942335268545393,
            -3.617936006815978,
            0.3900388877158475,
            -0.17038067946468233,
            2.615742431198339,
            -0.8787053073573518,
            1.9075620340368709,
            2.884320073239291,
            -3.8128326559998036,
            -0.012334228079167599,
            -1.3729283326185442,
            2.775473874669796,
            0.834493493340846,
            2.9708906962219075,
            0.5620732193011281,
            1.2665253230978797,
            1.2075552386646233,
            -3.5084769935250923,
            2.7585506386996688,
            -0.8115395762540469,
            1.6366963387021618,
            -2.252999580814074,
            -3.3867625807182216,
            -1.363576148933,
            -1.0433805576772859,
            -1.110152442315494,
            0.8501641847772926,
            0.10905104062318832,
            -0.6200193634922919,
            0.5476175739486603,
            1.3592999378326518,
            -1.0226920381258553,
            -0.00045745090449317294,
            -0.8175448489363124,
            -3.673686619860732,
            -2.060599330941836,
            -0.5459017011993718,
            3.0408246229353106,
            2.744387068095029,
            1.738249860176447,
            2.2386309569558605,
            1.9922503794496553,
            -4.196159682147226,
            5.706236258366686,
            -2.424184128909948,
            -1.9802837825767414
          ],
          [
            -0.8063629126231171,
            0.34671186318692815,
            0.9536640857899141,
            0.5981021733349439,
            -0.8640516979195363,
            -2.5298204373856588,
            -0.2734545348695291,
            2.7003697820486643,
            -0.43324682371079093,
            -0.7817283013770642,
            -2.2627486778230423,
            -3.145388024355478,
            -1.9919653071206,
            -1.0648229044135626,
            -1.804433880940736,
            4.339751473460855,
            -4.02845219689293,
            4.202417039470105,
            1.2149571088453182,
            2.069016487877602,
            -2.8172078700426777,
            -0.8270981237597018,
            -2.1268875673059138,
            0.9433478444723689,
            -2.2568720644399947,
            -0.6021874476620698,
            -2.17329918187571,
            2.069307237630609,
            -3.0472587083924867,
            2.150736609206167,
            0.2439513222159976,
            1.2988992141830886,
            -1.111550037953058,
            -1.2807361404512956,
            -1.8075231242200087,
            4.846239948339831,
            1.5943692089394284,
            -0.20854151958876874,
            1.043433549666931,
            -2.1654249817829476,
            -1.6095004204925918,
            -2.497337449663885,
            -0.4964692268392903,
            -2.6568722528402917,
            -1.126287456593861,
            0.09778243815000667,
            -0.4683677505339994,
            -0.5279423239188493,
            0.5458448995542137,
            3.0077242852850636,
            -1.0232391402260865,
            -2.465344206203615,
            1.4188104116827105,
            -2.9162641140894983,
            0.2372831104421413,
            0.5520921811700888,
            -3.838856605235057,
            -0.6890907214339961,
            -0.8150833337053158,
            -0.9399446145219567,
            1.509640031280975,
            -0.2116769878425242,
            -1.7779916092964514,
            1.1541006885896001,
            1.0152347659324588,
            -1.4586509280513782,
            1.0986340554205476,
            3.955488083972611
          ],
          [
            -1.2132448857661973,
            -1.7699773169039705,
            0.6433613945256158,
            0.019449224471547344,
            -0.004392383501920116,
            2.9296842614397365,
            -2.1069951213865696,
            0.3530829061925378,
            2.1890326751377773,
            2.0749696962598025,
            1.1899595160444711,
            -1.1399685555697971,
            0.05593025727819645,
            -1.1221404654840306,
            0.3302597704164546,
            -0.7388699481667799,
            0.4400920328248533,
            -1.9599792590916016,
            5.107710625524574,
            -4.933100296346235,
            -1.2831225568847564,
            0.3722907873654735,
            1.5244938346674188,
            -3.0397347129077787,
            -1.5369536813857971,
            0.5050809875698979,
            -0.08365956099543859,
            0.5531902632837576,
            -3.767140284172536,
            3.178866376655031,
            -4.7772249479531395,
            2.5862733843523076,
            2.0591950854289256,
            0.384289991500261,
            -0.956202017887605,
            1.9283813724838261,
            2.415732328073243,
            1.535576311302403,
            1.7752353659653264,
            -3.7109068382314216,
            1.6513591731261608,
            -0.6196525953694789,
            2.683569597869128,
            4.415256051733617,
            -0.1469942719816988,
            1.2798181124674786,
            2.3529696217549074,
            -2.048167641459541,
            -1.0768945663113334,
            -1.4310249364288379,
            2.579584319471095,
            0.31715749691012934,
            -0.0927076987675294,
            1.7422300084816276,
            -2.1123642101978892,
            1.4419293297643823,
            1.399200394253223,
            1.5005895243043852,
            0.712135065653508,
            -1.739681084511227,
            2.7507951860842055,
            2.1285398999422083,
            -1.0514250041026383,
            2.0292748591073893,
            2.1621691460490746,
            1.796326384446364,
            -2.3460956025744686,
            0.09659052244951105
          ],
          [
            -2.206609596800994,
            -0.1435789037247041,
            4.5457960658422865,
            1.4736608861651537,
            1.113208623713297,
            0.09511282157789522,
            -1.3113306221505376,
            -0.37053156120221575,
            1.6822120519510755,
            -1.9681607588850656,
            0.075536840716107,
            3.36665424085678,
            0.2555279142859016,
            0.8936374140146802,
            -4.783236097383875,
            -0.4667773403488577,
            1.3648609202284068,
            0.32680492136158473,
            -1.3102568158890746,
            -4.222333357237521,
            1.2532774893172967,
            -1.5858307235687952,
            2.391298937237265,
            1.107363909998921,
            -0.44824729215912096,
            -0.724116452355058,
            -3.1502199272906957,
            0.5307830522752945,
            0.16932599701601853,
            -1.3630164368405746,
            0.6884068945488451,
            -3.4872541647872843,
            0.6626167831464471,
            -2.4665904298847647,
            0.8355538561822937,
            -1.738065242961563,
            -0.7589884163602243,
            -3.5777588335788626,
            -0.5805281142781163,
            0.6829380732039875,
            -2.642080401363555,
            1.2621052707943963,
            0.7184976926708525,
            -2.989665226536236,
            -1.830347756479898,
            -2.1378672300256465,
            -0.25694019860208267,
            2.1455108387030357,
            -1.0025076286903778,
            3.1488397825018346,
            0.49501698821505935,
            0.4463611517676328,
            1.1620692624158386,
            0.567190014160732,
            -1.299835487406643,
            -0.1755474562845848,
            0.5707194546790673,
            1.0661098829607092,
            0.6025276453390453,
            3.0251952571948073,
            4.550544384231307,
            0.3178505212854683,
            -0.27628446987109273,
            -0.06417224593200277,
            2.3942667105838433,
            2.3025482465512863,
            -2.0638953212308193,
            -0.6889768469610893
          ],
          [
            3.0720454800982293,
            -2.9754186883334253,
            -0.2435091004643879,
            -0.9975844130382872,
            1.364982611640989,
            -0.4342680329918418,
            0.6110741332548225,
            0.969199045243511,
            1.4870301326359803,
            0.27546502394433947,
            2.2556603383347475,
            -3.864469898221361,
            -0.1678121468424733,
            1.1613148063986667,
            2.4234262092777863,
            -0.3662279684494826,
            2.6037516997631376,
            5.388997748333871,
            -4.827558750078631,
            -4.602795256383261,
            0.007407263407172793,
            -0.34264821964776,
            -0.8033978098326635,
            0.7096739089825213,
            -1.8545558168955079,
            -0.21045401875751138,
            -0.24321064555516891,
            1.8962447282881352,
            2.6915621380801036,
            0.30234152971558304,
            2.888661767129467,
            -2.898438428161696,
            0.4428088303589808,
            0.6025612546862974,
            -2.4574478613757553,
            3.778408342962283,
            0.6122324002979823,
            -2.4722344499227584,
            1.3293488792327193,
            -0.43552327414820197,
            1.9904007489099032,
            -0.4872685086139391,
            3.238674071185918,
            -1.2236771990057194,
            -5.2510014620768315,
            0.3016783306328422,
            0.28604071773996914,
            -0.3961828525311696,
            -0.4856186825117489,
            -2.229360487612322,
            1.020162669347704,
            2.1086672428842954,
            3.5843488502939866,
            -0.699149487314777,
            -3.052685005958121,
            0.8310893026253989,
            -3.1641129725454817,
            -1.4108193849465316,
            2.2052615821354933,
            -2.7947058958506075,
            2.854080213598009,
            1.5481300481204097,
            1.3094405052993618,
            5.138234107609143,
            -2.313037301512154,
            2.8011700242998394,
            0.6347689739058282,
            -3.6852598199891915
          ],
          [
            -0.2363002431046785,
            -1.4755204682389456,
            2.232176869867003,
            -0.9839304107975057,
            2.2058838705503208,
            -1.9057029931169769,
            -3.2538619559268063,
            -2.89839619865812,
            2.556481578107761,
            2.393180195638371,
            -0.4473418022620988,
            -0.847829041846774,
            2.035899160896429,
            -0.022600245731404345,
            4.519358809366176,
            -6.517750519584084,
            0.09615380025152176,
            1.8895375927140021,
            0.09959769778620566,
            2.1175690913246172,
            0.5040970655999556,
            1.5834839217092442,
            5.248365183322283,
            -0.19796189162693822,
            1.6468494515831407,
            2.8720483942252244,
            1.2123263783954101,
            -1.0983023602579642,
            1.0872929565324352,
            1.741096467713748,
            -1.6826891134165118,
            2.785659447566215,
            -3.379525077973076,
            2.6966606319946798,
            0.9196599096194028,
            -3.3823383742950313,
            0.8840616903599581,
            -0.3229636519440031,
            3.508588545084913,
            -0.31384264431516024,
            -1.8077637955145578,
            0.7131149777570752,
            1.3982639021042702,
            0.7226159742151386,
            -3.3147332101096736,
            3.058136203268981,
            -1.0679697582729053,
            3.0031976083181693,
            -0.8357219578315898,
            4.33105373702091,
            0.6445485373729227,
            -0.23784020866548497,
            -0.9559824859769552,
            1.7530722535039807,
            -3.143697392914814,
            -0.5700258308707852,
            -0.9950427880960084,
            1.5471194883740764,
            0.24889730311799177,
            0.32303080188221756,
            -0.053640635177157725,
            0.9221044993091092,
            -0.25706058223505474,
            1.883715653582844,
            0.21355901233137342,
            -0.1278580579841183,
            -3.0762066100389416,
            3.0493686656549857
          ],
          [
            -1.2444657599944045,
            2.354996507788978,
            -1.2003744268998247,
            -3.1901246052849683,
            -0.6946119763743186,
            1.2093795698753655,
            -0.26295745188516517,
            -1.1524439026050057,
            -1.6564323447240747,
            0.8040530564825551,
            -0.09681758684186592,
            -1.162194970841231,
            1.3793622314444138,
            -4.644064444691994,
            -2.3144111429235066,
            3.870599876492409,
            -0.6413441693854316,
            0.024514061713574564,
            1.296558308534427,
            2.2080206572425194,
            -0.03071747599820107,
            0.7437218224000669,
            -0.41799665838323835,
            1.349542537929172,
            -3.621905718810744,
            0.8455984622436785,
            -0.703399566646227,
            2.462971227654595,
            0.9447095698625597,
            -1.1472397239689265,
            -1.86332425314146,
            -5.90430256834349,
            1.4578950265897692,
            1.260302355079456,
            1.5262661263763562,
            -2.2222838046863345,
            -2.3482423659497282,
            -0.43123663122782563,
            1.643882118931308,
            3.462188398006411,
            2.570908349991506,
            -2.1315022383107705,
            -0.18753719170933691,
            0.7511071465346046,
            -2.387361053324042,
            -2.6009222257205056,
            -2.66572989832385,
            -1.268974909150998,
            -1.6085746163573205,
            -0.2999620879902408,
            1.3799147524720896,
            1.0389236118536993,
            -0.31685198295053074,
            -2.1379975280913373,
            0.015076144490389631,
            1.444164593231527,
            -0.7077596151321977,
            -0.9449940142613993,
            -1.1665167117277147,
            -0.12980194951364954,
            0.5202519276467648,
            0.5287893429506013,
            1.3549537022456657,
            -2.2206103010285188,
            -0.37186017490112133,
            2.242749454024592,
            -0.18074971330193754,
            3.105539928374632
          ],
          [
            1.897986992766492,
            -0.8994154705133226,
            -3.560439581398721,
            -0.865641513351311,
            -2.252875176201491,
            0.01779328769844618,
            2.91202666897616,
            -0.6146435688881309,
            -6.730320192987026,
            -1.3758493882597023,
            2.8118700023977934,
            -0.529247916083475,
            1.772274596195967,
            1.05082308021354,
            -2.6896976480514256,
            3.3855072316061374,
            3.413271141646555,
            2.190884276134715,
            -0.9711608196112004,
            -2.0154459392520487,
            -2.226600998333444,
            -0.7366303923958715,
            1.1183489124967565,
            2.79112709757276,
            -0.6783604083739554,
            -5.358750848106161,
            0.6358956683208894,
            -0.11550343549494269,
            1.8405819324342767,
            4.758134040483587,
            0.42303648112534986,
            0.8750280213822191,
            -0.7720682679352829,
            0.01933436687095147,
            -0.20122281938715425,
            2.092375979987178,
            -2.769915095678036,
            1.6657091385780616,
            -1.6490856498017534,
            0.389485514571075,
            2.961486380308669,
            -0.07646695058721781,
            1.2121633307800088,
            -2.514998336148593,
            0.7551098713592268,
            0.285408124778243,
            -1.9507521493638704,
            -0.04518174809252042,
            0.7450498823445543,
            -2.645667086808143,
            2.8706340717233743,
            -2.633941792706168,
            -0.580716775720163,
            1.1192500490691242,
            5.484183552340661,
            0.6617347372056783,
            -2.757319305604281,
            3.2800248595276145,
            3.0344374400175456,
            1.8010594362224064,
            -2.647450610822804,
            -0.9308732171918523,
            -1.5373369050828383,
            0.6227239715216207,
            1.73271418646456,
            1.5681975434881035,
            0.1995542583309588,
            -1.3920956923792855
          ],
          [
            -0.5026522915366985,
            -0.7979690528109781,
            -0.535838029841697,
            -0.12530926808245174,
            -3.3195416237922366,
            2.995870237525134,
            0.028202427213854218,
            1.1137451297340937,
            -3.8583726114597034,
            -3.4936326052773845,
            -0.9827716121831958,
            2.8980828445885907,
            0.5790060799218126,
            -1.4273806690715785,
            2.1073735827890543,
            2.590634919627898,
            -0.17795328264916488,
            -1.2820099566969543,
            -0.07488065378188793,
            2.390586869720278,
            0.34149193007752554,
            2.2040456647113147,
            -0.024619661969477402,
            -2.362461308458396,
            0.7692658495583162,
            0.6339196149212909,
            -0.3976856850536067,
            -3.099426403152527,
            -1.2963915622018114,
            -2.7546916923530964,
            -1.1330574009064993,
            -1.7577393606214828,
            -3.909337870230548,
            1.9360248263217912,
            -0.7402794793201932,
            -4.3638635705240905,
            0.21033621873370584,
            1.0750024876235167,
            0.713166687247741,
            -1.2954616653075646,
            -0.3850854868642793,
            -0.3608864763376158,
            -1.900050458771383,
            -1.6152602996498187,
            3.1007638664385664,
            -0.5955641984379295,
            2.2782877678436146,
            0.6278454542659868,
            0.9235048625679914,
            -5.041441768848502,
            0.51172310751766,
            2.7030551691934113,
            -2.815355460507512,
            2.2237328466106847,
            2.5781584599191167,
            -1.0788542276712838,
            -0.2730114877997799,
            1.6019665568377577,
            -0.7716956065642686,
            -0.6877624924603951,
            0.37517509451014075,
            -2.6971602399057164,
            -4.063207015360509,
            -3.177963458548131,
            3.3754062904570334,
            3.88870706392468,
            -2.3963340087424494,
            -1.7198330827007762
          ],
          [
            -2.0731617890202956,
            -0.7786557621996734,
            -1.5596716685690368,
            0.021879137182247904,
            0.7032829756036273,
            1.6454816260908771,
            1.5875431543727947,
            0.6732931556831603,
            2.484124569042808,
            4.818228242586729,
            -0.4843317551848422,
            1.3609171586039792,
            1.6497685930311845,
            -1.2395480492038478,
            -2.2134564561797565,
            -0.16997657219479578,
            3.129569164616538,
            0.3895331547609354,
            2.139540490587839,
            -0.6818623583686951,
            -1.535465709968278,
            -1.200643365612792,
            1.7128582477789498,
            0.962788386281943,
            -0.9912099863616799,
            -0.3260186862823351,
            -0.01466698303035266,
            -0.060038578739781856,
            -0.7173023988111515,
            -2.2758470003796702,
            3.4171857575403974,
            1.31251278904221,
            -0.10638098588267741,
            -1.3976604169938511,
            0.510951713572251,
            -1.0328910371829716,
            -0.4118047354231923,
            0.743702838993733,
            3.3402009890043365,
            -5.4316791346326045,
            2.436791542878224,
            0.14964383457804967,
            -3.2161408490770627,
            2.7392827649619553,
            -1.487625561778331,
            0.6676876638931415,
            1.509525728713384,
            -1.1866527118167995,
            0.06255598384667821,
            -0.00892375461775008,
            -1.547503169342471,
            -2.5321701237575756,
            2.5278000001080243,
            -0.8028508927350502,
            0.29708339514541965,
            -1.2575356738600982,
            -3.2767716947038243,
            -2.4253740207060037,
            1.3583148601783437,
            4.625339581670256,
            4.423034490012573,
            0.34635362677038295,
            -1.2821265888198978,
            -0.6171413546135036,
            -0.19847107910979497,
            0.4908959713809583,
            -3.0315496262127066,
            1.8570932050654263
          ],
          [
            -1.1174090373256047,
            2.867148967308653,
            -3.0698533936589216,
            1.8502961890627931,
            0.08437046406131757,
            -0.8222068964504157,
            -4.484845648269225,
            -2.795992243224349,
            -1.7696333565275832,
            -1.8299443035010272,
            0.4425675393869916,
            0.4177569330151497,
            -0.5432861980400229,
            2.141148873823867,
            -2.8284121200473438,
            0.7527655197061545,
            -0.8674706500924062,
            -3.3476048487760357,
            0.21443166532358504,
            2.6229801494981198,
            3.699304975553286,
            2.826994711884616,
            0.34873114167680597,
            2.3587047436416957,
            2.471305497948178,
            2.7972640918325853,
            1.3643474240474491,
            2.8539384003916344,
            0.3526062571766784,
            -2.684302103498584,
            3.3052970843429956,
            -0.21224280950548285,
            4.0311972364384605,
            1.8320344129383646,
            1.0210601127804635,
            1.0081087450636346,
            -0.6247649514317186,
            2.445632782081101,
            -1.4146753009085273,
            -2.1713966128599664,
            1.1927274060005886,
            1.5535461632705216,
            -2.804761866908488,
            -3.1379208243632783,
            -3.240542363476929,
            3.10241744309168,
            0.5669568148816606,
            0.9781039426641527,
            -0.28118668630790195,
            -1.7594173852716348,
            4.605985626000977,
            1.533961995202075,
            -0.7160926481894017,
            2.126296760080991,
            0.020294454361121428,
            -0.48647731201946454,
            2.2791093086867726,
            -1.5814537157702944,
            -2.217099412980098,
            2.8828877520110896,
            1.5623441286386908,
            -0.12999771532581988,
            -2.0986103121541486,
            2.718067467863056,
            0.5702772181775961,
            -1.6522059015478598,
            -2.4748715445253575,
            1.176297375648558
          ],
          [
            -2.3422473778114927,
            -0.6039734284812397,
            -2.3209513076022703,
            5.144681735423533,
            0.4500884326345793,
            1.996174763755473,
            -0.6108940460584831,
            -0.7762142763661624,
            -4.576468844435337,
            -3.7027568719229143,
            3.7823993345002322,
            1.7636309400617638,
            2.396855101431289,
            0.6202317554776308,
            -1.7021737675588198,
            -0.48360394047994837,
            -0.7846322073827087,
            -4.489245008592633,
            -0.6793514627154678,
            1.0440387076626176,
            0.27905257165977393,
            -0.8128949266097107,
            1.6181793865793472,
            -0.866473777185017,
            3.280691935583868,
            -1.2436327306369193,
            3.75498780408378,
            -4.57149595457851,
            -2.884689925790701,
            -1.6179252920306353,
            0.35810354878222983,
            0.13691532675216375,
            0.07073038263097592,
            1.0310091556902565,
            -1.5175202728021986,
            1.767698898440827,
            3.466104881515424,
            3.330407791374071,
            2.8224984488019724,
            -6.212628286827876,
            -2.273348838217756,
            4.041089159309468,
            2.084031164698028,
            -0.6891092493143229,
            -0.9860618097134465,
            -1.1022442744038203,
            0.1499306918166876,
            1.764052434054581,
            -0.0663300786019616,
            1.3131526352853526,
            1.7253848106978713,
            1.2473851046877633,
            4.7056928597819,
            4.824974756749012,
            2.0068671615681652,
            1.6704941196072483,
            3.0474867311869653,
            1.150785183033232,
            0.22439342596485748,
            3.4454028546409003,
            0.44456243062338285,
            0.7227306448629547,
            -0.4051491696318211,
            2.1527364518862036,
            3.3126280048982535,
            2.562441088422704,
            -3.079364652644143,
            0.8734112713576174
          ],
          [
            -3.4565870775033476,
            -0.040320963271135046,
            -5.441917396619078,
            0.03382319955785623,
            -2.378132890641957,
            -2.2611468013295206,
            -1.0732501832431864,
            1.9261190003444224,
            -0.31948027347386043,
            1.1904246271238998,
            -0.6126843954231493,
            1.7220865103727436,
            -3.5902570868406865,
            -4.324728685095171,
            -1.135218974432646,
            -0.12432525140125383,
            -2.404890164709133,
            0.3835931838609471,
            -0.3024674178093851,
            -3.630901483315951,
            -0.34242460970314875,
            0.24512960682184348,
            -0.44540064621103137,
            1.7443705030657728,
            -0.18446006392736458,
            -0.5879715471351807,
            0.6678029141037317,
            4.6732826104157414,
            7.286037503644435,
            0.49409627882901375,
            2.2501443393315053,
            1.3309860123805637,
            1.5314859462617356,
            -0.35057600510946274,
            -0.32936197510014953,
            0.12929389633959848,
            -1.7683115102364069,
            -2.4406954373537846,
            -0.7297528430548995,
            0.723937805349844,
            -1.8737705722352467,
            3.3655830386743086,
            -0.6125765002879546,
            3.1258327788771587,
            0.4591240514446128,
            -0.8819148569735873,
            -0.6079862562350534,
            -3.189171610334767,
            -4.493943621216852,
            1.643837256365822,
            2.561389443046699,
            1.9444957499266178,
            1.8356288178748212,
            -0.6892503844875928,
            -2.9975755175274643,
            0.1279027380868702,
            -1.6518588470418478,
            -2.2038566071238987,
            3.5619824949461893,
            -0.6860860628552999,
            -2.4274907105491312,
            0.8311681460476525,
            -3.074671102579165,
            -3.715380100369583,
            -1.2698673402935605,
            -3.1157640769771575,
            1.9052286947586061,
            2.8498720410141156
          ],
          [
            -1.977953669197929,
            -1.1974266332835368,
            -2.349515628384344,
            2.3364952591197232,
            0.18568466580406878,
            0.19326593903089817,
            -0.20476107970196133,
            0.6355202774911131,
            -1.5447249519906472,
            2.17825406814209,
            0.5601876224177094,
            1.013503150197065,
            -2.0328686005582535,
            -1.347807493514255,
            4.970487031116254,
            1.357617262792349,
            0.1679658898736578,
            2.6540624674237505,
            -0.44229041682647197,
            -0.8368943386640568,
            -1.0742561726061501,
            1.4880801095746174,
            2.2007694483991056,
            -1.0024339794444066,
            -0.13502622799117392,
            -3.756360323332144,
            1.858295590235193,
            0.367869952963789,
            -0.8841391498818985,
            -1.0238171269309373,
            0.7322320633302528,
            0.3514569036672227,
            -1.0061076102000808,
            0.839032632709895,
            -3.3441059543668494,
            1.8722781499244356,
            1.5238933359828115,
            -4.837741913445,
            -1.5478970937560559,
            1.3624466935580524,
            -1.2700830216813361,
            2.6162686150492993,
            -1.744947620425359,
            -0.7082399889301072,
            1.3676462440797825,
            1.6866533242140784,
            -1.8455651264246056,
            -1.6144821205929156,
            -1.8539665847919877,
            -1.090357539571556,
            -2.1325615495425234,
            2.3853666748824804,
            0.37987017056304956,
            -0.06876150141340129,
            1.4558708043091353,
            -2.0796523291420246,
            0.4586472931525631,
            2.3462379126717776,
            -1.4791355448194567,
            0.7220206962289141,
            0.21017075520911552,
            1.1428166774148276,
            -1.8120495944670187,
            2.3256132408357875,
