{
  "network": {
    "layers": [
      {
        "weights": [
          [
            -2.3918316821787178,
            -0.7300167212293066,
            1.4934784531596228,
            -2.965273729524061,
            -0.08351387963725135,
            0.7472441020588216,
            2.4036745511508237,
            -0.9033691587067155,
            2.126416218958318,
            0.26371061060732837,
            2.7263698972664736,
            -1.9468897456348497,
            4.36549964006315,
            -2.839291918061929,
            1.341320871984515,
            2.2720359030635753,
            0.2354375598396451,
            3.008183110533339,
            -0.1148119559005712,
            2.6407281449832456,
            -1.0120988731191805,
            -1.0521719680012906,
            -2.4541402228931055,
            0.6176399906600654,
            -6.1592980436252525,
            -3.704184576558494,
            4.565740561210777,
            -0.6566951377622736,
            -0.039855207240794555,
            -7.4147198486189705,
            0.31318423809136,
            1.0355268557301807,
            4.209372383068514,
            4.340242695685491,
            -0.1093399927742856,
            -2.3340790784822105,
            2.0300052325738265,
            -3.4081646963731016,
            -5.511299643513618,
            0.23559360631188583,
            4.8945054025986305,
            0.8781870368864787,
            3.590759753188246,
            -1.836114194092179,
            0.7111323225428527,
            1.3497160473609104,
            -0.29846989210685204,
            -0.9654870510716795,
            -0.8124054714423641,
            3.074790187407561,
            -1.4446729830999414,
            0.85082095356562,
            -1.2830864064604688,
            -1.4233842761341666,
            2.9582094765707514,
            0.1895921939829725,
            1.5040741766735268,
            -1.877762369669127,
            5.090360098104767,
            -5.8738629911558835,
            -3.6891892745599932,
            -3.9801222569356605,
            -1.8289687934309784,
            -3.6043517255738897,
            -3.9281075293324967,
            0.8665000423933623,
            -6.204824002752978,
            1.8791013001666665
          ],
          [
            2.244630206186383,
            -4.195279267166642,
            4.201327772597478,
            -1.1620274701255389,
            2.1588429486091467,
            4.4667302605548596,
            -3.379755493557432,
            2.6387269144094145,
            -0.7943912361574431,
            -2.6307398982337515,
            -4.665251785563472,
            -2.304841118876729,
            -2.889730406479811,
            2.6325940004034405,
            1.1895413974343305,
            0.5695342765031891,
            -1.3572939009101475,
            3.916811738277378,
            5.047801336618745,
            0.902846102310163,
            5.410210149610927,
            1.8018145554628962,
            -4.303461723878959,
            -0.33850118277043284,
            -4.235052210201976,
            -0.5275383569491949,
            -3.0667169838069106,
            2.501937495301649,
            0.42072821084752854,
            -0.17197157663219642,
            3.647368755698534,
            -0.06789135583320738,
            4.4773868754556725,
            -4.254967860404009,
            3.2296854482643726,
            0.4007058980427187,
            -1.35740071859673,
            -2.9942710526587186,
            -1.448393955673247,
            -3.377769805860648,
            -0.0572401562512894,
            -0.6666744434069186,
            3.728391073291785,
            0.1044700246891822,
            -3.8064055862864583,
            -7.957180967287689,
            3.5712786418989455,
            0.4790176414200905,
            1.3493059097970839,
            -5.540336538291239,
            -1.7991688877075918,
            3.1350152679613643,
            -2.0892595285365956,
            2.510535466684377,
            0.744297721307715,
            -2.2550527389268917,
            -3.155920538429296,
            -4.5567485533222944,
            2.4526265889308188,
            -0.1676184782572161,
            2.825604089854676,
            -0.9901687199184651,
            -1.2566284765473117,
            -1.5039797958255374,
            -0.4317782769189698,
            2.4029844098398785,
            -2.692474774263505,
            -0.5312594641288501
          ],
          [
            -3.2546178631379035,
            -3.324809286318509,
            0.3725982125065286,
            3.616319420009072,
            -0.06159428037110298,
            -0.3703861686381974,
            1.1492748223414986,
            2.2974690531872697,
            -5.467525649799844,
            -1.8565927092289127,
            -3.588535011853265,
            2.823102130899133,
            -2.4994997504627556,
            -1.803172089869802,
            -0.9563128475132633,
            1.24203129019269,
            2.063959903604171,
            -2.409202028943807,
            -3.546608724470517,
            -3.0948213616390543,
            -0.37325191376012645,
            -4.5001870660062355,
            -0.29253739048294075,
            6.280309619381162,
            3.4650329683859917,
            1.9840156688804749,
            -1.1216606232033017,
            0.9731183858892619,
            -1.6113733181041368,
            2.2686064567813307,
            1.1836665832115905,
            -1.038802231225981,
            -1.525293351036628,
            -0.74099651881423,
            -0.5509013775338638,
            4.3094766020602435,
            -0.7401461758692205,
            1.7458693656254844,
            2.6559264157756908,
            -1.5444074961389707,
            0.5974053721380315,
            -6.725832098318082,
            -0.9518211282304199,
            -1.6207290716977991,
            -0.07388136266042007,
            -0.19877735626945991,
            0.9518223453558832,
            -0.2530461745248186,
            -1.9059793894728625,
            1.380646976685179,
            0.1535353951120565,
            1.0913812671736376,
            0.32216000182188453,
            -3.5532772682363176,
            -0.780414233443568,
            -1.8556653646385037,
            0.9667839995044671,
            2.1859616426752533,
            -4.822690276179322,
            -2.179189316748214,
            6.9865635208415995,
            -0.02867210803013388,
            -1.1338152191193687,
            2.45241387425536,
            -4.8857555666028745,
            2.3938075087265056,
            0.3392290066819606,
            -2.1188160339028568
          ],
          [
            2.862068390669188,
            2.6075093128567115,
            2.2272676892026007,
            -2.0608872233344457,
            -0.46354794870444055,
            1.4782592490270245,
            1.542719239642909,
            2.148478355372915,
            4.230967623917689,
            3.382315901920225,
            -1.6393363393040037,
            -2.9241728748644684,
            1.960344771595187,
            -4.942063380156026,
            1.8046652479979357,
            1.0520646232106927,
            -1.0903888436204057,
            2.934282430689836,
            0.3660369544066677,
            2.2464738335412333,
            -5.399319516337584,
            -1.337545064763178,
            0.07549178297851336,
            0.7910404278287746,
            -5.399114656012538,
            -7.295553787448139,
            4.103165645557391,
            2.5881121370035736,
            -1.456502049048895,
            1.6868095950878073,
            5.101685995125124,
            1.1439345635627678,
            -3.0826523992133827,
            2.221288292445458,
            -1.3667215083786868,
            2.25414147668975,
            -0.3807067348122883,
            -5.244573124380846,
            -1.7442362979950343,
            1.0120180094332694,
            1.9238589351704896,
            -3.6995093869425606,
            0.2541389550370802,
            -0.6224657154997333,
            -2.219736747526668,
            1.2690564854090314,
            3.2692295656122816,
            -3.064352618532065,
            -2.0928533010075414,
            2.697033740353876,
            -0.41600025529897855,
            -1.483420379908897,
            -2.4582975515819427,
            -0.3292855464374849,
            0.9909751985725507,
            0.1657910257970532,
            -1.162100006303439,
            3.0190139895975765,
            3.3927675998428293,
            8.432616582001465,
            3.7431723070497216,
            1.3860939158162853,
            4.83061801410968,
            -3.548107856007679,
            -0.046229973497369986,
            2.6739896410041304,
            -0.8900026292671688,
            -0.7868852612073889
          ],
          [
            4.829671518251908,
            -2.2981643510867893,
            6.024039116001058,
            1.4597441804996723,
            2.281622821491631,
            2.6070530804484355,
            2.289358674406498,
            -2.016759204126026,
            -4.578645718714695,
            -2.2467683790795263,
            -2.1190544351550966,
            -2.4831120668965823,
            -4.398287837580324,
            -6.069736080083744,
            -2.307570183510005,
            -0.33229121699517583,
            -3.480763451516871,
            -0.34264430263398327,
            3.6392832518095086,
            -5.779050752307885,
            6.921276540854207,
            1.0838772046050278,
            0.44663105034884887,
            1.0224994807158678,
            5.410612339178681,
            0.7295629837681232,
            1.6443582935311523,
            3.2304666318937083,
            5.182807760330046,
            -4.276017424731614,
            2.1750730856567,
            -3.973838969883349,
            -1.2235529600359025,
            4.137714412048364,
            4.53680923242106,
            3.296549282934025,
            1.0984436007085445,
            1.1341864684688507,
            3.644778708823145,
            0.22346718769043536,
            0.7491534907535955,
            0.6664488967224445,
            1.0817031038352491,
            0.5204537590348847,
            2.1605465253266782,
            3.3610316841395376,
            1.128005672034032,
            3.002690991816554,
            -1.2319098134646274,
            3.496871407225217,
            1.8860453904437358,
            -3.637826795127637,
            -1.776494241049022,
            5.239623659736723,
            1.5773029279132074,
            -1.4625490564238786,
            1.6904224127221399,
            -2.5516431917824782,
            2.1301621140992064,
            4.751902217757089,
            1.0312841266035229,
            4.354273302246283,
            2.1502348381975973,
            1.1590633878962555,
            -1.3710510271376934,
            -6.855721572470914,
            0.5738518112193332,
            3.917596524025872
          ],
          [
            0.13398533540758356,
            -3.205322546339158,
            -1.7805505049634234,
            1.8074235863207953,
            -2.763890963502895,
            -0.6395102859633918,
            -1.5449238839008963,
            0.2885109330501582,
            -1.8029614878358442,
            0.4501010709974886,
            -1.0843910559283731,
            -2.5237948270968062,
            3.477200312529688,
            4.482843293539787,
            5.151772637778372,
            2.824049224570616,
            -2.428991139270542,
            3.2149830319503745,
            -0.8179003241816135,
            -1.574408273373612,
            0.9165812926053116,
            -0.8860853686080584,
            3.5395498197300483,
            6.8698128059561725,
            -3.277224419169801,
            3.1660217323327458,
            4.4227345950428365,
            -5.426963309974942,
            1.85650719175429,
            -5.733427365045708,
            -0.18370908113624085,
            -3.7958848642947562,
            -3.9817774594906292,
            -3.5654289593661264,
            2.344070215312216,
            -0.025888293342778118,
            5.088897474993548,
            2.3225589327641742,
            3.6535306624560935,
            -6.42899295693311,
            1.5717186548864834,
            0.2941608222299975,
            0.6734992757491016,
            -1.5744531633447523,
            4.198336705020874,
            -1.1169970072522855,
            -2.4455111288548,
            -2.490268114995521,
            -0.4898706250358729,
            -5.3877288165293375,
            0.24314075569154645,
            2.4012746099038007,
            5.2344977232089445,
            1.3180556651993585,
            -2.56221898744521,
            0.5514445711114285,
            -0.42882145853525044,
            -1.8097330537878296,
            0.3486917258584601,
            0.5161742053136847,
            5.282383515583415,
            1.8195909605471117,
            3.750433770655991,
            1.2401047900252617,
            -0.6322947110470538,
            0.9779874454503921,
            -1.8444760376205351,
            -1.4727641033402388
          ],
          [
            1.2710401366622064,
            2.729172187525684,
            0.33082759062328876,
            -3.097880008449012,
            -1.909108050796934,
            1.4854502786662402,
            3.4493634699822744,
            2.002180207991014,
            -0.30397075829053577,
            -2.4058856117705365,
            6.5031363192417295,
            -1.3411022743504721,
            -3.1274812738521383,
            0.5242527159672608,
            2.7236676009130507,
            0.32507865780048195,
            1.0458860654984041,
            1.611551223028586,
            0.8090267204536029,
            -3.6173054535604305,
            -2.0632476895694194,
            2.683931525578082,
            1.3509223524321592,
            -1.7235421652596328,
            4.952874899796003,
            -3.855219846695301,
            0.23810962638497132,
            -0.9816957152688857,
            1.3591969754392403,
            5.260251867147881,
            1.4535553528099263,
            2.1252693146064914,
            -7.642497942539123,
            -1.1488982285464393,
            0.660561230851001,
            0.26085757068674004,
            2.4405478505610896,
            -2.550709477591808,
            -0.07616245465622115,
            1.5865932531217741,
            -0.6002385547624015,
            -1.554891310640138,
            -5.579119260272365,
            3.437304095585499,
            0.8085969764001936,
            -0.45767996399830113,
            2.7317524594033644,
            -2.19685681052191,
            -2.0781974043922102,
            -2.212449115484764,
            1.2628821959307444,
            -8.560792191958516,
            -0.8155344757361686,
            1.4582731646565863,
            -2.0548584968384973,
            2.1834537084078174,
            2.4295512008384543,
            -1.3030723318051378,
            -2.3842216717617397,
            -1.5529765642084685,
            1.0638355417842404,
            0.6331296473685297,
            2.02267205646659,
            -1.1241425965188752,
            -3.9403357880548575,
            -2.6159824427799343,
            3.3129708063352585,
            -6.290390602599203
          ],
          [
            -1.0444193751392268,
            0.303953142701618,
            -1.9316808721757879,
            0.3087856784466565,
            2.5761261781211244,
            2.643596728165522,
            -5.00624057792697,
            -2.7421236898520642,
            -0.8822152691718826,
            0.6675281044706385,
            -5.328821042864205,
            0.7457328914146105,
            -3.7118781726422236,
            -2.9992729989310933,
            -1.9392608292743052,
            -1.2620135891324147,
            -5.136052494343218,
            -2.717655559311638,
            2.8464107064931325,
            5.269342999318282,
            0.09456208023202389,
            0.5145706393180741,
            -0.1402469196068608,
            1.219346891567759,
            -5.208380777882801,
            1.1130815816014052,
            -1.798235038487191,
            2.719602463610458,
            -1.3867822367274958,
            -1.1073406208407401,
            -7.9364011701995905,
            4.924469553709398,
            -3.90465455830297,
            4.580724771731637,
            -3.6934657649468865,
            0.052564719485645006,
            4.01242563001048,
            1.102357060030924,
            2.3084190067754577,
            -2.362208859575013,
            -6.009309774584072,
            2.5333237832292475,
            -1.9305110846594349,
            1.24833813732978,
            -1.0316281494237045,
            1.6635073392614899,
            1.586430117726553,
            0.3376469804606955,
            -7.305867565387268,
            1.391736737194025,
            -1.1514684342518149,
            0.005833393128535744,
            -1.7571935437127273,
            -3.6585371824489004,
            1.6382978467448313,
            -1.6038769163588305,
            2.0397918257132663,
            0.9355264171375283,
            -3.554175003728332,
            -4.700157593082913,
            -1.253940927926398,
            -0.41772313313026527,
            -2.4728269400453864,
            2.253349610506457,
            3.1527944738826505,
            0.43212021735846995,
            -3.790448774139541,
            1.119898071542158
          ],
          [
            -1.2579750928433322,
            -6.268566784093622,
            -1.6836027875908808,
            -2.9923753495659984,
            3.939051146651999,
            -3.229969829018029,
            -0.6866692796151348,
            3.2901285270803573,
            -3.5141890557505002,
            -1.9898530860280703,
            -0.39002943318464445,
            4.94209730105563,
            0.9157331812443079,
            -2.244267366535629,
            0.4745815437976056,
            0.8974057603371164,
            0.19856926118198032,
            -5.369935157329134,
            -2.8621457199694675,
            2.387178760627426,
            -1.5640602590725163,
            -2.5450627643124197,
            -0.9647272241006549,
            3.6910780575559072,
            -2.5783178205317987,
            5.094496173592813,
            3.427872850662938,
            -2.482443311133671,
            -0.2757742598702088,
            -3.445557784012221,
            -4.981997854961078,
            -1.0254838789896794,
            -0.993499648642011,
            1.2719023041749444,
            -0.9062320346081008,
            -0.08167495008660075,
            1.9973209373853686,
            -3.5649444909365493,
            2.831096817979582,
            -4.162608947654657,
            -3.286319008060335,
            -1.0287336340692965,
            5.1144967704252124,
            -0.5499823902910699,
            0.24521388646959677,
            -1.19967739601194,
            -5.389687926852088,
            1.2841214641118806,
            0.190197563803134,
            1.131143021940026,
            -0.1983375693006887,
            4.134737930173793,
            -3.6105662228264648,
            1.3718494765250344,
            2.0153571524095404,
            1.4255330337374037,
            -2.6419943515742266,
            -1.8044724954839402,
            3.983546991401057,
            0.010399803936247731,
            0.6644000469784456,
            -0.9885324171551401,
            -3.1948773082602684,
            5.4478300321561015,
            -0.43659216972159065,
            -0.36555484111970604,
            1.9146136013057546,
            -6.187491597843538
          ],
          [
            -1.9633955810692318,
            2.6441650817731808,
            1.926914366365933,
            -0.8726426049918231,
            -0.25914895460026555,
            1.588164555130503,
            0.5042621296445083,
            -2.9510146519583067,
            -2.290909415036052,
            0.9389080437810648,
            -4.6195060287604965,
            -6.4278401436271775,
            3.8325447935556975,
            1.6775364200349503,
            1.2959308432226493,
            -1.1042707464454224,
            3.9656454333801925,
            1.5008328346387336,
            -0.038253236259224443,
            -2.015366954946097,
            -6.80323684342823,
            -3.9387006726811915,
            -3.3658217760429348,
            2.4587539079092267,
            -0.8662405967422597,
            -3.7812667745195614,
            1.7284694328926742,
            -1.7404320637252302,
            -2.3581465158649255,
            1.5542772759521335,
            -3.551270275212727,
            -6.497587086247081,
            -2.9383695286219864,
            -2.639538486795177,
            -5.1563780990649555,
            -2.5359472731221735,
            -1.3337909570588395,
            2.1889596720347435,
            3.5554635650606814,
            -4.84116152041016,
            1.8279308449076932,
            -0.9016382117838107,
            -6.690632019742821,
            -3.527797140586799,
            -1.600186018834611,
            -2.7897871926601643,
            -8.937185115117554,
            -1.3577033916404608,
            1.388252472769899,
            0.02549403722484611,
            3.1874344363234224,
            -0.28166506793526985,
            1.0615612735052007,
            3.992351170826951,
            -0.4388014250880893,
            -0.9050793956898259,
            -0.2622731565111927,
            1.9018536342609302,
            -0.9851675672468616,
            -1.0493558883760452,
            0.23955346278304313,
            -1.684866227776489,
            -3.7067560280061413,
            -7.610893749795593,
            -0.36699964966164933,
            0.9008772975175372,
            3.9096290389525628,
            -4.45455100483769
          ],
          [
            -3.5673071193286163,
            0.272462043757589,
            -2.199893063276902,
            -1.0873485623204127,
            4.552270843475734,
            0.39062731717411764,
            -1.3010465396555089,
            6.072400152282177,
            3.2423891947079917,
            1.258821555569805,
            -5.480482187302883,
            6.018505646973135,
            -3.747183208519603,
            -0.4944727068375053,
            1.7091348861582387,
            3.9625615562294323,
            0.9047891630528591,
            5.168828252932802,
            3.735236216882732,
            1.53883074166123,
            0.8648800747088641,
            -1.981147555366023,
            -0.8198160500833667,
            -1.86119080390158,
            -2.163656147937209,
            -1.6237545932712902,
            1.1466202117486308,
            3.4014672551852474,
            0.22040408573194342,
            0.7416314491861726,
            5.048028837744335,
            3.081471364689142,
            3.5538667529765,
            1.7688482059263722,
            2.729895750056827,
            2.4996815620169985,
            2.3734154716467866,
            -6.1963321016594906,
            -7.073502775104227,
            7.186014167783013,
            -1.1841064534726464,
            2.9135840333630907,
            -0.46211923975557007,
            -0.1413113186497567,
            -0.11778850860648166,
            2.1165589362133477,
            0.0321248583308964,
            -1.6129856587093165,
            3.7564402903569247,
            0.2883771593729338,
            1.728212084325181,
            2.5970177299313795,
            2.036414207796903,
            2.2579946283064425,
            -1.4422094414107112,
            -1.284309731233727,
            -1.0387934918809287,
            -2.0567244289865387,
            0.7009902007759294,
            1.155767759715504,
            -1.8909583216457344,
            -2.533568719697535,
            -2.8436246917574595,
            -3.952712882110254,
            -0.5749902312435597,
            -4.709270682979246,
            -0.2468013174632187,
            7.73397243705139
          ],
          [
            -6.600577886545987,
            -1.7178872476691667,
            -1.740531128989858,
            -0.6699191355764081,
            4.575806155207513,
            1.4328947235479728,
            2.6796766508334606,
            -3.6916679099402523,
            2.820176876092448,
            2.7217122442427275,
            0.014716847073201866,
            -0.26080176792900817,
            -4.529179093809704,
            0.28957173416733517,
            5.062323662785174,
            -3.7029019883528074,
            0.16054371975243065,
            -3.906530916528081,
            4.764674008121513,
            -0.9247769405249248,
            -3.8177559640664183,
            -3.232389596177352,
            -0.6255808345057229,
            -3.7863373829257436,
            -1.0747523617073762,
            2.1146337040296905,
            6.2206887402403765,
            -1.913262202374757,
            -0.6648696549426729,
            1.7852233196319731,
            1.8084979059608373,
            -2.0131882350185775,
            0.07110061277948537,
            -1.9904387802276917,
            2.1241355154163943,
            -1.378876094954817,
            -2.1451241999277797,
            2.6002986347802652,
            0.9846494232511087,
            -5.344493817535157,
            4.770231022233181,
            -4.861281113212178,
            -1.4397544916260885,
            2.6050561589663563,
            -0.7874417524498983,
            -0.4223261480321496,
            1.164952381776178,
            -0.39033184622225814,
            2.9319945208726677,
            -5.341430008371235,
            -2.07582857585432,
            1.1302817632035496,
            -0.40215876716754795,
            1.3313773210571036,
            -5.423572775716708,
            -0.4790912754766577,
            0.2727771585788259,
            0.013464520622779128,
            2.7444782006907373,
            -2.1235396779263334,
            0.2676944492762806,
            2.1816516668549335,
            -0.1102152810637751,
            -0.28266814511352223,
            -1.9049805898339471,
            -0.4977025698268051,
            -0.996697678889194,
            -2.4956025208423185
          ],
          [
            -2.4275998859936476,
            -1.0960684007682215,
            5.565442143915408,
            -0.5272658502116556,
            -6.503866717738026,
            3.3621338760355615,
            -3.327728920153418,
            -3.5275708680448394,
            -2.5773014417211555,
            3.6232112041076716,
            2.433055462283676,
            -0.2077845789278245,
            0.20285205960359634,
            3.817119370887249,
            3.7150576043137593,
            2.472928282667719,
            4.016718393800442,
            -4.805609796764242,
            0.6477463580351337,
            5.95187998017758,
            -0.6782737350933656,
            -2.047917904974958,
            -2.8200182211643474,
            -4.884230662849741,
            -7.782651315101369,
            4.207873466434374,
            -1.3160751891229148,
            -0.7622303596348277,
            4.667639113223037,
            -3.0231564232198513,
            3.434579102183486,
            -4.524408630739044,
            4.4912279340009285,
            4.40632994795092,
            0.1344445551572248,
            6.262123888175394,
            1.0093349291076623,
            2.0392595527617874,
            -0.8522272149521973,
            0.43622334630635806,
            5.483422873229841,
            -0.37475016674146866,
            0.19922324192744872,
            0.44088003044248025,
            3.4287220365797246,
            -3.2777773686557143,
            -1.418204302004508,
            -1.9951178386063297,
            -0.7261461660229236,
            -2.7320203988482703,
            -1.7892550023519112,
            1.5684142775410228,
            7.223202097458708,
            -0.6897328670777381,
            -0.06118639871400405,
            2.144114432857465,
            -2.486068211231826,
            -2.5777026552014926,
            0.8480609035789823,
            -2.3212950029723403,
            -1.019060466027346,
            -0.3930853113055044,
            -1.2946901071777752,
            -0.12935729415639474,
            -2.3869022435668974,
            4.390899598959416,
            0.031051793875209704,
            3.059604125424254
          ],
          [
            -1.2064287250698404,
            2.4877578040930737,
            -1.5225506905694293,
            -0.3603064379982554,
            -2.257650438961052,
            0.006010165414373048,
            8.012404829867853,
            2.805741503845174,
            -2.597550977660819,
            -1.0268512939975598,
            -4.462651466647345,
            0.46683638131819233,
            1.0916273760054822,
            7.214682471139338,
            3.0152819759349145,
            3.406542781409218,
            -4.659999384149971,
            0.23642409415045054,
            1.0547755878090244,
            2.4955400565382546,
            1.766776720850512,
            0.4492544118876676,
            3.3329425641993358,
            -1.988195086539483,
            -0.773293358013833,
            -1.0661196836485998,
            -1.1075884004489365,
            -2.7266761627334386,
            -1.750445873337833,
            0.7952548844688415,
            -4.398388041429816,
            3.763724735474676,
            -6.376452697348709,
            0.6418492270672533,
            -0.04014523302916673,
            -5.235056745484197,
            2.1413414219929088,
            2.2562941842577233,
            -3.7326591669695586,
            0.780692783405012,
            0.9613457761582799,
            0.7841921299921458,
            -2.890644773882178,
            -6.156832262498619,
            -2.985973491443849,
            0.6400572017733518,
            3.653091403153187,
            -1.0892464158623358,
            -1.77707418589601,
            3.2585644029020204,
            -4.210570850352651,
            -2.4745144432316173,
            0.35223982103226126,
            2.9798905892966543,
            -0.4191143940484957,
            4.349599023270559,
            3.1906538620500426,
            -0.5404166241775018,
            -3.856009432530692,
            -2.7344612176125094,
            5.654524386760861,
            1.5851691347697363,
            -2.10903112755091,
            -1.5014483968269146,
            -6.479051599127827,
            1.8364109234685202,
            -1.1532655124104108,
            -0.9072127848136613
          ],
          [
            -2.5346645339112617,
            -0.6930943854460784,
            -4.22451188063135,
            2.4938640319270635,
            3.823579417775702,
            -2.732738309469405,
            1.9779201505402895,
            2.506461476265912,
            4.334616758419377,
            1.487614005802584,
            -5.290509864171735,
            -0.3994166684310788,
            2.1297226379634,
            -2.302798504542745,
            -0.7208876078591482,
            -5.445876610079976,
            2.221545040885919,
            -1.5635515670017208,
            -4.146493743240752,
            -3.48477765662768,
            -3.633941694150475,
            3.6140468221404336,
            -0.934837607705328,
            3.2079686934986653,
            3.5103643679636223,
            2.5614923264601464,
            -0.7102314524696303,
            0.8767845501866399,
            5.706489215091353,
            -2.3226321087455095,
            5.684324117379537,
            1.118365379911186,
            3.51608990156807,
            -3.5241520047349444,
            -0.7488345990282483,
            0.22445831849731906,
            -1.4097341071332323,
            3.9473268598881917,
            0.43328032344042616,
            -0.9077912721209973,
            3.638566984073292,
            -4.259122333573317,
            5.014375512435441,
            -3.2536809163017226,
            -4.741341129658637,
            -1.5327860448454662,
            4.311515640167908,
            -0.43150036156543137,
            5.068243196106,
            -1.8327200291567678,
            -1.819734658436895,
            -2.880363364628665,
            2.3951143094249403,
            -0.664179152430487,
            -0.06844716267417192,
            1.2559237634380733,
            -7.4326955226877605,
            1.3002630379101787,
            0.9924287312072938,
            0.33071356822321735,
            4.398338975454345,
            -2.4341511488666354,
            -5.046006879007997,
            1.8249965363125127,
            1.565708324004928,
            6.901770579371012,
            -2.607123049016891,
            -0.15768091673289863
          ],
          [
            -4.193848122606807,
            0.20796192437523087,
            4.892993172806843,
            -1.3278895223527631,
            -0.24231987908698827,
            1.1241464433039299,
            3.313021716783018,
            -1.574169050585041,
            -3.393094648809484,
            -1.9544096829122153,
            -1.7950727987714539,
            -3.1838591687328366,
            -3.676165206280087,
            1.7602700083449738,
            -2.9601718412388602,
            -2.3946191216905293,
            -3.870242079769967,
            0.29843997237666514,
            2.670489525327611,
            0.5874403908838852,
            1.2149870728229095,
            1.6596625132079705,
            1.8234944532242663,
            0.3774469240289008,
            -4.072079274319733,
            4.4564943664714,
            1.4739607616282113,
            -0.7116584010274305,
            -0.8062902179041296,
            -2.604929097114295,
            1.8669298658115765,
            1.6259596055659984,
            -2.2687977034777402,
            3.352955895421153,
            3.550174123597122,
            -4.469989182332056,
            -0.4736495460398292,
            -4.635640758940035,
            -3.1072810136182696,
            -3.2829977665358627,
            -0.35407981022442786,
            -0.08717109616231426,
            -6.75629405653383,
            1.3633693744585396,
            -3.1284541401437433,
            -1.3141680404172995,
            -1.8368614613233292,
            2.957118745374795,
            -0.7631146778828559,
            0.09361866519245168,
            -3.2573056122506463,
            -1.350258085477769,
            2.5675988018960263,
            -0.5220491050938885,
            -5.361157351209698,
            -3.3143362170277184,
            -0.37122102229646764,
            1.8826053061691088,
            1.6074411179427797,
            -5.330777757520273,
            -0.7570695932135185,
            -5.683107980582277,
            1.0180868662492786,
            -2.115541116913128,
            -0.6591683113221233,
            0.25653118151403986,
            1.354568649599392,
            3.7065284753000203
          ],
          [
            1.531405384512782,
            -1.0598374925529324,
            -6.714908472494536,
            -2.0776560398676307,
            -2.1368999427029354,
            -0.863466644495184,
            -0.9009788209311508,
            2.9777724732205133,
            -0.14359177590447464,
            2.2558335748806715,
            -1.1652478738046983,
            -4.333045593937091,
            -2.734031060193596,
            2.0172828443891637,
            -4.881717756869451,
            4.058269622512471,
            -6.203415354554538,
            4.263404846562821,
            1.2755607089861676,
            -2.244668719406982,
            -3.3315873267721865,
            -3.4320348285508304,
            -5.954850971906764,
            3.3682471352994896,
            -1.5208759588841447,
            -3.1564054997382245,
            -3.3763598969624615,
            -3.2843850712034057,
            -5.576512455709261,
            1.5562840088292051,
            0.5103088672565768,
            0.33566179656778083,
            -2.873383091752668,
            -0.2787810684043889,
            -0.21709926650458955,
            0.5914367309818744,
            6.5387356193079595,
            -0.6112927340960896,
            2.468841013193994,
            -1.3728235201399355,
            -1.0446676877966827,
            1.25914496724357,
            -2.5401065785956236,
            0.12982698954191013,
            -6.613250055429234,
            -5.77718699403339,
            -3.3628529872214776,
            3.8841492905164143,
            8.3683697682079,
            2.463599927098115,
            8.355816859560354,
            -0.49012846939997307,
            4.081901817835648,
            0.18107608653143142,
            -0.1257869017604094,
            3.5748089614459344,
            2.765791093844942,
            3.4658419653992683,
            2.4014195995561494,
            2.2095383347990523,
            -5.036898966644184,
            -1.1099821951778193,
            5.079555175275665,
            -3.1756887431078056,
            2.779545319931721,
            1.8292267378633875,
            -7.7186336046701385,
            -1.4967640683531167
          ],
          [
            -0.008315872748105524,
            -2.1419217288424197,
            -0.9733785216904817,
            -1.840495057387785,
            1.7144025211154714,
            0.9267905234174919,
            -1.0887212961792139,
            -4.328491428465576,
            7.629536903749466,
            -1.3498722419430182,
            -1.0621948779689494,
            -4.761108390572019,
            -0.732150936656043,
            4.504087369775847,
            -1.6326325040076557,
            -6.055107032596644,
            -1.0680035405555848,
            -0.8987293397217666,
            -3.682242084089751,
            -2.226535216089334,
            2.1309148985692543,
            -2.2574120948233896,
            -1.4959439254782494,
            -4.4097447950948245,
            0.6744982850881321,
            -7.681039759207498,
            -6.300186246366669,
            3.2194465949578253,
            -6.358875559895736,
            4.58330624367634,
            1.8708681413972212,
            4.671915749703505,
            0.492465003128159,
            -1.7505128100508884,
            -1.9862116508325625,
            2.9595818846773096,
            0.613417112870945,
            -2.3261294541942017,
            -1.5947943277263612,
            2.464567828135037,
            2.4594459095706727,
            0.40116547362476607,
            1.2689482473835942,
            -0.39153264273235966,
            0.8939614950722186,
            -2.228631498349787,
            -2.430044746771628,
            1.3661295956539956,
            -1.5662735492162485,
            0.6378288349380103,
            0.35764826361764696,
            1.9278820882706647,
            0.34608702872263747,
            0.38346497928097883,
            -1.332410064527081,
            3.1592752658336125,
            -3.2481428682355213,
            -2.3582894794480187,
            -2.89219863060443,
            3.0931984617675656,
            1.459728148448044,
            -5.206285496280413,
            -2.5918595192232368,
            1.625812000183056,
            -2.050291715287634,
            2.008237416975575,
            -0.6543496706939317,
            -2.35560232305272
          ],
          [
            3.2517806128501667,
            -1.1277746113225393,
            2.0354447227803947,
            -0.9336578245051326,
            2.758058839099502,
            6.3096057099460445,
            -1.0799762852207757,
            -3.0681957340536483,
            1.436563209126047,
            -1.2479200775194685,
            1.895623381043744,
            1.38116851773063,
            1.1759135275122161,
            -3.398745538707299,
            3.0230429205763314,
            6.260130916293666,
            1.4990274179983576,
            -0.7599891575256033,
            -0.5832942596892784,
            -1.2038765801479236,
            -2.925240897998996,
            2.7177842326756005,
            -3.25482961049582,
            1.710138750255339,
            6.513401379678501,
            -2.7744879345982465,
            -4.382193728038164,
            -1.7203227735245692,
            5.907464971733883,
            -1.306764694723399,
            1.0477087872429809,
            0.5098542661927746,
            -2.3372032718269575,
            -0.592795282606373,
            3.641303120291336,
            5.266633147947153,
            2.9022917713318894,
            1.15883519662875,
            -4.269652187295772,
            1.116070308417805,
            -2.1049703059712495,
            0.9520293677048234,
            -5.141652513510737,
            3.886445308388982,
            -0.6230171832909647,
            4.352560957495818,
            8.194056201217737,
            3.6914082221035005,
            -2.1733902433306005,
            -0.8032228753841292,
            1.8779060552011884,
            -0.97819192974049,
            3.7598374407070057,
            1.8194690983446904,
            -0.701651732632718,
            -0.579351512040026,
            -1.0765385968851362,
            0.10095017984014781,
            3.549019451244634,
            -2.6392249362830364,
            2.932958627639157,
            6.433614705895292,
            -2.2117693706121684,
            3.456778493323598,
            2.1168788506402216,
            1.4838541465500386,
            0.8792637898534637,
            0.8538489268247496
          ],
          [
            2.1527467811420196,
            -0.5506627051423496,
            2.9752056056606104,
            0.4713530296160181,
            4.134695161038549,
            -2.4309999148394765,
            2.0983389380710498,
            0.11034958196839817,
            -4.83894686583362,
            -0.1764589762415819,
            3.051374941709309,
            3.3913655355343377,
            -1.9994831842175502,
            1.0873020399822921,
            -1.245361547411277,
            1.681951794104085,
            2.2853942994379306,
            -3.283959872820947,
            0.11426621965497663,
            3.2439521444147053,
            4.982223278240163,
            -1.7387623112815196,
            -0.6831044427943614,
            3.147986344586491,
            -5.219956987302743,
            2.2498433813904453,
            -2.0252171742964338,
            0.5917958368496307,
            0.8853272303342508,
            7.718743505660776,
            2.5618295812723053,
            -1.5173348864818441,
            1.6485735278040359,
            3.590621702156382,
            0.9287414447791544,
            0.07475196652096341,
            -0.7771800396404644,
            2.172166875375349,
            7.1017846378963,
            2.0210411502391947,
            6.684887265037271,
            -3.489217099106348,
            3.5778166319703217,
            -0.18740516099880594,
            1.18755468201042,
            -1.9414189867468299,
            4.533236796875715,
            -1.7410282927725622,
            1.555628445936349,
            3.093375483317036,
            2.996600154048509,
            2.9598911698780244,
            1.239516936342484,
            -3.0296746594107646,
            3.097016607458709,
            -3.6093624775400572,
            -4.531861949616908,
            3.0932916004107245,
            -0.9101005753732645,
            2.2750256402701257,
            1.5810652116908377,
            -1.709120027353346,
            -2.6459298310454304,
            -5.8961299858933245,
            -1.1984945441448702,
            7.624496549651745,
            -2.0966568366032634,
            -2.6912111402371846
          ],
          [
            0.11391803767457392,
            3.2915633713835803,
            0.22888430092927436,
            -0.49285733897061695,
            0.9823555734724574,
            -1.1346017852914478,
            1.965539637397953,
            1.726453643282561,
            -0.2885028492199424,
            -3.409588240126285,
            -2.288066279884035,
            1.590677593643515,
            -4.266618592459632,
            3.061623489280687,
            0.41695941775551004,
            1.037052621893892,
            -4.230803391754994,
            4.055055044975687,
            -0.7270119115540616,
            0.7254486538368091,
            1.0841908978665136,
            -1.3862497860241716,
            0.07674910985579486,
            -3.047156303563573,
            -1.2450017949023224,
            0.31749503540783686,
            0.22607979804071915,
            -5.823782658438334,
            3.3141141883372565,
            2.130109965320342,
            3.3212948763097505,
            1.1924801697991503,
            1.3517862266770757,
            0.6268516108506039,
            1.6324997521321132,
            -7.506637474301687,
            4.0201509884866224,
            0.17065493966738668,
            2.2248980438749784,
            -4.483676362012526,
            -1.022242636424802,
            -1.9015433431448785,
            -2.051074843451225,
            -1.1048284710620007,
            -4.638436820450383,
            -3.710481509197525,
            6.748206685566704,
            3.721992515475923,
            -1.9128119724508237,
            -2.6739078149565962,
            4.761271299936145,
            -2.748974106794117,
            3.505734969774339,
            0.07653297172534516,
            -3.6239593865933633,
            -5.042948850569672,
            -0.44039998585622514,
            -1.4499576203033735,
            -6.396128040850499,
            0.7175293087984551,
            1.7159817996576818,
            0.06838959339502149,
            -4.500818938673037,
            1.4020006042253481,
            1.3430486040083034,
            -2.4638263088791184,
            -3.706280182163982,
            0.04949435830933091
          ],
          [
            -1.9128295314271284,
            -2.5213288729203236,
            1.77927909759366,
            -1.4842412652907608,
            -0.5315707504972571,
            -2.4890271042854337,
            -1.0674695305311737,
            -0.29719430936218477,
            -2.521698547127634,
            1.7589502277300177,
            0.5993266545189271,
            -1.792325249651971,
            0.7820893032110285,
            -0.39019633025758793,
            -0.30589941336010884,
            -1.3280045233074977,
            2.077101210296125,
            -0.13640220207477566,
            4.371918948166261,
            -0.06072174486810056,
            -5.413801771945655,
            0.7560676378843835,
            1.711115904744739,
            0.35514150390751603,
            -1.3319210548562874,
            -4.184097962571177,
            -5.835771678832578,
            -2.563777290460771,
            -0.5430354300931078,
            -2.7562822075439546,
            -0.1827590665016433,
            -1.3718549152772723,
            -5.721257671662297,
            1.6646563240909567,
            0.8970046568201095,
            -4.222927041844173,
            3.6813584786637055,
            -3.7653744352172573,
            -4.948883402694815,
            -2.713402960630324,
            -3.1141348792867536,
            -1.2505634277366822,
            -1.4140681156183814,
            0.29595892507232785,
            -2.04117392154852,
            -0.9843271990170247,
            0.07537973302890835,
            -5.593802497424063,
            -7.253984549577888,
            3.8364856746221476,
            -2.463761686085353,
            3.0823069544180104,
            -4.112333510696803,
            0.1811601285244685,
            -0.621561508188095,
            -1.4529207716852162,
            -1.640099691748596,
            1.8034878118160562,
            -1.1514521291197928,
            0.12039322762468246,
            -0.3291843105607762,
            -0.709863810225949,
            3.6502145177261687,
            -4.247511721412129,
            -0.11287319545403557,
            -1.8334119659518775,
            0.2790819450453978,
            -1.8660789426907627
          ],
          [
            -1.9683656087085897,
            2.2450097746056787,
            0.5561357452139892,
            -4.956701765609126,
            -0.44544725764221516,
            -1.1952990396238137,
            0.41654075533202806,
            0.1446182953134213,
            -4.088840478680571,
            -1.5817873004194998,
            -2.987116681144329,
            -1.4586914114875946,
            3.2220111823376474,
            -5.175686704737579,
            3.4242243556035725,
            1.670177275656127,
            1.6342423752389847,
            -2.086010574906971,
            1.2327868095464751,
            0.20249451436252053,
            0.39330138028565254,
            1.2355829214345593,
            0.07363943030512149,
            5.429535081019602,
            -0.012986136028290518,
            -5.9998750370792555,
            -0.7291525600274944,
            3.261845073068798,
            0.9036274492428243,
            -1.8515614059201826,
            1.9119475294683725,
            -2.2521806457194278,
            1.9036023694166182,
            3.8716286494994785,
            -0.42241996971208096,
            -1.4586979853279574,
            9.348880570431229,
            -1.2399814229600117,
            -0.7656769636706019,
            -2.32996993040215,
            -4.269581224970405,
            4.942735574758909,
            -2.51795429203105,
            -2.1349084292979326,
            3.7553388303605213,
            -0.4751217044045233,
            -4.01356493716573,
            -0.17720840839350502,
            -3.3756312929878387,
            -2.561789866565189,
            4.965215340581865,
            2.829691867128656,
            3.861359473510066,
            -2.2673720627295384,
            -5.298686996339893,
            -1.4576900086867723,
            -1.5153957783532268,
            -2.1828307560188835,
            2.761193788476853,
            1.9561148451549288,
            -0.008109407113430278,
            1.703244938585026,
            2.617727807275863,
            -2.656456358678512,
            3.04341142666845,
            2.093755133369212,
            0.4859619326328561,
            -0.7100487736411477
          ],
          [
            0.4123012069813998,
            1.483264855012095,
            -0.020338320429646256,
            -1.0787268038150688,
            0.0889008529915774,
            1.4209771255004355,
            4.196305121404028,
            0.34996329032878426,
            0.7737576763122704,
            -1.389774671246382,
            1.2456409122725804,
            -1.3006806572780123,
            4.583566739404052,
            -2.3598823835488796,
            0.5616510674802024,
            3.6496628028074993,
            4.797026327588574,
            -2.7800517576133204,
            2.990223396413124,
            0.14870798587647577,
            1.1197531172611863,
            -2.5867328471935105,
            0.2727283560542665,
            4.293144624224139,
            -6.131174654554932,
            -2.3548139681328593,
            0.9297866885371296,
            1.0525814159268836,
            -1.080128567748172,
            0.3707912567436336,
            -1.679739450037134,
            1.8651837664094888,
            1.4679563362690964,
            -3.346559234844016,
            1.4086594225679985,
            0.20850085872363572,
            -1.9998551039755716,
            -2.777978978537794,
            -0.5767795261150078,
            1.7571278164187278,
            -1.3172749262010182,
            0.5548225747047748,
            0.4893244972774666,
            -4.027423668413275,
            1.106825168898276,
            8.569805610003014,
            2.6417604137471566,
            1.542924818065045,
            -5.49622116704551,
            -1.7335343633425166,
            0.7864010419354485,
            -0.2100802300237335,
            0.4589835968620136,
            0.15985168295582064,
            -0.36905842649692955,
            -0.8696075521281649,
            2.0711033182728302,
            -2.6208605825568254,
            1.150836401537953,
            -1.1279657901811782,
            -5.530640392715556,
            -0.8695974787092043,
            -2.7790354748629738,
            -1.4442451998921728,
            -0.1895871995769912,
            -1.606880688638713,
            3.2984172078930865,
            -2.3654305545270513
          ],
          [
            0.565599626662792,
            2.9438805252641216,
            -2.507117396025296,
            5.1068505250896,
            -4.06062418204993,
            -1.4164054305451472,
            -1.8063176671836447,
            -5.461832751586462,
            -1.1382711570258115,
            3.048638277158849,
            -1.3761457988112398,
            -0.4540143526569184,
            -3.7546303547653803,
            -1.144302149862943,
            1.0081043077297962,
            0.8115799261113744,
            -5.220730571631776,
            -1.0358706334413625,
            -0.08203234591819161,
            -2.24194091183595,
            -0.18863570679399605,
            1.9553131450880419,
            1.1833291796684424,
            0.4062264325442025,
            1.9747492108029185,
            1.0168819655181291,
            -2.5572984813264297,
            3.4637275386690516,
            -1.6156700192194788,
            1.824214180821146,
            5.562321553235442,
            0.8541679622871547,
            2.5831323144907956,
            2.499776742584101,
            1.8616667102169495,
            -0.9310221358872263,
            0.3148504733345304,
            3.1876309455464287,
            1.0807550753274144,
            -1.0595076784473942,
            -1.1196106708673892,
            -0.8246434566363968,
            0.9771746111139257,
            1.7433692353318329,
            -1.779743991581961,
            -2.991107876596288,
            2.4524757763259117,
            -4.7281474792776415,
            -1.4971275379095517,
            -2.322974473105139,
            2.6301110928123554,
            -0.7614175376669368,
            1.3984133628211701,
            -0.6810763456565917,
            1.337703907938847,
            -2.7267704916783075,
            2.7764814556408277,
            4.996611360004112,
            -3.2659887122205244,
            -1.3339575837085154,
            -4.932143002310919,
            -2.541082592196507,
            -0.4176277005058929,
            -1.914138579601948,
            -2.696967763159332,
            1.8877251156446786,
            -1.3435403124949772,
            0.016256487969768973
          ],
          [
            -0.31378151489963246,
            -1.4757533552369688,
            -4.817417329898421,
            3.450397246133254,
            -0.591636350797244,
            -6.208583523429065,
            2.116246497544901,
            -0.41414987362103195,
            -3.98320508153483,
            3.532971377407214,
            -3.5934988551351252,
            -0.5979916457821968,
            1.5927807354941088,
            -1.0205627841340472,
            7.072953347625106,
            -0.6328567715226685,
            6.477291103920426,
            1.2597075949708638,
            0.7939790508376516,
            2.7483566659699155,
            -1.4565292112899775,
            0.8324399679323603,
            -2.5436187559004204,
            0.2184244605920947,
            -2.294748156001775,
            -0.04617573994868998,
            3.007969695704296,
            1.4276957788216742,
            0.9814658381629546,
            -3.8994190244111375,
            6.28056797729766,
            -0.8231203254679869,
            1.2970038111749984,
            0.4717869911759952,
            -3.144150332175852,
            0.26232588831691583,
            -5.393600264578347,
            6.513972795128478,
            3.458769462896731,
            -4.187309913302804,
            1.4671275029542268,
            -2.1821569583782843,
            -8.280790507329465,
            -3.347973496921392,
            -3.785521925073665,
            0.23794681185006972,
            -1.6207567096915214,
            -4.7676546051520825,
            -5.886252412255527,
            -0.6281511471012965,
            1.7793946280892803,
            -4.077681141287813,
            -2.4946690373623244,
            1.030402913261287,
            0.9123475268347359,
            -1.8731758069238158,
            -2.3486540706643035,
            0.7344095159966282,
            0.14933110162439533,
            1.8667085173411948,
            -1.6211827607569287,
            1.0308620654140157,
            2.9431264573304525,
            1.3689997007975834,
            -0.842627274798617,
            0.40326952099223223,
            -1.3770430299985725,
            -0.10489227841166476
          ],
          [
            -3.2809053688745453,
            0.7518780601171278,
            8.736847914787566,
            1.8999840444389167,
            -3.430979807693583,
            -7.606668450044854,
            -2.550493808436976,
            0.08138693315689494,
            6.58617788918839,
            3.028648291240553,
            1.1901537835356124,
            -0.27201264962302274,
            -2.4078269894533237,
            0.6504054814204777,
            1.138931050407229,
            -6.668371372597096,
            2.1224223045054886,
            1.5531815935940967,
            1.1739536160558344,
            -0.7965516538631935,
            -3.2403597559505815,
            0.25032201006375226,
            -5.366136228949155,
            1.1923379191957673,
            0.4979623980970454,
            1.8778794481862187,
            3.006420041661898,
            -1.6994057506944316,
            0.37310404253637525,
            0.13099091883905611,
            0.923242049874168,
            0.9993904756010888,
            0.7664161666774263,
            -7.029604829353746,
            2.505136595105533,
            -0.6460164475599695,
            1.6665750074750902,
            -2.910388421179301,
            0.3237338220748063,
            0.11108028060232036,
            3.0556248251148896,
            -3.3679123293610065,
            1.8332104018516593,
            -2.4471031596917046,
            -1.8630366862816634,
            -4.444062916412561,
            -2.181122328632583,
            1.0658869175710406,
            2.961193732541679,
            -1.1845303925075785,
            -0.1509480517300627,
            0.7105112439161062,
            2.187926974018761,
            -1.7565439990678928,
            0.7682819478148855,
            4.008540569732637,
            -4.02403979468389,
            -3.5711150704761225,
            -1.0800342937957457,
            -1.818758668365444,
            -2.924619419504056,
            -3.1373341447574123,
            2.39112304256233,
            -1.4571677016130606,
            -4.93136211519216,
            -4.440328072679827,
            -1.0872615817903752,
            -3.758159949116511
          ],
          [
            -0.3124475991351672,
            0.3037272030860423,
            1.437186025125313,
            1.9328517389984907,
            0.4655630257557119,
            -1.7404773025908677,
            1.813533072678298,
            3.783349698440715,
            2.8973148408306972,
            -2.8324055466082267,
            0.23897341250974918,
            -2.1110149181562696,
            0.21648093362504292,
            -1.3169726635997792,
            1.5234384006488897,
            0.8773640856649336,
            4.431693699303104,
            -1.4171943325866474,
            6.73584321689181,
            2.6858267047300592,
            -2.154858287432821,
            2.3459353427973735,
            5.194409048578711,
            3.5914942664685343,
            2.121541096254198,
            -0.1625613553211531,
            -2.175907390560624,
            -0.14313369659154207,
            0.05289597477486775,
            1.39019799966873,
            1.4969782518077346,
            2.0099864372800202,
            4.315243336138363,
            1.105169518567744,
            1.0531760966667243,
            -0.5028388935567459,
            3.7424498077781925,
            -3.0846270387907775,
            -2.6615561039435613,
            1.2936208260707964,
            -4.465855038639189,
            -0.8948001140649335,
            4.461673293710305,
            -3.596240111985779,
            -0.06776626721032825,
            0.4466232780974843,
            -1.7922592541596214,
            -1.142912290714278,
            -1.0582049593719651,
            0.47727044030182536,
            0.48252393342450006,
            0.45922536042360956,
            4.719467793130455,
            -2.3107613605760555,
            -1.4694841693877714,
            0.7243173363802226,
            3.3202100168111355,
            -3.859742315992439,
            -6.9828498140035,
            -0.9354827357634041,
            3.4174837124679036,
            0.6906169615705361,
            3.8778692945528634,
            -1.417542565117497,
            -0.08511791762131043,
            -3.84654231390851,
            -0.39903497702243734,
            -2.3497995316546914
          ],
          [
            -3.400050198078822,
            3.409434874437399,
            0.4414955694773958,
            -1.8982963714702143,
            1.8030721260510707,
            0.866097585840745,
            -3.038852902034774,
            1.3475627426359904,
            0.6963516234169969,
            2.6944899399665396,
            -2.687390995584747,
            6.222629243950405,
            -4.17376470445775,
            1.0285698375068928,
            3.687189705369983,
            1.4805546002237442,
            -2.316775326930611,
            3.0190374030535287,
            -6.699983244002916,
            7.64321094856669,
            -2.42243966959664,
            -2.340235249734381,
            0.14459885369436812,
            -3.52506186264629,
            1.082493135657186,
            1.6628929131366825,
            -4.495257596922685,
            0.8113248990267345,
            2.953253746018271,
            10.179415226347315,
            -0.6018657171719226,
            4.379777427073876,
            1.3358104431272326,
            -1.4835981311716653,
            -1.5994390581019537,
            1.6030894773153703,
            5.228974404243043,
            -1.4672754717706946,
            6.165669188722104,
            3.184990257074605,
            -1.2218906849798252,
            -1.5489007123010585,
            -6.298839493372126,
            0.46702722652427,
            4.351166921918838,
            1.3601400619672603,
            -0.14749635278799716,
            3.118075118301121,
            4.672713147993199,
            -1.8159804729948865,
            4.400350793540804,
            1.857473177651579,
            1.1333981419607075,
            -2.508641950847535,
            -2.5419223379715414,
            -1.8217236148705682,
            1.7437361919022836,
            6.750977550252688,
            -1.1624358269892536,
            1.0687270946885055,
            0.2386109231182946,
            2.206630281358967,
            1.5724406104412076,
            2.141010784503072,
            5.3728951024141045,
            -0.6630027746970537,
            -5.974017468803044,
            -1.6579596369663423
          ],
          [
            -2.829775087040702,
            4.098866730365338,
            -3.537555994143522,
            -1.5598991057264924,
            -1.761422296382809,
            1.3792289123217456,
            -1.109152228714375,
            2.185641745078421,
            4.119679693549593,
            1.3019879183635983,
            -2.1572056083131708,
            3.967032388853345,
            -1.0856023234109584,
            -3.1081312838694584,
            -4.477918414376818,
            -5.2024892766567,
            4.3878896369513685,
            -0.8172539742837484,
            2.1805475582903746,
            1.0739137374514582,
            0.37978040209529107,
            -2.578105498835029,
            -3.2313757535023577,
            -1.029543547619212,
            -2.5521376508225937,
            0.12906732928803427,
            -6.527778253375033,
            1.7792127181748907,
            4.165263956815544,
            3.5645546037523728,
            5.520520411626583,
            -1.2351025222083916,
            6.4802759096374976,
            6.463773484988695,
            3.1460723746831056,
            0.5464020621191366,
            1.1386563070457931,
            1.0606056103283388,
            7.00652503772522,
            1.5965018261000832,
            0.07838925925306728,
            -1.8179917668465917,
            3.6564330252521184,
            -3.844877468594002,
            1.0324146760686512,
            -1.9185519901519552,
            -2.7859518505263323,
            -4.381662424113635,
            -0.3287540323925471,
            -6.603271706595752,
            0.4405613188108093,
            1.4033310145861586,
            -2.97196865394009,
            -5.928278110116024,
            -1.2327508577054949,
            -1.0417573792835348,
            5.7088769302333935,
            -4.653513239786908,
            -2.984352397513989,
            4.540153182540118,
            -1.241459657229416,
            -1.7067355610597261,
            1.3643944857721013,
            -0.8056509247481056,
            7.940090559622602,
            2.9038418853806856,
            -4.973593730659229,
            -1.0483535011697558
          ],
          [
            -1.300205618835696,
            2.6006371167978792,
            -0.8073724890291634,
            0.2245305304736009,
            0.8162601106686452,
            -1.913359363632712,
            1.0729999422599086,
            0.2597003057773919,
            0.037544393539777565,
            3.1691380624049335,
            2.3006012113757963,
            -2.3571794085722337,
            1.3219763849508586,
            -3.7714122199584996,
            2.836327969924646,
            -7.8716934435139585,
            3.1311651950005603,
            -2.4529246165662895,
            -4.15104512452772,
            -2.549463001174172,
            -0.3325693341620848,
            0.6245822321793805,
            5.00900735272173,
            4.163805423252809,
            -4.3764053101821805,
            -1.9419417866457067,
            -1.5056497919779757,
            0.8212561709976796,
            2.967991169774279,
            3.638378787108064,
            4.851385971639621,
            -0.6953329557143457,
            -2.3149780562283784,
            0.11965994847232972,
            -3.405592782218179,
            4.322893480032942,
            -1.5532568689421338,
            0.8164561788238165,
            -0.8846212134920053,
            0.34013378904727054,
            -2.369042026860982,
            3.8543051780181696,
            1.8029104344916298,
            -3.8190155325618016,
            -6.518109649562357,
            -0.9545749059025088,
            -4.01351196501596,
            -0.7520997501767143,
            2.1819801321660424,
            3.1180772035097997,
            2.7588740308928736,
            -6.456794225781099,
            -4.752208720866333,
            -3.968875915211136,
            5.4613166247797515,
            -7.025604700926396,
            1.2687961063385536,
            -0.5388872945761537,
            -8.348847169257947,
            -1.255939822690619,
            3.4487798188941023,
            2.0132955855308645,
            0.5473713151172416,
            6.44757526874038,
            -0.8440647298601469,
            -4.005738151585577,
            0.7041549124413318,
            0.0024708253569764027
          ],
          [
            -3.1041465065202267,
            -1.9171904399915927,
            -0.09209448754237345,
            -1.7721195786946264,
            3.3684203802876813,
            3.354161147981868,
            -5.248473557809218,
            -2.194306301332474,
            -1.9279507876035586,
            -1.824594696021793,
            -1.2664980318778354,
            -3.8016746784321898,
            -0.5943404208366698,
            -6.209104022043214,
            -5.607076352919887,
            6.36851026123206,
            7.247801673600899,
            1.0648084141851943,
            -7.999231454218714,
            1.9948061145450957,
            -0.7992109657232138,
            -4.786493925653512,
            1.8747242146652898,
            -3.6035753717090473,
            -2.477550744679941,
            2.483051544958302,
            2.5292846560937328,
            -0.8339518226265633,
            0.400674223294586,
            0.48468606462038816,
            -6.610039920539628,
            -1.289007497667762,
            -0.9796950581233658,
            3.349747538862782,
            3.2516685906899,
            0.8384607475386652,
            -1.2607098310702525,
            1.5831905300769336,
            0.9627466337362877,
            0.02945208297446325,
            2.4190419613105436,
            0.7674210871828366,
            -0.6797678218946547,
            0.7775549600374013,
            -4.371153923574285,
            -2.3804794778947898,
            -0.3168624333541648,
            0.1966936984277336,
            -1.367176631400488,
            -0.6976122923741012,
            -5.294051143625206,
            -1.348910292799771,
            0.5375459757807258,
            0.015034391344065479,
            0.16373642893045576,
            1.7188156763177547,
            -0.8872181421747665,
            -0.4068706870941137,
            1.2620435118176636,
            1.0910762532515514,
            5.418793509713684,
            0.1383090299690518,
            3.3869679641223263,
            1.455258621156244,
            -2.3194186077367633,
            3.940364124010576,
            -2.2488166448345397,
            -2.7273685573076376
          ],
          [
            -2.087469353503432,
            -2.3429441298794726,
            0.29171836200643597,
            2.7932564700426052,
            -0.9914944431002206,
            -3.142154550680103,
            -0.11954591039429441,
            1.6120506690221614,
            -1.8732780844922423,
            -3.9247946797305713,
            -2.9039540713805785,
            -3.8626652467813765,
            0.5482196192772688,
            -0.6001113400424716,
            -3.353101795012012,
            0.796194472823184,
            -5.235515859771943,
            7.590764978183495,
            2.2535327378805556,
            1.4056717110198895,
            -1.416458538677893,
            -0.2619906701731342,
            -3.9076715094719607,
            3.9476207276049644,
            -2.9084957482129186,
            0.6674828416259855,
            -2.4799157022610308,
            -0.17683331241739528,
            -3.5254194745732774,
            0.6639960916829808,
            0.5592758761966063,
            -1.1870130044532459,
            -1.3963166134822618,
            0.0868170655372601,
            -6.892625681977756,
            4.7717485534650645,
            2.8401241124068237,
            -1.5898296860981966,
            4.948613220323809,
            -4.217699604002922,
            1.546895033042402,
            -1.6896696342456536,
            -0.6429478539537625,
            -1.5870755333894488,
            -2.777059577163986,
            -0.4965974563422307,
            -2.8045146698205516,
            2.9210780564159853,
            1.991716193059383,
            5.340690164238671,
            -0.1076561119037211,
            -6.325784370645059,
            3.747921535478718,
            -2.301039059749506,
            -1.9385139054250087,
            3.085187307494225,
            -5.351388263534354,
            4.644182960646164,
            -0.49888371505429147,
            -0.7814478531097285,
            4.250352963591163,
            -0.48389675532240506,
            -4.198690297890566,
            3.2191209765875524,
            -3.9217206950590553,
            -1.4927435530160764,
            1.1521192158351505,
            1.3306893822345436
          ],
          [
            3.1945647172936997,
            -5.0642266768116,
            0.7738634511177408,
            0.4053514428338669,
            4.050327339408463,
            5.048129735293541,
            2.043653281176773,
            1.4202338957110467,
            0.0382551899796959,
            2.1453220758350953,
            0.7883278551361232,
            3.427933765235438,
            1.8567264303237532,
            -2.334219433697567,
            -0.2946590767254855,
            -1.7262633748114127,
            -0.017453458711968795,
            -0.3975964478034586,
            3.5927278813518457,
            -2.284869741081257,
            -5.17582932556131,
            0.5943435616063522,
            -0.11035271548686348,
            -2.841354632132526,
            -1.5269220369492524,
            2.029579992210813,
            -2.2439325917012916,
            -1.0785467694236894,
            -6.736297133309914,
            2.612233083767106,
            -6.722353010564426,
            3.3237355043159678,
            0.9046679881532023,
            2.768296770068721,
            -2.16115570587883,
            7.069582609596608,
            0.5307662613341287,
            5.581457966212839,
            -0.5591054086467171,
            -4.10445478188801,
            4.6504406559649825,
            0.168207342756615,
            2.5119853373147243,
            7.386170757619567,
            -0.1308773592577468,
            -0.48221648009272466,
            1.6775879998982133,
            -0.596864006391729,
            -2.1671070807991315,
            -3.521654669810832,
            3.4285841159314296,
            0.697746322835051,
            0.46181828114297135,
            1.871849574279536,
            -1.3037974330759927,
            3.358041491604101,
            3.9192021965238526,
            5.048037413932651,
            -0.25572169693586894,
            1.6345068621786099,
            -0.06006969631614681,
            1.0606118138375193,
            -0.7991896164415153,
            2.8199644058442037,
            7.0675719796789975,
            0.27448265909746594,
            -0.10747171853794979,
            1.5941125450265912
          ],
          [
            0.6748360586110898,
            -3.1538422859276616,
            5.0107359808257845,
            0.4147860730326123,
            -0.5273861815989052,
            -2.749650691818769,
            -5.1223832409542025,
            3.201184183551531,
            5.5323843062302895,
            -0.30882213406709413,
            -3.329379506183458,
            5.376522905481788,
            -2.424796654078891,
            4.1471906286958085,
            -1.1321239187774323,
            -1.4818683477938759,
            -1.2937132365574753,
            -1.8744227169809555,
            -2.1997546931149192,
            -3.3436613872001906,
            -3.3518265973836585,
            -1.530603028191479,
            3.23184440045034,
            0.5004729387722241,
            -0.8349902947744117,
            3.9580062837254837,
            -4.401792595066255,
            -3.2706623066005687,
            1.0085193300112556,
            -4.086698569825562,
            2.6818991679206095,
            -1.989210929976189,
            0.8352435489988852,
            -3.5198665321630083,
            3.1673542094531433,
            -0.42012715118127025,
            -1.972108600583351,
            -5.296179129228063,
            -0.4716234733819583,
            -3.202185969308569,
            1.1566008435209303,
            2.673164456706282,
            -2.2444670400186144,
            -1.8341107004536017,
            -0.5135398299198783,
            -2.3260201971332695,
            0.685634266243142,
            3.6602321624384966,
            -0.31135183866749805,
            2.5561033537294904,
            1.2994587903858794,
            -1.3020025541720566,
            2.993193566111836,
            0.2961667950557997,
            -2.6926462991483913,
            0.3517519341719433,
            -0.6678497156426224,
            1.4137754459770342,
            -2.830874314485615,
            2.3644077343524,
            8.142799410670584,
            -0.9766429599469302,
            1.9486910245860778,
            2.425599738283547,
            2.5459552061002686,
            3.7766150150033924,
            -0.3463193231337034,
            1.5743766594951063
          ],
          [
            2.7947896280125684,
            -4.939082167721226,
            -1.3089099888781837,
            -0.6008160691952402,
            -0.22509117198336062,
            1.042469843237528,
            1.5841148344066154,
            3.454890121187187,
            1.9680421190093096,
            0.17887570832303964,
            4.048689274733764,
            -3.3969470560586386,
            -0.19960940749306733,
            7.467045798744809,
            2.809663707011016,
            0.6331316160361741,
            5.008274881794298,
            7.0865555239993,
            -3.1875184512379153,
            -3.5379293652068102,
            0.18990341115885948,
            1.4780721999957922,
            -1.0768998381764245,
            3.15401379217084,
            1.4941523690023397,
            1.633564508944698,
            -3.3874545133522163,
            2.6012169712890323,
            4.846050930155217,
            0.9483764726755592,
            3.9169477173320604,
            -4.428843115966343,
            -1.5702329084649982,
            0.24479741854420892,
            -2.4897505012785386,
            1.3677940461332763,
            4.275428551931992,
            -0.8507290236931501,
            -2.1056661482194534,
            1.325273945419248,
            -0.36484136337165757,
            -0.24547040879812648,
            2.9676975028270167,
            0.07027147049826599,
            -5.015077183591956,
            -1.934925634892017,
            -0.9956772111608463,
            0.8020461050644659,
            -1.5389865732732104,
            -1.82886249556812,
            1.0204792165443042,
            -2.2170023106833536,
            3.669788169337473,
            -1.1770931595408374,
            -2.471783506127182,
            3.0681257229153696,
            0.70181856883502,
            -1.0259346358420216,
            1.0076973029308618,
            -2.9197393833965237,
            1.3081236013068378,
            -0.16067311654181557,
            6.169263519090144,
            5.317182457272505,
            -7.686614195027246,
            1.9469713213402309,
            -0.6584901944314108,
            -7.1286008400276915
          ],
          [
            1.2522619591943147,
            1.1826569967497351,
            1.682289582294227,
            -0.5505527190364152,
            2.2368110288959815,
            0.21490692837748201,
            -2.144377803669646,
            -2.6373964928774014,
            2.849969901161004,
            1.9001867008951425,
            -2.0689574461281115,
            0.3790882261341388,
            1.7656748743397293,
            2.6051260076663825,
            6.791989348199966,
            -9.151901245579664,
            -2.484173481918388,
            2.882560103756269,
            -4.290836503633192,
            -2.739456301529185,
            -2.5504334341801855,
            2.1154828714939042,
            4.208130001050155,
            4.1190352930122645,
            1.6192928364453023,
            5.563333344262566,
            1.7996781107374737,
            -0.2570590378345887,
            2.9666740483167713,
            2.9608362074587133,
            -0.6739286132052272,
            3.6147406105828597,
            -1.5866811312199691,
            2.847502760902421,
            3.7404491427098776,
            -2.7857000610769416,
            -0.2610191619091268,
            -1.5772462782232226,
            4.925425336095713,
            3.077883968753466,
            2.541537287438281,
            -1.2641993367286541,
            -1.308239848550781,
            -1.2516785895545977,
            -1.8802117536032652,
            -1.8651107342791011,
            2.245199925914214,
            2.0098748177786163,
            -2.3778141691670647,
            8.361763807751435,
            0.005278718781490832,
            0.20035737727812686,
            -2.9545007117354065,
            -1.7614354557944716,
            -2.6933658498239716,
            -1.614128812189727,
            -2.046483849140132,
            3.277864473353839,
            -0.8478024292083652,
            1.9951094645124579,
            1.0871557672662218,
            2.9680943271082265,
            -2.790167195256961,
            3.092193180135418,
            2.0792482989874954,
            -0.021383003674644768,
            -2.3949792632160114,
            4.182745459991356
          ],
          [
            -0.3146269821979097,
            4.179878235618587,
            1.6919860405211298,
            -0.7359487445677282,
            -0.4489943595976801,
            3.82665894913076,
            2.5431356396428755,
            0.20814410511591724,
            1.8358288570872556,
            -0.467486956028087,
            -0.422178099003207,
            0.16149816461408117,
            2.890656550488073,
            -4.574723442019651,
            1.4126942610870674,
            0.5720587137362313,
            -1.3829014908429964,
            -0.17016506447026908,
            -1.0381924608369346,
            0.138930875106757,
            -3.0791607766340223,
            -0.6667756867558212,
            -0.5622279811769648,
            5.009094799846879,
            -4.1557910018630375,
            1.617405011604948,
            0.6374087997785565,
            0.05321358693784415,
            1.1482944335139,
            1.8303860351786727,
            -3.4216462504576275,
            -7.97374620217235,
            1.1480801032846406,
            4.951433887016597,
            0.11624106331582401,
            -2.7073714677259475,
            -7.0583164251772175,
            -2.980145753768662,
            6.031579429310006,
            5.4684019777205375,
            3.724496294457003,
            -0.5311763364991768,
            -0.5565956899707383,
            -4.419871177549147,
            -2.4683606206355493,
            -3.4213519371644727,
            -3.3401488750242034,
            0.10080216719668628,
            -0.24178452882493484,
            -3.08212160452418,
            -1.1147957263610389,
            2.6236324494640004,
            1.2031626774295576,
            -0.4688473235393406,
            -1.1689889025659579,
            2.6476409796216447,
            1.2078000945991634,
            -0.6888611498620415,
            1.399556510701789,
            -3.711050233769916,
            2.642571463087042,
            0.8630002391708369,
            3.0815685113077116,
            -3.859546994619374,
            -2.560217213023139,
            3.5919301701073816,
            -0.7546066530845725,
            4.421787302356358
          ],
          [
            2.062312395447778,
            -3.362850627970719,
            -3.7185037168413153,
            0.9159089546120621,
            2.457887922152537,
            -1.560127439708419,
            5.847992112193604,
            -0.5739779074708087,
            -3.2382536690572463,
            -2.165443673517068,
            0.4627092170176663,
            -0.07508511642067073,
            1.9097431619080352,
            -0.9852482015758673,
            -1.8508133544278178,
            5.5852210255279555,
            2.491575896039881,
            3.8701789594626956,
            1.0766790426446815,
            -2.384094876089308,
            -5.3503697348735715,
            1.131001337023656,
            -2.1113668062947712,
            -1.9554250597858855,
            -1.0235403099202818,
            -3.822817685330157,
            -0.05047367531427803,
            1.884005950952547,
            3.4288457106964136,
            6.6058127639767505,
            -2.3231505240809724,
            2.588032960959112,
            -0.4498626607123512,
            0.9893675044684724,
            -4.125457233813405,
            4.151127449307472,
            -2.926397072802123,
            4.625387044020732,
            -1.3615610054497724,
            1.1346493138204414,
            3.650987014211095,
            5.3173826978964405,
            0.5656195941133696,
            -1.4825207541031968,
            -2.9790808099570456,
            2.2052819886770476,
            -2.9051477935358374,
            -0.7028705961147625,
            2.302568381721609,
            0.20500253422579112,
            5.375029716052772,
            -2.30727149488173,
            1.219300365178223,
            0.5845859739328281,
            4.986167510088533,
            2.3357145685328975,
            -5.370835868693101,
            1.407008970700316,
            5.317806766048829,
            3.7450504043187007,
            0.12766228408832125,
            -1.2662216971825087,
            -1.5648996395594503,
            2.296155504060015,
            1.3970346361659551,
            5.16021472205567,
            0.7254867039733279,
            -3.9274406719261887
          ],
          [
            -0.26421803558992885,
            -0.13885306779079548,
            -0.9224308156911039,
            0.8053430337891188,
            -3.3304840338451225,
            -1.8754873879860596,
            -1.7733926372666446,
            2.8079771784789775,
            -3.078589908732141,
            -1.2782587693690757,
            2.525515063658939,
            3.4236875005463,
            2.731157821399204,
            0.19346295490154278,
            3.9651536072024354,
            -3.4031067493349467,
            -2.2326348863320593,
            0.5105222653028672,
            -0.25621858410497506,
            -0.7383458915950062,
            3.916358337940949,
            2.6583418541444654,
            1.8222823990682764,
            -5.547962516565316,
            1.061674848791848,
            -2.869182062147001,
            1.2059564063521067,
            -2.8341141582961704,
            0.06362364139308185,
            -0.5555869499882646,
            -0.42414503258125735,
            0.6321915604925059,
            -6.841016587545259,
            5.5018110971615695,
            -0.5754686829379051,
            -4.642461388641518,
            0.011914185946250697,
            0.39372994622252355,
            2.1170487565096967,
            -3.126649739101502,
            1.164514890771084,
            1.03585028752637,
            -4.032449783462897,
            -2.1347762794863927,
            5.333737819909798,
            -2.090259789362177,
            2.771194081234338,
            1.0656253682162857,
            -1.2865188637396636,
            -3.591848467228747,
            0.16767971042309213,
            3.093389930287098,
            -2.8511616340916355,
            1.9714913457755707,
            2.4693100582158003,
            -1.749749526233997,
            -2.8602580247284664,
            1.2381033397250523,
            -3.782468690476106,
            -4.762543896682074,
            1.1020122569636217,
            -1.1693966500180561,
            -1.4524279827321531,
            -6.179491481182554,
            4.582327881424722,
            -0.06374212078411307,
            -6.663146514481693,
            0.18938571357456346
          ],
          [
            -1.2593535547425996,
            -5.635774685071675,
            0.0025573778209790343,
            0.904336721760906,
            1.128767042340791,
            0.0062637793944410386,
            2.1756382543270454,
            -0.08602518620032801,
            -1.0122135581754415,
            3.774255583612345,
            -0.5288283426020771,
            1.3958878214306552,
            4.032193204535236,
            1.7999964509942505,
            -1.003538999203012,
            0.3639317986433625,
            4.73478332290454,
            4.290650827206697,
            2.275098703047208,
            -3.1264262562648963,
            -1.4806801237912883,
            1.4678537499760433,
            3.028552405512798,
            -1.6552496538788724,
            -1.274263864031925,
            -2.69622285388552,
            0.6534365853354801,
            -3.786799550664511,
            -4.629729453911988,
            -2.374990524960248,
            3.960350410094858,
            1.2586431514101366,
            1.1824366670103126,
            -3.239361346752082,
            -0.717399672204424,
            -0.752621933792101,
            0.3610286084544225,
            1.1557076359942948,
            6.122922945469251,
            -5.281681750659244,
            2.505545801025257,
            -1.2278481785919846,
            -6.606651693035497,
            7.948913209134341,
            -3.0320999100074824,
            5.551582530905302,
            2.2282126516334495,
            -3.559695729428376,
            2.6514092013297588,
            -0.1738776313010056,
            0.12245768679180985,
            -0.7866947785430578,
            2.1417462666195717,
            -2.327684153466139,
            0.7420253694267382,
            -3.052521212340012,
            -1.7755939137919605,
            -3.46545876364626,
            2.779167077146304,
            4.146116045719088,
            0.9538944945707292,
            0.281494557047793,
            0.257726886629992,
            4.089846148050717,
            0.9587199684559906,
            2.0543552695442555,
            -4.496593548097017,
            -1.2907889544159796
          ],
          [
            -0.7258893450412569,
            2.1358896967324013,
            -4.299708141467873,
            -0.2856193911245158,
            -1.16852142233768,
            -2.294085159273872,
            -5.368821391415665,
            -2.7004514625138594,
            -3.734771278955221,
            -2.432213242050244,
            -0.9788420238994197,
            0.22708069329966596,
            0.14501272660965925,
            0.8619708525489836,
            -2.179362322978066,
            1.0358814538376035,
            -1.668830760035126,
            -5.843055924903587,
            -2.4585550022695553,
            0.14654150628095416,
            0.9771259397510998,
            2.370757389260318,
            -0.4020210375612978,
            3.5471854872818267,
            2.4796914399641157,
            1.4826818682196323,
            2.9691117621782173,
            3.993366670377117,
            -0.6536770205256376,
            0.9686938484909038,
            2.0371293370963626,
            -0.7295540975637346,
            1.5890056008637523,
            4.192779329093044,
            -2.8122368343832673,
            -0.2809823837054385,
            -1.792876484227375,
            2.4329448165060805,
            -3.2777823970176034,
            -4.862089494926372,
            6.6782014893980435,
            3.402790999900156,
            -1.315104970853434,
            -3.0760723625989317,
            -0.6806719674668034,
            5.878736249159514,
            1.6382629102713224,
            -1.4571485467727037,
            1.573964003728417,
            -4.14110533668605,
            5.077126822872947,
            1.0376799631594236,
            -1.4485879950741043,
            1.8395124461910894,
            -0.4631426223064266,
            -0.3730284659636031,
            1.2134558219496423,
            -0.6721956293779915,
            -5.961355460205225,
            1.7068548971327526,
            -1.3039412496033598,
            0.9178616963089556,
            -3.104989334096819,
            3.724366864767793,
            6.1600018584567495,
            -2.3295804969540073,
            -4.414975568994273,
            0.6698260323237989
          ],
          [
            -0.46927070578168145,
            -2.3744201162723333,
            -4.464314073434814,
            8.350851009306036,
            -1.574429190539758,
            3.5394834057444653,
            -0.8694955581722328,
            -3.280758931981908,
            -5.47468384568513,
            -1.0509284666844594,
            2.634133023279009,
            1.2307603053895655,
            3.1103862194506715,
            1.2839167578574529,
            -2.1703355320959306,
            -2.2568384395927295,
            1.4332604624386773,
            -4.704295288365168,
            -3.9698848288820994,
            -2.397102728390139,
            2.050541486296184,
            0.2828077316374541,
            2.322805063827363,
            -0.8282271128323221,
            0.11818200640382015,
            0.8647298628316211,
            4.877574827003033,
            -4.291871879515784,
            -5.863183153210731,
            -0.6226461968869859,
            -0.6426929238707584,
            1.0740734736402033,
            -3.824583554790494,
            -0.2540864971227811,
            1.1522313081379978,
            2.2879203159456223,
            2.975191756776133,
            3.9999513299238667,
            1.5680652676349003,
            -5.230108209716867,
            -2.5104243680586538,
            9.262096871745534,
            3.6483590554465346,
            0.20848110403112186,
            0.32310534335297897,
            1.9929212460129013,
            -0.7946399492875641,
            2.9363439420725563,
            0.17469390152315778,
            1.9503234265501275,
            -1.1002018657556827,
            5.212580839825953,
            4.979027644862386,
            9.277761189002263,
            1.139128348298817,
            2.1579341120141824,
            4.724896649168685,
            3.4577565397576615,
            -0.9225799375008273,
            1.8333702856811929,
            2.3063937684803704,
            -2.580047947838203,
            -1.263107538857525,
            4.437038072533047,
            7.450392995427774,
            3.53909982807238,
            -0.36336232945751096,
            0.8212280528719871
          ],
          [
            -3.5226978261695283,
            0.741322055363924,
            -4.670742242984908,
            0.44390990992416457,
            -2.557666973906713,
            -2.2600425099854684,
            -0.08085133342981296,
            -1.287812239077701,
            -0.22704179909980066,
            4.053502855985942,
            -2.088616508162552,
            -0.4648532274773433,
            -1.808656422930627,
            -8.534677871238005,
            -3.21855926831905,
            -2.3526218978413573,
            -3.29426411798327,
            0.23856739226130427,
            1.6514477630438664,
            -2.6108760713233865,
            2.0319966328517625,
            0.6437729218967881,
            -2.392364558382434,
            1.1826276505946425,
            2.5367251935951,
            -0.7483190590778006,
            0.5452417777950037,
            5.984531187220369,
            7.7391061093917015,
            3.129763276978054,
            -0.5586903732163564,
            -1.3131864652698737,
            3.554818593950339,
            1.7393438807272643,
            -1.0325723180193362,
            -1.1860503973349972,
            -3.8231936768537635,
            -1.537957105578264,
            -2.9459996435043765,
            0.12420744781733963,
            -2.857564404945758,
            0.5690226484013123,
            1.7206945527260815,
            1.3082773848381415,
            0.46100034704028714,
            -4.872232420686384,
            -1.4484040166404002,
            -3.542637530428568,
            -2.7113093413872127,
            -0.24405991307082242,
            2.1421532355604866,
            -1.0847307873174044,
            -1.2103641663734253,
            -0.6668099008208538,
            -5.320769504914118,
            1.4078605366766799,
            -1.0709806311054262,
            1.940096242973931,
            5.708232706239989,
            0.15608824633806095,
            0.345278158319548,
            -0.9090415898719406,
            -5.439721259965337,
            -4.856927288905997,
            -3.020175877151436,
            -2.3447268887220174,
            3.8300678634828813,
            7.866562396900489
          ],
          [
            0.884895981098503,
            -0.8556140663588904,
            -1.669435291805233,
            2.731327311241539,
            4.975330870461164,
            0.27579487159486865,
            -0.05600585431462282,
            1.3475253775131018,
            -1.2256474860135012,
            3.3291332349195155,
            0.9385809855806876,
            -0.9852106441618657,
            -0.7445035630866728,
            1.3910996852320507,
            3.108752855493708,
            2.8784584075395565,
            1.3497225717821655,
            0.8605231434767255,
            4.538833518137833,
            -2.0460917735296396,
            1.546342831708576,
            3.8292201764688203,
            0.9256048875369761,
            -1.093189794399818,
            2.7722816590077053,
            -1.7030813598067684,
            1.1539346099204637,
            2.9292113185474404,
            -2.598597987836741,
            -1.2264603248031447,
            -0.5649511712464133,
            0.5500682051557008,
            -0.02227111257977471,
            0.9730145242558027,
            -1.1499707438866271,
            -1.005895983678848,
            0.027988951156792452,
            -2.630106862963767,
            -1.6493846628297368,
            1.82763581434846,
            -8.06623556191707,
            1.641414536992349,
            -3.8485228991116314,
            -1.9225043105009796,
            1.3772676686741843,
            3.3886816224150027,
            -4.767002101956864,
            -1.4800629652652137,
            -2.7759034514401586,
            -0.9786815238539356,
            -3.418673245337129,
            5.104798967908792,
            -1.858892962658466,
            0.7542710786181219,
            -3.1861510464782836,
            -4.436949177241246,
            2.8651844529607424,
            2.217401866468008,
            1.3004512661038696,
            1.287716942693194,
            2.5573562088077124,
            1.484929698704012,
            -3.5360276542447195,
            3.5814091889796185,
            -4.710741021877409,
            -3.505323885698821,
            -1.2937209789824073,
            -6.070980033217555
          ],
          [
            -3.1225247766312316,
            -1.1865196669148979,
            -2.8793484583321844,
            -1.785000455395437,
            -3.2032918150193526,
            -3.0609660875747666,
            3.871008968240407,
            1.915896177356949,
            -1.9277858667271732,
            2.4713520313608317,
