{
  "network": {
    "layers": [
      {
        "weights": [
          [
            -3.0180547703385456,
            2.1859197757886073,
            2.9699416093289135,
            1.3735666710143217,
            1.2601240490717796,
            3.705005154471992,
            0.35436372600547583,
            -1.6196656798572986,
            3.9896026833822003,
            -2.5818778980621944,
            -2.159018563584169,
            -2.3427158484483597,
            -1.2676978095948228,
            -0.7546407250373526,
            3.953872691487039,
            0.4360977400141274,
            -2.8093158254883166,
            -1.4303527050165674,
            -1.1772203154450807,
            2.402629320261157,
            3.417271801175094,
            -0.34502582483848343,
            0.0076460988235748095,
            0.5418437651200044,
            0.45363822746998306,
            3.5710985519242584,
            1.0794019943431215,
            -1.1269879795438542,
            0.17231056374056608,
            2.331865043140756,
            -5.1929213815635515,
            1.3456880443143073,
            -1.4626575591598998,
            3.7584933058679324,
            0.369430418385968,
            0.8243772635817664,
            -4.78093875258345,
            3.1022185442217873,
            -3.6283640553423386,
            -2.8514554039266216,
            1.2685781293119722,
            0.5852821379724387,
            0.6985631586714164,
            -0.04173617442077404,
            0.9838065995416216,
            2.3980222180934527,
            -0.09476517329531367,
            2.7752695780339147,
            -0.20495310987467358,
            -2.9977867688559097,
            2.2499691265451722,
            2.6314783137766193,
            -1.6912094661891497,
            -0.6078706496485691,
            3.039766293434291,
            0.476978528270536,
            1.6199947504318555,
            -0.8610618745157383,
            0.9881834754869144,
            -0.9862722244078199,
            4.741979551428149,
            -0.5948489993204281,
            -1.1839938196808957,
            -3.700936092188569,
            -0.39720640447788047,
            3.1713228867757723,
            2.1859403747432347,
            -2.76428615989551
          ],
          [
            0.38620953811345465,
            -3.11858385979104,
            0.8439137408414135,
            1.495636120543008,
            -0.22681296510204502,
            1.9267947600369486,
            -0.10780784029116836,
            0.3323107231478786,
            -0.11695279627486715,
            1.001210939112428,
            -2.000964234183359,
            1.4527011183522989,
            -1.5106350820174557,
            -3.0369511833503027,
            -2.40214518390505,
            -4.887681344857968,
            0.280564959372947,
            -0.9759199859415898,
            -0.36331273730655234,
            -0.8483251563410645,
            -2.968275820002573,
            -5.448246284410657,
            -2.0930596674706456,
            2.7669050722226176,
            0.8564328248303015,
            -2.4626659553750976,
            -0.8398183932299117,
            -0.8501155657450913,
            -1.7909885263134695,
            -3.4952553418864296,
            -1.9220248970088545,
            -0.28229647012433795,
            1.056061666603652,
            -1.1806221554086034,
            0.8567585717407642,
            -0.9081832628775487,
            1.2346730969701263,
            2.7766925135363003,
            3.6461878988599103,
            0.24017111697784727,
            1.3608171308936141,
            -2.6124406214575533,
            0.5308436931571079,
            3.368087152558056,
            -1.7898379837214151,
            3.764624043541025,
            2.740954724369068,
            0.09704987534641263,
            1.9936510967756267,
            0.9670532387931563,
            -0.13621359978639108,
            -1.6189465517430535,
            -2.1241470001370546,
            -2.809549719409123,
            3.3758153855632558,
            0.1857211450595748,
            4.347293136500488,
            0.23275582497883113,
            1.070254146105515,
            -3.1806099710599525,
            -2.3842121962629297,
            -1.7463363175815383,
            -0.00013115232545804576,
            -0.2024019525888075,
            4.12156857066708,
            -0.9488768192649166,
            -1.7562119301440147,
            0.5017753306946628
          ],
          [
            -2.3342941569952345,
            -0.5046097574238706,
            0.74179974520333,
            4.052689892602206,
            0.9291354735949197,
            0.5953825634191385,
            2.4919015332750263,
            4.592540945455223,
            1.1582948018082146,
            1.5860057553108766,
            4.6026468517596815,
            2.450112775764734,
            -1.2149290936108808,
            -3.4624421332174826,
            -5.6469616672151055,
            -0.43266929865243997,
            0.0627408073387469,
            -0.4402452914030143,
            1.8679439938686055,
            -0.13519308281037445,
            1.3426932249147874,
            3.5897504601041734,
            1.4108198329225228,
            2.8299121632238986,
            -0.7552800868575683,
            2.7179271893208012,
            -2.353451138618915,
            -0.0664778085072561,
            -2.3207506644084233,
            3.55170366079996,
            2.219787165323353,
            -2.4844912733383726,
            0.41236833699583253,
            -0.7173952027100206,
            4.246844207958581,
            2.5203938056348774,
            -1.0931581302804285,
            1.9955863768964803,
            -0.25409530974643535,
            -0.19877213082814604,
            3.354795488390993,
            1.158897125633106,
            0.23832068418742614,
            -1.2820530839581856,
            -0.7414343895436402,
            -4.977820642362142,
            -2.7341278204656296,
            1.9139523530308515,
            0.9578551699516717,
            0.4738742320641821,
            -0.13322364052830607,
            -0.2905201180414084,
            -1.3551370277938921,
            -0.4763009831729595,
            1.3706875451935276,
            -1.9022198335037968,
            -4.643412236865538,
            2.3712450625374,
            -4.1658177925026285,
            -1.143749213287598,
            -1.5997391196656896,
            -2.5368951468635723,
            0.9339207260165815,
            -2.2782026785384466,
            -0.7574673060647342,
            2.559945839627188,
            1.8227264053887795,
            0.9081887492625798
          ],
          [
            -2.3370635274184517,
            0.42383101178212057,
            -0.11468684479035929,
            1.0949720371603207,
            0.37999312707305943,
            -0.3338880694330695,
            -0.31173787832975786,
            -0.6024831479070243,
            1.1465831809435556,
            -0.2005774130094099,
            4.406271822352124,
            0.3888110704613685,
            -1.844343932870934,
            -0.07265781744146665,
            1.0233238110614207,
            0.9497313748768916,
            -2.282934029582169,
            1.0580027421231433,
            0.5651226635268527,
            0.8482792698766933,
            1.6466681262832084,
            -3.798183046627253,
            2.457565391919581,
            0.2753915122922691,
            1.4761575663227315,
            0.9383189232475222,
            2.699696775920672,
            1.7836216736665278,
            -2.5229259675618536,
            2.8279703168947523,
            0.020804885009904406,
            0.0954600635955275,
            -4.2029541298792,
            -0.5082172258145986,
            2.3729334905835735,
            -0.8417057516416606,
            0.716300774886863,
            -0.03164231913507942,
            -2.81405524370852,
            0.32242204714127276,
            0.3732198770709086,
            -0.451044789901458,
            1.9407442827196908,
            -2.907699995236416,
            1.205593051721575,
            -1.3865159134088878,
            -0.9335525754064933,
            0.06797695955039607,
            0.2154579101261065,
            2.0688681690894075,
            0.9397279165457578,
            -4.746441187403841,
            1.256370339811831,
            -1.0597324477164958,
            -0.6222291594254252,
            -3.9857559900390975,
            1.4163143575556423,
            -0.16805949193701014,
            -3.676977501370333,
            0.7853099868512783,
            -0.912074546635972,
            3.0250893360939397,
            -2.8642000069073084,
            -0.7603345732871675,
            2.924647899351261,
            -1.1939891805700795,
            -0.609125573508786,
            1.0255518717594274
          ],
          [
            -1.1006614911093924,
            -2.8173894289012615,
            0.9440820099254987,
            -0.680663951000593,
            -2.277563379215526,
            -1.621455210628365,
            -0.8685266611372798,
            3.3368622114073627,
            -1.030230647827353,
            0.22401145100514439,
            2.0073250713952446,
            0.5746266069096786,
            2.7161915639342085,
            1.507317970674113,
            -0.03790250898873354,
            -0.2543221904388077,
            -1.4136046457252816,
            -2.9108348622076723,
            -0.9585712506439268,
            -4.786512932118299,
            3.7030156587873133,
            -1.544307955050745,
            -1.0202113582441594,
            -3.7266415371334776,
            1.585752743618779,
            -1.3654324295172229,
            0.10381039163545142,
            -0.26671726708161925,
            2.3728320260189397,
            -1.085094759154797,
            -0.6299106308129732,
            -0.12917961634669245,
            -0.6102467259834596,
            -0.537327156005395,
            -4.822739012768899,
            -0.08431937677108378,
            1.7973400284719525,
            0.5241008294059186,
            -1.5351689568545839,
            1.1932895803869303,
            -2.299226000788342,
            -1.7059011131428852,
            0.9078405015272046,
            0.011769562001245626,
            0.3186376261816365,
            -0.2098999742639882,
            -0.6686455126430024,
            -0.8523668552591337,
            -0.7009327220148639,
            0.8059962099362188,
            -1.2169065297703734,
            1.0364073041013016,
            -1.9280204734761974,
            3.4299792564998377,
            -0.8496099866288286,
            -1.362449961045993,
            -1.6701674529259891,
            -3.2324393764585757,
            3.903385551350291,
            -1.765017645084123,
            1.9046344035597174,
            0.9466213908172488,
            -5.8133506533773875,
            -0.02407334060775082,
            -1.4697649919981552,
            -1.478462879936102,
            2.803568561245832,
            1.9119842745349196
          ],
          [
            1.5155742266803018,
            -1.3761969954594557,
            0.7387145806470351,
            1.0864821738471133,
            1.3199739113092366,
            -2.001146872010653,
            0.6755184967963885,
            1.270056125222547,
            3.4274608649437255,
            -4.450067961272307,
            -0.5724549820462441,
            -0.3350036566852015,
            0.3118323593100257,
            -1.6698879005219107,
            0.06583468331816081,
            4.7154023926324475,
            -1.3230466594660426,
            -2.363850223827377,
            -2.2315365521390467,
            -1.952302026341492,
            -2.837373115502769,
            1.5797415886498518,
            -3.009660091099381,
            3.6038279300801337,
            -0.6084389979932943,
            -1.246277421172361,
            0.3663839473868684,
            -0.20741864247660616,
            0.7441551406194438,
            1.3031676924579976,
            2.615015758830935,
            -2.0768546396901044,
            -3.2126306336043515,
            -0.6458332059594395,
            -0.08227341746006797,
            2.720371895584025,
            -3.1570513073021935,
            -0.4446268395426496,
            0.22864548829164633,
            -2.4429575447534413,
            -1.5999863290972391,
            2.8219288252810486,
            -0.418498691946787,
            -0.8878225913862998,
            2.4042548834889192,
            -4.138260099893523,
            4.159362490245133,
            -1.681671198253609,
            -0.3741336508507369,
            0.6273008056389285,
            0.10210229840604967,
            -2.5654933556298234,
            1.198524053134751,
            1.679983581226661,
            1.8541120571437202,
            -3.231577027930011,
            -1.1545940798384484,
            -2.308380232892473,
            -3.4657377793070583,
            0.014050565319948,
            3.4795816011646417,
            -2.754850807929487,
            -0.21307587685690219,
            0.16089979128152632,
            0.8632965402434514,
            -2.984089185166626,
            1.79455300559744,
            0.03881068809729796
          ],
          [
            -1.7989997780483054,
            1.1865432171784351,
            0.536657290615859,
            5.650626216866638,
            -0.24323548310639656,
            -1.0354607515547798,
            -4.6610842157283425,
            1.131280664566725,
            -0.553907737047463,
            1.434829162066523,
            -0.8122991255760833,
            0.07019051864454091,
            -1.3391080824249577,
            -4.2890841818369605,
            0.44597447487127095,
            -5.760259505844654,
            1.3805620650819712,
            -5.597861889277043,
            1.6627315025415872,
            0.12480054320762379,
            0.20987833710736944,
            -0.8953223890354006,
            0.01357775776275702,
            -0.5685598918019488,
            4.188858617651064,
            2.8435068999599533,
            0.06575033368842709,
            2.634942149424306,
            -0.04904656631072099,
            -2.835423037052043,
            -0.47277375880246597,
            1.6677660635611289,
            -0.9371705990936876,
            -2.8841027866825124,
            2.3601615221211687,
            -0.4713625440570378,
            -1.5100796733172055,
            -3.7980234943734756,
            -0.49276649429998776,
            -0.4918877143105619,
            3.7598276253240184,
            0.050970406535860074,
            -0.9931895526525678,
            -1.0352797876474096,
            0.9760238803003687,
            -1.9172091055566962,
            -2.3120383355767347,
            1.4534299946083116,
            0.36698525475490756,
            0.3758352724828482,
            -1.68472507234303,
            0.20487378859066274,
            -1.2208909969742436,
            0.6898887048919503,
            0.001099644852655693,
            -2.661893439157714,
            -1.7459024955398825,
            -1.7141109841346134,
            -1.1436911233238676,
            -4.047224776410374,
            0.7334387144082246,
            0.8164092847839312,
            0.3580329982770315,
            0.5200611109704322,
            -2.2517982008599056,
            0.4816252934415022,
            0.4392004724637443,
            0.4229358314389342
          ],
          [
            1.4201639565768645,
            3.295461798494533,
            -0.5182895658933596,
            2.979965486448755,
            3.387277256536527,
            -0.7942368342477586,
            2.541435447297081,
            -1.8623746605068305,
            1.6146530728063093,
            -1.7805750703076384,
            -1.0910910071374382,
            -0.7413881249403396,
            1.1955229667420553,
            1.6230056550564635,
            1.957208400327066,
            0.1326259743482981,
            -0.6172186213432475,
            0.39327043681300367,
            -3.1194900013027436,
            -1.9204310074030237,
            -0.035285278008938284,
            -1.1747935258034476,
            -0.8611367373456769,
            -1.1627598547744695,
            0.21259096159706514,
            1.3258879940952784,
            4.145855182800319,
            -2.000383983250941,
            -1.2599633581078782,
            -0.8899676239728762,
            1.1088772440171217,
            -1.2484349813342148,
            -0.1619120044071619,
            -2.6078820445792124,
            0.4476174681683667,
            3.319595827851239,
            2.644151438481057,
            -1.7879709764771081,
            -3.1631542020810306,
            -1.7040412103206188,
            -1.1790931268549971,
            2.9264785563345463,
            -0.821362517542602,
            0.4533016338457164,
            -1.4702866339683127,
            0.5282330470147343,
            1.4035908051989154,
            1.0607170297081987,
            -3.212509064682733,
            -0.4035632689941253,
            -0.7157039287993168,
            -0.846462732121199,
            3.543888293861595,
            0.40953404996767495,
            0.616943190425014,
            -1.3419047493643674,
            0.9891119121464828,
            -3.46412910352517,
            -1.6212000824969173,
            -0.1142257056758989,
            5.239791000949586,
            -3.5292635314784038,
            -1.1430960085089472,
            0.6976959978622169,
            0.8885784150546406,
            4.210989931152151,
            2.196739913635497,
            -3.96295324837864
          ],
          [
            4.441957907740255,
            -0.8141539497608123,
            -4.2154579870031945,
            -3.338117621572899,
            0.5503267141982342,
            -3.02229309196647,
            -3.670548526319438,
            -0.7530556198595468,
            1.294379668312248,
            2.2711317253772143,
            -4.072687997809962,
            -0.30240163026684397,
            0.7831139132465371,
            -2.911149860951338,
            2.46658277427049,
            -4.9246779716929385,
            -1.628983719647027,
            3.397510542846601,
            -2.214597081101413,
            3.554128837688242,
            -2.8701871352183543,
            -0.17481292428451203,
            0.014276808715995473,
            1.142561531425053,
            0.06601439386963884,
            0.8650754329344816,
            1.350082137723083,
            -0.12522636222656444,
            0.5637617396464253,
            -0.41665771847331123,
            -5.472622303540809,
            -1.0056194660633675,
            -2.5002673828690654,
            -2.0490787642593573,
            1.879017053807412,
            -2.21923480076082,
            -3.442929195656686,
            2.1400512878835998,
            0.8155007601415508,
            -2.8359828252719375,
            1.5213856241268977,
            0.198089573363306,
            -3.5995317817608457,
            -0.8546445201510157,
            -2.667191251706943,
            0.6872504861467794,
            -2.849552338243917,
            -2.339330587704453,
            2.2984424981482827,
            1.14867292718248,
            -2.0153823236856283,
            -0.4438841142184368,
            -0.06330646712046864,
            1.8611893557605161,
            0.017368051961346165,
            -2.2605123325873926,
            1.7196140861153553,
            -0.0177313234838109,
            -0.7004885551899577,
            0.07990265738820569,
            -0.055756937742303614,
            -0.7578733965565038,
            -2.5692146698178986,
            1.7139637308084397,
            -0.2771239191825226,
            1.1260965148296755,
            2.6894827824488177,
            -0.10360466232943608
          ],
          [
            0.16824365407690567,
            -0.769651566834678,
            1.780701328057556,
            1.2014564060361108,
            2.028742942245123,
            0.5958081034073925,
            -0.1334387756625251,
            1.3573232405264652,
            1.7885058102350735,
            0.9950782966883139,
            -1.8119179047089071,
            -1.411886767208801,
            -0.3709828231977328,
            -1.8039118069335696,
            -0.22981842157055737,
            -2.0641612633126276,
            -1.9758696991688527,
            0.11815598427701011,
            -1.2217595109802688,
            -0.23599506565215556,
            1.2926653210685324,
            -2.04356223373781,
            -0.7075458451802179,
            -1.1581229609868549,
            -0.08423108712534533,
            -3.8733564871287562,
            -1.0673654592295785,
            0.2792323457653425,
            0.19987613506739943,
            2.7823584147519727,
            0.487187702247484,
            -1.3462841781143169,
            -0.5710546243288911,
            1.9658245287206273,
            1.7728176396836184,
            1.9745416784657028,
            -3.067473316248225,
            0.023231633951250996,
            1.130148197005314,
            -2.7007125923090753,
            -1.5006899657767272,
            5.5478706952450425,
            0.43449944845958105,
            0.9640327889217464,
            -3.115287843397815,
            -2.3871199921753115,
            0.9016144598904998,
            4.1061702773801905,
            -3.3606255827047518,
            -0.028055665932549656,
            -0.34919754377061796,
            -0.0024356940128667515,
            -0.07644115409253766,
            0.2843439512984063,
            2.514239906678356,
            -0.6995631292207085,
            -3.8711045259051233,
            -1.0744208157441126,
            2.069175406059683,
            -0.8394028113355324,
            0.5702802967744445,
            1.716228757405147,
            2.693691692685269,
            -0.8982827215525434,
            -4.46948680577085,
            -1.4447563412270663,
            0.9498158601796486,
            -2.1867556276043327
          ],
          [
            -2.927465039523507,
            -1.5257036237782797,
            0.328211146094776,
            1.1211005079905747,
            -0.3445907845290069,
            -2.328970023264014,
            -2.079958814122981,
            1.5998688190448556,
            0.1064413220698342,
            -2.134395792358323,
            3.949244290786548,
            -0.23068352341873677,
            2.718638027182221,
            1.1220001094236578,
            -1.7318785148035163,
            0.670396992373796,
            -1.5138463677816012,
            3.4423800507107876,
            -2.10777296887751,
            6.447504985073727,
            -1.724171758615998,
            -0.6212858052341848,
            0.08359969733324912,
            0.07216869481111648,
            1.5435874357040036,
            -1.9854973959689692,
            -1.4705866082097259,
            -2.0665109900709444,
            4.150076845324354,
            -1.4484231321105563,
            -0.2786239313755165,
            2.898042195833483,
            5.099406349997909,
            -2.636418387848318,
            1.4090964268526722,
            -3.857398197874946,
            1.2137594713851516,
            -0.4428598794981824,
            -2.682459066397867,
            0.7292992117398316,
            4.5212639201251115,
            0.3596457517028511,
            0.9160564402604505,
            -0.5024817603614489,
            -3.1272774824928904,
            -0.4124477570504266,
            -2.581984889053377,
            -1.7040915888509451,
            0.3617015194409037,
            3.1464507845996517,
            -1.0675730618638046,
            -1.791479105690826,
            -3.339174091097639,
            1.342593557393628,
            -0.013634875929105672,
            -0.2662673537465499,
            -2.261029469292735,
            -1.9130400059937687,
            -1.976184906896306,
            -0.6259484213831399,
            -0.7326376084430206,
            0.6596806062458429,
            -1.6750674785769948,
            1.9305560949755967,
            0.942101436636913,
            -0.9313955110397958,
            0.4903115366541471,
            -0.18186922372210934
          ],
          [
            0.4096364191079599,
            -2.188461822320023,
            -0.9837130482023336,
            -0.15114745761689463,
            2.5543664420561756,
            4.858214357353185,
            1.6993168842558386,
            3.4982303797370253,
            -6.168485392784741,
            -0.559568156877549,
            -0.32887088817421173,
            0.6016258463511608,
            -2.573735371539893,
            -2.4860153052082423,
            -0.2470948983266487,
            -2.854640768782292,
            0.31781477618509335,
            -1.8725483805622813,
            1.1223263395324208,
            -1.8923467960182896,
            -0.1789172157194826,
            1.0915431142722003,
            0.18746249578165486,
            -1.2545568494352601,
            -0.13415089316557977,
            0.024986902929727106,
            3.2433709117786895,
            2.2753822882774104,
            -0.21308248672148233,
            0.11636239847601063,
            -2.355247179335951,
            -0.9424360971383339,
            1.5287422716390462,
            -0.1601688107261204,
            -0.4228135977782142,
            -0.6322880998002989,
            -0.09548991339799301,
            -0.030557172949617767,
            -2.0195858139838907,
            -1.922131493701459,
            0.09040559682959684,
            2.0136242973950105,
            2.486310985069563,
            -0.5731015843552452,
            1.7842839726152842,
            -2.7621131391861873,
            3.904330200484587,
            0.5295008100275876,
            -3.8872299231076557,
            1.2518261731873428,
            0.31945549166168097,
            -0.29480699970299884,
            -2.5096244330015773,
            -8.046379062243153,
            -3.3425457433206964,
            -0.13257861188070147,
            3.774516876759565,
            -2.0677149220960853,
            -0.9801093645604634,
            1.1430722532453896,
            1.156965200392284,
            -1.3119891644024493,
            0.6015732174588038,
            0.4343072689666041,
            1.6324945312968406,
            0.07732163555382428,
            -1.8673164446211916,
            -4.812656421477514
          ],
          [
            -4.249061774305484,
            -0.38427336336112705,
            2.0543822957279265,
            -2.3580574519931186,
            0.3649256705329592,
            -2.477986280057473,
            1.6377083316940293,
            0.22223833506137752,
            0.9076134670190761,
            -0.5470112080295023,
            -0.09806234141147993,
            -0.6154391835827828,
            2.929220320107103,
            1.7924526815332082,
            0.9864846391235244,
            0.20621748134201265,
            1.3847225435041703,
            0.5375953789786213,
            -0.3169273056088869,
            2.0930930656534326,
            -0.6944366475986787,
            -2.7610135664870095,
            -1.1514241009418384,
            -0.8664835164332075,
            4.135485487193182,
            1.4314866986588866,
            3.401600063956162,
            -1.9105813294845666,
            5.403237116207882,
            1.5628052191290311,
            1.9179185228552162,
            -2.8318057333281788,
            -3.351029480411582,
            2.0215335899315012,
            -3.083193528072597,
            -0.5338149967955094,
            -3.1184405513189457,
            4.688179853986577,
            -1.613901194407054,
            -3.0554711636638316,
            1.0979313394697872,
            -1.6698621357069525,
            3.43941288486164,
            1.566453817400402,
            2.8657233684353707,
            2.5259741701734177,
            -1.2190862106500613,
            -2.009723330376747,
            2.660122132506867,
            1.7717217235802132,
            0.12583260403923416,
            2.4631540117336743,
            -2.92522274941847,
            -1.3182580881824313,
            -0.9910670113678577,
            1.997799715644863,
            1.6118878055769437,
            -0.3919620810455373,
            3.9559747121123054,
            1.1209996020284583,
            -2.503247990287931,
            0.2174388287756488,
            3.7174610882095167,
            0.9920100006835373,
            1.5466950717906471,
            -2.436198275811258,
            2.009273861403383,
            -1.2418724523972504
          ],
          [
            1.6165956636029897,
            2.2787936886704494,
            2.8550164576233015,
            0.5895847834192225,
            -2.1496638870194302,
            -3.507751760664724,
            -0.895431268656774,
            -0.7070051522767801,
            -3.803689811319225,
            0.1450410790556697,
            -1.6826133314108584,
            1.2810754350559528,
            3.268913573073369,
            -0.6913671564523749,
            -0.12886081904159713,
            1.2817996343808518,
            -1.9123009659921404,
            -0.012372627642590922,
            -1.4365445928215967,
            -1.0028598493568854,
            -0.08823742315948409,
            -4.9011500589878185,
            -1.2101649183568934,
            1.0262756505675223,
            -0.8089864612032287,
            1.0081123207241593,
            -2.126810123751733,
            0.710889102390007,
            0.499609622078963,
            -0.8855692541585103,
            5.047229149097281,
            -2.0690572519659933,
            -2.1627674570128885,
            2.7844357131887745,
            -3.2393845041951224,
            -1.230291788208402,
            1.3168269918874722,
            -1.2134166603568746,
            2.418743071064954,
            2.1606301825404826,
            -1.2429272370815752,
            -3.856970901013542,
            1.5091594859891277,
            -1.9023568896920853,
            1.4377488554145428,
            -0.32402763200429263,
            1.199113550389374,
            -2.4488982329911813,
            4.1844150493518235,
            -3.020912019165892,
            -0.24340092266911428,
            -1.3564625508599584,
            -1.846229873477631,
            2.3594474892585873,
            1.1827115033525095,
            1.4946868601868892,
            0.14483487003080592,
            0.1044657557027477,
            0.44466503634046817,
            -0.2413447792531624,
            -4.7642991115402715,
            -2.6469775995198184,
            -1.453079788199894,
            -3.311578300166571,
            -2.849830268463275,
            -1.9311911102715587,
            2.061982863391098,
            -0.8867160797288295
          ],
          [
            4.767440854121024,
            4.7971754464445935,
            0.5892099462150115,
            -1.8129931093938625,
            -1.897522299474163,
            -0.8216849441689495,
            -0.6278291378539895,
            0.2896340397464391,
            0.45342232860752035,
            0.9564229950949747,
            1.1944424670297855,
            0.807633165152628,
            -1.901814630007001,
            2.1554666428447495,
            0.3444455797343037,
            -1.5350706932943043,
            -0.015325622144256645,
            -0.7557190982554025,
            1.1769490277484467,
            0.791405937835062,
            -2.497817608009048,
            -0.7533931323928031,
            -3.1138985599169633,
            3.0429096423749034,
            -0.17754502057813254,
            0.2513386396139421,
            1.016997389934515,
            1.3428108837670436,
            -3.869560535149602,
            -1.0464931202718049,
            -0.7730615768364624,
            0.05669442174800378,
            -0.8945941237537112,
            -5.87289832414124,
            1.7504109513930273,
            -2.3580492357823513,
            2.674402038878634,
            2.1986245875316377,
            2.144418720843113,
            -2.40472841195168,
            1.1063426580050568,
            1.7210432512130016,
            -2.1200540817205407,
            2.387171960138105,
            -1.184051615871148,
            -2.0308379762969087,
            0.2874495016758454,
            -0.005218711869453177,
            -2.969610650329518,
            0.8413894966921321,
            1.9940354393486912,
            3.6708715238643816,
            -0.401455272284083,
            1.7939793310439838,
            2.3034226099168835,
            4.381804203012827,
            1.9582767938311265,
            -1.5450810079476562,
            -1.5426862497826959,
            0.5158029573179226,
            -0.6497563098579722,
            1.9431374737938127,
            2.287206290239031,
            1.7115467506406739,
            3.7769480429053224,
            0.22863858767621162,
            0.6466134581190952,
            0.5105628460822955
          ],
          [
            -0.10217036539184643,
            -0.404544816451534,
            -3.8386179215080234,
            0.040944382770789156,
            1.7509089215137779,
            -1.53340511342688,
            -1.2764540495115702,
            -2.8692407009563046,
            0.5192927547745931,
            -3.914104978531262,
            -4.185578576921212,
            -1.756902361134773,
            -0.4685870761170607,
            0.12435027098062801,
            -0.15409902478515372,
            2.0676476540573754,
            0.10803434178448346,
            -1.2560254861644395,
            0.08601372259243967,
            -0.9885331256494413,
            0.03163972326223968,
            3.557662303796324,
            0.22065117497659548,
            1.7808022338373632,
            -2.3956870012932368,
            0.23774486817755586,
            0.7282085553440121,
            -4.4117630254857865,
            -0.1369847270353618,
            -0.3478090946091017,
            -2.437093695511085,
            -0.19951360629267273,
            -0.31585686138718216,
            -0.7882436254690854,
            0.0005785538094416915,
            0.2395229365752189,
            -0.19602156049017355,
            -1.5937364367049782,
            3.114869445367136,
            -0.5807144057434128,
            0.5187116057978893,
            2.912562563119402,
            0.5511257089537764,
            1.669075244885887,
            -1.6745620331157185,
            0.8517253623846269,
            -2.4480480933303457,
            -1.110149720325553,
            -1.3662109457688183,
            -2.2516695963865065,
            1.3789158342129064,
            3.772725319792921,
            0.48927993038854944,
            -2.7590112800335422,
            2.5469368625294853,
            -2.1398613386821754,
            -0.7950237463431244,
            3.0069425490434893,
            -1.3776966456165032,
            -1.657951595083491,
            0.26305466537896144,
            1.499144406222463,
            4.2194619182563216,
            0.17894709607699522,
            0.34072571659910456,
            0.7147528696757671,
            -0.9614879901263942,
            0.5590048452454575
          ],
          [
            -0.7523298604249703,
            2.644508427925083,
            -3.6991910877925918,
            -1.042247704456843,
            0.5260140074799529,
            -0.9843022487488766,
            3.4620998235520717,
            -1.6365910730638566,
            -0.4034770608822881,
            2.1708290818878,
            1.8405983791312974,
            1.4821086507161612,
            -1.8866733271403613,
            -0.97653297170768,
            4.297703087807675,
            -0.8960280247182969,
            0.1399633063667195,
            0.12987495870330967,
            0.3187728137156974,
            0.2891898384718075,
            -0.09550874476827911,
            1.211721279498377,
            1.840193560761405,
            0.8201473779738904,
            -1.9348088258493163,
            -2.4917395841991126,
            -0.205334544223781,
            -1.2638077239489387,
            -0.8956484222857366,
            -0.8447438421221334,
            -0.8618911531583499,
            1.713543505251014,
            1.1140624731477988,
            1.0713930315304052,
            0.804100633036062,
            1.2971908637523124,
            -2.3666291440018217,
            -0.6889720403473157,
            0.845232558567363,
            -0.8208249175008717,
            -2.0043269017973406,
            -0.8150118012580416,
            2.2120632892720957,
            -0.40156048113369863,
            -0.6219800141898766,
            5.021945970185717,
            -1.669049455602982,
            -0.2703113567670568,
            0.7137858898571463,
            1.581903305072325,
            0.9258342834592371,
            -3.4725279698356193,
            -1.8996163029850432,
            -1.3286629566408479,
            0.943581530121398,
            -2.638071593672709,
            0.3669564109205791,
            1.8080077964441101,
            -3.3445012661601456,
            0.15698404355104573,
            2.2599702297757154,
            1.93539057797087,
            -0.15248692060932612,
            1.132061910723943,
            -1.0226226001105232,
            4.961408110606795,
            -5.730343123996604,
            2.7236814330409596
          ],
          [
            -2.486244419405091,
            -1.6654567723331233,
            -0.6200126592274736,
            -0.32043565064837864,
            -2.0624766439903865,
            2.1978824568849338,
            -3.3196878307734403,
            2.2463246483668606,
            3.399017683631226,
            -0.10451643776344827,
            0.5482256767391113,
            1.9276905837999017,
            -3.985948211633985,
            1.6378165698136729,
            0.8266376047156345,
            0.2682604633288641,
            -0.9731818471100124,
            -2.263397885082957,
            3.051482460322337,
            2.1931389442284948,
            3.5942230303282297,
            1.6856959721382694,
            -0.8103737284410641,
            3.7739525308786908,
            1.577072833235473,
            1.1235446674311826,
            -0.6340401680118389,
            3.5531999279219897,
            1.1096969166972186,
            -0.4888454316058973,
            -1.8390895463538746,
            -3.136554194910086,
            2.695033429429366,
            -1.2480328838001336,
            1.0179455415050094,
            -0.08094198332182563,
            -0.9936501537631204,
            -0.8543567208594384,
            1.864823131305933,
            -2.685131862564916,
            -0.1156077344645291,
            1.0658627945863093,
            0.8108813132510642,
            1.3595391322581702,
            -0.8758104025606799,
            -1.8706012934210414,
            4.053052802518753,
            0.5365184263883316,
            -1.9779455288007672,
            0.22227959960060786,
            5.223787359616061,
            0.8458421720255835,
            3.3478456982229763,
            1.082649682445529,
            -2.3198344742185295,
            -3.2744378651831716,
            1.9883601702508762,
            -2.9557608932387742,
            -2.0161656061529922,
            -3.8899049150972025,
            -0.13063260031172833,
            -0.43050922287488236,
            -0.8982219128976399,
            1.0619614484758064,
            -3.0257627260099613,
            -0.5851242109241814,
            -0.48338608612613393,
            4.862764632189562
          ],
          [
            0.021863185592120138,
            1.2912647725880333,
            -0.468074405326518,
            -2.081079090754355,
            -3.8153038944237636,
            -0.1709189036323942,
            0.4696310273654676,
            1.4818956360930493,
            1.054456180028475,
            -2.3459141018794365,
            -3.038074272817502,
            2.754893732204586,
            -0.6479012652916957,
            -0.6738868917608313,
            2.3227381910862315,
            1.3272919839792203,
            -1.4825684335977742,
            1.044351529956494,
            0.17278174127795848,
            -0.6434579300308777,
            -1.3998441847249552,
            0.7496461806443067,
            3.622898988756879,
            -1.1742099181726309,
            2.460496623487242,
            1.322421710509855,
            -0.6519901479803547,
            -0.2187527936273561,
            1.45247903880269,
            0.01641519165478717,
            0.9807824615374949,
            0.8143630999995335,
            2.005194830697092,
            -2.5499397807540873,
            -2.3616477856296165,
            0.018669494352507088,
            2.141815899987018,
            -1.8407832705364184,
            0.4768490147273733,
            -1.0313190464887154,
            -3.657664223968544,
            -3.5367529240244844,
            1.6358693326053488,
            2.9408145393127083,
            -1.014331694697125,
            1.770984248217726,
            0.9605970203602773,
            -0.9982770472803265,
            -0.8985352551101877,
            0.4318819592970635,
            -2.4363989089205846,
            4.384399358255174,
            2.980718390528735,
            -1.9044899433674523,
            0.20307067608921806,
            -0.7179487826462114,
            0.34005385704055435,
            0.6425209607744303,
            -0.6913101885189005,
            -0.6164359339169411,
            -1.1880409744802112,
            1.9283655057801963,
            -1.8827523569463436,
            -1.7559462311867704,
            -2.433189402628527,
            1.8608385677203754,
            -3.621013296846082,
            -1.8559149607697019
          ],
          [
            1.3963834863609095,
            -0.5757645782332257,
            0.7663242193696208,
            0.6331998249534263,
            -2.220688765128601,
            0.18306603039549654,
            -0.9706030949622173,
            -0.7519007183496736,
            1.375621223604424,
            -5.845311190171623,
            2.8991230413579245,
            0.9890048723680925,
            -3.115352564176489,
            1.770861230563927,
            -0.844521039495059,
            2.739727344421673,
            0.45307087169342425,
            -1.1859091171463696,
            -0.8681003461268436,
            -1.988753089985279,
            1.4450219195845997,
            2.0523362841670485,
            0.5229608538494314,
            1.0204682981726916,
            -2.001304677251344,
            -0.8589927734273104,
            2.11968111050055,
            2.1311938434763964,
            -0.22103192922567982,
            2.3076219690325974,
            -1.733454300287348,
            2.4210129545375696,
            -2.8485667823435232,
            2.082144570962014,
            -0.02833506795577939,
            -0.4200260264650095,
            0.37332008920981796,
            1.1756782510321622,
            -0.8963496383058595,
            -1.8056972793318489,
            0.5920030461265825,
            -1.9642909430589004,
            -1.339088243905226,
            -0.6136132746466592,
            1.8404045068837345,
            -1.9182022490255175,
            2.1935258242398095,
            -0.16191561757963144,
            1.9240532635722036,
            -0.24513016603784304,
            2.935438507610908,
            -4.647768292458171,
            3.1394145467384336,
            -1.6834466319451602,
            1.7030064714997266,
            0.20977089754553926,
            -1.6373546334401294,
            0.47143509384173427,
            4.530415820306791,
            0.21726717280166216,
            3.3947161876481053,
            -0.5122933367788342,
            -1.0118301431527286,
            -0.34530477457845704,
            -3.095772317246685,
            -0.03668084302960928,
            4.140451389334601,
            -4.068015643398938
          ],
          [
            -2.011019986388593,
            -1.5935280849796558,
            1.3493472880374935,
            -0.9015954939722116,
            1.0047477808924812,
            -0.4818118434820544,
            -2.2635180671316446,
            -4.209367311997976,
            1.119401060418274,
            0.39267268409926986,
            3.1416385046687068,
            0.6837795767131217,
            1.4706004346563306,
            -1.287155379872536,
            -0.5938406568513852,
            1.5009582496375047,
            -2.460935863335701,
            1.365740721674205,
            1.5502076057803336,
            0.25903584260747575,
            6.100346218876504,
            -0.6451052779294686,
            -1.2074762190792903,
            -0.3010123341756977,
            -4.0635043455007445,
            2.9838946596236324,
            2.3982829691526066,
            0.1468535244411896,
            0.8670766335727814,
            -2.903979394153034,
            3.0078573871260272,
            -2.5367794567991573,
            1.1823690365068693,
            -0.27141734616979935,
            2.761620731545141,
            -0.3895912181518675,
            -2.3831696877388486,
            -0.12392566537793862,
            -0.940717587228657,
            -1.2923328320555005,
            -2.831092456643515,
            -1.0816486419031777,
            2.1140289647785595,
            -2.9652238176211814,
            0.279957294717468,
            2.9205455486927465,
            0.6441640900429628,
            0.14192223164675372,
            -2.818658260465628,
            -1.805933095806639,
            -1.257525961147489,
            1.7652756677395525,
            -5.472583722956813,
            -0.09614626717409712,
            2.9432819590687322,
            0.5593800808296906,
            -1.134751135884882,
            3.7449269275649133,
            0.29834248476392344,
            0.14493630590443743,
            -0.82225589832853,
            -0.8971252950651505,
            1.9344472605964533,
            -1.8005029805903865,
            -0.9490702140562327,
            0.024580089594383875,
            0.49582515259326454,
            -0.2624208204389631
          ],
          [
            -1.4941972790547458,
            -6.450736581465497,
            3.481470781386433,
            -1.1769984091547203,
            -1.333897126215499,
            1.2300039459859078,
            0.7111394467404777,
            -1.00473034723557,
            -1.981502921541881,
            2.0009677399775136,
            -0.8384138607084859,
            -0.7045842523122079,
            -2.0771072200387404,
            -1.2791606849236952,
            0.9543279910919867,
            3.8536852412351443,
            -3.327964131493052,
            -1.6405200952024785,
            -0.23162945932436788,
            -0.40693505086338266,
            -0.33201679406426604,
            -0.32520145912715615,
            -0.026386623562772743,
            0.8008104025186975,
            -2.3037578227141258,
            -2.4322821188209165,
            0.3088412173055209,
            -0.7933611663169786,
            1.7200888755118082,
            -1.8706430258708115,
            0.0628834309461262,
            -1.1550539117543415,
            0.7883677752301219,
            0.3330078714556546,
            4.19419562366809,
            0.5655161231928434,
            0.1502833727166869,
            1.7688680779309884,
            -1.2119680713664662,
            0.8356349975789029,
            3.1810099519318977,
            -1.5570242318832197,
            1.6984536858223616,
            -1.7087626021772673,
            -1.4499347874047188,
            -0.19700872028955843,
            -0.5785788070602199,
            3.5016459944977156,
            0.7344744248384751,
            -2.820155876331552,
            -2.2552298550012226,
            1.2099174802070258,
            -1.5883607219430547,
            -1.669305770098461,
            -1.5505926377914556,
            0.6858019726885399,
            -3.639462334891825,
            -3.0770745021515076,
            -2.451099835942115,
            -0.2274606323823234,
            2.0473938091586863,
            -0.31675060213439454,
            2.5293357783321744,
            2.2821454579144476,
            2.0691094123711795,
            -2.414604152412945,
            0.5497752013316286,
            -2.6141455417206787
          ],
          [
            -0.14512823787190082,
            -0.06188834190342912,
            1.8440404740395884,
            2.3046596731473925,
            1.345173201216031,
            2.3037894986132788,
            -2.098568363534041,
            0.5981850854999526,
            -5.985097354560885,
            1.6657281813568543,
            -2.635325570013386,
            1.0440160040015565,
            2.6087454407634505,
            -0.15041089926598336,
            -3.97190368990154,
            0.6444517892482434,
            -0.9671192310795476,
            -3.09846846310973,
            0.41539209302186314,
            1.8376252330682505,
            -4.142447849778812,
            1.8757273797475609,
            -1.2493190666204355,
            0.32928010271696345,
            2.8738510371649295,
            0.2567592040546349,
            -0.05113998497594319,
            -1.1192088869776389,
            1.547440101099971,
            2.584693510372077,
            -2.9103328935931985,
            -0.36481304171617357,
            0.024459102084927575,
            -1.800916182852784,
            -1.2389427488851652,
            -1.477847256418712,
            1.1627585194138625,
            3.2196935984876007,
            -2.7215781947837776,
            -5.355187171532233,
            0.25681705205020733,
            -1.3555300389736684,
            2.466773667525806,
            -2.085330853335473,
            3.781186290390553,
            1.7016633750919405,
            0.16265089080069506,
            -1.0354368348999259,
            -0.11557132951080112,
            0.26897037255696493,
            -0.4585911238456357,
            0.4017288873857612,
            0.39259702275622793,
            -2.268524515297718,
            -0.2544560151178108,
            -1.0351117188658707,
            -0.8129614228631357,
            1.2622046300370642,
            -0.1741122346743345,
            -0.14230067662246865,
            3.5808325243332053,
            -5.0847548006530525,
            0.21297086637495863,
            1.0535382589477948,
            1.7285249475414595,
            -2.0912005957572486,
            0.05361931245422322,
            -1.8543286023731105
          ],
          [
            -0.3909232731259488,
            -1.6775113860094502,
            0.5506039685358144,
            -4.499633221956693,
            -3.8123064013311483,
            2.0390537411131957,
            0.6790888506989285,
            1.6540498724424968,
            0.20723862370222,
            -0.9329521941902709,
            -0.545201283800153,
            -2.3113111856402986,
            -1.6192233567265446,
            1.2143357913423662,
            -1.9868893695294667,
            1.1276711159767143,
            -3.840966572761371,
            -0.8065194486316563,
            -3.9768937612037054,
            -4.361838363090677,
            0.7662895536679705,
            -1.1182581477893463,
            1.6335662070268302,
            2.268546622270474,
            -0.7327756707285522,
            -1.175448973028061,
            0.659490573819516,
            0.0052188300778877456,
            -1.8070603912604586,
            -2.6932104738190388,
            -1.982237880629873,
            2.0539590894115602,
            1.7558337015909182,
            4.8944769410246955,
            0.14557188339108829,
            -1.270190213764217,
            -2.996789655286304,
            0.8872120650214672,
            0.9865347277100781,
            2.4846454906417392,
            0.4875935853319587,
            3.989273336220366,
            -0.25022563995527153,
            3.4463365918823867,
            -0.8646773643590147,
            2.7488448375231913,
            1.2882529421679527,
            -0.8546742110049294,
            -0.68109712203554,
            -4.325028102077494,
            -2.628182836763653,
            -0.5247667036813289,
            0.5701290511733473,
            -2.1273960102665814,
            3.8526378306451257,
            -3.1269112318013947,
            -2.7419321079304404,
            1.5762783146706596,
            2.7277577624513354,
            1.2716704890151727,
            -2.4725549063739027,
            -0.09916181492125237,
            3.441942537525171,
            -1.663183991617987,
            -0.1796042846572279,
            1.2729509530178686,
            1.2647462272846588,
            3.134188308560713
          ],
          [
            -2.271384666994713,
            -4.1541334289055225,
            -5.814407765295316,
            0.7052313723666745,
            2.744327337208951,
            -1.3703199198939229,
            0.7104812351954933,
            -0.2883448403192044,
            -3.569924260795686,
            1.9343023136582758,
            4.991751211372312,
            0.6460577334172403,
            2.1981765740337105,
            1.6565617803106694,
            -2.8381754244758226,
            1.367324169372258,
            1.3519898792087224,
            -2.6846175974097797,
            1.8448286392663704,
            -0.10354580304543969,
            -1.1543864274176343,
            4.643603179381676,
            1.7297185830706028,
            -1.2348924461314454,
            0.9007527607501199,
            2.1658912042985277,
            1.816172968279142,
            2.4402697596614047,
            -3.0235231504946762,
            -3.8063861107426216,
            -2.7485377496645436,
            -0.5243771457337727,
            -1.146290115008787,
            0.415609336373983,
            -1.0240763198915572,
            1.8170687706467838,
            0.21819197677354235,
            0.9609629408100613,
            -3.2556518204198945,
            3.271565576940667,
            2.0193559092679836,
            1.3178136471536248,
            2.682271773087889,
            1.448237765883345,
            2.5574665550040976,
            1.6160654661286633,
            2.8781248026082045,
            0.36499473825724627,
            -1.0515874201411326,
            -2.7849785890164127,
            -2.4311371683534366,
            2.1293603431600063,
            0.835484603125382,
            1.7254713124205265,
            -1.6654965808367923,
            -3.060383019178179,
            3.216860782786521,
            -1.4198540029042255,
            0.7694116382367442,
            -0.7710660475563326,
            1.2016274696087317,
            -1.0223587869246709,
            0.5346187394496448,
            -1.9067776885002508,
            -3.3152971552615007,
            -3.8231542496540114,
            0.26090979393791625,
            3.7921116122110883
          ],
          [
            -1.835634958092301,
            -0.9369920842030609,
            0.9121546399057334,
            -0.5490247796988192,
            -0.406536995454656,
            2.080333906715485,
            -0.9347708795607885,
            -0.46414878815968197,
            0.07646387398852866,
            2.5275561939165745,
            -2.2885814287432513,
            -2.0917007673550794,
            -0.5259408558464349,
            1.89595668074191,
            -0.6459160158912667,
            1.0342507294352703,
            -4.698821304404071,
            0.04670220815283613,
            -3.6642696722376784,
            -1.593545475719133,
            4.368106797724826,
            -0.20411288322080914,
            0.8543984785449504,
            0.09519792757257048,
            -0.21523424507420613,
            2.0153692969025494,
            3.412504933377731,
            4.532860491941234,
            -4.593090925364587,
            -2.8030353197321194,
            -0.5621240101834483,
            -0.4838244464998429,
            -1.6477570007564584,
            -0.957201160639605,
            -0.5605560389788836,
            -0.2389517503339617,
            0.07768910988850117,
            -0.3618011062468733,
            -2.3114068128730696,
            -0.4490992367379313,
            -3.97615359201127,
            3.310551706163904,
            -0.09426135112883366,
            0.3065508508972422,
            2.8365596023819473,
            0.3943862179427977,
            -2.349108368300453,
            0.9869928822295462,
            -0.9773200768057073,
            -5.806066560415197,
            1.2485253847175004,
            1.4848629237963975,
            0.4964528432814236,
            -0.6994596173894673,
            0.03498381081328211,
            2.182878165681234,
            -2.9583007332909745,
            1.1139130848507859,
            -1.0218849105049825,
            -2.56448734909958,
            -2.249038842061811,
            -0.12040099361835166,
            -0.7562187505169768,
            -1.690854596731398,
            -0.5352640332064647,
            -0.18162068796223158,
            -0.9140634603267431,
            -2.441912086906957
          ],
          [
            0.6855083610173907,
            3.422705100026329,
            2.4129445105523213,
            -2.349326843392178,
            0.9822774038535335,
            1.3373557055562286,
            3.2224297693826522,
            0.6110028776352215,
            0.09313596553019574,
            1.7093938786739329,
            -3.6244601860389807,
            0.43855942299094186,
            0.7400563846544738,
            0.13415398203197004,
            -1.5597279389861347,
            -1.5246345435455777,
            1.8756690083072198,
            -0.21204311367760534,
            1.1868881308224486,
            0.14236484233954597,
            -0.6872110349137374,
            -1.2945802651462015,
            0.1396600963472706,
            1.3879376235932839,
            -1.3801920365011828,
            -0.6242179378239578,
            0.7229232042027113,
            1.580775542527443,
            -1.134936146598535,
            0.29420817199751015,
            3.5676672656456367,
            -0.8022310097589913,
            -0.4194650356404933,
            -5.378374550328682,
            1.2234009160136066,
            -0.25713888312165606,
            -1.0930734017706507,
            -0.7603874841979199,
            0.051026144322716877,
            -1.2313034342710554,
            0.7021015745085045,
            0.9218718820465721,
            0.25173557720721507,
            -1.2127657440663138,
            4.148559627503657,
            -2.341178745493971,
            -0.20243817620067717,
            1.6854773768894402,
            2.9882076563822735,
            -0.5515390214890522,
            1.3310323967603155,
            -3.0387414744776504,
            2.504975306051897,
            2.159203276268992,
            0.3234242973968293,
            1.5407272949514355,
            2.6420266477147334,
            1.1834219109722368,
            -0.3750410382767641,
            -0.4770511402177828,
            2.4781714661295946,
            -1.2934628692291477,
            -1.7571707348847942,
            0.2771717127156132,
            -0.5404842550808525,
            0.6057972462872445,
            0.48691131441467217,
            -0.3035851009241419
          ],
          [
            0.32007494318286034,
            -1.5023912932085253,
            0.28674833331417965,
            5.542115095791035,
            0.9366526722323635,
            1.512195355101296,
            1.5996454006310332,
            -2.0959116370535265,
            -0.9237235511546356,
            0.951204244395471,
            2.255669995088054,
            -1.333217075251405,
            -1.5667057099645443,
            -4.8818752929539775,
            -0.9065780271633855,
            -3.763805030716024,
            -1.4216486148885896,
            -0.9481082222600639,
            -0.6339679957512586,
            1.059575028968291,
            2.1428889149674157,
            -4.559958153010309,
            3.115261942904891,
            0.36985166840388883,
            -5.557743044968881,
            4.9734220525410535,
            1.3610083491086478,
            3.630125751170017,
            2.5420080297523224,
            -2.219376386991325,
            0.10003850672508496,
            1.1256658743673325,
            -1.0800436227111372,
            -1.1971376859137972,
            -0.8757579041192787,
            0.07297372061516377,
            0.9228676556162656,
            0.20326596423643303,
            -1.070387360758561,
            -0.30454436425853926,
            0.4291046849650222,
            -0.4229041965040741,
            4.260796347683,
            0.7270236675856766,
            0.36486237674780336,
            -2.2817119352554225,
            1.8346391203443433,
            0.16268842676877962,
            -5.017798279288797,
            0.5917226967168139,
            1.2342045154441366,
            -1.7873331588024957,
            1.1923654054745048,
            -0.9621260743763447,
            0.31061001605046734,
            -0.44557789714453244,
            1.964528397341741,
            2.0739005725099466,
            -1.1079439201774146,
            1.2322794882740977,
            1.3134958337365688,
            -0.7537906221441962,
            -1.3190528348248527,
            2.510961029728378,
            -5.328923906199166,
            -1.4915441793718365,
            -0.30385135627817783,
            -1.9315944434018384
          ],
          [
            1.3717011382814661,
            -0.6186158928260291,
            3.278137346652163,
            -3.107269589573904,
            1.9852701820584262,
            -1.7841105843524294,
            -0.332573812009781,
            -1.1044717829632442,
            0.8226891007820714,
            1.6647848559140694,
            1.8050045012156015,
            -0.27890365033474085,
            -0.45818466683856446,
            1.866142427834792,
            -2.46129574132012,
            2.9082056187510723,
            0.699083336716578,
            2.086733788510909,
            0.13794259720352534,
            0.24668848197932308,
            4.699410751741358,
            3.332800653084765,
            1.273385728455485,
            1.1985913131357226,
            3.0649432084518584,
            -1.696763643327291,
            -1.2457482552714172,
            -0.2013514404393511,
            -0.10520717483239458,
            -0.1478908158504748,
            -1.2812629863380343,
            6.7664473290548965,
            -1.251371579979934,
            1.6903225277330014,
            0.035000141652597266,
            0.7121218881901201,
            1.7906307350316615,
            -1.1814684169859127,
            5.0823526434670505,
            -0.88657724310439,
            -3.196556324623167,
            5.242060299899625,
            -1.0694095385177913,
            -2.9933905385109725,
            -0.32977475214872115,
            -0.6794873546817899,
            -2.6541657944718366,
            0.39896492642880294,
            2.16586218466705,
            1.6271823977087416,
            -2.81048843753182,
            2.394724092618162,
            -0.32935732021036634,
            -0.03578297079024467,
            0.01390753624880492,
            -0.9673213041972062,
            1.2574852067296098,
            0.9691666651208721,
            1.0135141122683768,
            0.2972760039193468,
            0.3168351925998118,
            2.579173899339186,
            -4.734070693608751,
            -1.3064745730227505,
            -2.644073583702438,
            2.064483638818679,
            -4.748883170671655,
            -5.176361774620392
          ],
          [
            -2.466171241421143,
            0.3045117528315267,
            -0.8305237371025629,
            -0.8201829546455122,
            -1.9347848299024022,
            2.462358341868125,
            -0.5600142564033421,
            2.4184033142393093,
            1.2667231568179045,
            0.8139202188503466,
            -1.3396928580646166,
            -0.6870180611871823,
            0.9126619133469698,
            1.3851524683361212,
            2.6445676918237866,
            0.44465490171707167,
            -0.9488058520760457,
            -1.03040277187484,
            -0.17561593653509042,
            0.7880244116327941,
            -2.9559933773628617,
            -1.4366302539679818,
            -0.9556439163743281,
            2.0225277693137955,
            -1.954248989469237,
            -2.0055889722023674,
            0.5241064993316981,
            1.8214305019435415,
            1.662237907529119,
            -0.7415226620321174,
            3.4556637006211517,
            -1.6855480325518242,
            1.6638008751788695,
            -2.320714720658063,
            -0.07125761012975823,
            0.645661617065228,
            2.6268248463951873,
            2.8819067885767176,
            2.190470550482378,
            -2.132382412738153,
            1.5889464942244624,
            1.1363285889292325,
            -4.7695194836761114,
            0.5283399747206219,
            4.609259778495318,
            0.9693395654645515,
            1.0429970603382699,
            -6.467298238497412,
            -0.008563382680160547,
            -1.0930414048127648,
            0.0646105413769344,
            2.1789268336374934,
            0.4850001107120139,
            5.998849473959872,
            -0.20053143535664056,
            3.3810777189756607,
            -0.37477416576924544,
            -1.5097258197885808,
            1.6571368494547467,
            -2.2958448225976755,
            2.5316638701844494,
            1.2346830327058371,
            3.3247520626131397,
            -3.3972074143185513,
            4.825807884125276,
            0.3863291419095765,
            -2.426650734628738,
            -1.3390986005450407
          ],
          [
            -3.1890879843325552,
            2.8302406039483095,
            -0.32224415258373207,
            -2.641271637407202,
            1.204224317157043,
            -5.04824286170884,
            -0.37132459897302683,
            -2.1383292878481592,
            -2.561111712269876,
            4.624949995201629,
            -0.026174156678730957,
            -0.16908935176149675,
            -0.6516782533774516,
            0.5180078721416815,
            -2.148006737209826,
            0.8319055925920761,
            -3.2239698212115377,
            -0.5546284523437994,
            2.5566055515132664,
            1.6362453644565735,
            0.5093958434044298,
            1.9894858177145178,
            3.5427182190871096,
            3.5906804171163156,
            -1.617726226696632,
            -3.25940127786927,
            1.5352243365210094,
            -0.08164728772138896,
            -1.8493791863902151,
            -2.7369257259865165,
            -3.2840122260264133,
            -3.278432816583986,
            0.9835917747592271,
            0.24456489344178658,
            2.4257603636142564,
            -2.2563064185697677,
            1.2480657480569508,
            0.6196685030816712,
            1.4467643852840608,
            -3.4016781970008454,
            3.545788909088896,
            0.45448162894017097,
            -0.48899032260449826,
            0.27681889324060016,
            -0.8036720850362908,
            -2.26910697547873,
            -1.0269921075892778,
            2.5223187300040553,
            2.4471994099073187,
            1.2729684747969738,
            1.4774929603784082,
            2.252737958570364,
            -7.047777376495739,
            4.279886838675711,
            -4.698082565222574,
            -0.2748031223123878,
            -1.6698057518599758,
            -2.8801096146387652,
            -2.368268237835067,
            -2.3490399611919006,
            1.5980394944207903,
            -0.696069487262834,
            -2.2028294077441606,
            5.869471642081661,
            0.40580765919877104,
            2.2613964378405202,
            -2.4332507000221164,
            -0.21411424762523706
          ],
          [
            1.9790371785326706,
            1.4346503999979274,
            -0.45774760722938324,
            -0.36966066041759066,
            0.7416772865374651,
            -0.5164231789910575,
            1.4665503327396157,
            1.3477906813144387,
            -1.5711769824706265,
            2.5348566324410444,
            2.063955377151483,
            0.5818638821982623,
            1.0049753245251332,
            0.544904310634043,
            2.5048078319335247,
            1.746118483503748,
            -3.132061565112541,
            0.04264464213031416,
            1.8957967273543386,
            -0.6562556346368114,
            -4.1622230115017915,
            -0.2993564993305074,
            2.1842623576093576,
            1.1068854163254374,
            -1.0255813766689847,
            -3.758033173388071,
            -1.028403277260923,
            0.5787871654908664,
            1.0511570207484966,
            5.029718150459046,
            -1.634770936238944,
            -1.5909487663453707,
            -0.6370212535163835,
            2.0639211457906517,
            -0.8050216024636319,
            1.6865643050837753,
            2.5281916814782877,
            0.6331367076069486,
            -0.8047875440516132,
            1.5832397476300009,
            0.5983985025809249,
            1.955001966917657,
            -0.09452584972944822,
            -0.43953981063172587,
            0.0898516921065359,
            -2.182290943849398,
            -0.7277655236493075,
            -2.36637220930144,
            2.7909871534410042,
            2.241475591560548,
            0.28563671323199513,
            -3.968102006678806,
            -0.8074525707428992,
            -3.3345324957032494,
            -2.7306760903960057,
            -0.8919434278050521,
            -1.0785920484018128,
            2.105370558571476,
            -0.6707704337464543,
            -0.9839483028063057,
            -1.6768467262863977,
            -2.0117157421721488,
            -1.8261683467210323,
            0.5378521330068798,
            -1.5330130470263317,
            0.9905303373070397,
            -2.132411907816,
            0.8426113224693055
          ],
          [
            2.6758697157257263,
            -4.214041750625017,
            2.844937893769457,
            -0.19376762024834093,
            -2.013229449693676,
            0.9290929678962163,
            0.08616782660239067,
            -0.3035653378514003,
            0.27075304668732747,
            2.694843259782878,
            -0.2977287593822357,
            -2.5939030793753806,
            0.874260066437928,
            4.018806320647271,
            0.9020073919932827,
            1.6823476068918444,
            -2.176854079648333,
            0.9731145981745147,
            -0.4092867994478665,
            -2.7953706842774153,
            -1.6473836455827113,
            3.887878495764191,
            2.4856066952060614,
            1.6292719827927193,
            0.2827849125570808,
            2.621515473093935,
            0.9219476812049713,
            -1.0266804143898165,
            2.6691406902498382,
            2.007320813307667,
            -0.015785055314923677,
            -1.880515003513589,
            -4.451173216072219,
            -2.1510395886653146,
            -1.1437490456052204,
            -0.41789264606512266,
            0.21907014274893832,
            -0.01875854974728063,
            -5.313156023712658,
            0.10232077637495032,
            0.3957252431935139,
            -0.25183900822752137,
            -2.178375915951928,
            -1.0060440242500377,
            -1.9163345512303533,
            1.0242485493859521,
            -2.261305147982498,
            1.6620808466328223,
            -6.081738893556108,
            -1.9659146915320769,
            -2.6173733158573933,
            -1.1596022031143132,
            1.538007939020385,
            3.7701911050675108,
            -0.06994219192920398,
            1.9960564780619015,
            -1.6499160203801333,
            2.39110991441083,
            2.1032231194919286,
            0.31035284049879336,
            -2.2834275447681787,
            -1.2492446385622897,
            0.5678041355571883,
            -0.5422477492322916,
            -0.1928159690049711,
            -0.6867698535395577,
            2.9055983054715435,
            -1.7006826906011325
          ],
          [
            1.4127919495013823,
            -0.43668283064300306,
            -2.7029249989876143,
            -0.5248421826081544,
            3.356997307201661,
            1.2719975510247798,
            -0.09909421430893595,
            -3.689305698779766,
            1.1417913499353765,
            0.7707924061354707,
            -3.4503654456208714,
            -0.3961469484478712,
            -2.098215762606165,
            -1.4294193151278052,
            1.280520496731046,
            -0.5466906009070792,
            2.1150328756018713,
            1.0543462547554672,
            -0.5727579681502428,
            1.3785024050276926,
            1.183216161478026,
            0.17392118156000208,
            -3.32140806535791,
            0.7188943885620696,
            0.2749151669861543,
            -0.2296137813738203,
            -2.1761395908733743,
            -1.0455002809732317,
            -2.2203588076198293,
            -1.6473447984845906,
            0.5968860767817135,
            -1.369370061916916,
            -1.1262524337512068,
            4.093365227736805,
            1.7139030422365857,
            -1.48868616734756,
            -0.17248532270681732,
            -0.7483147096775009,
            -4.486312327913019,
            4.965696661393999,
            3.084873745453915,
            -1.9030305548512492,
            0.08050213759393238,
            0.73785202083554,
            3.2338419098291835,
            1.781739334081024,
            -1.42741496942793,
            5.034160351911398,
            0.8729589678202612,
            -0.008120826696448813,
            -0.13996580421395297,
            -2.4379653008228193,
            -4.1069962218015,
            -1.169214045951631,
            -3.194467998717393,
            1.8346472312767634,
            -1.7357852118045847,
            2.0847450325487538,
            4.092156592468145,
            0.6871848048332084,
            -0.6053001823824593,
            2.1678264206935474,
            1.4686705629869632,
            1.2837842103261932,
            -0.8475373221630303,
            -3.71859444458437,
            -2.731713399142882,
            -3.158767224522711
          ],
          [
            2.068350121737797,
            2.2427163294071915,
            -3.4133980693759,
            1.450293413157315,
            -0.28466340995060285,
            -1.203664627499378,
            -2.9663634514640336,
            3.8123598396135354,
            -1.3644614448680705,
            -1.474350988445577,
            3.955410831233108,
            2.884386983991707,
            -2.347305335873818,
            -2.810157147744102,
            -1.3292220890345692,
            5.521057635602755,
            0.10442167582365847,
            -0.9328739680241125,
            -3.2321436324851787,
            0.2795871753884708,
            -0.810764251037186,
            -2.8463980234921475,
            -0.321389363070084,
            -0.9463441352882807,
            0.4931911908153571,
            -0.12864043208384848,
            -2.301168766398181,
            0.6141901418078448,
            0.2399839424675818,
            -0.9508664072611489,
            2.463680728789144,
            1.1268983841787052,
            0.3990704393476834,
            1.7870018761264677,
            -1.4518160498828903,
            -0.9314663927392952,
            0.6904289393191588,
            1.6689859547343449,
            -1.0922214451586818,
            -0.3301652217043084,
            2.1863034949977513,
            -5.901890841484468,
            -0.40093469987032915,
            0.13523374971191027,
            0.8789926336385443,
            -2.703073622897757,
            -0.3742274623005054,
            2.982770079428324,
            1.764124893400516,
            3.465810140586738,
            2.6542622429117086,
            -5.092681408593268,
            -0.05199074319885069,
            1.9308584016759676,
            -0.03595933794271161,
            0.15963361574896195,
            -1.436972937106973,
            -2.4151140624385383,
            0.4491448074739918,
            -1.0443736126851535,
            -2.0357466805347304,
            1.9692157595914899,
            -3.866486601678125,
            0.7468895880675416,
            -2.5098791686720663,
            1.5798147287111335,
            0.7120072171865681,
            -0.16520372333669214
          ],
          [
            2.162461625550111,
            -1.0170520663314278,
            4.649957176840801,
            0.6432202085426545,
            -2.893162920173298,
            0.026830290723746958,
            2.8996522866768912,
            -1.6876159803948758,
            -1.913414326852498,
            -2.6121929761091485,
            2.11360596412226,
            -1.2876261492650947,
            1.3006899028210461,
            -3.7534574466359167,
            1.8559347667124397,
            2.3130377179990593,
            -2.2200461351106213,
            -3.1108734419640194,
            -1.5251202964410568,
            2.922247701852037,
            -1.1196533017439616,
            2.3514382130294478,
            -1.0474362277149252,
            -2.55978555347941,
            1.003898776797032,
            -1.0722144461333663,
            0.055895671328517665,
            0.11090054381721293,
            4.154107599716181,
            1.2821945065623377,
            4.794368880374009,
            -0.3479722436087666,
            0.9173035385386696,
            -3.4070292737144245,
            -1.9519817868454419,
            -2.8925413237183455,
            1.877825281370249,
            0.5762464439906598,
            -1.0908314652305913,
            -1.1253289286273964,
            2.5205910819727877,
            -1.0563941903562193,
            1.777839978791846,
            0.30025035386429766,
            -3.8338621639748522,
            2.9025709713655585,
            5.263285841160505,
            -1.3207346221086467,
            0.23756679427263128,
            -4.136470849098252,
            -0.6611024579710587,
            3.0722261232478627,
            3.0293651725243684,
            3.4342798930777105,
            1.5881285451691491,
            0.11361561905925951,
            1.9605593528823155,
            -4.63051076042173,
            -3.4950767404867484,
            -0.3581959442750828,
            2.1754252453072316,
            0.6648323511488232,
            -5.001904865903177,
            2.0144517708508127,
            -1.9995437621242185,
            3.9831553607988655,
            -2.392911568397016,
            0.024077976419285108
          ],
          [
            0.147208663122733,
            2.0596929060586544,
            1.2361079739389513,
            -0.5159451222232658,
            -0.11069487952237611,
            -1.594663367690959,
            -1.3968205466629358,
            -0.3285066347995955,
            4.732717034191372,
            1.8737575444881542,
            3.9290546871938723,
            0.8209654173982234,
            0.6378380887298339,
            3.5756031723503074,
            1.220178066342831,
            4.684830144481317,
            2.1687967061656135,
            1.795862695077728,
            3.0142654894021277,
            0.9020034397384138,
            4.942497905692593,
            0.9536172345078077,
            -1.5094569527214623,
            2.215376849252943,
            2.0093690194305758,
            3.6627830090219478,
            0.350871451688736,
            4.019081607758705,
            -0.5675998786277657,
            -0.7614613652592237,
            0.5395499035736737,
            1.6082183621566504,
            -0.7315669532655221,
            0.638926193174937,
            4.031227256083727,
            0.7964068863139653,
            -0.8157354199128196,
            2.307578166114516,
            -4.096418595342896,
            -3.7774216495006327,
            1.818819715112867,
            0.9728468560075643,
            0.036674222567931056,
            4.492960072843327,
            1.6350283915094006,
            -0.5040221437147623,
            2.0992018016585314,
            2.919501028316569,
            1.359542888515393,
            0.5825729612219996,
            -3.9296172938448444,
            1.9499758948192325,
            3.4880197978086134,
            -5.563432501868372,
            -1.5087028910334035,
            1.12648548287791,
            0.9477529800921185,
            1.2488378161557296,
            0.018138651396884864,
            0.8276579526746517,
            -0.20841875189102543,
            -1.8086991273705002,
            2.2822648434135973,
            0.02783743524437665,
            -0.12655066788403596,
            -0.9120911153727016,
            -1.5097553141094684,
            2.242274168203722
          ],
          [
            -0.2730528454752919,
            -0.35869708931924943,
            -2.2657788926892,
            -1.275783517107821,
            -1.1057083494448479,
            -4.568677486435639,
            2.8312575634451678,
            -0.4466079130744093,
            -2.2700092644113323,
            -1.183346153433261,
            0.026175531049032964,
            -1.2331836694255522,
            -1.433736014959488,
            1.6715743743558817,
            -3.819132067557253,
            -0.08486330940071349,
            -3.5254652722557416,
            -3.45529273339764,
            2.9538713065321627,
            0.04609400121071194,
            -0.5636586494217771,
            -0.803058624225432,
            1.2956534348929682,
            1.6665445503093232,
            0.07400541724829651,
            -0.5933626888069469,
            1.9934631577771964,
            4.49262926543651,
            -3.1025513471510044,
            2.9228833644911374,
            0.619283460901382,
            3.602961682742033,
            -1.3518163808317467,
            -1.220384473384323,
            0.18407515562499946,
            -0.47268581008970434,
            1.1098717819548847,
            4.970434682982671,
            4.605123572112315,
            -4.997350183708943,
            1.2523563576055308,
            1.258086482096424,
            -2.364864658805295,
            2.9717353670107136,
            -0.0016229350556767053,
            5.034684859293919,
            1.4644629812188676,
            -1.7120640372260312,
            2.1635526969994148,
            0.8101844329306966,
            4.940503743550307,
            -2.0973529874868104,
            -3.6747937267030895,
            1.2247880080225941,
            -0.5254165076597186,
            0.22619446429573076,
            0.38088101948118047,
            -0.06072535487501854,
            3.601516024404476,
            -0.6225476271962567,
            4.237697449002236,
            1.0760742743507283,
            -1.4715732737775205,
            1.9324196375006633,
            1.3370427734545967,
            0.08401291710940381,
            -2.6453137159597246,
            -0.6188232399583792
          ],
          [
            -2.816300574149209,
            2.555857612558911,
            -1.7120972089579216,
            -0.6498539267877337,
            -3.372513720717492,
            0.8417905587239282,
            -0.49641236159145524,
            0.5708106709596901,
            0.5268045626980005,
            3.04613403242713,
            0.4216690959584165,
            -0.05208383529693156,
            -1.2321330304938654,
            -0.7178197751796056,
            0.6946778365542268,
            -3.2627805730954007,
            -2.75260567721964,
            0.04902477684352813,
            2.845601531663945,
            -0.413847595256262,
            -1.7541349442109897,
            -2.0149421952644633,
            2.4700335792881782,
            -1.5557255468606785,
            -1.733389423993168,
            -1.3299949004055795,
            -2.498710520908035,
            0.7414900490672192,
            0.7962559890890504,
            2.29067905501071,
            1.1654845072941658,
            0.059258132588877466,
            -1.8399007064361237,
            -2.445705787178921,
            3.11835092132543,
            1.4346876464566474,
            1.306767906311358,
            0.2662637543516999,
            -2.2296333560920334,
            1.192914192477778,
            -2.2113250922758483,
            0.7667853855335511,
            -0.7570228408182877,
            -3.8693511138719416,
            -0.10626187392070319,
            -1.796441232113317,
            -2.225539597398921,
            0.6329487586492507,
            -4.982657222295517,
            0.2678728950390342,
            0.728240964368563,
            3.7006849013607184,
            6.043615684613831,
            -1.212618977290596,
            0.16281198351769688,
            -0.18499073843452343,
            1.1044554235425073,
            -1.767110932876225,
            -0.6988462607225367,
            -1.1127559798849402,
            0.5134482739561164,
            -1.0870189996156674,
            0.9586051921100206,
            3.680026960255018,
            -1.6149641515518018,
            -1.3927040515315394,
            -1.3892490309948533,
            0.7191613766982109
          ],
          [
            3.782984809892572,
            -2.7724431977224615,
            0.3385829406124151,
            -2.1903294770308595,
            -1.2594862127695743,
            2.8956287523290776,
            -2.185774898354021,
            -2.2319272434545776,
            0.00891018635383295,
            -2.0062246679122224,
            -3.136598863521525,
            -3.208320370431465,
            0.15030531326999752,
            0.5385659321521867,
            2.1370593220961274,
            -0.28185082426100383,
            1.0814369953367056,
            1.4153869273727504,
            -3.6219065565660085,
            -3.028998774119305,
            -6.200768785962162,
            -1.4635984864155465,
            -0.14076587204111052,
            3.0679575780929405,
            -2.0129577836786887,
            -0.24783002266625972,
            -2.2996543106679965,
            -0.880072053681033,
            -1.9975652176862757,
            2.2977829780537875,
            -0.1353115510976786,
            0.7992382826804924,
            -0.4610607877691616,
            -1.6274182980983547,
            -0.05548597736673021,
            2.5035632323491086,
            1.688708089185389,
            1.013036803246447,
            5.076532614919671,
            -0.8231899274820251,
            -2.6977827593126724,
            1.6364181961509685,
            -0.3430641408108224,
            -2.724899562488847,
            0.3002435158023751,
            -1.7036598027314078,
            0.5386744806460733,
            0.9810155513557236,
            -2.511550584140239,
            -2.2520636995223953,
            2.1988579706023135,
            0.1831603578287565,
            2.5133819111239446,
            -0.798485987113243,
            3.502979522542036,
            -2.937895485075346,
            3.8653413502932144,
            -1.809041744796629,
            -2.1186622394518944,
            0.46367043920785067,
            -0.46162903215851986,
            -1.2976720066984972,
            1.2586772997200326,
            -1.14496328517696,
            -0.7243823749414666,
            0.8236371583778785,
            4.332154470407687,
            0.9843631396473185
          ],
          [
            -1.3049108668357334,
            0.9503180104799903,
            -0.16001475999666145,
            1.3999700650429276,
            -0.9210884012431024,
            0.9445680600491421,
            3.849757235949224,
            -3.9779515541799473,
            -3.887262076120486,
            -1.1657199955942836,
            -0.06908229684804668,
            -1.2414894247742967,
            -2.8092266697331087,
            -2.149425470699544,
            3.9216473961043827,
            -0.0013100304120436113,
            0.6257753976252163,
            0.4263638864472478,
            -0.2655315369024502,
            3.081710384615108,
            2.5444719707299166,
            0.46152778470217815,
            -0.9419019024120477,
            1.1738923657039286,
            -4.593256954301743,
            -2.9630171716482545,
            1.4601723720117858,
            0.4841930675203274,
            4.882993201162626,
            0.9108538699916799,
            -1.090268746506378,
            -0.13916448577361648,
            -1.532625562202169,
            -3.087332746389657,
            1.1551267476351124,
            0.7798951818871322,
            -3.0606238312408602,
            0.8377286700637581,
            0.6396244698031828,
            -2.156161714996134,
            1.5862576011094869,
            0.31425963281444635,
            0.48118098028114065,
            -2.0910988195985323,
            -0.9345361427553669,
            -3.6858055146555984,
            2.103047943484445,
            -2.089310196735811,
            -2.4798773202552504,
            0.11142160041382096,
            3.3341572542227875,
            0.239877170323988,
            -0.3345399545874218,
            -1.4586223211207006,
            1.6188797132762442,
            -2.4409152597036825,
            3.213090165254604,
            1.6123189482698048,
            2.0751259939158877,
            4.422359163881397,
            -2.728083138736015,
            -1.3147822426965543,
            0.21585085719017358,
            -0.2645255082912658,
            3.990862740660958,
            -1.4479427994294285,
            2.175005143100626,
            -3.7177710428241335
          ],
          [
            3.2306487393825143,
            -1.2379714618193025,
            -2.970696776694132,
            1.3544185861891336,
            0.9724946866273672,
            0.1824237457920364,
            -2.4709292563532794,
            -0.871589928936263,
            3.456125095073875,
            3.2668902130746305,
            -0.8153621662100285,
            -1.4974573859874967,
            3.661505398206053,
            -0.4279533551919905,
            2.0841413574122916,
            2.6435164486393266,
            -2.0976639949454996,
            -3.312995871301411,
            -0.16653529595346733,
            -3.575739305047608,
            2.518619256290301,
            2.667817872904879,
            0.851795720906741,
            -3.111045663874722,
            0.5277288339217059,
            1.239800968355695,
            -1.023486356084537,
            -1.854427264815562,
            -0.2033120096777827,
            1.0983838942021091,
            -0.2921992632227224,
            0.2247183394284354,
            -3.1850977931761117,
            -2.15756850784159,
            4.996119024586647,
            1.6501583396069281,
            -0.08721158328730927,
            -1.0670828456371275,
            -0.2250748118422355,
            0.3231435227453614,
            -0.043831498393694324,
            2.347182369506221,
            0.9641638259306161,
            0.6970228257687145,
            0.8197294636292927,
            1.6596294404802636,
            1.4453325602566625,
            -4.4226587875434165,
            -3.54461460945409,
            0.7335069517272625,
            -2.4898634943907827,
            -0.5294479767611702,
            2.5779206340855607,
            2.602597929841072,
            -0.409770703998967,
            -0.2803971959123801,
            2.657905997958569,
            4.990109411775782,
            2.732641367225394,
            -0.4371195247984026,
            -0.10496010334239479,
            -2.5662794928661454,
            -1.1295115427493527,
            1.2314582141625283,
            -0.3312244547806489,
            1.8416583396958424,
            0.29743955538451294,
            -4.289247148407709
          ],
          [
            -1.3910070922221525,
            2.8122030087985483,
            -2.196606072826223,
            2.424869864146057,
            1.4616887577849291,
            3.3930856886161567,
            -0.6201256877117208,
            2.86437575963656,
            0.011976649956513097,
            -1.80395188431571,
            -3.8110067781133323,
            -0.33432201573365505,
            2.755236531909806,
            1.4574862826404102,
            -0.3847581706902079,
            0.1543632117017572,
            0.8113864424319965,
            0.4733061049799342,
            -1.8595379356920003,
            -0.6269385775041588,
            -3.0818750611125143,
            0.6973387092724729,
            -3.030445737643599,
            -4.245659778995322,
            -0.37646574892828477,
            1.4127872867765614,
            0.40922807311970777,
            -0.9573745472923967,
            2.0216242145665593,
            -3.9991011517948816,
            -2.9336080948002876,
            4.8246853805185035,
            3.502540291219061,
            0.09556758800373488,
            -0.28515469940759425,
            1.557367190800345,
            0.8162323292093345,
            -0.0858255678279306,
            -0.505509071913685,
            0.5394781383755411,
            2.574191415048532,
            -0.09998608298627636,
            1.2396098910769713,
            -1.455375461405775,
            -3.218374134807273,
            3.460800379147071,
            -1.2722772319016817,
            1.4874722648664545,
            -1.0985978816309139,
            -0.7483884792108824,
            -1.0724206561253864,
            -1.6139870397918974,
            2.834450975917533,
            -2.388418388217741,
            -2.8958756873328175,
            -0.2349909116422201,
            -1.986434940077119,
            2.370788851772965,
            5.538025043004186,
            0.28945305981534314,
            -2.410048980678685,
            -2.196176113226704,
            -0.20673330800268352,
            1.7294642045230357,
            -1.3769172188192167,
            -0.9874882273247544,
            0.1875075286999428,
            0.7620326379050859
          ],
          [
            4.144436490610568,
            1.001745274062532,
            0.31757717135871155,
            -2.511856822118341,
            -0.13459889194503377,
            0.7807893354217326,
            -0.1901616678698944,
            -0.6072518241568039,
            -1.3820770324805212,
            -1.6016540623281943,
            -0.1658438936943169,
            -1.6827059001197648,
            3.2526184502437565,
            -0.3688947306930593,
            1.9932610410889717,
            -2.5795706173417288,
            1.1615584385601525,
            -0.08919265582452024,
            2.2875090336831763,
            0.2514028493828145,
            2.5659778093483956,
            0.7742069240155885,
            -1.9958282323255538,
            4.550249282897616,
            1.0024960692449756,
            1.921912661432961,
            -1.2765765862811493,
            -0.6761808709327326,
            -0.02871721341994704,
            -0.34775595091003475,
            0.9484670336458171,
            -1.9501220318098587,
            0.27974797602857415,
            0.382777325089513,
            -1.6856809157325197,
            -1.8393077871127055,
            -1.6081822506690453,
            4.236123013355622,
            -1.2649511061278713,
            1.662960320648946,
            -0.8013070255365826,
            2.088483507785587,
            0.1639441477620881,
            2.4855250711639036,
            0.6791690014587419,
            -0.920578362932652,
            -2.1531930702738715,
            2.6028220555363006,
            2.994989320739802,
            0.8032744675653967,
            3.797434885566778,
            1.1704071660147073,
            2.216836751103335,
            1.684991693980915,
            -4.554764173695115,
            2.58913585269271,
            -0.6172434862773848,
            1.9900095681835734,
            -1.0184712238124891,
            2.6600784215982687,
            0.6572238559293024,
            1.6776077245195242,
            3.8389672931943104,
            -2.88260286032339,
            -1.1208092510270085,
            1.4797058821342632,
            -1.8982942364659814,
            -2.2170766714806645
          ],
          [
            0.7429992142798958,
            0.9422210427224972,
            0.23747318405482157,
            1.7684708860021559,
            0.7472824951155275,
            0.7181397360434434,
            1.0068359373438762,
            -3.5204370579325617,
            -0.1989316802963373,
            -2.8266647016757354,
            -5.140499377488455,
            -1.9416988161994957,
            0.737697838225895,
            -0.6599890583875797,
            2.404924638148844,
            2.3383379530767825,
            -1.2326209257692324,
            5.348590684432445,
            -0.2508341102166482,
            0.2986360793936956,
            1.4768514024416028,
            1.393732931473719,
            0.2013353048356725,
            -2.331580737356891,
            -0.8000075068718766,
            -1.3269192547938218,
            -1.8937644497921842,
            -1.4671194890731623,
            2.352012999432055,
            -1.2446597018704197,
            0.5134477960812808,
            -1.7606454492836885,
            1.7075286119149355,
            -3.353890509065635,
            -0.49262850920703977,
            2.961361120384181,
            -0.41346417362673193,
            3.14691973789153,
            -1.2978400394044767,
            -2.331081807814723,
            1.2332169853465222,
            -1.6600410413067732,
            -3.335000138911993,
            -4.267289541908993,
            1.9408425861513532,
            1.148120148262682,
            1.1334439784066501,
            -0.4888674382260677,
            1.224428293548348,
            -0.9212068255912423,
            4.2975794089088355,
            3.3507363276923168,
            0.801870899221116,
            1.5351634925589,
            1.8501141569764363,
            0.8154174658295461,
            1.6465673480392256,
            0.6364026932919047,
            -2.2601878734542997,
            2.9430063064883054,
            -1.29011098366083,
            -2.2781004820115296,
            -1.3156568336412138,
