{
  "network": {
    "layers": [
      {
        "weights": [
          [
            -1.9312927221586,
            -3.2201665813568927,
            -6.9702289321662905,
            -2.389298558618017,
            -1.9365330767980184,
            -1.8965483072776714,
            -3.3755539873225784,
            -2.32307679065974,
            2.3672317399405567,
            0.7987913028261505,
            -0.9865123266444652,
            -2.028750629660727,
            -2.3379023329366695,
            2.0378761467309205,
            -4.147275242742965,
            6.093616796402083,
            -0.8846396763671733,
            0.9051697345858019,
            -3.8912213612921898,
            -0.7554670621176203,
            1.1895786139347395,
            3.9069312464313235,
            -0.11394073488416279,
            2.419946444154028,
            -2.4723733205905263,
            2.1761319368381793,
            7.584480812342837,
            -5.627479357439274,
            0.5830692380250373,
            -6.932770874290773,
            -5.318076451581812,
            1.9674715919997052,
            0.3805192401781829,
            -5.996046064415985,
            0.5099846984938337,
            4.26314878006404,
            -0.7615535392033297,
            4.076204676346177,
            3.16383009837595,
            -0.08202300255596184,
            3.638328534934782,
            -4.794757837143516,
            -3.022947944826707,
            -5.835785047262941,
            -0.5506257010221955,
            2.71947240224571,
            -7.631356012223773,
            -3.499286717903644,
            0.3482506902455964,
            5.246554872711028,
            -7.72810728138982,
            0.7299463882479885,
            6.669911810226895,
            3.968800996652449,
            1.495474652232031,
            2.33090821951002,
            -0.6826231692423588,
            2.4683579872763177,
            3.5379318188813493,
            -2.43802062099836,
            5.861981189947656,
            5.204884625057995,
            -7.718003009889452,
            -1.867666215312615,
            -3.2444307174337106,
            -9.51232693220962,
            -2.804199318317744,
            3.3145429744995103
          ],
          [
            -4.357540016225898,
            0.15450657184103206,
            3.6421505277898025,
            -4.10827940293021,
            -6.468811843299049,
            2.363584190231199,
            5.56523033368895,
            -2.8404443263424644,
            -2.264678484819413,
            7.371647102082085,
            4.673028948923006,
            5.6679406125759355,
            -1.6410780264647626,
            -6.4567539567816405,
            -3.1088708453700415,
            -4.784006805338278,
            2.8109906464391643,
            0.07385241088316558,
            3.1797855518281035,
            -2.8089383560443633,
            0.3499564740403397,
            -2.2079449645643483,
            1.7185127896894368,
            -0.19000838352769706,
            4.084336072823564,
            6.939060340356269,
            1.0059464144470587,
            0.47326231177787303,
            -7.795817450178711,
            -0.43206126602285055,
            -3.1391857929284828,
            -5.937969060705155,
            4.391084330269172,
            -2.5026389992826905,
            5.457830945571772,
            -4.971277023835186,
            -6.544373585946428,
            2.0646552106120035,
            2.8699259612940575,
            1.4445421298403043,
            -0.5867443080039187,
            3.512078543780927,
            -6.162652522644582,
            -7.493642722162938,
            -6.1275591983995,
            -3.039687836484794,
            5.981505587648059,
            -0.13939715886382786,
            2.4755777679742357,
            -1.4936175386204387,
            0.8679811700553363,
            3.891706359037607,
            -3.648368043746619,
            1.3357077019785901,
            1.891961847778517,
            2.4734055988694257,
            4.54557356275656,
            -0.9316607101275846,
            -0.626585149908437,
            -7.59339841288665,
            5.033725545947393,
            -0.7735579040958601,
            -1.4967784997039069,
            6.528908707112853,
            -6.991539795943126,
            5.27900000122094,
            -3.0130364725428884,
            -6.444428400984147
          ],
          [
            0.320182226561024,
            7.320248120984753,
            2.172314700590174,
            -5.055537955684314,
            -5.4661396938882305,
            0.17200975453469036,
            -1.3284857500627214,
            -3.6527814175573186,
            -7.751686354915188,
            2.942797987194282,
            0.27319249997146444,
            1.6577264256666953,
            -0.7155591834180071,
            1.278620169958554,
            -4.513348100111129,
            1.116066566967735,
            3.447418780036063,
            -0.9918789487126184,
            2.244818672635067,
            -2.4710776716958116,
            4.700675713659613,
            -3.1613636293667087,
            -3.2066850483232523,
            -5.86824148214853,
            -7.890337318573906,
            0.660801205258229,
            -5.700418386238991,
            2.5919172186125796,
            -1.0016880324822208,
            -4.584533801361047,
            -7.8439590493282845,
            2.1355484929219495,
            -5.82938105702862,
            -6.0122728997941755,
            8.835222285647381,
            -7.202195943439179,
            -1.355291320323783,
            4.565665427940983,
            1.0609307037147957,
            -0.0015606825575928407,
            -8.02964835598329,
            -0.8570002608666394,
            5.411163395590164,
            3.59288204617011,
            -7.404473664265602,
            1.0447114216452846,
            7.98010125861215,
            8.735847946776824,
            -5.077381428273412,
            -4.551966291703774,
            0.5505633516873539,
            -1.8205941995581578,
            -3.5529226182226865,
            3.2664460376987376,
            4.144918743780784,
            2.3243783140101217,
            -3.568726373320101,
            6.002683307524169,
            -7.4391323626312635,
            4.622177150754091,
            2.98714677621252,
            0.1793450106727676,
            -2.709667240260922,
            -2.425571286795521,
            0.9719111490050603,
            -0.745450963695012,
            4.68214161330079,
            2.4407419960349035
          ],
          [
            4.645783811463327,
            0.3880685147103409,
            -2.6010286709852335,
            -5.210014767474663,
            6.320899022106585,
            8.156375271303741,
            2.208099633211094,
            -4.675824452181645,
            8.278766119998338,
            4.410442059889619,
            -1.7913155728821102,
            1.6913683851467654,
            -6.120863244151148,
            3.776756304844525,
            0.503393042884901,
            2.381287604277481,
            -9.916248363649512,
            -8.027711234506013,
            -1.6569199781918396,
            2.5066208217775707,
            8.489913611471142,
            -2.8841238697147022,
            -1.0275906747137444,
            3.9410208564338562,
            -5.573358840266593,
            -8.018755329831654,
            -6.418896235314689,
            -4.235238768547209,
            -2.9548944700730386,
            -4.4098317028250005,
            12.182537454432973,
            -3.304382364179956,
            -2.334394140781549,
            6.329430091392956,
            -7.935953941082812,
            -0.8376723364383853,
            4.50314961569668,
            3.576149934726778,
            7.8652532145248335,
            10.15625196138084,
            -3.6002795114853994,
            2.782261815867952,
            8.898485695436069,
            2.3483255433319528,
            -3.324970103596071,
            -6.135531216231779,
            -4.690060937657641,
            -0.13017737203051305,
            -1.2130361630391056,
            0.026432326802647094,
            1.2462185514402748,
            0.04802555045575441,
            -5.053831061016611,
            -4.02929305217562,
            0.7635737717413476,
            3.0532560198896683,
            -14.889812216856646,
            3.276849124759641,
            -1.3419331855600984,
            -3.8124277297711684,
            1.190987723919096,
            -5.618764082249229,
            -2.0928269631592893,
            -1.6891775544140217,
            3.3499436814133086,
            1.6591998411716564,
            -2.3620471646008987,
            3.939275173221297
          ],
          [
            -0.10888300616666766,
            -1.831294022779611,
            -3.9391306309851433,
            7.007165702960054,
            -4.9900918698860295,
            6.444039940579823,
            -1.105417844393982,
            -1.044053752132038,
            1.2938445747379135,
            2.7496131782272095,
            2.1734658842180847,
            -3.4639710582613117,
            0.1222097155271395,
            -3.484987945773225,
            1.5744287341670298,
            2.0285404875997677,
            -0.6356567111259821,
            4.691111963635381,
            9.870629510773647,
            4.881074659747226,
            -3.607901587399098,
            6.699398704170578,
            -5.2215492165864665,
            4.160267189186806,
            -9.08020483339463,
            -4.772792451485924,
            -1.3286143195520888,
            -2.443502433315175,
            -7.310730626239601,
            -0.47052450440163107,
            -4.18573705444797,
            3.5586297283143282,
            1.9899065258324136,
            5.591927591479222,
            8.196307640571728,
            2.26161059156834,
            3.933397332301907,
            -3.7939042793747326,
            3.0192934170691257,
            -7.909524813815415,
            8.02055935461247,
            1.371332176481256,
            1.266572095101973,
            -5.523726675197775,
            -6.009740918308241,
            -1.393938396631108,
            2.110678471426372,
            -11.857098019546742,
            -2.0406889143227316,
            -0.7602530688824336,
            8.791994041900073,
            -3.2505604640880743,
            5.675974593914491,
            7.335630452800891,
            3.0380024047907632,
            4.904059577894903,
            5.521450163291991,
            -0.2752109100584119,
            -8.441192803957966,
            0.6324169525864237,
            -2.3913898834483387,
            3.298328650749799,
            2.156338645307423,
            -1.5356314255762833,
            -1.7341376273832436,
            -1.5177264368933483,
            -3.3943528620270422,
            3.7119820990048016
          ],
          [
            4.938820605518517,
            -3.069506459819658,
            3.1645613232707213,
            0.2280289421153559,
            4.019657111624556,
            0.5273670263286816,
            -2.94101415662386,
            -0.8128756337100416,
            -1.597010676086886,
            5.4857411879464,
            3.623115726021851,
            -0.8938888262567023,
            3.3569373256112125,
            -6.163590515778375,
            -0.41512484411498074,
            3.700917423073333,
            1.9467488276356624,
            5.194237355767192,
            -1.1416511704564336,
            -6.247962510109472,
            0.6249254323367223,
            -4.796690574925929,
            1.5693378829184015,
            -5.912092302235914,
            -1.6427806781408572,
            -0.2672659793523025,
            -4.198167835400366,
            5.697240949581062,
            6.325278153235037,
            -0.9608264492071085,
            0.5917351943304439,
            -2.7959727041994475,
            -0.8194199316640514,
            11.557960204975288,
            -3.6576113143982694,
            -13.432926772664317,
            -9.682074018886954,
            -6.647811524721184,
            6.381947758735518,
            4.978627854299431,
            0.19874213710399136,
            -2.596076098439709,
            -0.13495521212726885,
            -1.0654305065340879,
            -7.489923472921311,
            2.881273062578267,
            -2.596884391278186,
            -5.283955007679903,
            3.8453136101699186,
            2.2742136989884645,
            5.9398608517366105,
            2.641092520786472,
            -2.528101303938286,
            -4.255219643780837,
            -1.251801847206394,
            2.073623829398073,
            -2.609087681421745,
            3.4855347845675775,
            -5.960678107701667,
            1.8936921160864562,
            -2.1517968339083975,
            1.796707163228795,
            -6.5954747536311285,
            -6.274274785251454,
            -2.8814991020780067,
            -2.5262100365218942,
            -7.300085162959496,
            8.59281904624757
          ],
          [
            3.662881492998728,
            2.7974403720289103,
            -2.3795558656053477,
            -2.8193129290599424,
            -2.6915768857864197,
            0.6059866268735564,
            2.763128668536214,
            -8.376905765234072,
            -4.161043292261369,
            -1.3534864224176335,
            -4.589836755029285,
            -4.10757781908329,
            6.235995311295176,
            -3.2675244947967257,
            2.019695845754084,
            -6.8193408033598,
            0.5307091972528305,
            -0.46633175322780374,
            -1.431173096761293,
            -2.5228968247998527,
            6.9757139911369865,
            0.0035753317154342545,
            -5.888539005730481,
            10.379933158479028,
            -2.45311518015351,
            -9.445301047644389,
            2.520817091893813,
            1.1967114801498147,
            1.4778872972416128,
            -0.8234996900403795,
            1.009874778674362,
            3.732422510362175,
            -4.138738425249461,
            -3.1188824931787247,
            -2.2520334290125064,
            5.084799555588183,
            -10.652573306061983,
            -1.1756051256649314,
            1.250474069808989,
            -3.5963120087268985,
            5.735878001007121,
            2.910636755840701,
            -2.586249086333382,
            0.3593510784445961,
            4.279012588086162,
            -2.1533045514929308,
            1.3606601082745833,
            4.62572247101221,
            2.933771903277927,
            4.820627691781452,
            -4.320062965350914,
            7.052541435620315,
            -4.112853439188615,
            3.5888516202132346,
            -6.061087744349228,
            -4.515963914267136,
            -3.0479143045204373,
            3.2261620897080503,
            1.1291761520632835,
            -0.2278691885097846,
            -2.0543127789360605,
            -1.6886873342127573,
            4.790854441182776,
            0.12141624567349574,
            6.33367223110144,
            -1.7679222599865074,
            1.489710376290745,
            0.6359099165907102
          ],
          [
            -3.1162556800652785,
            1.6444189898212167,
            10.503374079013243,
            -0.7422101435595871,
            2.0892856528200476,
            -6.9480514763692085,
            0.15828670351290497,
            2.9898347560781127,
            -0.15168869463273502,
            -1.3379222913281597,
            0.08703599999730766,
            -1.1250518820394027,
            -0.004320770616002473,
            -1.409001308404588,
            0.24265816586969494,
            5.111155590212956,
            3.407773141343207,
            0.43378135085975605,
            -1.3990350173554156,
            2.103753283750066,
            -0.3707331166101419,
            -1.9281318278578474,
            6.665127291749035,
            4.001613092120867,
            -4.4462785811976735,
            3.555884566048359,
            0.7750839697090354,
            2.772838857780554,
            3.3988267114637027,
            2.4824250888876414,
            -3.434762038903245,
            5.583185570800609,
            0.5187980031746926,
            -0.23222251532101842,
            -4.821708370490387,
            -2.1346634308058565,
            -4.511523192560835,
            3.6903385941890563,
            4.279233147265755,
            2.591463260417601,
            6.368385687792181,
            3.3910453165494534,
            -1.3588758182260818,
            4.658067424617272,
            -5.220770695640111,
            2.8907958421987026,
            -1.0848456455646933,
            3.293293895269814,
            -6.120524874119965,
            -1.735928193811159,
            1.0547580513654713,
            3.761622592735211,
            -4.010072552336693,
            9.143927151320852,
            2.252776343934306,
            -8.884462382396537,
            4.563388245520619,
            1.7163887954656372,
            -2.463311231504561,
            4.665316113444501,
            -0.7962324759342783,
            -0.5566117856763368,
            0.4926103259352326,
            5.390015031592357,
            9.394063271142057,
            -0.3938438285282201,
            -4.277986475072251,
            -1.0025673965997277
          ],
          [
            -0.9758835321213359,
            -4.882962815385028,
            -9.610857028789004,
            -3.2092258710983814,
            4.79826092883534,
            6.430369502488244,
            5.422669974243327,
            -1.5764431490572255,
            4.709695323483148,
            -2.2707261752889707,
            1.0408686359261003,
            7.797693601008615,
            -4.341284180219121,
            6.134916219750471,
            3.3173751571292875,
            -0.5856703772928504,
            -0.917977406611149,
            3.307339836475244,
            1.4596045284461676,
            -9.161031292507019,
            -2.9122786391180133,
            1.352808519090664,
            -2.6934037833462248,
            -1.3383629434062976,
            0.07223392056765843,
            -3.363962397322307,
            1.670154399793893,
            3.382303066130699,
            -6.89870109535882,
            -5.565099758684805,
            -2.026893803611685,
            0.20980112787394747,
            -10.567319265356254,
            0.11004745286481515,
            3.8495529668465416,
            -0.5809891907063921,
            5.54349903439437,
            -4.692111490249316,
            2.107114395365199,
            2.0584835390807235,
            0.7073104565261292,
            1.1519867015126375,
            -6.476078203931485,
            1.585764468543058,
            -5.237992497307666,
            -9.055243360595023,
            -1.8935507939100051,
            -4.084596191296705,
            -0.3880381556611521,
            2.28764705147382,
            0.6673174008511528,
            -4.838322710334999,
            0.0549546014164648,
            -5.198542619960364,
            1.772148094499712,
            -3.1015330594611688,
            -4.822672700248338,
            -0.9046899165089979,
            -3.588159699950689,
            3.574663781909739,
            7.760793539878951,
            1.5738029671940805,
            3.1639633178640554,
            -0.6942048853795678,
            6.722827650119874,
            4.264399993073345,
            -5.220656849148757,
            -0.8510092062114238
          ],
          [
            -5.8546332397843335,
            -0.8479850657283705,
            6.4701597572971155,
            -4.193588218868181,
            -1.6728354883312284,
            -2.4239174742107177,
            5.403498100635509,
            0.2855045458749878,
            5.013661307972525,
            -1.7515385983755851,
            0.6873298872692851,
            -2.9731056678166103,
            -0.8845975079282761,
            3.962598911544623,
            0.031392098421271164,
            -10.302717995375367,
            3.265998760783602,
            -3.1724486317457865,
            8.762190281591517,
            1.4847269282505478,
            5.228223050528637,
            -1.3119674961045356,
            -8.76539867728241,
            4.200129948605652,
            0.1986606799565067,
            -3.555589454283756,
            -6.879057253032772,
            1.599682116404105,
            9.03118413423725,
            4.556151735409195,
            -5.280046872892895,
            -3.293178932975238,
            0.34750014585303807,
            7.906433352832301,
            1.848983662405116,
            5.095269987431579,
            -8.293542084533213,
            -4.18733940826114,
            6.426600665958263,
            5.805016865419493,
            3.847310162494684,
            1.7613055403953681,
            3.0226877509463677,
            3.4028634608209716,
            2.0516262768610565,
            0.6851425536364311,
            6.424690753218649,
            4.655491311217549,
            4.492466615905763,
            5.22868424202013,
            3.048037284794306,
            -2.2028349845146393,
            -2.5379208387781333,
            0.7224506912989057,
            0.5643905406715467,
            -3.570373371866079,
            -3.6917536866963703,
            -2.808200476163015,
            1.1767603813406153,
            -0.7858726213874311,
            5.911369652985606,
            -2.249561793203129,
            -5.048463254700442,
            -1.033670475141568,
            2.67012575229752,
            -2.4894875652494513,
            -3.421500635153273,
            3.6394942927370044
          ],
          [
            -4.3848225501166995,
            -0.4505347784173419,
            3.8605504408078057,
            -10.299870370069135,
            -0.1562428285450777,
            5.427510500596935,
            -1.6183903760333718,
            -1.8770918350348853,
            6.696044686894685,
            -2.803113816446493,
            -2.8342158559989854,
            -6.1840895276342245,
            1.086822127809134,
            0.2036070074557558,
            -2.9735061690242324,
            1.4478440724541763,
            -1.8524825095028883,
            -4.978986852171088,
            3.4411723617031376,
            3.6867938228258597,
            0.4677409159411409,
            0.9330339935074485,
            0.6603015906143825,
            0.08150992901355711,
            -2.5613543387170403,
            -3.1006208396296366,
            2.2033267978741673,
            5.224612645726926,
            4.186691385844286,
            2.2527452285365066,
            -0.5169390162012272,
            -4.97293162492079,
            1.343411611064121,
            1.9105880290296122,
            -7.80828444608323,
            1.7903883570543815,
            1.2619195088285766,
            -1.787322551993673,
            3.892912057476115,
            -6.785012481845844,
            -2.612379044545376,
            -1.7650661148877689,
            4.09304397438777,
            3.4179772289583177,
            -2.175158586770479,
            9.77023293676679,
            -1.7477310589560406,
            -3.6930927697628757,
            2.258953174945174,
            2.8296774039081205,
            1.8023999040574927,
            2.5560264253745597,
            6.084878990495683,
            8.386400354076132,
            -2.553079315467647,
            2.316529810490228,
            -2.039144922659913,
            0.003690994465358907,
            -7.640447045850511,
            5.442798741028442,
            -6.941043031334216,
            -2.2636198006122523,
            -5.684713410266128,
            -3.7164986475982027,
            -3.3633367451111855,
            -3.264259857617914,
            -0.9135263723992231,
            1.5636726714892735
          ],
          [
            7.730929479613715,
            -5.974420057308703,
            -3.7709100351703264,
            3.656170262028316,
            -5.11738995266472,
            4.2700255173585075,
            3.5400361821265567,
            -4.217404219145794,
            -5.490724063212631,
            -2.2598653915194653,
            4.270352316870347,
            -0.8659386427421304,
            -0.38554900082950405,
            -2.666551965605741,
            5.09509778964269,
            0.3279474434495961,
            -1.5715331328678672,
            -3.6401527739484134,
            -6.669281414094279,
            5.5289600105974674,
            -3.729315860002308,
            0.323372691303882,
            5.043090011166498,
            0.3448944769208742,
            -0.6991224070450308,
            2.0816937940834714,
            -0.43721476550541005,
            -5.984944706909659,
            -4.553728485601574,
            3.360327544260544,
            1.496258572483491,
            2.459124660800811,
            5.452034410173507,
            -0.3746005414175497,
            -3.5396806227179605,
            -4.029641851434783,
            10.854511630149824,
            -4.206763477947351,
            -7.009094695050163,
            2.0101456145393644,
            0.6224415942061732,
            3.475135963552178,
            -7.06258349994621,
            1.8868491021014864,
            4.227435291285877,
            -1.4963110949860432,
            -0.6764024096155778,
            1.7396492312242078,
            -5.988503060391326,
            2.0264039805789915,
            4.592393258606862,
            -0.9734953306404057,
            -2.2432974902053147,
            1.8943373173281635,
            0.37149558837328067,
            -5.836012335879309,
            6.354229137072204,
            0.10319501730949115,
            2.6536808688499103,
            2.275908267604514,
            -2.7813707707250654,
            3.28252172501979,
            -6.821459727737806,
            -1.3463045077283082,
            5.021409530275426,
            -3.8427217643236866,
            2.0592354527995655,
            -0.4629321869574004
          ],
          [
            5.484634460370159,
            -7.934023398481502,
            -6.1223504630257946,
            1.8465224190827796,
            7.565456419995354,
            -1.9370642818286283,
            -0.9261596547251087,
            -0.4412263406417526,
            0.9172919525166117,
            -0.6578715854805421,
            3.0060625914840498,
            -4.55073191405272,
            -0.8152912092113547,
            -1.338994653068725,
            -0.49604073063124027,
            1.137414653831386,
            6.472233368497814,
            0.42796214975239816,
            -1.0500091177858593,
            4.352749714224182,
            -1.36933824652741,
            6.347845479219369,
            2.357206972350585,
            5.361692845360679,
            3.4493480712316913,
            -0.6828284418675853,
            2.20814960348886,
            -4.440993295399251,
            -4.439229416998762,
            -4.931461339561202,
            1.1414083583871022,
            0.03824904379514851,
            2.078325369761111,
            -0.1358018370640673,
            1.0032989190261439,
            3.529114657163215,
            -6.788267681126861,
            -2.2842431975792254,
            -0.918869103317435,
            -0.1382977318297548,
            7.060333087072986,
            -0.046884770117324226,
            0.11423007763339688,
            4.228201896154172,
            13.170004653073738,
            1.6733487516757848,
            1.0949558929136887,
            -6.409067610734991,
            3.545765144185327,
            -1.6986760533544971,
            4.850298808723466,
            -9.258602770973184,
            6.7498021116691245,
            -3.028774104843425,
            -8.28750687834428,
            -0.3700096748271856,
            1.2564925277459937,
            -6.413522044008963,
            -1.0302734863551903,
            -0.9899862266613686,
            16.155707031025404,
            2.4607913335977547,
            5.385661397101295,
            -1.4764101258297369,
            1.4465164868783218,
            5.784823511882804,
            5.5759070013583765,
            -7.706616182118484
          ],
          [
            3.6400592709646444,
            3.837851829911267,
            3.272912166717214,
            -5.577046348163569,
            4.834409040021723,
            1.7776303726447842,
            4.627662654567054,
            -3.562263759754708,
            0.8353357888993435,
            1.5210038863646829,
            2.390694265673338,
            0.45431809596200173,
            4.511042178144629,
            -4.766600114345403,
            -9.747973875905915,
            -4.987416202183517,
            5.1549183694180325,
            1.1878311755161763,
            0.6619078578655462,
            -4.573965620592163,
            0.5767943061041565,
            3.0440676967888995,
            2.9684723200879093,
            -3.993800469587602,
            -0.4165777377808901,
            5.469206897734885,
            -2.9641688030938704,
            1.2600369754132243,
            -3.6326478249551926,
            -1.8673090150995533,
            -4.087733529032012,
            -1.5344678875882292,
            0.1504752235719974,
            -3.2671075298878134,
            8.964791704328302,
            6.64739065794805,
            -7.285507637736167,
            -1.7781973470438728,
            4.198984079131594,
            -7.111107698980342,
            -2.255301906924198,
            -1.450560457408228,
            0.12790186192581993,
            4.28145054502562,
            0.5828753071370302,
            -0.7862548865902814,
            7.811516379544002,
            7.404211899849878,
            -2.039398127911993,
            3.4369214315401884,
            6.25439214210527,
            7.60374452407305,
            -2.267818046084607,
            -4.332007984248916,
            0.20613261023408447,
            0.2258415282275129,
            -2.6591524207520187,
            0.4278108559807215,
            6.583902244295063,
            -3.2956425308453734,
            -6.292734893808003,
            2.271162142003787,
            -2.1414026942054196,
            -1.0552648439646561,
            -5.920539213287838,
            -1.5845198226826351,
            -4.8747565154509775,
            -3.5460104234006553
          ],
          [
            3.152077248635684,
            -1.905682489701693,
            12.330646854733196,
            -7.279562308484368,
            5.121804003621553,
            9.444701938900668,
            -0.06466217149199587,
            3.8425050221000028,
            2.415521964593864,
            -2.0083256227935595,
            -2.0308867258513583,
            1.3465770678954758,
            1.8548080430056944,
            -1.746937658059377,
            -3.8391518275995438,
            -7.068423738162037,
            13.418545417294194,
            -2.658650270328401,
            -2.5522002925504013,
            6.581750521308677,
            2.833381503776316,
            -3.652665502278019,
            0.09156199245191285,
            -3.1564518049600108,
            -7.8497746721719635,
            -6.16901459789291,
            6.006128784104222,
            -0.18444324558456435,
            2.9361906889252127,
            0.5368078919107033,
            3.7955499210029884,
            0.6468271798695648,
            1.229624814026641,
            -2.2555624595164354,
            -3.929152379325437,
            3.5268085958634914,
            -2.258350322810808,
            -3.068445675757285,
            1.52894710728106,
            -4.418278996419132,
            3.9724401824967344,
            2.528506529911095,
            1.2372777673085145,
            4.601815353594684,
            4.963991201655903,
            -3.2733302929317545,
            -1.5411835805243537,
            1.3517328661867603,
            -9.58314938767555,
            5.58622331687898,
            2.552811914625435,
            -6.559211742079676,
            3.2156180985166882,
            2.800801674687132,
            -9.485288618901066,
            1.9509215585396065,
            -2.90301658548796,
            1.5293756260286753,
            -0.8651283076957853,
            3.944919045707539,
            -0.3821027533320741,
            -2.725459160857065,
            6.156165978873645,
            1.7941788762951354,
            -7.210209588083566,
            2.9624933656570027,
            10.7606109964833,
            7.615468033386816
          ],
          [
            6.961426878131641,
            2.278653314516448,
            2.4214800166682147,
            -0.043355343116091405,
            0.5980810282081835,
            -1.4297724099120832,
            -1.8051994292210765,
            3.7693570422698133,
            5.895593166592256,
            -0.20533140666575805,
            8.050557442640196,
            -0.09566230884299218,
            2.756884895299658,
            -3.282604735811706,
            -1.5052395124624836,
            -6.017943616001494,
            7.499159441278446,
            -4.476635042542229,
            1.5633272631545971,
            0.5628452727057556,
            3.610876710827086,
            2.860178165679759,
            5.658500291684047,
            -1.1669889744701718,
            -8.11151293852548,
            -4.712952162363433,
            8.084882514760343,
            -0.8270394757574138,
            -2.8681774572633723,
            -2.9130438417586113,
            -4.058948066811702,
            3.570818154330562,
            -0.7805293442968553,
            0.13231814643114476,
            0.9413450053291998,
            -2.292945969155365,
            4.313919059484461,
            0.12983054198297503,
            1.415885305465205,
            -4.193084694014644,
            -3.597388129718921,
            -3.509044628218454,
            -3.4627531538847185,
            -4.279973282953841,
            1.922321630956165,
            -3.890649626120952,
            4.325114145348316,
            -1.812464181447312,
            8.71746351240325,
            4.269598088011826,
            2.788393437485694,
            -2.7799602214123813,
            -5.093496655126889,
            -8.442513098183387,
            -3.174864211330616,
            0.06403525375618585,
            -2.3637873963071176,
            0.45077240939908375,
            -0.7104220254522938,
            0.624752138530531,
            4.572379462588702,
            -1.1851513257947444,
            -1.2494169918148696,
            -0.8598726983612766,
            4.87497958058233,
            -2.2846751827152048,
            -10.421901943017069,
            6.1156497352606225
          ],
          [
            -6.591045670575792,
            2.01191133353532,
            -0.5621401044937694,
            7.572222282770555,
            4.60486597368272,
            -4.670244795816492,
            -4.779389211437689,
            5.719183940588938,
            6.345729982680442,
            -4.23490614256185,
            0.8809030240946241,
            -0.4834179977134155,
            0.25766579352296504,
            4.666721764072939,
            0.2511202933896862,
            -3.9770102885649914,
            1.3323329270736715,
            -2.5986311069430936,
            -7.1900009433225955,
            -3.4050825234685376,
            4.113122607615146,
            1.808510284889132,
            -7.7258220963539,
            -0.691779538776279,
            -2.923538452974809,
            -1.272948702742328,
            0.337825775534599,
            1.8376837488795523,
            -5.2687414094196825,
            1.888000187756705,
            7.670371696702641,
            -2.4640360450733954,
            0.5883965983359082,
            -6.54100232757332,
            3.6154866584544614,
            2.5917050913054642,
            1.9424422846907192,
            6.516227637691599,
            3.897776567134629,
            -10.01145263374625,
            -1.9301975178660626,
            -6.557245124179679,
            -0.8127427742261463,
            7.773863708944918,
            -6.54128069700349,
            0.43067805965629913,
            -0.8292717313516766,
            0.8658387413109576,
            -2.9420207774510825,
            6.181995108173278,
            -4.866313311172657,
            4.260873167493624,
            -0.8385291466127834,
            -4.2688827362086315,
            -4.056716878014831,
            -3.4869441953215716,
            6.876705650460597,
            -6.569398166438744,
            -3.5719225263935384,
            3.3993676479595347,
            1.160681683111688,
            1.8318647522773945,
            -1.2324020709351906,
            -0.8485745212517584,
            0.1512914249956298,
            4.905449111580119,
            -3.7923727824803315,
            5.746453619158388
          ],
          [
            -1.9536554461311844,
            1.7775662249734754,
            3.108840497784581,
            1.5724005773883638,
            -2.3208759589991685,
            -6.801451381699077,
            2.6050827702201107,
            6.39425946673943,
            0.10511612901540474,
            -7.36596310935992,
            -6.146284392430749,
            -1.3663248829873351,
            -4.048190453102835,
            -2.555680966254789,
            -3.489127929583872,
            3.7261361670319673,
            -4.323877160817039,
            1.882540134370493,
            -0.24393528349483828,
            -2.2926544682943004,
            2.0965671086184776,
            1.2879526064361833,
            2.847986482917662,
            0.923551543358762,
            -0.5915859359786252,
            4.090145783578784,
            -2.793461197849999,
            3.938653475932605,
            2.7187613681058878,
            -2.528286020626946,
            -3.0691198887205857,
            2.30967915667173,
            4.943733213351135,
            -2.7892283837057774,
            3.4380489522253717,
            3.16079824312849,
            0.8903485249848573,
            0.9150403550138203,
            -3.258342299413177,
            4.764436526373882,
            1.242652169675382,
            4.986593316879185,
            -0.6563164408729943,
            2.1192974521118293,
            -0.22556102264184325,
            5.905242434875763,
            -4.951709819591779,
            -1.3388831004270751,
            7.031034716440321,
            4.345716620579093,
            9.036831732442375,
            -0.6404779263659565,
            -10.504262854071321,
            -6.109104881558656,
            -4.283472739652642,
            4.026010437914584,
            -1.102881599353248,
            -2.9751407011336797,
            12.28860456914348,
            3.4305287817909336,
            -1.162388485060223,
            3.197831527930581,
            -5.419082481959706,
            -3.9174431643903547,
            -4.7772909429820025,
            2.007950649620012,
            -5.942380117094692,
            -0.09301441764565171
          ],
          [
            -1.489133796436363,
            -1.2765854174645435,
            0.46903901986280566,
            -5.2070736255115895,
            1.0395697535722401,
            1.3039219851471644,
            -2.1741946208777874,
            -2.7337408685643365,
            4.29471375858808,
            -0.6118676194110374,
            5.9669918544077545,
            -4.802276651968215,
            2.5104198665659263,
            -2.5728798439015845,
            1.6477131999562136,
            -3.73150875435326,
            5.2952525830278,
            4.889461827755559,
            -3.742581347712703,
            0.20710329493341556,
            3.4008388158765155,
            4.438365582545071,
            5.9122145922123295,
            5.4328006222423975,
            -4.664779606838786,
            -1.1189273798995747,
            -8.212718589035537,
            0.45635614135003566,
            -0.4076696787885318,
            4.361081704972111,
            1.55043531237951,
            3.6271304169101706,
            1.082355530472673,
            9.027987816952512,
            1.247221367875557,
            -4.9461624523671865,
            -2.711045967444791,
            5.072168461554065,
            -1.6932014186104427,
            -4.234518063687007,
            1.4833416012251557,
            -0.002567437945354925,
            -3.4282350248274214,
            3.37481576581484,
            -3.5952682525797304,
            -7.838600086450012,
            5.457242970972943,
            -11.698029650218373,
            5.1581228937688515,
            0.37817098264788745,
            5.517818524854313,
            -6.278730109508124,
            -5.681880022950909,
            1.6642570645844086,
            1.9613294780709538,
            -1.4090664074877441,
            -2.136067213861964,
            -5.962606536552575,
            -5.026449713439424,
            -1.2907944568642602,
            3.95033388159081,
            0.7542522857111609,
            -5.494413780546973,
            2.2258438660312208,
            6.268581318859285,
            1.0936076042133873,
            -16.304149615465573,
            3.8559450519985
          ],
          [
            6.03896997767746,
            -3.441434246051722,
            0.12124567642314182,
            -8.025017753156893,
            8.110765246256518,
            2.429101938157317,
            1.236483793060175,
            -4.9637486291826605,
            -3.501234706167659,
            -2.241775402487813,
            10.698574278660626,
            5.903518504782695,
            -6.406450572132703,
            -0.8702932743976373,
            3.7619737310625148,
            3.439950200959378,
            -1.9826906621448432,
            -6.040048841553111,
            1.3978061606666357,
            3.743561636490251,
            10.73423903211629,
            1.4026039396070378,
            3.154950335233532,
            -6.620838616081686,
            2.2043910219536618,
            -6.54320922288436,
            -3.8172206039337566,
            10.021078852459873,
            -9.213750862214976,
            2.080659338323442,
            2.1595620664851474,
            -0.5563517554635888,
            7.634957852550045,
            -4.702684294178085,
            4.12115687228257,
            -8.192488514403344,
            -1.856943577839028,
            4.2786863104061865,
            5.414339420528204,
            -1.569413556419843,
            3.095147235669825,
            -10.819772949588726,
            -5.162282403770815,
            1.8726642533582503,
            -5.653547343879101,
            -5.969470421034111,
            2.0522322602886334,
            -4.0844537095259374,
            -2.9172235315722013,
            0.9656955740121879,
            -6.128830265788127,
            -2.1267776028773904,
            -2.4313955949220074,
            -5.155719226225896,
            0.24764271033402485,
            -7.163396874092431,
            -2.2142340851438678,
            -4.710471835625664,
            2.525914002649646,
            5.2528130351804485,
            -2.440405042955201,
            -0.968853781577405,
            2.0051813940754917,
            -4.747380365631984,
            -1.4644793248336285,
            -0.4486760398223963,
            1.8935877400676255,
            5.216728182860843
          ],
          [
            -1.0142199799488094,
            -1.9727710551050643,
            -6.979884698484757,
            1.8638262447502052,
            4.996632718464751,
            -5.796769519036239,
            3.147115193747894,
            1.3979655037974623,
            -4.679374663350942,
            3.6840927611961254,
            0.23787464744334674,
            -3.552948164088839,
            -10.958527350587453,
            4.722052980740535,
            -6.615749947766766,
            -2.8866252742067275,
            2.9163457693487,
            3.9326330958742903,
            0.8133804361791166,
            -2.641721813252687,
            4.0588425245045086,
            0.48144649021725694,
            -1.7266024274073521,
            -7.461890283747031,
            -5.175774265703071,
            2.8256732661932618,
            -1.1597944401923603,
            1.6725745816237756,
            7.842202179541446,
            0.3140054451297628,
            -0.2846346991759594,
            7.798894974222775,
            -1.125721998296711,
            -4.085840295789477,
            3.280731441384169,
            -0.09777346950884308,
            5.240369221074751,
            3.4833052443849164,
            -5.539780144312522,
            1.6096919872874809,
            3.018211783201583,
            2.834915429686769,
            -1.955543241351145,
            0.7934364052711488,
            -4.323620868380771,
            -5.255367595740283,
            2.5993799801880693,
            -5.3985654446356515,
            -5.467271911318853,
            -4.300325809410487,
            4.894610327949598,
            -6.932416389533262,
            4.681140953741032,
            -0.9947657186123712,
            -1.4694068279243346,
            8.687312251055054,
            2.907403272145411,
            5.25757453972045,
            0.3493468355020865,
            -0.8801067607851104,
            -8.305795669329582,
            -6.498321463765888,
            0.33912551635572946,
            -0.8294484341087848,
            -1.0431254424164698,
            0.6810494484607327,
            2.1776292693325154,
            6.9597162394913115
          ],
          [
            -0.09787667064947855,
            -2.5501593711943022,
            4.537710434499763,
            2.39469640511816,
            -4.534194870439918,
            4.355484285114821,
            0.840742328899432,
            3.7292806118533326,
            -1.9195721938601469,
            3.6041882921244484,
            8.09141516961375,
            4.745778410795186,
            -1.3553122483475306,
            5.5923218031919175,
            4.444505795457261,
            -4.39979950409487,
            -0.714477536503442,
            6.132086194197604,
            3.4256707859034985,
            0.41691902501664213,
            2.20768796353023,
            2.684579259888184,
            4.05445155606818,
            6.458640809411025,
            3.7084289632756895,
            -0.2129700197987117,
            8.250635324650766,
            2.897450635991479,
            -0.270598096527202,
            -5.149439836467411,
            -2.153135229555378,
            -2.38872103474884,
            1.284772660903919,
            0.4749502006327359,
            0.13888277345570588,
            10.039913598967754,
            -1.5861922455427966,
            1.640110638182143,
            -3.9915971903593213,
            12.052056197167357,
            -2.7032150503001215,
            6.31454701901597,
            -2.679405985980773,
            -4.96169534771507,
            2.7907616324094793,
            -3.8099534041418024,
            1.4004669870215438,
            1.8585288841642946,
            2.497091777674629,
            4.150599884409316,
            -3.866146589631162,
            7.933838535443179,
            1.9301560765584773,
            7.313933942177254,
            -2.517688928747228,
            3.9371921879997505,
            1.3927518663144227,
            2.0037774245568465,
            0.9432568590701371,
            0.6748719976354578,
            -2.412254498839606,
            1.7659512089371217,
            5.543718138803132,
            -5.036137305879131,
            -0.10386712507611612,
            3.0232140297345804,
            0.6772245176416815,
            13.280347124699471
          ],
          [
            1.2008673029402595,
            -1.5667517812429612,
            0.2878022729117991,
            -2.1906416371292377,
            -0.660449277643617,
            -0.5362807276950154,
            2.7401614398427525,
            1.9970770682696437,
            0.3030200026679907,
            -4.012284706192024,
            -1.0498616988635574,
            -2.700269489315168,
            0.3747430616460415,
            -4.671511890735985,
            -6.279474451355949,
            -0.524546966096063,
            5.122295665624677,
            1.7617223903272814,
            -3.2021505200670775,
            -3.728311541632938,
            -4.070696104144357,
            -5.411726077853234,
            1.6002656627796827,
            4.928568620577222,
            6.336477442059921,
            -0.9794109360677608,
            3.788041853391526,
            2.5725655923581074,
            7.368050691249181,
            2.466321798574621,
            -4.986927719291603,
            -0.19682103474186705,
            2.677321330230184,
            4.443920849908264,
            -6.380260503436552,
            8.809934359644778,
            -2.9168659913207198,
            4.327050765582803,
            -5.919270904036041,
            0.5161098718573314,
            9.501443351741154,
            -12.121352442478123,
            -5.111171837394717,
            2.847837384645909,
            8.367666446383938,
            -2.701484634230717,
            4.011412352503552,
            -1.1945974242448694,
            -5.536863663961621,
            -0.6394749259077098,
            0.8628795481025404,
            -0.31945211627673886,
            0.5715002808586006,
            -1.0857899858813331,
            -5.546632256145741,
            5.757950104970735,
            -3.0346246991451604,
            6.939855526829734,
            -8.640126622604098,
            4.201374097329557,
            1.117356694378914,
            -0.8412890893852892,
            11.119338675956357,
            -0.9173658804157014,
            -0.4971984219477681,
            1.0358402428718256,
            3.085251810146146,
            -4.3488254484561955
          ],
          [
            1.196732668887079,
            1.6280547079157577,
            -8.396417300318117,
            1.0264207794328628,
            -2.0791248472984205,
            -5.3232241877936515,
            5.818005310470639,
            -1.080210821807317,
            -3.829294968482375,
            -2.9557420681690485,
            0.6434997908093241,
            -4.079309791716676,
            0.49531054177022144,
            -0.4919675506373796,
            -4.025279714859146,
            0.4972220685065454,
            -0.36751216269148446,
            -1.6634366360742403,
            -0.462654759508638,
            2.706798721621933,
            -0.8301153086323778,
            -0.03715627615105219,
            -2.513512807041357,
            -2.221983698522365,
            -0.17319338176094032,
            0.39791211771684165,
            1.6986146051698914,
            -2.5452335958224204,
            4.458356992339592,
            1.8324782631732883,
            0.5955249580846975,
            -2.4434431936323895,
            -4.3700435408377025,
            -1.2820013735527653,
            2.6284134105562864,
            -1.5208421620933636,
            3.350059046776626,
            -2.972031326486267,
            1.736925288828506,
            -0.972399952631681,
            1.2627823342107736,
            4.23034198415026,
            0.6175169088448641,
            0.47489193359806864,
            1.856875708240479,
            -3.2814548751436288,
            -2.541872686047343,
            -1.295294611271424,
            12.710366906837175,
            -1.4901088713289539,
            7.974449419914134,
            -3.1834475441420764,
            -7.432136002224784,
            -2.9944898118909085,
            2.320733270199074,
            -9.544502167502477,
            7.916259211645325,
            1.003722646194215,
            -3.0769502767594856,
            -2.3336832680274164,
            6.000663451533771,
            -11.844071882571692,
            -0.7719117399503141,
            1.4601613441376884,
            -1.259833106258358,
            3.6993858762931446,
            3.720445969036972,
            2.2082448212630115
          ],
          [
            2.851696763006087,
            -2.696414795174863,
            1.990124367969712,
            0.5584051531559929,
            -0.6378037654430309,
            0.06021109298128583,
            4.733312225888707,
            -5.3511813679375075,
            7.376531940369595,
            -6.154469421589602,
            6.747919902525961,
            1.0533291562496365,
            -4.17147484165908,
            1.771692792325951,
            0.17201739855107495,
            -1.0223532190829787,
            3.118590599358327,
            0.33533192499157044,
            -2.2105351376031077,
            -3.09835220375235,
            8.188933061907996,
            -10.897664817924703,
            3.0434325284628976,
            -3.1416506597637577,
            5.773905871938829,
            3.395336354436083,
            3.7210562516356163,
            -0.21924218873732348,
            0.07866156081957416,
            12.492968535947409,
            0.39575803080598115,
            3.0231229922867926,
            -1.4955605784618906,
            -3.964042512769419,
            1.2269152892718937,
            -4.00237213518509,
            -3.2818577020974957,
            -1.0590058507393172,
            -1.1724619511581669,
            0.502985821639871,
            3.343498371970973,
            -3.267350358935459,
            -5.678507139960103,
            -2.0619234023329285,
            3.2592111773062853,
            0.33864675673054756,
            -1.669808658213121,
            2.769492796289885,
            0.5321122461191702,
            3.4472962990286815,
            3.9954874857827987,
            1.3850870011004288,
            -0.45790702021216056,
            0.8270238636175702,
            -2.990394847024942,
            -3.038033038980129,
            -3.9811155213767933,
            -0.7701762064136399,
            9.619895919143687,
            -1.9270304166076606,
            -5.1038280657949375,
            5.249272347925542,
            0.65916956078315,
            3.938839017463016,
            5.401324917357874,
            1.8738422767217868,
            -4.541738645933041,
            9.556960834525434
          ],
          [
            -3.9670729337162647,
            1.0130102624444084,
            3.2544681205776707,
            -3.016887268732747,
            6.957775366979377,
            2.0765874008890832,
            -7.130214762062996,
            3.4972503227375173,
            -2.2007671023420947,
            3.7585847846916454,
            2.6812319720084856,
            -1.341572892021636,
            -4.495462871273902,
            -2.0060132290927037,
            4.905450674405318,
            -0.24402226676211752,
            -0.7860925651599665,
            3.9026448592756657,
            -4.133698018067353,
            9.804724662762764,
            -1.3367048024623764,
            3.8807602983910505,
            0.10829002787128508,
            3.3967752638108646,
            -1.1938860470837784,
            0.3249838847409703,
            -3.073321941206756,
            -2.2180226843929405,
            2.6904986285885943,
            4.540051159945322,
            -7.685841974051667,
            2.707780908006865,
            2.331664790145014,
            -6.894361900256091,
            -7.441565140611936,
            8.68838693421789,
            2.990482417067333,
            -0.9755668372425186,
            10.253370754136922,
            -2.323429282733022,
            -3.409311675163813,
            4.925780588249631,
            5.052759184476416,
            4.320760189523782,
            -4.755975988994203,
            2.890952732526235,
            3.003504005056328,
            0.375023271764682,
            -2.5053984807114613,
            3.0614798524928157,
            -1.6965993406717303,
            7.202677623066965,
            11.078213731472642,
            -0.6285453656985047,
            -1.9486992559545675,
            2.561487065462008,
            -8.572924677261456,
            -1.250588471609582,
            2.165226998671909,
            -0.030457188510504996,
            -1.4130645731459894,
            -2.6233434456841143,
            -0.10108358566712902,
            1.5155725278124352,
            0.08714503330933693,
            -1.8287680568400375,
            1.106158550607839,
            0.6829060146569139
          ],
          [
            3.2343726138165985,
            -0.5413035655829301,
            0.10357640553296699,
            1.0703983206031673,
            4.494310211316612,
            -0.7571361789954671,
            5.5570780621271005,
            2.767545830334651,
            -4.0654743034029694,
            -0.13157948884845222,
            2.621569095523066,
            1.6544107554038465,
            0.1771442080183943,
            1.8323311414244934,
            4.25386584930256,
            0.7549843404718531,
            -6.081640461275346,
            -2.5938812538767477,
            4.943361846345853,
            0.7649605647499953,
            1.5938013938271633,
            5.487585347405637,
            -3.3065987266440637,
            10.809260045132389,
            5.170032520522471,
            5.0573916333885505,
            0.496810712080158,
            0.16823622252566584,
            -0.9348442793864392,
            -3.0633011392376033,
            -6.47826937076291,
            -1.5169586135662911,
            2.156280197196382,
            0.5627525930455399,
            0.029179698914753305,
            -1.7636766960523669,
            7.082803492132276,
            1.5078591046555252,
            -2.2813647328922473,
            -2.5147134529613373,
            -1.2940771466809564,
            -3.4300572310103314,
            -1.3191330454981578,
            4.385509764628369,
            2.512734328239975,
            3.357426530628992,
            -1.3098709384679073,
            0.4461919537119348,
            -4.1440821411856295,
            -1.1224505509214586,
            3.441805539824953,
            -0.39780081235091136,
            -2.593234422003002,
            2.40471822735752,
            6.306160467456613,
            -2.39494970947435,
            -0.5374193246677786,
            6.878796913346512,
            -9.564077686058983,
            -1.7650866217228107,
            -4.631442499464717,
            -3.5269875974048377,
            0.2186409247816554,
            -5.546259183101884,
            -5.012548909704041,
            -9.503339426777796,
            8.869366169019854,
            -1.2883691197560287
          ],
          [
            -0.27550708316379,
            1.9307688272948607,
            -0.01865466544830849,
            -0.9478299477891876,
            -2.65196286280731,
            3.238436447642397,
            5.404632046036616,
            3.614802677693903,
            -0.48061194849112754,
            -7.266758318678816,
            3.0304842663833815,
            0.433265962486691,
            0.32134054602896517,
            2.4688043796574908,
            -5.846148428596126,
            8.224626912694209,
            3.7818827516860507,
            -1.0339521944851304,
            -5.102742025353281,
            -3.852340807060843,
            4.74217192716374,
            5.438653594762237,
            4.431147143654179,
            -4.526000555574812,
            0.3639107323443449,
            -0.770080515368473,
            7.876796695379816,
            -2.7171539062419656,
            -1.869991123758901,
            -0.4093912874744335,
            0.9668868094127848,
            -0.03787149266023196,
            -1.972667747179113,
            0.776511566818914,
            -0.728892080128236,
            0.5593076671850884,
            3.8905907004771607,
            5.200894733153284,
            5.781136226960416,
            2.4036319759590477,
            -1.5380527387325738,
            -0.8423043127350469,
            2.4051785787132807,
            1.5465524453592991,
            -4.28891979009945,
            2.3306211309322054,
            0.7312890265563514,
            -5.040424284769614,
            1.5494088687625862,
            -0.5021233981952313,
            -2.1094628113579095,
            -2.621258194437267,
            2.2386107284582297,
            2.680565014377615,
            -1.3455471767827156,
            -4.040895115464986,
            3.489830297168375,
            1.3305953395865853,
            -4.660898424688568,
            1.3154767824371523,
            -0.06869807982153792,
            5.293336132047599,
            0.8480002746284031,
            -1.6963344205243627,
            -9.089891250704234,
            0.23475952524994181,
            -12.060050799898878,
            -11.660663701206083
          ],
          [
            3.7772738218650876,
            -6.4537455221031115,
            4.046014611155128,
            -1.877245998643109,
            3.131032286705598,
            -2.990215436940123,
            -4.366843411952411,
            -1.8432640331933836,
            4.563157824481705,
            -2.26347724904881,
            0.903693667210955,
            -1.6125557684109384,
            2.4349857835225226,
            7.288101918896067,
            -1.9341422729735473,
            1.880141563853747,
            0.006598059192207462,
            0.1822447199519608,
            -4.691235427251611,
            5.262025736969517,
            8.91627182471574,
            1.2792373282541971,
            -5.2924703220032665,
            -3.727143494820931,
            -1.1036686832082705,
            -0.6840346362099853,
            2.262511608860263,
            -6.696755115868896,
            0.7454852100123086,
            3.51851047487766,
            -6.535267353704712,
            8.26168474329452,
            5.372956177746584,
            -0.37954463079088036,
            -3.393462072691085,
            -2.8559955491562716,
            0.8926539631580189,
            6.266797559807263,
            -3.725715248333716,
            2.4896997801294907,
            -3.214410927421342,
            -3.6693468202046704,
            1.9245130539194544,
            0.21723975692426886,
            -3.731957417578392,
            3.4049261013370433,
            1.0079819744658491,
            2.256829124008728,
            -0.06298733307419885,
            -2.812975248084289,
            6.343104576832248,
            -1.2292950713069588,
            -4.125132075949104,
            2.2436062112053787,
            5.479666254057281,
            -0.6124217672717164,
            0.29534766919044214,
            -0.5043735735239524,
            -0.1554916160079206,
            1.2523207038199136,
            -5.193142754274918,
            1.4417073307943362,
            5.455775044125526,
            3.406146439335144,
            3.4687754268945863,
            0.34761164499450165,
            7.932937242350638,
            -2.9921357190504336
          ],
          [
            -7.199793987290883,
            -0.3556369700146219,
            2.272355640719873,
            -2.098279854113242,
            -5.94155559902096,
            0.36537677504424654,
            -3.6321578190801147,
            0.2678653131189718,
            3.288757769781245,
            3.0441000373762463,
            -0.8779997661430248,
            2.0047030762341387,
            -4.770995958875931,
            -0.4098484562406885,
            -3.355621942142594,
            6.033921572267197,
            -2.258672015120771,
            -3.021454185130059,
            1.2182164219143703,
            -4.071498951591522,
            0.6227648611346168,
            -0.18600737661001315,
            -3.250358629067115,
            -2.163207967510373,
            5.7809649632823055,
            -8.969165915197918,
            -3.01832268660476,
            -3.138514491213751,
            -2.958925019551816,
            3.4471397780087165,
            4.4831910432341715,
            -0.4431121258233738,
            -2.1422431294221895,
            4.862909214117923,
            4.327422834639795,
            4.886806141935418,
            7.047731736958901,
            4.061246769210284,
            0.807164484135767,
            0.4206194377818434,
            -4.257316198365255,
            6.058827628432482,
            -0.8342783630380519,
            3.6842552007488383,
            1.1975455225202503,
            2.5384460158637996,
            0.12825081056228366,
            -6.781421441267087,
            -1.8953638342047188,
            -1.8075221859258257,
            -2.4394705862085364,
            -4.079941469770092,
            -1.4224067020375923,
            0.18273605308689927,
            -3.9073924524515884,
            6.583135531061282,
            -1.338721915753394,
            4.16549970555179,
            6.961824571182592,
            -6.963538385100986,
            4.4519424742504405,
            5.404829056004475,
            1.7010892111181646,
            3.053103782657711,
            13.39352572828651,
            -4.954404103336868,
            -3.6987629638512765,
            6.763858639793225
          ],
          [
            -1.6065540854497151,
            -0.17352505595082907,
            1.0643475664580095,
            -0.1727276496301854,
            6.489794718434755,
            1.4917793241448083,
            -2.5791156109323126,
            2.7515550019647095,
            0.8076463722041646,
            -3.376142302475955,
            -2.733048250474048,
            -5.311631213866571,
            0.5839312561007294,
            7.1858438643906695,
            0.38621704136157015,
            2.9822183214049716,
            -8.449321739577602,
            -0.8942405491401324,
            0.14876958884470853,
            0.6721649145761048,
            10.153017186792031,
            -2.0218364309435333,
            0.47547565996462604,
            -7.473810005400415,
            4.803483427003148,
            -0.7640086510624795,
            -3.9057956330712673,
            -3.0624597354595,
            -2.835601710097599,
            -7.324379086745286,
            -4.377802230522144,
            3.278991800562856,
            3.4105777299583573,
            -2.02498842053915,
            -3.7828893981396563,
            -2.9182338014951927,
            4.274514509012886,
            3.4933923370008824,
            -6.123643465191469,
            -6.764034360524968,
            -3.614572988266366,
            -1.4461448363349547,
            -0.3298827961421509,
            1.1611592452280224,
            -2.019917899771214,
            1.8649882734003136,
            -4.243146436032283,
            2.607216578235694,
            -3.799341574638767,
            4.09806326260263,
            4.099392468482897,
            -4.704774514816425,
            2.2947071397143293,
            3.2174239965977054,
            -0.5298994611434784,
            3.017107249809644,
            2.9229812683101652,
            4.905370102172742,
            -3.4934895883970736,
            8.571882639016264,
            0.522764131105817,
            -1.1550590317227385,
            2.924721664558292,
            -1.6579812302870076,
            0.0870454277414841,
            0.9553689099371627,
            -1.1414018820521945,
            -4.500136625309215
          ],
          [
            -2.7030834764789566,
            10.51236350342938,
            7.63086623387102,
            5.045061057835138,
            -3.1883981682432982,
            5.376217141661269,
            2.038504503572076,
            -5.808393608565609,
            -2.790841478308986,
            -5.174613429040716,
            -3.928455776908121,
            -1.4943750161079992,
            0.21211334269564458,
            -0.38599853529995864,
            -1.9859658191805651,
            -3.670060876490737,
            0.8075358777121422,
            -7.282078909086674,
            7.127880629733295,
            1.6598822015228052,
            0.34596704783345433,
            -7.902394098337869,
            3.224676992212841,
            3.109377822976111,
            -5.646429946329879,
            -0.45617119131443207,
            0.919883030462475,
            3.6409928535146934,
            -1.2883242504910999,
            -1.840958130599415,
            4.0323926962605245,
            2.0404122594964447,
            -6.8958209844614435,
            -1.5156299084013924,
            2.049971453976018,
            2.051821658572722,
            0.8128992435141679,
            -6.089344168650917,
            -2.222981684465603,
            7.231406598206796,
            5.868848247320486,
            2.999884653676864,
            0.868132457252843,
            -3.2990631429184005,
            1.989325846302173,
            -3.7925507711097906,
            -1.5524125178468344,
            1.5897428276621723,
            9.39538404872576,
            -9.916863761340162,
            3.2900631632892066,
            -7.82333136766859,
            5.736647300237644,
            4.343348344879897,
            -0.441747851192553,
            1.959982338980403,
            -0.6334291364617843,
            -5.337434162596264,
            3.555624412562824,
            6.9247717802289825,
            4.301019990588512,
            -2.097778032487123,
            4.254417315831032,
            1.5631219414345767,
            1.1463956153676202,
            1.5417602052353634,
            -2.3528773952771593,
            -6.494489194738325
          ],
          [
            7.755760453405606,
            2.4775867394236335,
            -0.17420641953688468,
            0.033650484855218044,
            -2.234102881643616,
            5.767090411127971,
            2.73907802636189,
            -6.605567252399592,
            -5.491653331222501,
            2.2334850342035306,
            7.224456368805879,
            0.5545115774705627,
            -5.295046663223037,
            3.3838898425049546,
            -4.976468159582215,
            1.721073712973189,
            -5.576185114021489,
            -6.099350581684032,
            -3.7856600291700357,
            -1.3680100846903234,
            4.137557442911978,
            -3.1426758385113276,
            -1.8977648181050761,
            -2.8549938456845174,
            -3.0832755490402817,
            -6.853783151701311,
            2.9174672562005934,
            -2.9077319075552763,
            0.7422297564076925,
            2.0536824803073994,
            -7.77573361143628,
            1.7356594386808617,
            -4.668655548202909,
            5.471416705362709,
            -6.568297814991813,
            0.7621428647660524,
            -2.619753883555261,
            -3.945408249128433,
            -0.775606683450102,
            12.598208174729415,
            -1.1316607770599518,
            5.92544993406072,
            0.6652980214006945,
            3.5775372138537858,
            -1.8149881405558905,
            -4.486639199798596,
            3.355857145542776,
            8.243061938507989,
            5.739525964432369,
            8.51788604273629,
            -1.4142555682772575,
            3.5707071970376445,
            -3.9320961161764534,
            -8.1443905139699,
            3.46244532896277,
            4.715446491590435,
            0.2961296789939689,
            -2.4342424219920855,
            -3.6133946406009456,
            6.343463560289402,
            3.13367272921208,
            2.1906522364228835,
            0.7977985491454218,
            1.4442319061837388,
            2.8814437631263567,
            -1.1777559504384543,
            3.851008504267196,
            0.16040433182034597
          ],
          [
            -0.8622380390662026,
            -3.3180671522291325,
            9.25399009939504,
            10.528295121331832,
            2.757168835358053,
            -5.468618373552681,
            3.80303995987516,
            -7.550518665784826,
            -0.4038404846301792,
            6.835732714231497,
            -3.798533861469305,
            -0.708854762273919,
            -4.489016253035084,
            -3.329164948175162,
            4.323796431962661,
            5.20466528839981,
            -2.772123787587907,
            2.4274852699354295,
            -1.503146489739379,
            5.954769974609999,
            -4.002292074339479,
            -1.87460566220005,
            -3.990420822269117,
            -2.8018526683330607,
            -5.192076022956134,
            -1.1557447242735241,
            4.144607243082196,
            0.6076511519821558,
            -0.9958659526160071,
            -0.1918383871558888,
            7.178932403023507,
            -5.801153677596353,
            -2.3285410131909203,
            -3.9091164808841348,
            4.3715577977738205,
            -1.9898521090293366,
            6.297979162057488,
            -1.3921731452834334,
            -7.854520242578483,
            -8.149408188579786,
            4.3538499292651105,
            1.0047460397264913,
            8.65789109268022,
            6.321200434824289,
            -1.6905321849481845,
            1.070715119858467,
            6.757801860991822,
            0.5585035349806213,
            -0.20472688592861593,
            1.5848078926144311,
            -6.671466571803167,
            -3.2170043078696904,
            -0.3510095976472134,
            -2.87797343287514,
            -1.1243689600521507,
            -0.9719996052078181,
            -7.601336145653132,
            -6.005517507321768,
            -4.766434541128103,
            -2.5050185866586667,
            -7.351773423256865,
            -0.9409724275110606,
            -3.3267500220175927,
            -4.604873548741315,
            -0.36871215038742455,
            -4.114909612121628,
            -7.613335315459058,
            -4.6194142405039855
          ],
          [
            3.8596111007741087,
            -2.0540916385780967,
            3.2993936530448957,
            4.018043641682371,
            -1.7683694335969646,
            -1.9207405798670316,
            -1.0249351755589582,
            -8.069290804327439,
            1.2615323704430765,
            5.900945543247259,
            -1.9340818217246762,
            3.144542739669488,
            -1.1008920033983531,
            -2.0308215441857866,
            -3.006693802106312,
            2.748932463383677,
            -2.3874918675314247,
            0.5819722050878209,
            3.611051118868812,
            5.553189657219219,
            1.492612742863446,
            1.4673051184625716,
            -4.247601754249396,
            -1.6822478993260472,
            0.438733176860465,
            -0.9555198377409455,
            2.671826848421799,
            -1.4557831618999015,
            -4.347408115385837,
            5.26869884140826,
            9.11853128997053,
            -10.31592352107309,
            -0.7000620077185526,
            -10.012248140068708,
            1.627350508432103,
            -2.703720566781298,
            2.6647715778858374,
            1.2528448466655724,
            0.07119082568984719,
            9.344028069740006,
            -5.263533564970988,
            3.4317712571660293,
            -0.20461703555872032,
            -3.7752771751804484,
            -1.738267750499792,
            0.28559352643238883,
            -4.042729784330783,
            -2.7263504531939255,
            -4.725572974447053,
            -5.021402841626812,
            -1.9724788151799675,
            4.57055795932315,
            8.033438695004206,
            -4.79864797366106,
            1.7416987627698612,
            -3.9095674113105088,
            -10.70714734385931,
            -6.458201281964842,
            1.4624855381039088,
            1.3955841678914072,
            -3.1629430540061243,
            -3.7352320435321205,
            1.5943498447281101,
            -1.7823439371254488,
            1.335941777795967,
            2.368193394545891,
            6.550136006583007,
            4.454439045915443
          ],
          [
            -4.241451884452068,
            -0.7549752781864822,
            -0.8454633815187681,
            9.911542503998913,
            -2.657351572901136,
            5.152225430787297,
            -6.587508174012245,
            3.383361756568033,
            -0.9125280910331686,
            -3.914353110182563,
            -1.273111119387676,
            -0.9337089414302145,
            3.134139803998958,
            -0.3420433585303336,
            7.332708685400994,
            -1.463543499130979,
            3.821791393942776,
            0.34706470115064736,
            -0.16518916733058486,
            1.7598204749063648,
            -3.6432229150163424,
            -0.34014302107652794,
            -6.035075035667767,
            1.8586386003347433,
            -5.027159686447296,
            0.24807015508186192,
            2.535767448834734,
            2.0773292613978773,
            -0.7098162826775839,
            -1.5628832122401026,
            -3.11927943355357,
            -8.021592954474237,
            -2.890026098972353,
            -0.9336903576022835,
            6.341760079639541,
            -2.501288147789673,
            -2.105696622586765,
            -0.9923397245068808,
            0.8959732983175926,
            -3.6999055156895087,
            -3.9039467159579866,
            9.503051809887467,
            -6.054017038050688,
            7.360854891350896,
            -3.2678742282121855,
            -2.373301276174431,
            -0.41667038022248787,
            5.825627958075217,
            -0.7718397894453985,
            3.286002554759582,
            8.237510429959617,
            -1.0190393795547215,
            -8.68135183032045,
            3.1822855335380154,
            1.4062196195771781,
            -0.6020686257968325,
            -5.054282340436405,
            9.048066130727216,
            4.103074611335819,
            -0.6090814495580303,
            -1.9570577885706812,
            -9.125486394180022,
            2.798902356544868,
            1.3228065583560962,
            0.6230092279593746,
            -4.916683761221345,
            -4.76145477794055,
            4.608166988237829
          ],
          [
            -4.295012866406558,
            -0.4734355040044342,
            7.936651694369359,
            1.2688611298260222,
            -5.576171941384808,
            2.153989172869737,
            -5.754791504287309,
            2.5650542262827862,
            4.786611692310412,
            1.3896604585691872,
            -2.9128525112206285,
            0.13761686035964837,
            2.3340850030572438,
            -0.09601302536653386,
            -2.411795642225067,
            2.041780341239118,
            2.3048449437547136,
            11.546852843224444,
            -0.25178508345656236,
            -3.7985434420302986,
            -8.217914481645408,
            -0.41137682881967885,
            -3.1935718938761246,
            -0.7046805654379162,
            -0.6668140749618751,
            -8.888043964470917,
            1.2847489570516522,
            8.540002010235956,
            -1.602775961480035,
            1.6340142854733228,
            4.600953217567104,
            -1.493477751270045,
            -8.591221430111156,
            3.212839834203587,
            3.5332569163933583,
            1.6119482740577746,
            -2.729262689651755,
            -1.861805522873529,
            3.4471699767372863,
            -7.299553148068364,
            0.48243963114383265,
            -2.7315226879896497,
            2.483474337813346,
            0.39869676108628227,
            0.36913583605300226,
            2.4961593001980913,
            -11.43421885965675,
            2.143699093779719,
            4.261671522683596,
            -0.09542446044492418,
            6.170254070095733,
            0.061517560183921405,
            -10.536878260631477,
            -5.111432518696412,
            0.25640237923999437,
            -1.0713733822421119,
            -1.7240108826225895,
            3.125809717747286,
            -3.7235153394273586,
            -9.08630847191863,
            3.771726294192308,
            3.7303413417630384,
            5.439118470742949,
            5.805731786744094,
            2.8135991688230213,
            5.008622673216029,
            -3.012035201255447,
            2.7934191249528326
          ],
          [
            7.1905500749148485,
            7.477010729782821,
            2.833350195755158,
            -3.8505562355444427,
            -2.8430088418695245,
            5.013428417539565,
            0.015396646109363255,
            1.889276538701259,
            3.026283292744267,
            -2.641601494336009,
            -3.662376256634844,
            -4.496905534955816,
            -0.7421124402723007,
            -1.7723941734213702,
            3.989701097991086,
            -1.668451233720642,
            2.1673814124197386,
            -4.295641708207981,
            1.407298529394688,
            8.997843129158234,
            -4.603283799981694,
            -4.641621099400492,
            -7.106913926951276,
            -7.635719752991852,
            3.599555432681742,
            -3.049209418749361,
            0.8827843634120741,
            6.6362468524260585,
            2.9671505395540247,
            -3.4420343772466246,
            2.52242705665978,
            -4.07777031557711,
            -1.4967359264395248,
            -5.360115885585628,
            -4.040167570821502,
            3.648830879497265,
            -7.26103764338778,
            -4.401408928938015,
            -6.639813482462519,
            11.336683094440403,
            -0.38495154138671267,
            0.9716269874074178,
            -7.818260460493387,
            1.4076105345841747,
            0.8218748096347879,
            -0.37405087882911153,
            -0.30772054640025864,
            -1.5312284493722848,
            0.6299203989672826,
            -1.2651203904557793,
            -0.8441418814278798,
            0.24841224778108006,
            0.828123430769082,
            -7.929570340112401,
            6.168649510643588,
            -5.341114872901054,
            4.390649651625783,
            -3.553703511673523,
            1.2565913904028903,
            -3.0989106523635077,
            7.729020990188854,
            0.5884936782455543,
            -8.688382390943609,
            -4.879320105457789,
            -7.983930414815249,
            0.7834281723212904,
            5.07422553559408,
            5.4166291116201215
          ],
          [
            1.1076636468936494,
            9.999186503018631,
            -1.982641287385169,
            -2.7954532903950717,
            1.0400596240970885,
            6.196708987556419,
            -0.2878738949217019,
            0.7597427338856956,
            0.27203971185840703,
            -0.12223513470894815,
            -1.6143464945396178,
            -5.392978351317899,
            8.832783926311633,
            -6.749123394679998,
            3.7145048806777634,
            2.0883797234415473,
            0.2647626541816517,
            -2.0467948901511743,
            -8.119254019039447,
            3.9286684382201535,
            -6.664036954015406,
            -0.6730790357521699,
            -1.5583072651315273,
            7.374071100625486,
            0.14344208924980775,
            4.903114516766795,
            -1.581667121252651,
            1.8965396760714541,
            2.1741637928833515,
            3.5351898805182183,
            -8.136638908372102,
            0.787759604105704,
            3.0448612882346544,
            0.12268714353509723,
            -1.7969467086035922,
            0.39350792015469016,
            6.324635260789958,
            9.497263606570334,
            -9.162811006323494,
            -6.718636569968839,
            8.286366086012114,
            0.6975815172416437,
            6.3781783298377235,
            -2.1224554295050986,
            1.988541395566927,
            4.542173120937618,
            7.473072748833401,
            2.262898337847191,
            -5.238901110125,
            4.67638067251392,
            6.072016396380961,
            -5.754850452384266,
            1.058947495563175,
            2.0880944239627945,
            4.39203913700181,
            3.0730669858135955,
            -2.517878419858268,
            0.5172597976151495,
            -2.3694831418995674,
            5.372245941612251,
            -2.0602246701454927,
            -1.5479982560565173,
            1.376995055574016,
            4.67975575290048,
            -4.033288080182881,
            -5.3046384417695,
            5.666011640537271,
            -3.195044693188692
          ],
          [
            1.82644687722784,
            -3.533659125141157,
            -3.8876235679066053,
            0.7237369013345059,
            1.2135338989241524,
            0.12016046132309824,
            4.652642770099606,
            0.1824201888039661,
            -6.507807097643831,
            1.9953216593129985,
            0.07699886902924061,
            -3.9012034463879988,
            -4.855239498520678,
            7.2739113592086895,
            4.65375396288322,
            -10.824353367453808,
            -0.8993791509570954,
            1.157634125564012,
            7.637997856524073,
            -0.6113421030177004,
            3.3294191352154843,
            -1.3866471509427076,
            3.215864962103223,
            6.166436733560646,
            1.8140831563673279,
            -5.5390381998440255,
            -3.295011946271998,
            -3.4424532945494364,
            7.826045192387316,
            2.0373096336740955,
            -5.819300585977274,
            4.252687442229334,
            -5.7658145057563575,
            0.4277163369666187,
            -3.9019687411474617,
            1.2743145575225292,
            -3.3310618194095185,
            3.3366341798391073,
            3.404254537187614,
            3.6059086234546838,
            -5.161990409873838,
            0.9324869767802053,
            -7.735621285640043,
            -2.6504269230549053,
            3.626641386843614,
            -0.6382058349257813,
            2.4809717290055855,
            -0.38909097380183344,
            -0.9538927653549144,
            0.14223364164113173,
            0.9959160212384383,
            0.348092554984498,
            -4.797241469857271,
            -5.5045139004209025,
            5.478149618651702,
            3.9655213790749935,
            -5.911580879402754,
            7.23750077949224,
            4.660893317817247,
            -1.9044114867734843,
            2.6986429703012296,
            1.5257511817684142,
            -5.579361878854144,
            -8.668189795177067,
            1.782396932476887,
            -3.839976153363611,
            2.0255866084506575,
            -0.6397921698173001
          ],
          [
            -9.700693937311229,
            -3.6679093987294875,
            -7.384374764045306,
            6.633136216697111,
            0.7324081881767072,
            3.1256549802986906,
            -2.608164933196716,
            -4.325796564542758,
            1.20649905280624,
            3.747012188107086,
            0.05426808434822428,
            5.648785652795116,
            0.18202975859914663,
            -4.245556500946473,
            -3.7173623745938635,
            0.9405026285525495,
            -9.75857189119202,
            6.721458173748909,
            1.4366908068773039,
            4.890791068870191,
            3.702537884321596,
            -4.171192932495896,
            3.4589701093085794,
            5.706222229805715,
            2.338072991836458,
            -6.388050985310547,
            7.924435976440452,
            0.08191536034805405,
            -2.612636453227622,
            10.071644669467437,
            -1.78436127254923,
            0.8556219781796607,
            -8.682221121176315,
            -2.196461520787843,
            0.2288568148243365,
            2.309964947822005,
            5.388287693317769,
            -3.360930453273761,
            0.5648668835020486,
            -2.607721519259434,
            1.044527111522939,
            2.153479676542763,
            4.684210640102627,
            -6.295004345156944,
            -5.496969353333274,
            7.422229048567922,
            -3.752609098672426,
            -0.601030131239144,
            6.677061390391048,
            -3.3037120704633294,
            0.7816361818250875,
            6.221163571806864,
            -4.562670260926173,
            0.9283663797360611,
            2.880844975044728,
            -4.602719351326064,
            -9.466129363246074,
            2.1008643027833425,
            5.389094025228453,
            1.7071766817049232,
            -0.6544624890071584,
            1.1822854091874155,
            -0.43888553353971715,
            1.7771510113968423,
            -2.0026712267347504,
            4.227960057106205,
            3.547826703469396,
            -3.5253594969652022
          ],
          [
            -1.254608409806198,
            2.9477682487129098,
            -1.9974914326794728,
            -4.356695058203218,
            2.6299150143139363,
            1.9472523312402994,
            -2.7827810600062777,
            1.040649489992513,
            2.709915622882763,
            2.5921678245027566,
            -0.8042494328083398,
            -3.0209293579025176,
            -3.3577834196322045,
            -3.974278206672987,
            2.327527125770199,
            1.7738237846027227,
            0.7422198210437805,
            3.997005281947489,
            5.895077735637184,
            -1.0046123711613726,
            7.403378410275315,
            5.515444320171258,
            3.902897812115169,
            2.8628066591638603,
            -3.5194142785417037,
            -3.2204382575229316,
            -2.939386684869424,
            2.1835224013981454,
            6.620440553348216,
            -0.38179720192547234,
            3.369835284224006,
            -1.7350151233730255,
            7.987621451996428,
            -0.6491664083998473,
            -4.0075680066983095,
            3.9679348823126603,
            -0.9197642781634859,
            2.1001072876803573,
            -4.088656995107071,
            0.33097316959094397,
            -7.333904207014366,
            14.494789126549435,
            -5.594809330293305,
            -6.848186678200861,
            -2.590863064427037,
            7.972797503066461,
            -1.3894985287642572,
            -1.3228390789617595,
            -4.550092090154215,
            -5.280163372380692,
            4.635402684326423,
            8.032986023208252,
            1.004346295034261,
            -3.5732434214019735,
            -6.877896397025893,
            6.2826541612994475,
            1.0284887083254808,
            1.6879033626681479,
            -1.3437758041043226,
            4.124746753998955,
            -12.829534051521502,
            3.927214868957112,
            -1.4177574240312643,
            -1.9258591514193655,
            1.018174060893595,
            -0.41198082367127353,
            -1.8907311205990478,
            2.6319763200665895
          ],
          [
            -4.438635031396124,
            5.575369707058139,
            3.1120357957151845,
            1.6977471068419483,
            11.930867669075973,
            -4.894995058873376,
            -0.24850462565702136,
            0.9065148225943012,
            -2.712759723200089,
            -6.378808449051642,
            -1.0497647158795196,
            4.860640909879261,
            0.02164636365176867,
            -4.277169751431696,
            -3.1487625458237853,
            -2.524183362851979,
            4.4183598198075735,
            -5.33650036788636,
            3.0374174911085405,
            0.6369814293900071,
            -3.896486705261867,
            3.1481099639781065,
            -0.6171896924595819,
            0.6613281908495374,
            -3.73913047292867,
            -7.605332751662106,
            -1.1472477973884627,
            -0.25710782630747353,
            -3.7644942695246786,
            -3.834084431600222,
            -1.5037376233487767,
            1.2025326426920473,
            0.5726784638585712,
            0.20875437529530447,
            3.342655202568229,
            -0.7668933647236672,
            7.855904209856694,
            -1.986069945805343,
            3.766769909708214,
            -10.13281091591966,
            3.3087806488401608,
            4.991860739460866,
            -3.84332519128957,
            -0.9438255657395064,
            -3.395551825324752,
            -2.1051083851637546,
            -0.4483840662591479,
            2.501756520257323,
            2.0857453449201064,
            -6.183033004367423,
            -4.968719838970157,
            0.04047143561008171,
            4.760336224671727,
            -2.470356254897142,
            3.209957660048662,
            4.674995984529996,
            1.1873751048652492,
            1.7947090664193457,
            4.262940340385713,
            8.549522989923801,
            1.6399712358386782,
            -9.646577396637314,
            8.204728663892272,
            -7.321843314332203,
            -9.716555274118694,
            -4.672153692921912,
            4.572371896597662,
            -0.7744319073765754
          ],
          [
            -12.890344472414629,
            10.51386312218558,
            4.551703185876447,
            6.4731695680729935,
            -3.2593600357394314,
            -3.814962686316413,
            0.8499643623419623,
            2.452670532252224,
            -0.5583096778548526,
            -1.431022243525523,
            -4.316556243501127,
            3.3528717676157824,
            -5.48396219521963,
            -8.60343534091321,
            -3.1440452383962647,
            0.28948638777330643,
            -5.6191817683062615,
            -0.21243843887373046,
            2.1554192850059835,
            -0.5991182321071631,
            2.180394535108082,
            2.6393721037320668,
            1.9084565209654911,
            -7.7485789584024936,
            -4.555780630363914,
            7.445295726951896,
            3.942428259794799,
            -0.07126484214385463,
            4.219706557068565,
            -3.7504230406203223,
            0.880331469335248,
            0.8316959738199521,
            0.5868711978023051,
            -4.046853908346435,
            -6.280386809131592,
            8.994109387604738,
            -7.430628320837532,
            -0.07047622770227473,
            -1.6148229932880704,
            2.8043418593149956,
            -2.2881237292653918,
            1.2999001226099445,
            8.102119802226834,
            -2.982374371809306,
            -3.480825511192999,
            -0.21773332832839676,
            -1.5371560902155441,
            2.1990949123069665,
            -0.9685154249227909,
            2.673429604952399,
            7.6547731147431906,
            -2.2201023257468675,
            0.5585970101805784,
            7.527985809476469,
            2.6009479964763993,
            2.9372951606208453,
            -0.3664755063610847,
            0.8252290201457381,
            -4.132702312240408,
            -8.256968423839432,
            4.789465253387643,
            -2.0385795794087924,
            0.5409566931447165,
            -4.640606543011202,
            -6.994149314800635,
            -8.322824754116974,
            4.341957386010543,
            3.525642941290829
          ],
          [
            2.9511357546622703,
            3.9553426175032933,
            -0.1778184053378275,
            7.831165471023503,
            7.99942533782074,
            7.71642672287402,
            -1.927661403316707,
            -0.6408585074965184,
            -7.418976159213977,
            -0.7007899537235183,
            -2.4079257018136615,
            1.3293734320806974,
            6.53766891230766,
            -2.708192155703162,
            -1.03075316280158,
            -2.095531734116337,
            4.197217408156174,
            -4.090262304034501,
            -1.8178265968254526,
            -10.675405166013022,
            -3.9370656502696564,
            -4.1639057175447105,
            -4.08008182603629,
            3.087592471894622,
            -11.650375381031244,
            8.440983576042907,
            2.1294243724743462,
            0.7816354327482107,
            2.827061994242932,
            -5.420337093597976,
            3.6778142751661296,
            -5.831404883878146,
            -3.4075574173259167,
            0.40299948677477376,
            -5.237002722280207,
            10.008585537353719,
            6.842782300409864,
            -4.910710181002303,
            -0.5727269870941375,
            -8.041167404371443,
            -0.4232541232937721,
            -3.1870262368133213,
            -10.546745561362126,
            5.4544660841240695,
            1.7756077111935347,
            0.3406467398874411,
            4.821683446683972,
            -0.5430547151252177,
            -5.805484126543499,
            6.833763249008431,
            -0.9745845721956982,
            1.5099740132245207,
            -5.67614469912214,
            3.031470613819141,
            -4.746219288060075,
            -2.0282280437047207,
            0.20918508648485418,
            0.8961210328052507,
            1.4589761545089095,
            -3.1625012275579114,
            -7.463960049644746,
            2.240686005054081,
            -6.535242815865998,
            3.1456139733891457,
            1.303524528302526,
            -6.121118817810667,
            -0.16881355580529636,
            -3.7511342375104775
          ],
          [
            -0.30104017991800186,
            0.6583874289677097,
            -1.652507669640511,
            1.8310284800297674,
            4.094064437095563,
            3.697538226683116,
            -2.5782620983695486,
            -1.2284479927362522,
            1.474003494583161,
            -1.5723063822002645,
            -2.851138273211568,
            7.747585321651283,
            0.9739474256238326,
            1.211666363763605,
            6.248224249963328,
            10.013563475430622,
            -0.1585176894843733,
            -4.367732157410049,
            0.29405919974338846,
            -3.2685123501897952,
            1.353056194311123,
            -2.441925422695443,
            -7.380341727185625,
            -0.963174387753566,
            -1.6570488441291782,
            -5.662934814597987,
            -1.6844171615340382,
            -0.5015223024818715,
            1.367812647712419,
