{
  "network": {
    "layers": [
      {
        "weights": [
          [
            -2.490816775785277,
            0.9289952860073872,
            -0.011864410312875329,
            -2.43736764186645,
            -2.1205277006222993,
            -1.5363055498899403,
            0.6313189383310144,
            -0.953486857324941,
            -1.6646524715848827,
            0.7215645054525729,
            -1.3469411668313853,
            1.520042949721576,
            -1.9932739255756595,
            0.01857419925758097,
            5.187603086362847,
            2.1284421191757086,
            -0.4026033434708595,
            1.4799786330065094,
            -1.1931202677190553,
            0.5948125611516878,
            -0.6615550727270827,
            -2.6746081321870117,
            1.1753327693230355,
            3.1539520369113845,
            -0.13655702535423964,
            -0.9185635466662451,
            1.6170217103955506,
            2.4838938835081357,
            0.2451312434813021,
            2.2101050483486433,
            0.8041052373633797,
            0.7750796171138021,
            0.6393885519534344,
            -2.153635726178654,
            -1.1503469459115614,
            0.7719103566089509,
            -0.9457214960413687,
            2.2276611363054433,
            -0.3742156617945509,
            1.7868761283987515,
            1.1738684617478101,
            -1.6777885838450655,
            -0.029376674795115132,
            1.2306956203433632,
            -1.8277854285899724,
            0.46471622358593956,
            -0.5971753782222669,
            0.833310365611333,
            -0.9837344972580219,
            -2.3397343313166523,
            0.24275741712755666,
            1.469789210944928,
            -0.7609761886716524,
            -2.4593680520760963,
            2.085308947943755,
            -1.5986935264115598,
            -1.2827907354052752,
            2.6125874165662593,
            0.4464183604926417,
            -0.9209652072785007,
            1.449862942758176,
            4.230967111681413,
            2.3282567980442,
            0.8698604597759636,
            1.5538766070305419,
            3.1784222887398297,
            0.2616247205272083,
            0.21282612445148225
          ],
          [
            -1.950170683462962,
            -2.6840150071304354,
            3.870525589631494,
            -1.294641102497295,
            -4.626685928328719,
            -0.719783605143125,
            -1.0572351326395006,
            -0.3969190447906548,
            2.7230382152820876,
            -0.431161194134019,
            -3.6840080812833556,
            3.374417515957092,
            1.4142494744864238,
            1.2509175382264213,
            -2.613156305047838,
            -2.8048185035687,
            2.3458690731370604,
            -1.2741876015893803,
            0.8976045541914517,
            -0.04230760026635827,
            0.2630710762359282,
            -0.6560066118404444,
            -3.539468238715377,
            1.6774121546424405,
            -1.3784791418476625,
            -1.2231102776732552,
            2.909828909747568,
            0.37946398820572086,
            -0.146907296859109,
            -2.8079004665204237,
            -3.6247061618567624,
            1.6153593443992267,
            1.5450841416101377,
            3.214470189459351,
            2.9474820666071646,
            -0.6197604052919443,
            -3.209797395393136,
            4.476624678581113,
            2.232630858911014,
            -1.2455552755087433,
            3.7718579894222737,
            -3.5234378173393064,
            -4.015855549057477,
            -1.2567058471326207,
            1.0865197232398867,
            2.8618019275242785,
            2.0493718120859623,
            -3.563778813075791,
            -0.28936186951589055,
            0.287031338506753,
            -3.8320160313658596,
            -0.07146854571000796,
            0.8859968421565171,
            0.5136725888723852,
            1.3375669517952118,
            -1.845300148777919,
            0.01029984135360329,
            0.42119957984654866,
            1.5646782186572163,
            0.1791792187082486,
            1.4223307116085333,
            2.0493409729587433,
            -1.684204102799708,
            3.7589573317744165,
            0.9611291586284668,
            0.06802693978051051,
            1.2609605178649592,
            -0.9484158642668881
          ],
          [
            1.5575716782675972,
            -1.8241013001731223,
            0.27696648206084273,
            -2.259572784389183,
            1.312500317257953,
            -0.21701787269380868,
            -0.38963920273581204,
            5.543592604625005,
            -0.2504036190564247,
            -0.8248993391400475,
            1.310634775060746,
            -0.07668657050206917,
            -0.000710959416941416,
            1.3730746549721577,
            -0.30473409402036616,
            3.990420991693742,
            0.3445147520780517,
            0.30263244451954086,
            0.8547008725751598,
            2.0009503470656766,
            0.8519053004397987,
            2.8726522337594553,
            2.131509576888188,
            3.252872636618023,
            1.4965068346455985,
            1.0256255211648229,
            0.6729279933514118,
            2.2044779368277885,
            1.2446794873562104,
            -0.7118827989626078,
            1.9493323245470946,
            0.3075379074119705,
            -2.659185921143288,
            0.41838996788822813,
            0.6170429771477991,
            -2.9288576190589524,
            -0.3661801561622367,
            0.1355416768421199,
            -0.5281515499830762,
            -2.162918953948559,
            1.5683331004017107,
            -2.449287065337096,
            -0.6917491012455234,
            1.6131352725812664,
            6.062383533424573,
            -3.0031617427470243,
            -0.30655648693386106,
            3.8141875053614305,
            2.1135866148727236,
            1.3286665087890588,
            -1.4496206613067617,
            2.7753962516594566,
            0.9290563211860784,
            1.7216454453021663,
            0.2578977990077083,
            -1.4609766368751242,
            1.3874106340255996,
            -1.344192209915905,
            1.7442216353947426,
            -4.771839100089444,
            1.4210242694817028,
            1.7993818495926484,
            0.5941041934151994,
            1.515198310431565,
            0.9826543549650524,
            -1.6885277941508874,
            2.4088494087950436,
            -2.0425715101276483
          ],
          [
            1.800906673551127,
            1.7664114950807606,
            1.4942042207309645,
            -0.4471039198960688,
            -2.083262612641357,
            -0.5535893464754622,
            -0.5806442356762773,
            0.10843403215338852,
            -0.26170630863844724,
            -0.7828417346561749,
            -1.2363767019263916,
            1.3377224897818853,
            -1.2417918940219357,
            2.769361810885495,
            1.3293042530513974,
            -4.6915402629579575,
            1.5771818956829553,
            -4.218339061891302,
            2.448137451782836,
            0.8616171737312209,
            -4.409939737151702,
            4.555735980713871,
            -3.7904248569445924,
            0.6542445053514452,
            -1.2027591929082215,
            0.4956349366728492,
            1.5485894476318482,
            1.0805736988777268,
            0.9311192077502939,
            0.8880569511287939,
            -1.8034808034825351,
            -3.651759720257462,
            0.48050374057778855,
            -1.016176008098443,
            -0.047801999046633875,
            2.176365515776162,
            -0.3259718735446852,
            0.9787170611657348,
            -3.9903938875084597,
            1.1879069144739824,
            -2.4969735523131087,
            -3.162844206768502,
            -1.6421679091236536,
            1.0589533225839616,
            3.7201276007102866,
            4.750905432856604,
            -3.4455341921983726,
            -1.082319344591805,
            -4.0851056811801225,
            2.5512424503207347,
            -1.0116438977923474,
            -1.9746264463357208,
            3.3892799414772345,
            -0.9970997526276397,
            -0.6675635428360479,
            0.5053911767278004,
            -2.2041217591982276,
            -0.044262568427214086,
            -5.685485805883861,
            1.6940455716220761,
            -0.2791657459926469,
            0.8107661908451536,
            -3.502280736394602,
            -1.5212035122271466,
            2.8341791928722833,
            2.760120623428644,
            0.8732273186783766,
            0.8834333073422261
          ],
          [
            -0.739923585471847,
            0.13095232684361444,
            -1.3412285814539548,
            1.3743671243153672,
            -0.03015931386419929,
            0.5341479791875975,
            0.9832992650006064,
            -2.4315373815352563,
            1.9532950090186794,
            -0.32294681325475627,
            2.6578092805226885,
            -0.6701139663615716,
            -1.8404173612338954,
            0.7176743046903616,
            -0.8291256723857355,
            0.8480227452255555,
            0.3542790329308011,
            -1.1893502495775994,
            2.1731476026616545,
            -0.6850150650664955,
            -2.9929445220751396,
            1.892212604131391,
            -3.784138980583557,
            0.8414074885808756,
            -2.321624726872563,
            0.3696679032575792,
            4.073492734106253,
            -2.6933778792080076,
            -0.7763478820606896,
            0.03354584803395061,
            -0.2404139218883978,
            1.3155840074044356,
            1.6340303858920235,
            0.016538112138457906,
            -1.472308506042648,
            -0.6855916155254975,
            -1.6999887648502217,
            -1.0630309541141014,
            -0.2529913388616734,
            0.5265909873477305,
            3.0359400175175892,
            2.2479232117758254,
            1.158978981294457,
            1.486663065130463,
            2.232959832747987,
            -1.6427225208876175,
            -1.0235792444929863,
            3.690890394224322,
            1.3764671312579786,
            1.7247393966053044,
            1.6150709317206102,
            -1.0724860427446627,
            -1.0929681455736522,
            -1.3657072640416108,
            -2.306696197316913,
            -0.5477115671553541,
            -1.446258311339439,
            -0.24658997456465412,
            4.048031235110014,
            3.8519322523280004,
            -2.689675661631229,
            -0.6107282424624586,
            -3.051099715999986,
            0.8086646974863418,
            -0.19992868041113104,
            -0.4132127193042247,
            -3.5005714864383095,
            0.03891167085164064
          ],
          [
            -0.8647579478199146,
            -3.5845785161606147,
            2.4582348803599596,
            0.14383426500271795,
            -0.6847687805760215,
            -0.46818598620915625,
            0.3081349613723452,
            3.4613555749388847,
            -4.2690695974264345,
            2.080903956842554,
            0.8974622197121287,
            -1.1694475445444772,
            2.96083720231167,
            1.4489178114474717,
            -0.03348354068051178,
            2.9689779231230085,
            -2.3713210003278253,
            3.155503026807396,
            0.5991550611287084,
            0.07090921452456861,
            0.5599929056623183,
            -0.13148135567969793,
            0.9719108884853154,
            3.3856478271283312,
            2.2001768554754593,
            -0.867195763253124,
            -2.7971372407881456,
            2.9316856216323126,
            3.6044476474623184,
            1.8384936806110324,
            0.02461831689449112,
            -0.1034176004096551,
            0.07813452651956942,
            -0.5326505589842179,
            -0.054331819834341405,
            1.9407570902523021,
            -1.779583166240072,
            3.4225812329937755,
            1.2701852248632093,
            -0.6436795852378355,
            1.3894376212967519,
            -0.1640581986400837,
            -0.5520743745623705,
            -0.9987686206781403,
            1.2909387347607992,
            -1.5410229372529771,
            -0.34785936153114283,
            -3.7867392725620244,
            1.5046966795143046,
            0.39000366312887425,
            -3.5961244228324145,
            3.1281564852203063,
            -0.5296696525733223,
            -0.46433708954103037,
            -0.8720803237334651,
            -4.001923150975314,
            -1.2744433174899634,
            -2.638092716564347,
            -0.26179264806387936,
            -1.464063622820877,
            0.1749599752990887,
            -1.599425753426532,
            1.6868588983154758,
            0.313076010002423,
            -0.07873230973654241,
            0.5398918339355085,
            -0.34297830307362354,
            -2.1240538659661627
          ],
          [
            -3.7447984399976817,
            1.7913350378603685,
            -0.3201387572055311,
            -1.5537791490721098,
            4.735670324757117,
            2.7425928273641307,
            0.0560571986633952,
            0.0717374397909594,
            -1.518109004623222,
            1.6327273065908665,
            0.6748285852138988,
            1.6591511293079768,
            -2.2872915355995356,
            3.4045652512322664,
            0.27226499810630245,
            3.651277781794891,
            2.2888275110578866,
            2.2895370406879305,
            1.3639624099366547,
            -0.06267644048722834,
            -1.7681137427016411,
            -5.394303031273037,
            0.44992852031577607,
            2.5838769542079634,
            -1.5634131509410485,
            -1.2988237226797974,
            2.3977601303257536,
            3.6583447802083047,
            0.7097922424279454,
            -2.078003193123846,
            -1.334869565109891,
            -1.0621343702479176,
            -3.114824216285761,
            -1.01807704795663,
            1.3318257792762842,
            -5.510594482034014,
            -0.5887973896380012,
            1.869450099372691,
            -1.7512046836779782,
            2.46059479763936,
            -1.502552347137926,
            -0.33661551861603284,
            0.46831760393726557,
            0.2728512950395154,
            -1.2134000847157587,
            -0.13935199974868354,
            2.865599095775462,
            2.907188886182214,
            0.2670210239594656,
            -0.18434803816042933,
            1.9127952946873077,
            -0.5197137563208831,
            -2.5828522496031003,
            -0.6873632371669931,
            1.6445129591306207,
            0.6701732972940164,
            -0.5269209696977781,
            4.175608645291043,
            3.2563416243771655,
            -0.8207702590535717,
            2.685621603198065,
            -0.9362855781202161,
            2.52942741141037,
            -2.2045895992575777,
            0.35885832620509334,
            1.2324033809346764,
            3.294250530920749,
            2.7915065840283084
          ],
          [
            -0.5183949442616032,
            -0.11550431756094137,
            1.3834466977275894,
            -0.49920836793517886,
            0.6129322682318773,
            2.8203094916502893,
            1.3017667261202135,
            0.5131737754963576,
            2.784838244520572,
            1.671283255748501,
            0.18113564014928724,
            -0.39469008179562226,
            -0.8006592149206155,
            -1.9678242930184469,
            -0.2467180169209644,
            1.569165782180494,
            2.433429719398858,
            -3.515657054029098,
            0.5372878485005199,
            -5.386334170760467,
            -0.41181097872950356,
            3.526538774061807,
            3.118341566855322,
            -1.3051196701809227,
            3.421769586305517,
            2.0393953634885484,
            0.9849260816738115,
            2.960852098770374,
            -1.8629879216359706,
            0.2014418885317837,
            2.447711933470833,
            2.670004849953383,
            1.196792938568688,
            3.3676924438580036,
            0.9118515188621106,
            4.337052573045463,
            -2.4906461859950166,
            -1.5490129799830408,
            2.125917015253492,
            0.8572508846416594,
            -1.9391337161483442,
            0.9501456382590195,
            -0.04743025919255797,
            1.1054018526710891,
            2.9820407966137608,
            0.31867159181707205,
            -0.14922465615680663,
            -2.9768026636866445,
            -3.5135114851685243,
            -1.2312935802047895,
            -0.7974452800871414,
            0.6344217812031019,
            -4.505781097946294,
            3.611985125435544,
            0.9133003710779763,
            -0.14708534404416454,
            -2.066343462058152,
            -3.4972003850309763,
            1.9091673979141295,
            -1.8450103159248268,
            0.2302713109402445,
            1.9624777802308435,
            -1.7488878899203018,
            2.9238853472181736,
            0.37872978804139573,
            1.1924841422382157,
            -2.3863048486174985,
            -2.6558808923175654
          ],
          [
            1.587603445668103,
            2.7374261621229468,
            0.6855996945006833,
            -2.60763666446267,
            -1.7571531019233635,
            1.9317342234796397,
            -0.2964852253937511,
            -1.532373000559303,
            1.1639537349586795,
            2.7941829647524146,
            0.9891559128194387,
            -0.7574579822878742,
            -1.0349538049912592,
            1.3481583994444102,
            0.5208554427707573,
            -0.01754050844401531,
            -0.07273926040661151,
            0.3762207142513385,
            0.8683574806713185,
            3.63767008033889,
            1.2972365202444744,
            -4.119830180947026,
            -0.9112625994047936,
            -0.5093207850831694,
            2.9597902656947674,
            0.8603017638152354,
            -0.5977186687927647,
            -2.988000075008052,
            -2.1264688765642488,
            8.842950683396479,
            -0.0007918125298064793,
            -1.7610226805276556,
            0.7186503525754349,
            1.0135901430504406,
            0.6711556210235108,
            -1.7207688654780553,
            1.324111785908969,
            -0.5499265555292188,
            1.403822736972109,
            -1.180549760190946,
            -4.698440171063456,
            2.248239335487456,
            0.957041681646563,
            -2.1158041560203524,
            -0.2859827147418499,
            -1.043227094570982,
            -3.331403017668187,
            3.6521740980968374,
            0.9190732601840782,
            -2.09973320331552,
            2.1528738162470664,
            0.31496206274350125,
            2.2398092621758856,
            0.3402272928879575,
            1.0781979051045576,
            1.3719294037938288,
            -0.45731411486874507,
            -3.517341563040938,
            2.421192007989868,
            -2.441615814877623,
            -0.8123603454272272,
            1.8683119460731852,
            3.632085596977051,
            4.5334238022848785,
            0.6956965983053065,
            2.7122020481223905,
            -2.6284672542800025,
            -0.4976304706339906
          ],
          [
            0.21685425828665023,
            2.6812437596206657,
            0.6659017302146557,
            1.5010895891295792,
            3.457737820938705,
            2.4887893977777202,
            -2.6025461365515996,
            0.6822051053182119,
            -2.737227707786616,
            0.5287160259168844,
            3.6067245187196426,
            -0.8022330193893694,
            0.504548125310532,
            1.3361502880165093,
            0.8645712894015756,
            2.267018351924759,
            -0.4027030220999881,
            0.3919400834898944,
            0.06182849075026502,
            0.660159090506806,
            1.3880818914664697,
            -0.962715936416502,
            2.5929468966952007,
            1.2431333437331085,
            -0.470683384501828,
            1.1479665699346921,
            1.5747783412133711,
            3.7687427610528976,
            -2.119583813879024,
            -0.5140770781597022,
            -0.5573608386354446,
            1.3244796841229936,
            -2.8578644089422363,
            0.11887341005036173,
            3.9110296588175957,
            -1.4093783973702894,
            -3.3510195822089717,
            -2.201447154405519,
            1.0687333712221379,
            1.4526596126353404,
            -0.9493470012858051,
            -1.5758765870225653,
            2.973070624731929,
            1.31071809799049,
            -2.5955305433831017,
            -1.1238770004712777,
            0.6090372345778737,
            -1.4460666010346555,
            0.3050900062811489,
            0.12259770262120143,
            0.9330359894871523,
            -1.873381186434609,
            -0.7763650293574442,
            -3.925977573601836,
            -1.0335331378090307,
            -0.6923766101121841,
            -3.2573605020680136,
            -2.5090520932482465,
            -1.8500934619856446,
            0.3760432622829223,
            0.20549093422279688,
            1.1871382057698017,
            1.6149147941332787,
            5.303101079866718,
            0.039296203440007726,
            3.489179350455512,
            -1.0694963498750696,
            -1.8269919472625464
          ],
          [
            -0.9783109470271857,
            0.6808212572482459,
            -1.7072119624550877,
            4.257836571792523,
            -1.6824583419437147,
            -0.2697245491515663,
            -0.7178570359245626,
            2.9680189701198563,
            2.0204732324175843,
            -6.676681285587837,
            -5.277375439192444,
            -0.13986324238595477,
            -0.21094405944644373,
            -1.191344831510815,
            3.8657534481684,
            0.43905293541249535,
            0.20751135801242504,
            -1.502508070990995,
            -3.4697956308007774,
            -0.3002483109913578,
            2.066895078447779,
            -0.7068250230630795,
            2.3468497681256837,
            -0.4588318216556956,
            3.5720692764851347,
            -2.0890121913785262,
            1.5000694016729819,
            -1.6619217943961424,
            1.6766599258843544,
            -0.06415921515213216,
            -2.401131459405509,
            -2.626758320218298,
            -2.679014927530563,
            -1.627924932073726,
            -0.8562942221393975,
            -0.47861429297811664,
            0.1758434114937321,
            1.348120827904127,
            -2.083058459632273,
            0.1623754950816437,
            4.364890939254874,
            -0.3077240422063778,
            -3.3150586089687595,
            1.2560443204883454,
            -1.7570287595520646,
            -0.9717623460609229,
            -0.625922802159174,
            0.19159284372629837,
            2.9117157253393287,
            -3.381525083802542,
            -1.606893908462713,
            -0.3134524953076261,
            -2.6169552993967944,
            3.0746307166514617,
            -0.06989424178273129,
            1.6676862004412778,
            -3.1481525910444477,
            -1.4293227090642373,
            -0.7319320747298768,
            0.08006081470791707,
            -1.6353300409108826,
            -0.17819639591058406,
            0.8446280966159782,
            1.0793809026468946,
            -1.7835938038937011,
            0.22202398802866838,
            0.2566869334605147,
            2.1196972402984864
          ],
          [
            -3.9536375888409157,
            5.844294539440642,
            1.342367533044447,
            0.5817802193737058,
            -2.1766030616463294,
            -0.43938089889770393,
            -1.4696558712959746,
            -2.9189726522749404,
            0.31650018765247423,
            -0.6160399616154822,
            6.552431901306816,
            -3.9589067435692584,
            1.0482441664875473,
            -5.019390448399964,
            -1.761724213864054,
            1.701908112912593,
            -1.7076840084814888,
            -0.7327961105216559,
            -0.4445032330371627,
            -0.5611360478891109,
            -3.811926498578204,
            -1.1304936103456096,
            -5.0321275071531515,
            -1.025172846280404,
            1.3711697097084588,
            -0.5625948610397983,
            0.4260947442586614,
            2.9069983248923545,
            0.7667943017548353,
            -1.2583479428137485,
            -2.694524074934813,
            0.13888878374524624,
            0.7330941578440853,
            0.43198380777043666,
            -0.46777536349747934,
            -0.14429582805350966,
            -3.05440843590882,
            -0.7576720404972517,
            1.524271450982185,
            -1.6712732964442143,
            -0.4155860760596729,
            3.6193731213725053,
            2.5182393394443294,
            -0.03529841019065055,
            -2.144724953482194,
            0.6987463810342242,
            0.7984221677152544,
            2.590970199628102,
            1.6886267236075163,
            -0.0950806435696166,
            1.2030795480080723,
            1.4418010825975314,
            -1.1763415260100882,
            -3.9305855674820473,
            0.3199477843792582,
            2.6480796897976573,
            -0.33659620030693627,
            2.5675357895979913,
            1.1856676162644488,
            -3.0679178604420865,
            -1.0509461966192735,
            -2.001676046488673,
            1.3988490827157305,
            -0.3216648220526995,
            -2.243347251140966,
            1.5896444309037827,
            0.23386974304976904,
            3.35036398529175
          ],
          [
            -1.5373586987513448,
            2.53277925284313,
            2.0813071664959995,
            1.0716391012783983,
            -2.8126921755801133,
            2.3695604001275155,
            2.5579823236190946,
            1.0567457249435186,
            1.160244910431514,
            -1.1970255588835608,
            0.20939042666293217,
            2.4728189973813537,
            -1.296414748250874,
            -0.9886401991576794,
            -0.4400614930830536,
            -0.9171399857554297,
            1.1399102188219918,
            1.1261244944810536,
            1.2093072850290618,
            1.2238211866181792,
            0.9977048185918604,
            -1.2004358673760205,
            -4.412657829902397,
            -0.609453076272613,
            -2.6271588776757495,
            -2.535656582027465,
            -0.2705678521593894,
            0.15941406923547874,
            0.9383284824309174,
            -2.8720153223207925,
            1.2122404724288534,
            -2.548401655649651,
            -0.9749956752758404,
            -1.1650719918245631,
            0.8020713298391204,
            4.008483975869681,
            -3.8495175829166888,
            -1.6396981805416035,
            2.8771346307115557,
            0.6497288455019186,
            -3.54441800289855,
            -0.6963791583869118,
            2.4853099596204777,
            0.3965665014643111,
            -0.13911283277735897,
            1.4236647639772328,
            -1.0101635619637956,
            -2.6926477215116793,
            1.6231202984463795,
            -3.2225934357401704,
            1.9360719921154401,
            -5.4887078715038164,
            -3.0842445647239938,
            0.6900590437364947,
            0.06363322133916705,
            -0.7560496349444529,
            -2.7345174206618332,
            1.8534329926115456,
            3.4382815952374104,
            0.31429431467305646,
            -1.3834805343143928,
            -1.823850163006028,
            1.3584525106683394,
            0.020227894767774993,
            2.8601101843952113,
            -2.222435511907186,
            1.9073693353014192,
            0.4421770879511996
          ],
          [
            1.688308593756321,
            1.4453602290508523,
            3.8594927571223603,
            -2.1201288309194943,
            2.772876206910724,
            -0.8657175083573512,
            1.1151635535064683,
            3.100964930250819,
            2.500721719077088,
            2.261447520588723,
            0.1989306293925076,
            0.6955264623479184,
            -1.6945013289728164,
            -0.27927522378946884,
            2.1056264995226637,
            0.38317189683352276,
            0.6359549661641136,
            -1.4756789391919645,
            -4.7461912794104535,
            2.15919815680111,
            -3.011320365844168,
            -0.7830784374639224,
            -3.2023341898254665,
            -0.9277476106983022,
            -1.6518635524173562,
            -1.9562856172204142,
            2.4315722397271253,
            -3.2239141432882485,
            1.3100924641820983,
            -2.5689666184327535,
            -0.1078449524826898,
            -0.16701885890311458,
            -0.4218941312913589,
            -1.0100471577321015,
            1.4103463321876084,
            -1.6195754107902278,
            -0.7310153790213172,
            -2.5333607139903807,
            -1.0050349876591258,
            -2.736920202954647,
            3.1825190200837135,
            0.3699769042664609,
            -2.4776459034989946,
            -1.5759006286631942,
            0.22190736284697601,
            1.369762096523209,
            1.8466024227745286,
            0.8206048812523628,
            -1.3479231680104746,
            0.05092518249771753,
            -1.604464122898075,
            -0.12734867357381757,
            -1.9986955894088714,
            -0.3256548673775411,
            -1.1484945913116114,
            0.7313150124777388,
            1.4272489053935762,
            -1.7843572382543964,
            -0.6821985578342978,
            -0.06089924429402388,
            0.1762438095332572,
            1.4096625089837869,
            2.802682487673506,
            -0.6169872934183187,
            1.111465050104744,
            2.7248293050413688,
            -1.936093375009928,
            0.5016278633782554
          ],
          [
            1.3378545905005814,
            4.84992018062504,
            1.587603077291288,
            1.4016734624764065,
            3.714709847293374,
            2.6047977492299648,
            2.2793058808405853,
            -1.7565083922160598,
            -1.2412164783373822,
            0.15908356697808174,
            -1.7124056584082274,
            -1.0577924492263682,
            -1.5212462202076285,
            1.5631033085609176,
            1.3565320830697134,
            -0.7904065015617094,
            1.538313061770302,
            -1.692716196898639,
            -1.9678577322722661,
            -0.7803452692978864,
            1.4622490544965605,
            -3.7157598022462195,
            2.4594136384063745,
            0.4606825936272604,
            -2.101729294225147,
            2.544111923844611,
            -0.047996013323518834,
            -1.6632252661715559,
            0.6897330623702278,
            -2.952673442201255,
            4.111774038556851,
            0.0005282609363799207,
            -1.720067653144871,
            -2.186291091442124,
            2.001862235994203,
            1.114356981944905,
            2.2060060145002596,
            -0.007924705759209505,
            -3.587399618586145,
            -0.8088030588270734,
            -4.600889049793774,
            -4.884156623492915,
            -1.9651755334744945,
            -5.1089552160692,
            1.1221078632200883,
            2.8080934128186303,
            -0.4481867001079846,
            1.8038319901691473,
            -1.5432731887987372,
            -1.5733604716739216,
            -0.3687926350842172,
            1.1161265915890057,
            -0.5746706713043461,
            2.1291320665485776,
            -1.513377504734873,
            -1.8089705122267759,
            -1.9008263024433687,
            -2.5815136435698367,
            -1.3104570468699048,
            1.1590865194413413,
            0.7317601842823331,
            0.3951432153999702,
            -3.5681370503326333,
            5.396082374888642,
            1.3449542345758276,
            0.5593329250924344,
            -0.5208038228405588,
            4.249679382124752
          ],
          [
            -3.6025397655889564,
            1.424655541242873,
            -1.816793325143979,
            -0.4092994770476208,
            0.25903408129436245,
            -3.394283673304785,
            -3.4276487802403968,
            1.3763693872705707,
            1.4944531091763507,
            -0.6564091423980913,
            -0.5160776137276208,
            -2.0585422601856265,
            -1.461383874546096,
            4.618969766322046,
            -1.798681619869046,
            2.846986870692927,
            1.081957612363687,
            1.4501381441243126,
            1.0101766088901312,
            -0.8564277012234395,
            1.0307596246752926,
            -3.938328352422253,
            1.7353290547661404,
            2.3358347559704047,
            0.5409306650170944,
            -2.119252253914196,
            1.7486828928689682,
            -1.619037282099867,
            0.21306746402150373,
            0.6183127003786666,
            -2.131842012224618,
            1.231263972505966,
            1.2466525210698935,
            1.7739694720000505,
            1.759436406522218,
            4.469959685514302,
            1.5321640826974985,
            0.48734343664603724,
            -0.3186370036668317,
            2.373412603662625,
            -0.08751126152493915,
            1.1963522961025235,
            -2.891864314206023,
            1.7118943343369957,
            2.4321071563060563,
            1.3247099927718322,
            2.3846135897656726,
            -1.472262751302186,
            1.3429029855309882,
            -2.7767110904556276,
            -0.8739201412480996,
            -2.313140224780939,
            1.019399694202715,
            1.9163852480752332,
            2.7728828839593533,
            -1.1233561964126004,
            4.244817722721869,
            0.33118907762676464,
            0.6921075736530663,
            2.63586381433099,
            -1.0920933890678866,
            3.417333939040431,
            -1.5203393923411248,
            3.5655596502916467,
            -0.8947253329986775,
            -3.6529405122785454,
            2.43541788805036,
            0.17623151257442005
          ],
          [
            -3.0974722279273306,
            -2.5755149571311273,
            -1.097142956027041,
            -0.6657012419884657,
            0.7678112689589933,
            4.669908911277327,
            1.1875894904443633,
            -1.6894090594746474,
            1.8671942070463579,
            1.2970825498587333,
            1.666671312002968,
            -0.8253528022500382,
            0.9509140419843458,
            3.305696968574226,
            -0.35364584532965626,
            -2.030110058846214,
            -0.6518333580001319,
            0.16547375318613533,
            -1.1723787915785264,
            0.9086090195557126,
            -0.6400559860699803,
            1.397497150253453,
            -2.2488087037859357,
            1.1367974312724616,
            2.7919392164741828,
            0.6522166740862505,
            0.3738560517225619,
            1.871922508897277,
            3.1505008543897355,
            -0.4550301031934568,
            -3.8644317737574205,
            -0.6984109767527639,
            -0.903606823499476,
            -2.106943710576456,
            4.25439586701695,
            -2.0111348547274615,
            -0.4398419207587459,
            1.5259322763460594,
            -1.2336985860609972,
            0.8602938623734939,
            0.7048460247681984,
            -1.9772360128045317,
            -1.6586839470618755,
            1.657008127160792,
            -1.065503065880306,
            -0.6042352887819895,
            1.356399669231862,
            -2.902585376654108,
            0.7461352039853778,
            0.5662573605913668,
            -3.0878355907284485,
            1.1953680922478638,
            0.20233360214877677,
            0.5221056324971038,
            2.9098749166100495,
            -1.80693705669689,
            0.15406057826781291,
            1.3567175652821866,
            -3.3170080941035285,
            0.14602367772353175,
            -0.43565973661345336,
            -0.9441568831760939,
            -1.1842317991227933,
            1.7089304182318945,
            -3.3417798947386923,
            -0.3803089748674677,
            -2.2538975961351073,
            -1.90975049777619
          ],
          [
            1.559073873399813,
            -1.3132886669850858,
            1.3263003662083421,
            1.3499317322607958,
            -0.6802447701886284,
            -1.4658625873113442,
            0.7565051113635957,
            -0.8462796734551594,
            -0.5014906452292467,
            -1.8570088528496704,
            -2.5022142762570376,
            1.3647358671033032,
            2.8709001327264723,
            2.969974965100631,
            -0.92696948314988,
            3.6524688948889983,
            -0.11835061401557706,
            2.9819722716820714,
            0.702359896423042,
            2.436181435992125,
            -1.0168018355973911,
            -1.300617175451889,
            -2.2968461749878384,
            1.650149375504166,
            -0.9152279928683231,
            -2.7223252135020823,
            0.47629667374019713,
            0.43765744983805543,
            -2.610529938525361,
            0.6879846574027467,
            1.6052129581732772,
            -0.4630148759210205,
            -1.3855464161714957,
            -0.5544699850207663,
            1.1597168909157154,
            1.0737770216351916,
            1.6989958295372292,
            1.0170983852833524,
            -0.2075129643965734,
            -0.9865198194874829,
            -2.8334038223597373,
            -2.051184078737458,
            -0.7860426543061968,
            -3.3654106689624013,
            -3.994224892358281,
            0.24909271885589687,
            -2.548894275920452,
            2.168827679743051,
            1.0129975274282703,
            1.6915335165885028,
            -1.509061346840528,
            0.14622096047500302,
            -1.2132942572010488,
            -0.665948086268254,
            0.6200296523091812,
            -4.532137147788563,
            -0.6304883774188366,
            1.6852768735159847,
            -5.430669024884062,
            -2.8604457021904848,
            1.8120149981320002,
            4.032726302846358,
            -0.5164233826787334,
            2.1421370602636567,
            1.5544121505461648,
            -0.41714119824032986,
            -1.7908146465942754,
            -1.1430890447367479
          ],
          [
            -0.058944448215185075,
            -2.40155961261691,
            0.4889222173294958,
            0.23391751403335354,
            -3.038587065218233,
            1.9442645419294031,
            0.8317784490875453,
            -1.3232477481512417,
            1.9673853681643125,
            4.31556852477448,
            -2.308031976805479,
            3.3906519718159727,
            2.8120810819001902,
            0.2071266142215273,
            0.7924827244634767,
            0.15048377993629347,
            4.028578342900578,
            0.9931367086895906,
            -0.5191706021629391,
            -0.4509575668759769,
            1.766966630600116,
            -0.5576524024714743,
            -1.7854283356495375,
            -2.694444813348817,
            -1.7980884764708338,
            -0.21560800395928428,
            0.8107193975774034,
            -2.3068795829745072,
            -1.1566247436252262,
            -1.1846610013284014,
            1.7630368744477327,
            -0.5767619409323058,
            1.1518512395770995,
            3.1249694751395745,
            2.417534625791571,
            -0.4367490476153959,
            -1.1025714106124378,
            -1.745003013456463,
            -1.8101037658213412,
            -1.933276994316576,
            -1.058020254774764,
            3.526744768906403,
            4.325432332845796,
            1.266358131117794,
            0.7356597016822767,
            -0.6484352400289315,
            -0.48225559805750196,
            -1.5287395541677606,
            -3.7282752459342303,
            -0.131475224388177,
            -1.2217289543452583,
            0.23352281959177762,
            0.19319193396389966,
            -3.3649729310374044,
            -0.9258949959699355,
            1.5128932243419342,
            -0.6019466802055293,
            0.4040647075918111,
            -1.2088494788830708,
            1.1616042548658623,
            -0.5728515864409969,
            2.3567674714302997,
            -2.215420682799466,
            5.3573481540843,
            1.240652735970534,
            1.7744960689970535,
            2.8624735695581998,
            0.843323748969255
          ],
          [
            -0.46286701126308805,
            -0.2141750718761942,
            0.7627620212513627,
            -2.241341211769608,
            1.904274171504862,
            1.3952730902377268,
            2.267255003587286,
            -1.494732430355371,
            -0.7619043047830342,
            1.4779777891188903,
            1.7150373813408581,
            0.17644816023950527,
            -3.082408966627247,
            -2.041679637397959,
            0.5583330480566268,
            -2.4981888230706786,
            3.014880285779762,
            -0.6628319431351954,
            2.838925628947104,
            0.7125427786843769,
            2.0281088870426154,
            -2.100298240397625,
            -1.3267934051397026,
            2.0195963567161916,
            0.43069439497139167,
            -1.8813819957951152,
            3.6666040951282866,
            0.4471067073271081,
            -0.8183521341628796,
            0.5334926585269798,
            1.8902061236588446,
            3.520675354176192,
            -1.275946802213448,
            2.9853288032028606,
            0.8373855335960176,
            2.035859317506669,
            2.069797852822917,
            1.39815186182114,
            2.6510288527626,
            5.453128560623995,
            -2.5453706359771937,
            1.3148336138021295,
            -2.0547357036357967,
            0.6481645160193398,
            -0.9932097430576983,
            1.6877846691782177,
            1.166652658712248,
            4.450415839986272,
            -0.7985481906267309,
            1.1722579615134758,
            0.2786916195992446,
            -0.38675762930656976,
            -2.7391218318796233,
            1.1064826069047442,
            -2.783031548734538,
            0.6979722546207948,
            -0.664992404473373,
            -3.09689163984991,
            1.1905546658003898,
            -2.686759822816242,
            1.845405973813698,
            -0.2554505874303696,
            2.887776354755567,
            0.5336069482945738,
            -0.35040433242825425,
            -0.3500204587864352,
            -0.7187472941534777,
            0.1432837712207552
          ],
          [
            -4.795394352820369,
            -2.700187285887042,
            0.7972459523590516,
            -0.6542809174569841,
            -0.734983980835935,
            0.6996994978812701,
            0.9635891546652084,
            -1.1464393654597562,
            2.747382623767817,
            3.430607644769595,
            -2.3803452429172816,
            -0.09412358841763116,
            3.161596756062286,
            0.9524609272157544,
            2.947727609364125,
            -2.6411147284616794,
            1.4156746603276211,
            -0.7001305569953187,
            -4.157548515558922,
            -0.3589957585629503,
            2.657751332702313,
            -1.4215546124707539,
            1.331929861875234,
            0.5049008639791311,
            0.46777835370133214,
            0.29130325875767893,
            0.08153674833191077,
            -5.602632698527207,
            1.0753360556173535,
            -2.4497479581073516,
            0.6452585264170433,
            2.3057871862747064,
            -4.955124740981,
            1.0808042415614434,
            -0.19579590383830864,
            -0.9884299035274817,
            2.0398188756983697,
            1.9647751698103362,
            2.114006499178623,
            2.4244377972780606,
            -0.6561263309817991,
            -1.0553846339036312,
            0.7842411480917049,
            2.3610089223880997,
            4.342002762491125,
            2.2446986648294525,
            0.5893675057713378,
            -1.612268061818883,
            0.9743487464158496,
            -0.7139398821394376,
            -0.2556857884908268,
            2.6447665883322657,
            -1.589618789200922,
            -2.8306278829697007,
            -1.7193325973146858,
            -5.097985532982001,
            1.3771602774093825,
            -4.4027261015031645,
            -0.178062183885574,
            2.556471436337886,
            0.7262657246583979,
            -0.8087914743671614,
            -0.49998565030461445,
            -2.7044232422468655,
            1.7769183192091431,
            2.0594446290637323,
            -0.5521765271874312,
            -1.1613165688961593
          ],
          [
            -1.2857008317801024,
            1.8629566154178059,
            1.712650425519442,
            0.7323568827059016,
            -4.983035271214522,
            -3.5620351090136633,
            -0.7134088830584691,
            -0.6860621857091406,
            0.4919261846703851,
            0.13572230474251357,
            0.6154181426345491,
            0.18524093583647425,
            -3.8181692027268417,
            2.4150678570442388,
            -2.0026090116177784,
            0.3931542014842288,
            -3.3911438134863667,
            4.453598463172195,
            -0.1942929846148494,
            -0.601683761183147,
            0.17526439790736248,
            -1.6079835286037727,
            -0.3066627747619632,
            -0.5567713030314037,
            -1.4325077204773058,
            1.9503196477129934,
            3.4496950444917447,
            1.2117846371398233,
            -2.491213429732689,
            -0.11073109559942851,
            1.700839002198599,
            1.4150204595320626,
            2.3143864769483637,
            1.5066424481351828,
            -3.5612035938664173,
            -0.013071377698732844,
            0.07269076555218609,
            -0.16679000547761919,
            -0.5456998138075669,
            0.9245155523812758,
            1.4809213943523851,
            -1.3649360022441301,
            -0.6919026537715249,
            3.8723642262693074,
            -0.26134565897371087,
            -1.095669809790319,
            -2.680105269034745,
            -1.7440889185582806,
            -0.3663388439320325,
            -2.5503618241334935,
            -3.503540967165354,
            2.1696230792683036,
            2.989740914618344,
            5.909027399793265,
            1.3490154327318566,
            2.4397609397466566,
            0.9001881662931821,
            -1.6737895063046162,
            -0.7399003293212288,
            -0.6756470856298169,
            0.738769099369956,
            2.0446348811223105,
            -1.2271503522150469,
            1.7833521763541358,
            3.1870008317115897,
            0.9761354405333362,
            4.976991486469795,
            -0.4913822171330042
          ],
          [
            1.1260912355344852,
            -0.10448528258224662,
            2.2174169856897996,
            -4.1317095897552,
            1.7409685903234375,
            0.10555486498305156,
            -0.3065889411979409,
            -0.7985407552909337,
            -0.48001937238817605,
            0.9002479787679938,
            -0.9156448824909552,
            -2.183599859035178,
            0.40920770820422137,
            1.995477268472378,
            -1.0519071057371254,
            3.332920094695079,
            1.6408395644218847,
            1.4353263568621573,
            1.4522849818621562,
            -1.4113029887208708,
            -0.6919107205522208,
            -1.652535532633921,
            2.427891765836806,
            -2.2345482040331914,
            1.2317884152576215,
            -0.778377486645732,
            -0.7227495984536798,
            0.8169965233227539,
            1.9103596066058408,
            -0.10208090171087601,
            -1.3435911475940188,
            2.9646686347495135,
            1.3603444647741174,
            0.7999223267792668,
            2.2463082431732504,
            -1.112923076950711,
            -0.5890360823419952,
            0.5406525639797995,
            3.50581185581685,
            -3.607866485879656,
            -2.7963683595538615,
            0.6810155210412229,
            2.7736593951228588,
            -1.8955504263273142,
            0.8891885504628546,
            3.456935379133878,
            -0.9011444429653184,
            -0.674528273335783,
            0.29996860596992003,
            -1.727870973095764,
            -2.9931343420424845,
            3.2689062593949094,
            -1.878427088992209,
            -1.1090924528014705,
            2.1497256221927117,
            -0.3645880434227797,
            3.293062067250565,
            1.2936689376909931,
            5.229189066365605,
            1.3628537998692216,
            0.7098005108971114,
            -0.07299759274491174,
            1.5358858091871643,
            -2.489325626613209,
            0.5664383532277056,
            1.2014015425857585,
            1.5795809766063946,
            -2.5513854851368203
          ],
          [
            -0.1792582901604084,
            3.3239209621571404,
            1.0027503637162045,
            -1.0476606131249104,
            -0.9871661822735568,
            1.2151508139818328,
            -2.1368806808142584,
            -2.3010467873203595,
            2.374004808734562,
            -1.222975744547984,
            -0.3162573743218128,
            2.1694521718221336,
            3.4333816755220563,
            -2.278328830306405,
            -2.8557112202192467,
            2.3816551751614212,
            0.574277848383486,
            -4.322465508537285,
            -2.8584883184473258,
            -1.9585472903076844,
            0.14241165782937104,
            1.31254667196559,
            0.3561145975139921,
            0.13670986015561454,
            -2.932212060557489,
            4.059071382426505,
            1.6214184452063567,
            -2.299369501322904,
            -1.472907020932411,
            -2.6603188841232455,
            -0.5804173304021012,
            3.737562969384068,
            -1.7014264733852769,
            0.4594139296382538,
            1.4804590915565452,
            2.780911985889365,
            -1.027060085118585,
            -0.8164788032980141,
            -0.492640254831202,
            -2.3495019048587977,
            -1.2471466310899264,
            0.6961395386960527,
            -1.2514612546943404,
            1.1249189529147618,
            2.963989295294825,
            -0.018954045270221966,
            -0.9632680473606692,
            -1.5336264780243614,
            0.6815477430641073,
            2.4405821242287686,
            0.14977616004142458,
            -3.2280365928813426,
            -3.8196416278212277,
            1.730650768157876,
            0.6823457193634138,
            3.0232740605973953,
            2.566700423137348,
            0.34035079493309495,
            1.8779204717053102,
            0.45367229126140834,
            -0.33328213542624485,
            0.06492252602930743,
            -0.649374192230485,
            2.1340531526815996,
            0.2701133685912957,
            1.6352504227189277,
            0.8064187254322168,
            -0.9365206225335746
          ],
          [
            2.2030119314017305,
            8.147788845242445,
            -1.8393818452856983,
            0.45521828383896845,
            0.4351834103666058,
            -0.3668077088297621,
            0.8360586220560399,
            -0.08324059221969707,
            1.2578465687089153,
            -2.88533471568896,
            -2.0582982463998114,
            -2.172553274198125,
            -3.2908033691178504,
            -0.12357786768986671,
            -0.48966103067387323,
            -0.9121829773551356,
            -1.8079712622230941,
            0.21993044620492286,
            -3.483515150530754,
            -0.9362543813709407,
            0.3468830188521589,
            1.0033623574456945,
            2.0498689359591564,
            0.5272494968821061,
            -3.001880764382613,
            -1.1838797343125733,
            0.3114740143510963,
            0.7128255748839253,
            -2.1262172104363324,
            -1.4255908273124733,
            0.2137896272276441,
            1.451339010240423,
            0.9341753519309853,
            -0.2256707559715228,
            -0.6998460355472376,
            2.5008392451184593,
            2.8559068586693135,
            4.392987854201132,
            -2.4138307787854627,
            -0.43744099992555285,
            -2.9024634136588454,
            0.35976756931584064,
            -0.4405869067262272,
            0.7219734003834521,
            -0.15915382540137019,
            1.5869407782794385,
            0.9865556126002695,
            -1.047473502444118,
            0.09507980527128695,
            -1.8012112357191612,
            -4.445138596661052,
            -1.447916686408847,
            0.21043167589143397,
            0.8864239034587841,
            -0.29735836974369356,
            -1.872473206416676,
            2.4334577149890415,
            -0.3292485927938126,
            -1.7330576768649995,
            -1.133893844392926,
            2.106886854889025,
            -6.045262169959015,
            2.157358973737801,
            -3.717850569562474,
            3.6202959340171628,
            -0.8791092678634698,
            -0.5753454070136459,
            0.887003561160587
          ],
          [
            0.1690870302693543,
            -5.749110678540665,
            -5.0487804944441566,
            0.2525558738120097,
            -0.8584700780813185,
            -1.343329141247896,
            -4.934600874256826,
            -1.1879738395135426,
            0.11125607897633985,
            1.2629730367739314,
            2.064791122653785,
            1.1715096740177517,
            -3.5182776565376557,
            0.9450270422349563,
            -0.3610949238438071,
            0.3053477530259903,
            2.512237880780267,
            0.4029092270328732,
            1.3542158113896006,
            -0.9536197775686268,
            -1.4607452126594735,
            -0.8941567148988443,
            -0.39778944140971234,
            -1.9811120939010762,
            -1.0577924099444949,
            -3.729691608825531,
            4.2439968966724,
            -0.2766708995291846,
            3.2381520626063947,
            -0.6984704771132806,
            0.5830020276589754,
            -1.4762118349855518,
            -0.29410702153025126,
            -0.07683748119050965,
            0.973660716880728,
            -1.8835459460806914,
            -1.6040861041405474,
            -1.741425187997965,
            2.6842441225106595,
            3.0369617642807136,
            -0.6604712866988327,
            2.067798632877916,
            -0.3931940772575519,
            0.42947370499535037,
            -2.45066782166983,
            -2.2224436388340876,
            -2.606788515942611,
            -1.7252277441227335,
            -0.6856979584399538,
            -0.8364101715025315,
            -1.0576180954008725,
            0.2757404829062772,
            -3.4006881133729707,
            2.2058806951419525,
            -0.07545851531181563,
            1.0461074822357508,
            -2.059088936745611,
            0.39566083853276546,
            0.4567186145780394,
            -0.7126482065559003,
            0.28936896549546914,
            -0.2984550342046547,
            -2.1513114691137742,
            -2.1345703388916744,
            2.5432378792075214,
            1.7123766599723125,
            3.888650806764164,
            -0.007582395648906837
          ],
          [
            0.38561822530234274,
            -2.6704029282651875,
            0.9242776485176663,
            -0.2629936656384435,
            1.3516959558505228,
            2.333452124377286,
            -1.711429493700054,
            -0.2557083254137833,
            -1.171528750511688,
            -8.31525359997511,
            0.44799831659565864,
            -1.77857979725786,
            -4.928742368032707,
            -6.3277416026336715,
            -0.15166475564199355,
            2.108084349684749,
            -0.3086065698009697,
            1.4498816681299864,
            1.123421754874291,
            0.3942113042227167,
            1.993181419390436,
            -2.0437470237561834,
            -0.1431525656570455,
            1.0157610598450346,
            0.7721417135458764,
            0.4597865385393738,
            0.07127177640222171,
            -0.4998013693827333,
            3.3646320134660233,
            1.441006824714596,
            -0.5400898717485187,
            0.4372328557378562,
            1.904570787264669,
            -1.7952104655402317,
            -0.16908356546205072,
            0.8263701680743696,
            -0.6536237292801436,
            -2.2673442229692244,
            1.070764175214633,
            -3.51087817723928,
            2.33847488773238,
            -2.6780273037094915,
            -1.7862401499210603,
            -0.3658836235743971,
            -2.8031931244365156,
            0.5430298298287547,
            -1.6650788850831988,
            2.8321395017928825,
            0.7980825433042785,
            0.6764258493116673,
            -1.372226224311785,
            -1.6578028262910345,
            -1.4783697998764662,
            -2.1963544725170108,
            1.0621007098233761,
            -0.6439937152648719,
            -2.928400158202501,
            -0.504868134897428,
            -1.278454397601583,
            -0.6258858099762992,
            3.5949836361976173,
            -0.6300636388326779,
            0.17396396770044853,
            -2.113374018522373,
            -0.6924524985680236,
            0.8549540542354226,
            0.28003715307427585,
            -1.6186960867679132
          ],
          [
            0.6033251985714307,
            4.3813399292854545,
            3.450900569270147,
            -0.538284048052653,
            0.26483853754458897,
            0.0978554270981874,
            1.3110912872806542,
            0.16400132474712403,
            2.588000765505012,
            -5.269341655069294,
            -3.2376252694731114,
            -2.3429503410101393,
            -3.4988296060037105,
            2.771746799403021,
            -1.4342829882341883,
            0.5149640220629653,
            0.8712395186369706,
            1.2892193632664128,
            -0.6126733225489435,
            2.955933922139627,
            2.145917724611783,
            1.153268154118237,
            0.530692367645942,
            1.8639651845036438,
            -0.4955415833131468,
            1.206208645862824,
            -3.5727106512602003,
            -2.271616082215738,
            -0.8595781809899921,
            0.4569099314746573,
            -1.5801825851552598,
            -0.3418812039414568,
            -1.5588583948608805,
            1.8846264388673177,
            -2.883694792534092,
            3.107005608464272,
            -0.3118209114362942,
            1.7384945004692316,
            -0.6416969755913264,
            -2.1046747085617303,
            3.6929017152973564,
            0.08454519762356041,
            -0.9095893731441058,
            -1.1001447764979126,
            0.561593923908001,
            0.8626239739594705,
            -1.7967599912487289,
            -0.1833370900493866,
            2.676910803642659,
            -1.5996350434974065,
            0.6276314458347152,
            7.068448956459089,
            2.8532585802683315,
            -0.0015348426840559037,
            0.16551905620688895,
            2.440211143693048,
            0.10178795078435021,
            1.328309162132825,
            -0.3448017091656479,
            -2.4238408089401347,
            0.969775904265606,
            -0.5088735693880863,
            0.27877069971302426,
            0.3834313682938469,
            2.502394562552271,
            -1.6036271658744283,
            3.1127781677814323,
            1.4283467729908377
          ],
          [
            1.492140062119897,
            -1.784991225745929,
            -2.208026603630167,
            -1.0230822721670476,
            0.2166201306819443,
            0.9009365184001519,
            -0.5037767289115219,
            -0.02716560924651451,
            0.24202913950649257,
            3.5697163301817825,
            -2.4169948991486345,
            0.896573149539261,
            -2.995811117211591,
            0.5392771396335978,
            -0.7457834315206592,
            -0.673317370098634,
            2.559354573781611,
            -0.07098219659483834,
            0.10178227000599784,
            -1.0419205971108116,
            -0.8888184314452754,
            0.5241232415911481,
            -1.7972291597809775,
            2.1210697978946955,
            1.4686449577690648,
            -1.4790081343361938,
            0.7846863463141749,
            1.6655395778287516,
            -1.730814332671243,
            0.9656249427010546,
            -1.6987709753099804,
            -5.369371561598891,
            -0.4659861398626772,
            4.453458846105904,
            -3.6423237157602784,
            1.788920353067801,
            -1.0043232734050795,
            -0.718930245141964,
            -1.4321043604073869,
            -0.6266997666341512,
            -0.8118345961625391,
            -1.300208600218236,
            2.2361085461651555,
            -1.2247671218792113,
            -0.24660416151284947,
            -1.0303953797907235,
            3.1471592375059214,
            5.332209564800536,
            3.7282483307011884,
            -3.1196623012006217,
            -1.430653843882428,
            0.42932933481026325,
            0.010663402605767591,
            0.34354480349964955,
            -2.0287034273290594,
            0.28297740378820746,
            -0.47984190797448945,
            0.09067228688004336,
            0.2148095719548476,
            -1.0247523010386421,
            1.5035198154328597,
            1.14666071117719,
            -0.18112256872641724,
            -0.30194675534803217,
            -1.9698503331058412,
            -1.948141152483696,
            4.11066940760278,
            -1.2727774218414118
          ],
          [
            0.09790974077496917,
            -2.1993455269585973,
            1.6110109332020346,
            -1.1957919900218086,
            0.5961283287795893,
            -0.79978844413436,
            0.28470631860318313,
            -3.1918451418777707,
            1.2125068100556218,
            -1.201425348114814,
            0.8854476609195249,
            -0.5996215128369822,
            -2.1736611918179087,
            -0.4251579193750569,
            0.9259661245837529,
            0.45357441523152947,
            2.026260820169409,
            -0.53125669922942,
            1.8445766785510807,
            -4.070784554753905,
            -1.6609272450355619,
            -0.16521051862834052,
            -1.4547426504438863,
            0.6830379528527935,
            3.033524275438537,
            3.0916279821485055,
            -1.6365680279153056,
            2.280024505097122,
            -1.3887657474549733,
            2.6550859978504024,
            0.5883659205033389,
            2.906303106123233,
            4.196625878662087,
            -1.503740952116651,
            1.4086877183640067,
            -1.373026842596382,
            -1.0971618819246833,
            -2.28817517202122,
            -1.8682494870324753,
            -2.7933621230733823,
            -2.0180820269531816,
            -1.4845610436895904,
            -0.5168093164213919,
            2.8564071214114137,
            -0.0575108794224315,
            0.14913664898869666,
            -0.488304713372305,
            0.07290545517895342,
            0.9349138301307637,
            1.219093519113718,
            1.5275719268261323,
            0.509335019855909,
            -1.131269552130527,
            0.8365436061032303,
            -2.1905718348694903,
            1.6404516541932324,
            0.4688740343852317,
            -0.30101587318611084,
            1.9761549098973563,
            -1.6392912182261463,
            -1.8800323507402361,
            3.419864022164688,
            -2.356066004137472,
            -2.5587159735771223,
            -0.33958220255475624,
            -2.4281009370739186,
            -0.035769524322485896,
            -1.4413579377219572
          ],
          [
            -3.7524251654963874,
            -4.5072976601565555,
            0.7250368317661869,
            -2.640909798894276,
            -2.9622451774580587,
            -2.007665083320218,
            -1.0916145873630414,
            -2.9917588572244953,
            1.743720096867827,
            0.7647539914609508,
            4.2804012149563775,
            2.0633342762181073,
            -1.3534980360797233,
            2.3130700392929326,
            2.095075497466922,
            -2.4890872089865534,
            -1.1781132034929978,
            -1.0761953889970024,
            1.1013037055105905,
            2.1373883788029056,
            0.9475057982457245,
            3.186628199440694,
            2.9620838421739366,
            0.7025973084503746,
            4.66868903576256,
            -0.8254495663032629,
            -2.1547515663316563,
            0.08884803689386545,
            2.3022682967341526,
            -1.6007456025433386,
            -3.1964626131215748,
            1.1011495809416858,
            1.6132391540687157,
            0.027787951519610027,
            1.2180382609836318,
            1.3654453894078982,
            2.7400770157492085,
            1.198128591023578,
            1.9651210741971268,
            1.837662518848288,
            -3.6046885975052834,
            -0.4664084806011047,
            0.6266506219332385,
            2.70918661342793,
            2.1552734408316794,
            -0.40403451778282157,
            -2.3447459955879744,
            3.674676998157119,
            1.5670162062585913,
            -2.2531910649459332,
            1.379849867950185,
            -2.870276651259771,
            -1.573806553169826,
            0.6606668922496504,
            -4.821633711545247,
            -3.3627596170288503,
            1.6642348919178764,
            0.606430806791084,
            2.7862111438545094,
            -2.6172883622593135,
            -0.14127742302053048,
            2.6032986706198686,
            3.1052825411037017,
            0.5440381495161639,
            0.37825627432967446,
            -1.0517876847507168,
            0.19384627542384425,
            2.6614139246179316
          ],
          [
            -0.5107321521111013,
            -0.027388340190483085,
            2.9154417957945093,
            0.8373935860949362,
            -7.938301212844088,
            3.576943671038903,
            0.4009878542292181,
            -0.6654077440333244,
            2.1771351007900877,
            -0.03824910086377728,
            -1.7295492368925485,
            3.5898530377903923,
            0.8682392071228229,
            -1.3794649962541627,
            1.0971958931135208,
            -1.9172660001941348,
            -1.6918566401047388,
            0.4582106912833995,
            2.3532445178310737,
            -1.646858782671297,
            -0.24171631727679566,
            -0.45221413954639933,
            2.387072819859429,
            -0.903823700260774,
            -0.5277642753476477,
            -4.753492563993624,
            4.821838137115857,
            -4.984054420161472,
            -0.9492519494932888,
            -0.45249986437819506,
            -3.126887042880155,
            2.490236219914895,
            3.635551927854741,
            -3.3460801301435334,
            -2.8611725921344453,
            -0.35862337266273486,
            -0.7736600902582484,
            3.5272196947414614,
            -1.5720089128023313,
            0.3797538410338851,
            2.1790638021396136,
            0.8502324983309433,
            -2.879318248274602,
            -2.469093216715165,
            -1.5178665480615852,
            0.3008790950774509,
            0.8089074797985933,
            -2.3528418196049827,
            0.12619961820348782,
            -3.0312547524436475,
            1.3991937177846006,
            -0.10495474454955794,
            -1.4860829374980198,
            -0.04869076523206356,
            0.42134297424135936,
            -0.5369905646092119,
            -1.8230757023038089,
            1.8679193766705982,
            -2.8420263803132317,
            2.236418630105839,
            2.9876248385212336,
            -0.5008214416058363,
            0.593041967787318,
            3.9260496258285977,
            1.7082695850796386,
            -1.2849094773569696,
            2.8533508692262126,
            1.396211480918866
          ],
          [
            0.08310172527217796,
            -1.090731228536336,
            -2.1985582230104654,
            -1.2215970336951925,
            2.1729414710733255,
            -2.1730246659990335,
            1.0025823727133125,
            -0.3902265242125717,
            -2.512811195538855,
            -1.713416690679804,
            0.0871026256495076,
            1.6144083522831818,
            -0.3564002394338744,
            -4.4051120733241005,
            1.849784849673403,
            5.214754521438673,
            -0.40134465389523644,
            -0.6722431163182861,
            1.050890592790487,
            -2.0447786224365254,
            -1.7875889810855379,
            2.9520854837925348,
            -2.990876092133016,
            -0.03707470538365887,
            1.6915090362323841,
            -4.34735619303786,
            2.2908045225300637,
            0.8779670690088108,
            -2.4568205661473206,
            4.159827371280975,
            0.08104645384512218,
            2.1918464576092163,
            1.6304992823700974,
            0.6543013213356792,
            0.7681522813553849,
            2.6232327809654463,
            -0.44489485151948555,
            2.1305519956468535,
            -0.5823714125384889,
            -2.842080055017329,
            2.5287593767188183,
            -1.3364991714181313,
            -0.2668099942318388,
            -0.7713372311118816,
            -0.1313179647822409,
            1.8456205200060187,
            4.543683342162809,
            3.7137290151354123,
            -4.310695183529986,
            1.2094281001376201,
            4.845534167155385,
            -0.4312516625140095,
            -0.8429280281017157,
            -1.4224643891929334,
            3.235607921551101,
            -2.945217915867598,
            -1.8311513662085253,
            -1.7731818968990547,
            -0.5639826792245144,
            -2.291327402677413,
            -0.14885166968911684,
            4.2179914115521,
            -1.9433343879842178,
            -3.1802847108167955,
            1.2852544161500457,
            -0.12946154797090115,
            -1.8331761424310424,
            2.037622933718157
          ],
          [
            2.661189742689949,
            3.9350960189323665,
            -3.440457139806628,
            4.653585272990332,
            -0.7126968615898721,
            1.0906193549384564,
            1.5320842068717024,
            -0.47178969897023737,
            -2.357093773231878,
            3.8595683403340293,
            -3.077894152019752,
            0.20204437127682248,
            2.1330774981387584,
            -0.16830315052351885,
            1.9156814279735501,
            1.4894314255287746,
            3.369329322907179,
            -0.14520509593520428,
            1.4228890479214016,
            0.2323228075401561,
            -2.6479875502523695,
            0.4818166863794638,
            0.43488067640337624,
            -0.71575817976869,
            0.2773335934167328,
            0.7524015839825172,
            0.032612852272582926,
            -0.15299367345248632,
            0.05436918125574419,
            2.410525225680221,
            -0.7218779036979812,
            1.1465816051180893,
            3.969095044682634,
            3.231562237751331,
            -4.019575664733683,
            -2.4217596058699606,
            -2.303474367542505,
            0.5177698000681152,
            2.0239488950113937,
            -0.04840413586525566,
            -2.0005523254507454,
            -1.8989648388154854,
            -1.2292269231757167,
            0.6145784451787255,
            0.46604030448352185,
            0.18107094558438525,
            -3.7366765836541393,
            -0.5925872876578365,
            0.6189264880452097,
            0.8376648519582626,
            -0.735982511463901,
            -0.1444685513450458,
            0.09779273959071055,
            -1.6633256701702392,
            1.7671491202179321,
            -1.7472783888321717,
            -1.1859486533333767,
            1.971095305513491,
            -1.2403260155310671,
            -1.7647865812817014,
            0.439458626752503,
            -0.7261524331179181,
            1.9525267676388676,
            -2.2357097887686366,
            -1.0316112994229334,
            0.8194711948095437,
            3.2368217608126404,
            -0.048285355767033744
          ],
          [
            4.0657098783616314,
            -3.4840743059254695,
            -1.1708559230212467,
            1.0273176299187023,
            1.987728517419166,
            0.6639591444481154,
            0.9398308530169692,
            0.8310766340918431,
            2.1480632330057796,
            0.11759358845213835,
            0.7702993398449314,
            -0.6715347287053037,
            1.4671088659326,
            -2.0428195981825863,
            -0.8923787541183823,
            2.141080598004172,
            1.5215050109987025,
            0.7148015050640062,
            -0.08896780183769945,
            -3.1437729016056206,
            1.7258087658303085,
            2.3887246897240466,
            4.597813466126083,
            -4.0050497332679535,
            -1.6179074434180203,
            0.06214342358453967,
            -1.6845593697952885,
            -0.9710448686890506,
            -1.5933947868443232,
            -4.7005811284305254,
            -0.4650483194162618,
            2.012765865208304,
            1.6170641284054967,
            0.09741812296021088,
            -1.0370156981131275,
            -0.02024108356113638,
            1.9255325495532207,
            -3.2223545206420763,
            -0.3384247848842402,
            -1.8386698540305744,
            -0.09133102625688637,
            1.069112217103297,
            -1.1155668088894406,
            -2.5738354170631834,
            -4.149398434865208,
            3.909101048430552,
            -0.26007582791103934,
            -0.26328489189356774,
            2.8435007851213663,
            1.6941836179681764,
            2.3998691155114145,
            0.5970609659787997,
            0.5430749786893505,
            -0.720361714731573,
            0.03803172842885455,
            0.48340673778500154,
            -4.075886836301431,
            1.4369270481922845,
            2.9054031803854903,
            2.8441315335667996,
            0.34350293486715344,
            2.20415683639038,
            0.6915588114516595,
            -1.5262059790010682,
            -0.038788893607768646,
            6.211900450625376,
            -2.551654581000709,
            -2.2798970872157045
          ],
          [
            -0.18838798722203165,
            1.3835476107029736,
            4.837240439504659,
            -0.6294654854229758,
            3.766768920451368,
            0.4775096585999028,
            -1.2680804373189318,
            1.9449591902318586,
            -3.749721017009173,
            -0.3762465057060783,
            1.6776643731458674,
            -1.2085364944197987,
            0.6543791646610868,
            -1.1573290060398151,
            2.7406779311365415,
            -0.585960307217724,
            -0.6206494744972298,
            2.454756522347531,
            2.194509458882427,
            2.869907377670796,
            -1.9729407647954853,
            1.449096741702033,
            0.14266984016224668,
            1.3865772783366335,
            0.23602312726558072,
            -2.0672924159076773,
            -0.6732729591201245,
            1.9110505655357293,
            0.04079909214605759,
            1.6176081686596906,
            1.0690443531215084,
            -0.562887605446553,
            -1.5085013988837999,
            3.6781732935536633,
            -2.2440011651008014,
            1.5660863312658988,
            1.6098301983695154,
            0.8566761140287118,
            -3.5233480525845353,
            1.6593804504589043,
            0.707982158296639,
            0.708174257818246,
            -0.554667400137599,
            -2.6477109345811787,
            -4.050243017749802,
            -1.199391978103447,
            4.3111643058908,
            -0.596309066475019,
            0.11356468801941524,
            1.4304913722310357,
            1.4645755822112887,
            3.6295844499292444,
            2.5613913919122475,
            -0.6251602160932208,
            1.1426482191126428,
            -2.3294981426548254,
            -1.6283642281185087,
            0.2589554004838247,
            -0.4514641130569414,
            -0.2503601613834567,
            4.116906265876171,
            0.5510930846292384,
            1.4094898884860023,
            3.5714151236955276,
            2.470354545230513,
            4.57555930362903,
            -2.7884293235013646,
            2.9112390146499516
          ],
          [
            -0.8333275046010651,
            -0.489779316561799,
            0.33845861922689585,
            -2.1621638246705497,
            -1.5218525502851419,
            0.1767493565204226,
            1.5459370908715142,
            -0.9796868665080485,
            -1.7244963195348424,
            0.760471287980754,
            2.5377547109191254,
            2.3081507134191748,
            2.7446745241931567,
            1.5528606873395456,
            2.1136116246100767,
            5.37550975110437,
            -0.648379546865411,
            0.9613746549765791,
            0.5686932605325382,
            4.2854964135133535,
            -2.609145058976505,
            1.7706588546218298,
            -3.188435735400777,
            3.160315306728229,
            -1.590128447032666,
            2.1651269005684117,
            2.3516395893403663,
            -0.4118094644236221,
            -0.6093918468389828,
            0.4420683366799704,
            0.5644707391955144,
            -0.490491666160265,
            2.4375476819142854,
            3.438325799726608,
            -0.47409823653516503,
            1.3305222605472762,
            -2.972830637291799,
            -1.156262597589272,
            6.404440118133593,
            -2.6308801749618063,
            0.32801097900759196,
            -1.6631101166526963,
            3.178638960899364,
            -1.626032478295207,
            2.589237781635011,
            -1.629430579303114,
            1.9280234852680385,
            -0.6593457959648444,
            2.821178885871403,
            -0.769076214371784,
            -2.215417345038594,
            0.757879590627563,
            -2.4183580357543075,
            -1.1377930840065191,
            -2.7815491814238102,
            2.4650098516239267,
            -1.4514432499559957,
            3.2224209898304705,
            1.316534011452981,
            -2.878394101539961,
            -2.32246467263624,
            -2.5336271328999724,
            1.6250114895003567,
            2.0665419921494026,
            -2.904267800496776,
            2.286673577141402,
            -2.297137872453813,
            0.8205248539201102
          ],
          [
            -2.882259377600298,
            -3.136605901796948,
            4.436097361992269,
            -0.18964110546331514,
            -0.09028396022671592,
            -1.5994782690504377,
            -0.5465344917755318,
            1.333966571847836,
            -2.55503543325699,
            -0.0012560725115241533,
            -2.1204460915688994,
            -1.2597151327510185,
            0.9683431899101562,
            -2.647762668984039,
            -2.2679296556575617,
            -2.533100912949831,
            3.2095079809955815,
            -0.06200993758693735,
            3.137760170663876,
            0.22854253745686293,
            1.3767521816157475,
            2.34224043348408,
            -0.05225503799818754,
            4.271785024091119,
            0.6092412643117239,
            0.30861728851960335,
            -1.4986441678005042,
            0.5071060671863584,
            0.6642987805097454,
            -4.013252191698919,
            1.6501343341415615,
            -0.01695044210175295,
            -0.33691671259933853,
            -2.1603673351113666,
            -2.2866538720230967,
            0.08364452177779164,
            0.972160195398196,
            -0.9681071002333854,
            2.9781268544131843,
            2.198351525285986,
            -1.3257700780406683,
            -0.018620949688820804,
            -3.6834658408564116,
            -1.7153899440664837,
            -1.340449922333445,
            0.5913389289507824,
            -1.2193830238971581,
            -2.108062594130617,
            1.4437268767568558,
            -0.48670442064918196,
            2.0402692046178963,
            -3.9987960124701534,
            -2.4934363604496275,
            0.9556141568460998,
            -0.6341674922860054,
            -1.02854695896169,
            -1.914081412729539,
            0.9820835497765827,
            0.6893433016137372,
            -2.549710659335887,
            -4.022456818646939,
            -2.246878714086993,
            0.9858173424263786,
            -1.9840934850622702,
            -2.692831791175295,
            3.782321416945733,
            5.140124387926303,
            0.5198689143207831
          ],
          [
            -0.8766634215359733,
            -3.760851304438359,
            1.4298396844584276,
            4.076271800376836,
            -1.0094005331413223,
            1.7961073079378014,
            -2.932224955422301,
            1.7649769809879974,
            -0.9978095002614427,
            -0.7994742757294468,
            -2.2274257100174935,
            -1.383412651963392,
            2.4769373189341626,
            1.221244218511216,
            -0.3089955242683704,
            -1.010338650095656,
            0.08040219667886683,
            -0.03835686809928668,
            0.22686270522473378,
            1.4151883056846408,
            -0.4262350092441486,
            -1.7010937291109236,
            1.7985569793579104,
            1.4780226881951533,
            2.534265062393943,
            -0.662169581986018,
            2.8487578191162477,
            -1.4986031905868715,
            -2.5301060804954725,
            -0.6886781841542934,
            -0.39853344201217444,
            2.7869749906015926,
            1.0546464147966086,
            0.6657235103054685,
            1.776037049238331,
            -3.995511375142856,
            -1.457070008026263,
            -0.1370313259277937,
            -0.2511770170630841,
            1.1412831033412787,
            0.1125969224342731,
            -1.6685616516649686,
            -3.779939588544479,
            -2.3561649820688406,
            -2.190548852352304,
            0.7488887025048099,
            -3.8981410207282874,
            0.1926947906255212,
            -0.5523663244102485,
            -3.8194697972866813,
            2.3388891146017396,
            2.700908450775969,
            -1.5150865977813563,
            2.0515244493463007,
            -3.1193805751144494,
            -0.6701952443828045,
            -1.4922900829927033,
            2.5806804959369094,
            0.6179410453272929,
            1.3241806610741926,
            1.0726408869011652,
            -2.7150087597119286,
            -1.1369915696547346,
            -0.8988835817352288,
            0.6634326339935067,
            4.4107655012135405,
            -1.9552645097579324,
            -2.5763400283024036
          ],
          [
            0.9605932413290953,
            0.4124490597306113,
            2.613426168944878,
            -1.5743649608952759,
            -2.771289157343181,
            0.9967606302115724,
            0.057850518720943156,
            -3.6440020344940938,
            -0.9211901904049576,
            -2.251638069716081,
            3.6317195321416635,
            -0.2550727595616112,
            0.091752549820287,
            1.3330161023302036,
            0.252865475103596,
            1.9367204230737196,
            -1.05539823510919,
            -1.3508029277060223,
            0.8023139222804445,
            2.2374988710690635,
            1.383512368457015,
            -0.5288948034280493,
            -0.7095730469772324,
            -1.0553022513127448,
            -1.3460771345225626,
            1.4305001830996513,
            0.23472785341856822,
            0.47643016852036746,
            1.8520092457661577,
            0.8839797572660147,
            1.9832101963284021,
            -0.9656758482906087,
            -0.13810033208535064,
            -0.08811153579641978,
            2.419249360523021,
            0.27093237382985236,
            -4.075370658563387,
            -3.738006309601502,
            -4.160986173512344,
            -0.31421949336584115,
            -0.7278418271445608,
            -2.1135553164792955,
            2.767594030892829,
            1.005357262503756,
            2.0173337885322313,
            1.2084890787727904,
            2.9883253110315793,
            2.4583692044638643,
            0.09897575495624102,
            -4.270982561746578,
            0.9517731531628887,
            -0.6341460723267638,
            2.630641726384431,
            2.0749704398762088,
            -1.0052972125267532,
            -0.6898001488451858,
            -1.3685201618323894,
            2.01268780199318,
            3.1878080515779943,
            -1.1560861796046127,
            0.5294491376775055,
            1.286325742017403,
            -1.214125241796057,
            -0.9877208182383188,
            -2.0580398718614217,
            0.8031162225224269,
            0.9827623615817742,
            -1.39626282499877
          ],
          [
            0.6597195141011226,
            -1.0045279512566965,
            3.1063737703381618,
            0.997973898938479,
            2.538221398706514,
            1.4592949109199023,
            3.728932079116715,
            2.9246357369829385,
            -0.7047962747025149,
            0.4540239648231742,
            -1.40246525749056,
            -0.12747516530353578,
            -1.7176386617416903,
            0.760951816781454,
            3.8504423446991423,
            -2.554136508235703,
            -0.2605345831633916,
            0.2457131309820482,
            -1.2477348926647454,
            1.0317661996384278,
            2.3820311980806848,
            -2.637071288872892,
            0.40128744257198146,
            0.5044576908720657,
            -0.6968703410083541,
            -0.8597536086212704,
            0.7804975039531935,
            3.942459181963762,
            -0.5443555758927671,
            1.175037201786528,
            1.6977028512489496,
            1.4620345179928207,
            -1.5975146372546574,
            0.36495396094756216,
            0.03474602455714929,
            -1.882847532107027,
            -2.3849219550808316,
            -2.5205033224147044,
            0.03616255792450773,
            -1.4457997285974082,
            0.026358109488739723,
            -1.7584702377971655,
            3.7031189528768746,
            -2.988066765423555,
            0.62767294141217,
            1.7420101410936155,
            4.130189028587805,
            4.353084795009176,
            2.337231415200009,
            3.974837173268264,
            1.0825139941123156,
            0.5127367619532356,
            0.4372788098468031,
            0.3488718598763205,
            4.677065295922119,
            -2.2176392223878563,
            2.920734623660299,
            5.887436704834959,
            0.23447240217239915,
            1.3964276459738019,
            -0.3613579002794094,
            0.6173811250339367,
            1.1275202778479414,
            -1.1480468485852502,
            2.2592036445184474,
            -5.833637524878224,
            2.8548311177388697,
            3.088916131971052
          ],
          [
            -0.3163485472928303,
            3.0256265519375787,
            -2.864385128906778,
            1.9527012994975546,
            1.0435964507898787,
            3.008272983155627,
            0.09651903033001406,
            -1.9747792600031813,
            -4.028057475315564,
            3.8669738960417366,
            2.546277130791162,
            -1.1673258167532246,
            -3.1261308780841484,
            -2.833291825432504,
            -0.9494107702077698,
            -0.3959922181083277,
            -2.18211801769529,
            -1.473897688324962,
            -3.0254217904306264,
            0.045762286556153164,
            -2.501823363983638,
            -1.7590637640315592,
            -2.101712321268941,
            -4.353895417861313,
            1.6560020053002424,
            -0.676378622949079,
            1.038513027161002,
            5.86853961636126,
            -1.9955420523449217,
            0.3539896842656789,
            -0.04707769347821933,
            0.9809132382801009,
            -0.16111844563893954,
            -1.2623666089246668,
            -1.3892919270351276,
            1.6834655574886277,
            -0.6219743094066325,
            1.8513238974723936,
            0.42871014430166615,
            -0.26695048626750983,
            2.9435794067227623,
            0.3834739117110797,
            2.295607143158751,
            3.111777255913285,
            -1.8640343275160287,
            1.3560097170060568,
            2.602688898874637,
            -0.14880933339092411,
            2.567848513648361,
            -1.850684322090662,
            -1.5212634129684972,
            -3.7569257480577485,
            -1.0210836482744279,
            -1.6960288068329927,
            3.4619028063900283,
            -4.1239990488827205,
            -0.28784860456087924,
            4.535885456725841,
            2.0915422693555095,
            -2.6261766753879607,
            -4.9803574368489185,
            -4.40444796054068,
            2.1313002853703416,
            0.8265994055312581,
            0.1904572609476505,
            1.8933540836868277,
            -1.9191110108281186,
            4.182603771807272
          ],
          [
            -2.1565619592589025,
            -0.9080533045696986,
            1.555983561771864,
            3.212383320839476,
            -0.2630861812806995,
            -1.3736860358773415,
            2.0040847816886966,
            -1.6181362613230834,
            -1.1793271363328188,
            -2.4591344542905738,
            2.219216784979102,
            -0.7561133274071523,
            1.5473930052703122,
            -5.959142918885609,
            1.1610341175282648,
            -0.5345341150545996,
            1.6449143808606779,
            -3.080494608248039,
            3.385159246036557,
            0.12851678943573663,
            -3.5600866142331973,
            1.1698539921921747,
            0.30197195628568935,
            2.5029547629458957,
            -0.48691451325352175,
            1.6452027422890942,
            1.1817347197892494,
            1.5478199453373502,
            -5.471417669596926,
            3.203475351021103,
            -0.37912069328604703,
            3.5156698147810523,
            2.4555178015235306,
            1.6658533849883608,
            2.5893190807414737,
            -0.7472518043636952,
            -3.3880691258228097,
            -1.0758128924814339,
            -1.0513733085744092,
            -2.3398703092053244,
            4.536798346465729,
            0.045942260828213344,
            3.0694043129681803,
            3.5600576403649327,
            1.3985972044529587,
            -0.2999786395903823,
            -0.44044540789822806,
            1.850392720194448,
            0.3985746510547975,
            -0.3097801245917371,
            1.2387364773325706,
            -0.60253467505591,
            -2.9787968618366016,
            -1.9425516307487418,
            -0.02573888832930029,
            2.4713024934495014,
            1.3135745472167668,
            -0.09370197005024253,
            -0.35880253230553416,
            -0.487388891771203,
            -0.21086518856680447,
            -1.5703500158078914,
            0.4085000846786874,
            4.09819808186504,
            -0.9209904347911706,
            -0.508892659715835,
            0.696984376541743,
            4.295968297003165
          ],
          [
            1.4036710887581205,
            2.5508004474611234,
            -1.6627871412276916,
            -2.1665512892181225,
            -0.5887387221361837,
            -3.9263240387904568,
            0.38556492054787683,
            -1.784856155988299,
            5.17936859828866,
            -2.1974066786047355,
            -0.25874552745332474,
            0.37515311308321975,
            -1.9143939365251867,
            1.1009799335925026,
            2.8611748430149158,
            3.794645356210698,
            2.9558841522453108,
            1.3343050493766215,
            1.652334983597251,
            2.9462577101096117,
            0.20698545541899396,
            -0.30733364293243715,
            1.3910504495268339,
            -2.304173126274,
            1.093117062582215,
            0.0993103757636924,
            1.2414235698921132,
            -2.2683106396208004,
            -1.4602279387495767,
            1.2872502110712143,
            0.12863824692986103,
            -1.2701287925503975,
            1.509309579417769,
            -0.43499116757768796,
            -4.586259456939085,
            0.08764177402039941,
            4.58656427481791,
            1.8952417452375787,
            -0.41300312225819663,
            -0.3301600200467486,
            2.439198713059545,
            3.3881277986845886,
            -0.5789925239464615,
            4.266575074671034,
            -2.0922855430524003,
            1.1512780832318135,
            -0.8072762859291475,
            -1.9546771161918208,
            1.0815200943097545,
            5.280163114254003,
            -4.214367943523891,
            1.138958819016246,
            2.1628522247392308,
            0.13905076008549083,
            3.252085713292075,
            0.5359546025200268,
            -1.2037387139122648,
            -2.458517390479278,
            -5.94321993797844,
            1.3057962333512634,
            2.0952595640747136,
            -1.0862220598404053,
            -5.39153755418382,
            -0.2776964962227825,
            -3.8753644838890007,
            1.4492676651304086,
            -0.3248715763350005,
            -0.8430843097099638
          ],
          [
            3.1014111317945106,
            1.9583395796821839,
            0.6277471986194776,
            -0.010220340679303302,
            -1.1800880445703839,
            -0.4708885555306634,
            -0.5415430944148962,
            -0.8519772264657832,
            -0.35523523729549655,
            -0.8054160907613644,
            -0.6619249120989055,
            -4.156107648201909,
            -0.10338364040798673,
            2.421576805504832,
            1.931287502573958,
            -0.5503632398294906,
            1.0385187918904402,
            1.4247787617136738,
            1.3987050787230342,
            -3.2630586733144815,
            1.7309769354735605,
            -2.1927047535081416,
            0.05613245048177079,
            0.38539141321723785,
            1.4988840381313406,
            -2.9087688703198413,
            -1.6753795972110213,
            -0.7684720736168711,
            2.6413974484448453,
            3.5664040067868057,
            -3.6330506973886636,
            -1.9611251167382533,
            0.3754794957143289,
            0.1243876542086251,
            1.3183811352270653,
            -1.8645271415045754,
            -1.5515729638249596,
            -1.166120005740967,
            0.6462847974902322,
            1.4300075176577125,
            -0.19376784744734163,
            0.8063161695734247,
            -0.30986108744443225,
            1.485958321677276,
            0.8432314659238525,
            0.30634420103314614,
            -1.418085246135858,
            0.29341990888342584,
            2.88750222688379,
            -3.056385607031439,
            -2.812692092090924,
            1.4523988423087282,
            2.0897820699430705,
            -0.0559269318526473,
            -0.5062224884084313,
            0.8845854979231486,
            3.4371564863581794,
            2.420453943562797,
            1.6591941910548815,
            0.8836422219288187,
            1.5947296214973197,
            0.3097789721181174,
            -2.0099494566447573,
            -1.7593384348573704,
            -0.8989747503543377,
